svm_type c_svc
kernel_type rbf
gamma 0.00012207
nr_class 2
total_sv 3
rho 0.0501748
label 1 0
nr_sv 1 2
SV
1822.421898761677 1:-9.87261 2:-9.86395 3:-10 4:-10 5:-9.95763 6:-9.94565 7:-9.8008 8:-9.79757 9:-9.82162 10:-9.82162 12:-3.33333 13:-6 15:-3.33333 16:-6 17:-9.56522 18:-9.31507 19:-9.35361 20:-9.52055 21:-10 22:10 23:10 24:10 25:10 26:10 27:10 28:-10 29:-10 30:10 31:10 32:10 33:10 34:10 35:10 37:-3.33333 38:-6 39:-10 40:-10 41:-10 42:-8.94737 43:-10 44:-10 45:-10 46:-8.94737 47:-10 48:-10 49:-10 50:10 51:-10 52:-10 53:-10 54:10 55:-10 56:-10 57:-10 58:-6.36364 59:-10 60:-10 61:-10 62:10 63:-10 
-0.5391314675584533 1:-10 2:-10 3:-9.74359 4:-9.78495 5:-9.78814 6:-9.83696 7:-9.92032 8:-9.91903 9:-9.91605 10:-9.91605 12:-3.33333 13:-6 15:-3.33333 16:-6 17:-10 18:-9.72603 19:-9.69582 20:-9.79452 21:-9.76744 22:10 23:10 24:10 25:-6.70198 26:-5.04155 27:-6.06262 28:-6.62791 29:-4.94186 30:10 31:10 32:10 33:10 34:10 35:10 37:-3.33333 38:-6 39:-10 40:-10 41:-10 42:-9.47368 43:-10 44:-10 45:-10 46:-9.47368 47:-10 48:-10 49:-10 50:10 51:-10 52:-10 53:-10 54:10 55:-10 56:-10 57:-10 58:-8.18182 59:-10 60:-10 61:-10 62:10 63:-10 
-1821.882767294119 1:-10 2:-10 3:-10 4:-10 5:-10 6:-10 7:-9.92032 8:-9.91903 9:-9.91605 10:-9.91605 12:-3.33333 13:-6 15:-3.33333 16:-6 17:-10 18:-9.72603 19:-9.69582 20:-9.79452 21:-10 22:10 23:10 24:10 25:10 26:10 27:10 28:-10 29:-10 30:10 31:10 32:10 33:10 34:10 35:10 37:-3.33333 38:-6 39:-10 40:-10 41:-10 42:-9.47368 43:-10 44:-10 45:-10 46:-9.47368 47:-10 48:-10 49:-10 50:10 51:-10 52:-10 53:-10 54:10 55:-10 56:-10 57:-10 58:-8.18182 59:-10 60:-10 61:-10 62:10 63:-10 
