svm_type c_svc
kernel_type rbf
gamma 3.05176e-05
nr_class 2
total_sv 978
rho -2.3131
label 1 -1
nr_sv 461 517
SV
128 1:-7.96875 2:-7.70833 3:-8.53821 4:-7.89474 5:-8.24289 6:-7.83784 7:-7.72871 8:-8.46154 9:10 10:10 11:10 12:10 13:10 14:10 15:-8.66667 16:-9.47368 17:-5.84524 18:-5.36585 19:-5.63275 20:-8.33997 21:-8.27652 22:-8.31207 23:-9.19399 24:-9.14787 25:-8.47027 26:-7.03134 27:10 28:10 29:10 30:-10 
128 1:-9.84375 2:-9.58333 3:-9.93355 4:-9.57895 5:-9.89664 6:-9.66216 7:-9.81073 8:-9.57265 9:3.33333 10:0.666667 11:-1.42857 12:3.33333 13:0.666667 14:-1.42857 15:-9.33333 16:-9.21053 17:10 18:3.17073 19:5.93548 20:3.31355 21:-3.40278 22:-1.15789 23:-0.0332226 24:-6.08421 25:10 26:3.25843 27:3.33333 28:0.666667 29:-1.42857 30:-10 
128 1:-5 2:-10 3:-6.74419 4:-9.36842 5:-5.4522 6:-9.59459 7:-5.33123 8:-10 9:10 10:10 11:10 12:-10 13:-10 14:-10 15:-10 16:-10 17:-9.55556 18:10 19:-9.12713 20:-9.83396 21:-7.23214 22:-9.66579 23:-9.66512 24:-7.23308 25:-9.832 26:10 27:-10 28:-10 29:-10 30:-10 
128 1:-8.28125 2:-9.375 3:-9.20266 4:-9.36842 5:-8.86305 6:-9.39189 7:-8.29653 8:-9.40171 9:10 10:10 11:10 12:3.33333 13:0.666667 14:-1.42857 15:-8.66667 16:-8.94737 17:-5.125 18:4.87805 19:-2.70161 20:-7.44291 21:-4.07292 22:-6.43254 23:-8.52287 24:-7.23308 25:-6.51071 26:2.41573 27:3.33333 28:0.666667 29:-1.42857 30:-10 
128 1:-6.09375 2:-5 3:-8.27243 4:-7.47368 5:-5.96899 6:-5.27027 7:-5.45741 8:-4.35897 9:10 10:10 11:10 12:10 13:10 14:10 15:-2.66667 16:-1.05263 17:-0.858974 18:-0.653659 19:-0.759013 20:-7.01236 21:-6.70628 22:-6.87074 23:-9.32324 24:-9.30105 25:-0.463014 26:0.340433 27:10 28:10 29:10 30:-9.25926 
128 1:-7.34375 2:-6.45833 3:-8.60465 4:-7.57895 5:-7.88114 6:-7.2973 7:-7.16088 8:-5.64103 9:10 10:10 11:10 12:10 13:10 14:10 15:-7.33333 16:-6.57895 17:-4.56481 18:-4.79675 19:-4.67742 20:-7.67133 21:-7.65244 22:-7.66443 23:-9.15433 24:-9.26754 25:-3.98261 26:-4.7796 27:10 28:10 29:10 30:-9.25926 
128 1:-9.53125 2:-8.125 3:-9.53488 4:-8.31579 5:-9.58656 6:-8.64865 7:-9.49527 8:-7.60684 9:10 10:10 11:10 12:10 13:10 14:10 15:-9.33333 16:-8.94737 17:-0.0833333 18:-6.39024 19:-4.51613 20:-5.60171 21:-8.18948 22:-7.40632 23:-7.55814 24:-8.9226 25:1.06667 26:-6.7377 27:10 28:10 29:10 30:-9.25926 
128 1:-8.28125 2:-9.375 3:-8.47176 4:-9.05263 5:-7.36434 6:-8.91892 7:-8.42271 8:-9.31624 9:10 10:10 11:10 12:10 13:10 14:10 15:-8 16:-7.89474 17:-3.44444 18:10 19:-0.16129 20:-8.51632 21:-5.37377 22:-7.75561 23:-9.23034 24:-8.09474 25:-3.14231 26:10 27:10 28:10 29:10 30:-10 
128 1:-4.84375 2:-8.95833 3:-6.6113 4:-9.26316 5:-4.26357 6:-8.71622 7:-4.13249 8:-8.71795 9:10 10:10 11:10 12:10 13:10 14:10 15:-7.33333 16:-6.84211 17:-7.20098 18:6.58537 19:-5.24194 20:-9.16384 21:-5.07813 22:-8.56268 23:-9.68055 24:-7.59211 25:-7.32021 26:6.20787 27:10 28:10 29:10 30:-9.25926 
128 1:-7.03125 2:-9.58333 3:-8.40532 4:-9.47368 5:-6.43411 6:-9.32432 7:-7.0347 8:-9.57265 9:10 10:10 11:10 12:10 13:10 14:10 15:-8.66667 16:-8.68421 17:-7.14167 18:10 19:-5.02104 20:-9.19966 21:-4.62121 22:-8.59649 23:-9.26379 24:-6.75439 25:-7.5875 26:10 27:10 28:10 29:10 30:-10 
128 1:-9.84375 2:-9.58333 3:-9.46844 4:-8.10526 5:-9.4832 6:-8.64865 7:-9.87382 8:-9.48718 9:-3.33333 10:-6 11:-7.14286 12:10 13:10 14:10 15:-9.33333 16:-9.47368 17:10 18:3.17073 19:5.93548 20:-6.41219 21:-8.18948 22:-7.57368 23:-7.83684 24:-9.04709 25:10 26:-1.55698 27:10 28:10 29:10 30:-10 
128 1:-3.75 2:-8.54167 3:-7.74086 4:-9.47368 5:-5.03876 6:-8.85135 7:-3.3123 8:-7.94872 9:10 10:10 11:10 12:10 13:10 14:10 15:-5.33333 16:-3.68421 17:-6.23171 18:10 19:-3.68664 20:-8.40497 21:-1.16898 22:-7.28989 23:-9.49312 24:-6.75439 25:-5.40374 26:10 27:10 28:10 29:10 30:-9.25926 
128 1:-8.4375 2:-8.125 3:-9.00332 4:-7.78947 5:-7.67442 6:-7.7027 7:-8.23344 8:-8.46154 9:10 10:10 11:10 12:10 13:10 14:10 15:-8.66667 16:-8.15789 17:-4.66667 18:-4.34146 19:-4.51613 20:-8.75113 21:-8.38095 22:-8.59649 23:-8.81229 24:-9.19139 25:-4.55517 26:-1.70905 27:10 28:10 29:10 30:-9.25926 
128 1:-7.65625 2:-8.54167 3:-8.27243 4:-8.94737 5:-7.62274 6:-8.24324 7:-7.35016 8:-8.11966 9:10 10:10 11:10 12:10 13:10 14:10 15:-5.33333 16:-4.21053 17:-0.0833333 18:10 19:3.22581 20:-6.64499 21:-4.14738 22:-5.74168 23:-9.32324 24:-8.27751 25:0.651163 26:10 27:10 28:10 29:10 30:-9.25926 
128 1:-8.59375 2:-2.29167 3:-9.00332 4:-4.31579 5:-8.08786 6:-1.62162 7:-7.98107 8:-2.30769 9:10 10:10 11:10 12:10 13:10 14:10 15:-4 16:-1.57895 17:10 18:-5.09628 19:-1.85484 20:-4.78057 21:-8.49583 22:-7.61989 23:-8.81229 24:-9.73971 25:10 26:-2.89048 27:10 28:10 29:10 30:-7.77778 
128 1:-9.53125 2:-6.875 3:-9.00332 4:-4.84211 5:-8.50129 6:-4.45946 7:-9.43218 8:-6.92308 9:10 10:10 11:10 12:10 13:10 14:10 15:-8 16:-7.63158 17:10 18:-5.36585 19:-2.19355 20:-7.38477 21:-9.13529 22:-8.66232 23:-8.81229 24:-9.70316 25:10 26:-4.75858 27:10 28:10 29:10 30:-10 
128 1:-8.28125 2:-9.16667 3:-8.80399 4:-9.15789 5:-7.9845 6:-8.98649 7:-8.5489 8:-8.97436 9:10 10:10 11:10 12:10 13:10 14:10 15:-9.33333 16:-9.73684 17:-6.80556 18:-2.29268 19:-5.5408 20:-9.05638 21:-7.59115 22:-8.64962 23:-9.01032 24:-7.87135 25:-8.425 26:-7.11322 27:10 28:10 29:10 30:-9.25926 
128 1:-4.375 2:-7.70833 3:-4.75083 4:-8.10526 5:-2.76486 6:-8.04054 7:-3.81703 8:-7.17949 9:10 10:10 11:10 12:10 13:10 14:10 15:-8 16:-8.15789 17:-7.98649 18:-3.65854 19:-7.00461 20:-9.49029 21:-7.42361 22:-9.1446 23:-9.81561 24:-9.04709 25:-8.47576 26:-5.46596 27:10 28:10 29:10 30:-9.25926 
128 1:-9.0625 2:-9.375 3:-9.33555 4:-9.36842 5:-9.27649 6:-9.32432 7:-9.2429 8:-9.65812 9:3.33333 10:0.666667 11:-1.42857 12:-3.33333 13:-6 14:-7.14286 15:-8.66667 16:-9.21053 17:-1.52381 18:4.87805 19:0.762463 20:-6.04748 21:-4.62121 22:-5.44939 23:-8.24222 24:-7.23308 25:-3.91538 26:5.95506 27:-3.33333 28:-6 29:-7.14286 30:-9.25926 
128 1:-9.84375 2:-9.375 3:-9.73422 4:-8.42105 5:-9.7416 6:-8.71622 7:-9.74763 8:-9.1453 9:10 10:10 11:10 12:10 13:10 14:10 15:-9.33333 16:-8.94737 17:10 18:-0.243902 19:3.22581 20:-3.3729 21:-8.09375 22:-6.99433 23:-6.05316 24:-8.84868 25:10 26:-1.03166 27:10 28:10 29:10 30:-10 
128 1:-7.96875 2:-8.125 3:-8.6711 4:-8.94737 5:-6.84755 6:-7.02703 7:-8.29653 8:-8.20513 9:10 10:10 11:10 12:10 13:10 14:10 15:-4.66667 16:-5.52632 17:2.79762 18:7.95122 19:4.91935 20:-7.14751 21:-6.08333 22:-6.70556 23:-9.1109 24:-8.27751 25:2.82143 26:6.32278 27:10 28:10 29:10 30:-9.25926 
128 1:-7.1875 2:-7.91667 3:-8.13953 4:-8.84211 5:-7.51938 6:-8.37838 7:-7.91798 8:-8.03419 9:10 10:10 11:10 12:10 13:10 14:10 15:-8.66667 16:-8.68421 17:-6.98246 18:-4.90022 19:-6.25806 20:-8.83122 21:-7.69167 22:-8.45576 23:-9.3745 24:-8.42982 25:-6.55294 26:-5.16854 27:10 28:10 29:10 30:-10 
128 1:-9.21875 2:-9.375 3:-9.33555 4:-8.94737 5:-8.91473 6:-8.91892 7:-9.2429 8:-9.40171 9:10 10:10 11:10 12:10 13:10 14:10 15:-9.33333 16:-8.94737 17:-3.44444 18:-0.243902 19:-2.19355 20:-8.23577 21:-7.73897 22:-8.02429 23:-8.24222 24:-8.27751 25:-2.36923 26:2.41573 27:10 28:10 29:10 30:-9.25926 
128 1:-3.4375 2:-8.33333 3:-3.28904 4:-8.84211 5:-2.9199 6:-8.31081 7:-3.05994 8:-8.63248 9:10 10:10 11:10 12:10 13:10 14:10 15:-7.33333 16:-8.15789 17:-7.82171 18:0.894309 19:-6.41439 20:-9.33256 21:-6.23798 22:-8.85956 23:-9.86972 24:-8.42982 25:-8.65135 26:-0.707204 27:10 28:10 29:10 30:-9.25926 
128 1:-8.75 2:-8.33333 3:-9.2691 4:-9.15789 5:-8.70801 6:-8.17568 7:-8.99054 8:-8.63248 9:10 10:10 11:10 12:3.33333 13:0.666667 14:-1.42857 15:-8 16:-8.94737 17:-1.2037 18:-1.38211 19:-1.29032 20:-6.97329 21:-7.23214 22:-7.10877 23:-8.39424 24:-7.87135 25:-4.18824 26:-4.27627 27:3.33333 28:0.666667 29:-1.42857 30:-9.25926 
128 1:-7.1875 2:-7.29167 3:-7.74086 4:-7.57895 5:-6.33075 6:-6.75676 7:-7.28707 8:-7.17949 9:10 10:10 11:10 12:10 13:10 14:10 15:-1.33333 16:-1.31579 17:4.69298 18:10 19:6.92082 20:-6.15892 21:-4.36012 22:-5.43662 23:-9.49312 24:-9.26754 25:5.43182 26:10 27:10 28:10 29:10 30:-4.81481 
128 1:-8.28125 2:-8.125 3:-8.33887 4:-8.10526 5:-8.29457 6:-8.31081 7:-8.10726 8:-8.03419 9:10 10:10 11:10 12:10 13:10 14:10 15:-6.66667 16:-5.78947 17:-0.0833333 18:1.80488 19:0.762463 20:-6.51946 21:-5.46474 22:-6.06737 23:-9.29466 24:-9.04709 25:0.922581 26:4.10112 27:10 28:10 29:10 30:-9.25926 
128 1:-7.03125 2:-9.58333 3:-8.47176 4:-9.78947 5:-7.62274 6:-9.72973 7:-7.0347 8:-9.48718 9:10 10:10 11:10 12:10 13:10 14:10 15:-8.66667 16:-8.42105 17:-7.14167 18:10 19:-5.02104 20:-8.77896 21:1.95833 22:-7.7668 23:-9.23034 24:-3.40351 25:-7.16875 26:10 27:10 28:10 29:10 30:-9.25926 
128 1:-2.8125 2:-9.79167 3:-4.75083 4:-9.89474 5:-3.22997 6:-9.86486 7:-3.43849 8:-9.91453 9:10 10:10 11:10 12:-10 13:-10 14:-10 15:-9.33333 16:-9.73684 17:-9.30851 18:10 19:-8.66359 20:-9.75542 21:3.29861 22:-9.48912 23:-9.81561 24:-0.0526316 25:-9.71714 26:10 27:-10 28:-10 29:-10 30:-10 
128 1:-7.8125 2:-8.95833 3:-8.73754 4:-9.05263 5:-8.39793 6:-9.12162 7:-7.53943 8:-8.46154 9:10 10:10 11:10 12:10 13:10 14:10 15:-9.33333 16:-8.94737 17:-7.47778 18:-3.65854 19:-6.45161 20:-8.80564 21:-7.23214 22:-8.33776 23:-9.06312 24:-8.09474 25:-7.5875 26:-4.90242 27:10 28:10 29:10 30:-10 
128 1:-9.53125 2:-10 3:-9.66777 4:-9.89474 5:-9.68992 6:-9.93243 7:-9.36909 8:-10 9:10 10:10 11:10 12:-10 13:-10 14:-10 15:-10 16:-10 17:-5.125 18:10 19:-2.19355 20:-7.19373 21:-0.0520833 22:-5.62105 23:-6.72204 24:-0.0526316 25:-8.27273 26:10 27:-10 28:-10 29:-10 30:-10 
128 1:-9.53125 2:-8.95833 3:-9.46844 4:-8.73684 5:-9.27649 6:-8.85135 7:-9.68454 8:-9.1453 9:3.33333 10:0.666667 11:-1.42857 12:3.33333 13:0.666667 14:-1.42857 15:-8.66667 16:-8.94737 17:4.95833 18:-0.243902 19:1.87097 20:-6.04748 21:-6.75347 22:-6.43254 23:-7.83684 24:-8.5587 25:6.65 26:-1.03166 27:3.33333 28:0.666667 29:-1.42857 30:-10 
128 1:-7.03125 2:-8.95833 3:-7.34219 4:-8.94737 5:-6.48579 6:-8.85135 7:-7.41325 8:-9.48718 9:10 10:10 11:10 12:-3.33333 13:-6 14:-7.14286 15:-8 16:-9.21053 17:-6.13333 18:3.17073 19:-4.06948 20:-8.89649 21:-5.63657 22:-8.23739 23:-9.57702 24:-8.27751 25:-8.18571 26:1.33226 27:-3.33333 28:-6 29:-7.14286 30:-9.25926 
128 1:-9.84375 2:-9.79167 3:-10 4:-10 5:-9.94832 6:-9.93243 7:-9.81073 8:-9.74359 9:3.33333 10:0.666667 11:-1.42857 12:3.33333 13:0.666667 14:-1.42857 15:-9.33333 16:-9.21053 17:10 18:10 19:10 20:10 21:10 22:10 23:10 24:10 25:10 26:10 27:3.33333 28:0.666667 29:-1.42857 30:-10 
128 1:-8.4375 2:-7.08333 3:-8.6711 4:-7.05263 5:-7.7261 6:-6.01351 7:-8.29653 8:-6.32479 9:10 10:10 11:10 12:10 13:10 14:10 15:-4.66667 16:-3.68421 17:6.33333 18:1.80488 19:3.7469 20:-6.04748 21:-7.08854 22:-6.6412 23:-9.1109 24:-9.41198 25:7.84643 26:1.2666 27:10 28:10 29:10 30:-9.25926 
128 1:-9.0625 2:-8.95833 3:-9.40199 4:-8.94737 5:-9.27649 6:-9.05405 7:-9.2429 8:-9.23077 9:3.33333 10:0.666667 11:-1.42857 12:3.33333 13:0.666667 14:-1.42857 15:-9.33333 16:-9.73684 17:-4.40476 18:-3.65854 19:-4.06948 20:-7.38477 21:-7.42361 22:-7.40632 23:-8.0598 24:-8.27751 25:-7.00769 26:-6.17978 27:3.33333 28:0.666667 29:-1.42857 30:-10 
128 1:-5 2:-3.54167 3:-8.00664 4:-7.47368 5:-6.22739 6:-5.40541 7:-6.40379 8:-3.76068 9:10 10:10 11:10 12:10 13:10 14:10 15:1.33333 16:-0.789474 17:0.833333 18:1.03659 19:0.933002 20:-5.18005 21:-4.8596 22:-5.02805 23:-9.41914 24:-9.30105 25:2.37586 26:-0.385667 27:10 28:10 29:10 30:-7.03704 
128 1:-7.34375 2:-10 3:-8.73754 4:-9.89474 5:-7.62274 6:-9.93243 7:-7.47634 8:-10 9:10 10:10 11:10 12:-10 13:-10 14:-10 15:-10 16:-10 17:-9.0463 18:10 19:-8.18336 20:-9.63255 21:-0.0520833 22:-9.26445 23:-9.06312 24:-0.0526316 25:-9.60976 26:10 27:-10 28:-10 29:-10 30:-10 
128 1:-7.03125 2:-8.33333 3:-7.87375 4:-7.68421 5:-6.53747 6:-7.22973 7:-7.0347 8:-8.20513 9:10 10:10 11:10 12:10 13:10 14:10 15:-5.33333 16:-4.73684 17:-2.1 18:7.72358 19:0.889878 20:-7.69942 21:-6.2748 22:-7.16287 23:-9.45837 24:-9.23112 25:-1.30625 26:9.08069 27:10 28:10 29:10 30:-9.25926 
128 1:-9.6875 2:-8.54167 3:-9.80066 4:-8.84211 5:-9.63824 6:-8.78378 7:-9.81073 8:-8.80342 9:-3.33333 10:-6 11:-7.14286 12:10 13:10 14:10 15:-8.66667 16:-9.21053 17:10 18:-2.80488 19:0.762463 20:-2.53709 21:-6.92982 22:-5.62105 23:-5.04983 24:-8.42982 25:10 26:-4.83146 27:10 28:10 29:10 30:-10 
128 1:-6.875 2:-9.375 3:-7.54153 4:-9.26316 5:-6.02067 6:-9.05405 7:-7.0347 8:-9.1453 9:10 10:10 11:10 12:10 13:10 14:10 15:-8 16:-7.36842 17:-6.3254 18:10 19:-3.81935 20:-9.03066 21:-4.74306 22:-8.35654 23:-9.53838 24:-7.59211 25:-5.49375 26:10 27:10 28:10 29:10 30:-10 
128 1:-9.53125 2:-9.375 3:-9.46844 4:-9.15789 5:-8.86305 6:-8.51351 7:-9.49527 8:-9.23077 9:10 10:10 11:10 12:10 13:10 14:10 15:-8.66667 16:-8.42105 17:4.95833 18:4.87805 19:4.91935 20:-7.44291 21:-7.48188 22:-7.46453 23:-7.83684 24:-7.87135 25:5.53333 26:3.93258 27:10 28:10 29:10 30:-9.25926 
128 1:-6.09375 2:-6.45833 3:-7.00997 4:-6 5:-6.07235 6:-5.87838 7:-5.83596 8:-6.32479 9:10 10:10 11:10 12:10 13:10 14:10 16:0.526316 17:2.24359 18:7.72358 19:4.45748 20:-5.89117 21:-4.91599 22:-5.46051 23:-9.63022 24:-9.58974 25:2.2 26:8.62104 27:10 28:10 29:10 30:-0.37037 
128 1:-9.53125 2:-10 3:-9.60133 4:-9.89474 5:-9.63824 6:-9.93243 7:-9.68454 8:-10 9:3.33333 10:0.666667 11:-1.42857 12:-10 13:-10 14:-10 15:-10 16:-10 17:-5.125 18:10 19:-2.19355 20:-7.55193 21:-0.0520833 22:-6.06737 23:-7.19981 24:-0.0526316 25:-6.75 26:10 27:-10 28:-10 29:-10 30:-10 
128 1:-4.84375 2:-6.875 3:-7.9402 4:-8.84211 5:-6.48579 6:-7.97297 7:-4.57413 8:-7.00855 9:10 10:10 11:10 12:10 13:10 14:10 15:-7.33333 16:-7.36842 17:-7.20098 18:-4.08537 19:-6.25806 20:-8.60577 21:-6.86156 22:-8.07579 23:-9.43937 24:-8.42982 25:-7.55862 26:-4.04494 27:10 28:10 29:10 30:-10 
128 1:-7.96875 2:-9.79167 3:-8.60465 4:-9.57895 5:-7.93282 6:-9.72973 7:-7.7918 8:-9.82906 9:10 10:10 11:10 12:-3.33333 13:-6 14:-7.14286 15:-10 16:-10 17:-8.72619 18:-0.243902 19:-7.78226 20:-9.57009 21:-6.08333 22:-9.21098 23:-9.15433 24:-6.08421 25:-9.54167 26:-3.48315 27:-3.33333 28:-6 29:-7.14286 30:-10 
128 1:-0.625 2:-6.45833 3:-3.0897 4:-7.26316 5:0.956072 6:-5.54054 7:-1.04101 8:-7.00855 9:10 10:10 11:10 12:10 13:10 14:10 15:1.33333 16:-0.789474 17:-4.21585 18:10 19:-1.06166 20:-8.36419 21:-4.70305 22:-7.50195 23:-9.87534 24:-9.36062 25:-5.03986 26:10 27:10 28:10 29:10 30:-7.03704 
128 1:-2.96875 2:-9.58333 3:-6.6113 4:-9.47368 5:-3.38501 6:-9.52703 7:-2.68139 8:-9.40171 9:10 10:10 11:10 12:10 13:10 14:10 15:-10 16:-10 17:-9.72826 18:-3.65854 19:-9.49309 20:-9.90385 21:-7.59115 22:-9.79101 23:-9.68055 24:-6.75439 25:-9.92821 26:-7.69663 27:10 28:10 29:10 30:-10 
128 1:-5.78125 2:-8.75 3:-7.14286 4:-8.73684 5:-6.43411 6:-8.85135 7:-5.77287 8:-8.97436 9:10 10:10 11:10 12:3.33333 13:0.666667 14:-1.42857 15:-8.66667 16:-9.21053 17:-8.00595 18:-1.70732 19:-6.83871 20:-9.19966 21:-6.75347 22:-8.71483 23:-9.61039 24:-8.5587 25:-8.91765 26:-4.00173 27:3.33333 28:0.666667 29:-1.42857 30:-8.51852 
128 1:-9.84375 2:-9.375 3:-9.86711 4:-8.84211 5:-9.89664 6:-9.12162 7:-9.93691 8:-9.31624 9:-10 10:-10 11:-10 12:10 13:10 14:10 15:-10 16:-10 17:-0.0833333 18:-5.36585 19:-3.54839 20:-3.3729 21:-8.66815 22:-7.72136 23:-3.37763 24:-8.42982 25:-0.05 26:-7.97753 27:10 28:10 29:10 30:-10 
128 1:-2.03125 2:-8.33333 3:-8.20598 4:-9.36842 5:-3.95349 6:-8.64865 7:-1.79811 8:-8.54701 9:10 10:10 11:10 12:10 13:10 14:10 15:-4.66667 16:-5.52632 17:-6.67628 18:10 19:-4.32575 20:-8.5294 21:-1.4881 22:-7.48338 23:-9.34979 24:-7.23308 25:-7.33817 26:10 27:10 28:10 29:10 30:-8.51852 
128 1:-3.75 2:-6.25 3:-7.74086 4:-8.21053 5:-5.03876 6:-6.41892 7:-3.3123 8:-6.49573 9:10 10:10 11:10 12:10 13:10 14:10 16:-0.263158 17:-2.29675 18:6.76508 19:0.516129 20:-6.75059 21:-4.14738 22:-5.82795 23:-9.49312 24:-8.9883 25:-2.96168 26:8.07384 27:10 28:10 29:10 30:-5.55556 
128 1:-9.53125 2:-9.375 3:-9.73422 4:-9.57895 5:-9.43152 6:-9.25676 7:-9.30599 8:-9.05983 9:10 10:10 11:10 12:10 13:10 14:10 15:-8 16:-7.10526 17:10 18:10 19:10 20:-3.3729 21:-3.40278 22:-3.38947 23:-6.05316 24:-6.08421 25:10 26:10 27:10 28:10 29:10 30:-10 
128 1:-7.34375 2:-6.875 3:-8.93688 4:-7.89474 5:-8.13953 6:-7.22973 7:-7.41325 8:-6.49573 9:10 10:10 11:10 12:10 13:10 14:10 15:-5.33333 16:-5 17:-1.2037 18:-0.243902 19:-0.759013 20:-5.72219 21:-6.2748 22:-6.01652 23:-8.88607 24:-9.14787 25:-0.528571 26:-0.5939 27:10 28:10 29:10 30:-9.25926 
128 1:-8.28125 2:-9.375 3:-8.60465 4:-9.15789 5:-8.29457 6:-9.12162 7:-8.35962 8:-9.40171 9:10 10:10 11:10 12:10 13:10 14:10 15:-8 16:-8.15789 17:-3.44444 18:10 19:-0.16129 20:-7.69942 21:-4.36012 22:-6.73684 23:-9.15433 24:-7.87135 25:-4.14444 26:10 27:10 28:10 29:10 30:-9.25926 
128 1:-7.65625 2:-8.75 3:-9.13621 4:-8.94737 5:-7.77778 6:-8.44595 7:-7.66562 8:-8.54701 9:10 10:10 11:10 12:10 13:10 14:10 15:-6.66667 16:-6.05263 17:-2.60417 18:7.07317 19:0.280505 20:-7.32398 21:-5.07813 22:-6.53994 23:-8.63313 24:-8.27751 25:-1.63684 26:7.75281 27:10 28:10 29:10 30:-9.25926 
128 1:-6.25 2:-7.91667 3:-8.40532 4:-9.15789 5:-7.77778 6:-8.85135 7:-6.2776 8:-7.26496 9:10 10:10 11:10 12:10 13:10 14:10 15:-8.66667 16:-8.94737 17:-7.74667 18:-4.90022 19:-6.93548 20:-8.69166 21:-6.75347 22:-8.14058 23:-9.26379 24:-7.87135 25:-8.425 26:-7.16037 27:10 28:10 29:10 30:-10 
128 1:-9.53125 2:-9.58333 3:-9.60133 4:-9.36842 5:-9.43152 6:-9.32432 7:-9.36909 8:-9.40171 9:10 10:10 11:10 12:10 13:10 14:10 15:-8.66667 16:-8.15789 17:4.95833 18:10 19:7.09677 20:-5.04451 21:-4.62121 22:-4.84485 23:-7.19981 24:-7.23308 25:4.51818 26:10 27:10 28:10 29:10 30:-9.25926 
128 1:-9.6875 2:-6.66667 3:-9.80066 4:-6.94737 5:-9.79328 6:-6.75676 7:-9.68454 8:-6.32479 9:3.33333 10:0.666667 11:-1.42857 12:10 13:10 14:10 15:-9.33333 16:-9.47368 17:3.27778 18:-8.07747 19:-6.25806 20:-2.03561 21:-9.28359 22:-8.59649 23:-5.04983 24:-9.43509 25:-0.05 26:-8.84576 27:10 28:10 29:10 30:-10 
128 1:-9.21875 2:-7.5 3:-9.60133 4:-8.94737 5:-9.06977 6:-7.90541 7:-8.99054 8:-6.66667 9:10 10:10 11:10 12:10 13:10 14:10 15:-6.66667 16:-5.78947 17:10 18:-1.03189 19:2.51273 20:-3.72482 21:-6.33464 22:-5.35851 23:-7.19981 24:-8.27751 25:10 26:-1.62921 27:10 28:10 29:10 30:-9.25926 
128 1:-6.875 2:-8.75 3:-7.9402 4:-8.84211 5:-6.02067 6:-8.31081 7:-6.40379 8:-8.88889 9:10 10:10 11:10 12:10 13:10 14:10 15:-6 16:-6.57895 17:-3.44444 18:10 19:-0.16129 20:-8.25915 21:-4.69151 22:-7.38057 23:-9.43937 24:-8.42982 25:-5.24828 26:10 27:10 28:10 29:10 30:-10 
128 1:-9.0625 2:-9.58333 3:-9.46844 4:-9.57895 5:-9.37984 6:-9.59459 7:-8.92744 8:-9.57265 9:10 10:10 11:10 12:3.33333 13:0.666667 14:-1.42857 15:-9.33333 16:-9.47368 17:-4.40476 18:3.17073 19:-2.19355 20:-6.97329 21:-4.36012 22:-6.06737 23:-7.83684 24:-6.08421 25:-6.75 26:-0.11236 27:3.33333 28:0.666667 29:-1.42857 30:-10 
128 1:-9.375 2:-8.33333 3:-9.40199 4:-8.31579 5:-9.12145 6:-8.24324 7:-9.62145 8:-8.46154 9:-3.33333 10:-6 11:-7.14286 12:10 13:10 14:10 15:-8 16:-8.68421 17:5.96667 18:-1.38211 19:1.29032 20:-5.60171 21:-7.12577 22:-6.51368 23:-8.0598 24:-8.9226 25:7.12857 26:-3.83797 27:10 28:10 29:10 30:-10 
128 1:-9.375 2:-9.16667 3:-9.46844 4:-9.15789 5:-8.81137 6:-8.44595 7:-9.36909 8:-9.1453 9:10 10:10 11:10 12:10 13:10 14:10 15:-7.33333 16:-7.36842 17:10 18:10 19:10 20:-5.88032 21:-5.9158 22:-5.9 23:-7.83684 24:-7.87135 25:10 26:10 27:10 28:10 29:10 30:-9.25926 
128 1:-9.21875 2:-9.58333 3:-9.40199 4:-8.94737 5:-9.27649 6:-9.32432 7:-9.11672 8:-9.40171 9:10 10:10 11:10 12:10 13:10 14:10 15:-10 16:-10 17:-6.80556 18:-3.65854 19:-5.80645 20:-8.72206 21:-8.27652 22:-8.53927 23:-8.0598 24:-8.27751 25:-8.76 26:-7.69663 27:10 28:10 29:10 30:-10 
128 1:-9.6875 2:-8.125 3:-9.86711 4:-9.26316 5:-9.58656 6:-8.51351 7:-9.74763 8:-8.88889 9:3.33333 10:0.666667 11:-1.42857 12:3.33333 13:0.666667 14:-1.42857 15:-8.66667 16:-8.94737 17:10 18:-4.34146 19:-0.942928 20:-3.3729 21:-7.48188 22:-6.31842 23:-3.37763 24:-7.59211 25:10 26:-3.00161 27:3.33333 28:0.666667 29:-1.42857 30:-10 
128 1:-8.90625 2:-9.375 3:-9.40199 4:-9.78947 5:-9.17313 6:-9.45946 7:-8.80126 8:-9.31624 9:10 10:10 11:10 12:10 13:10 14:10 15:-8 16:-7.89474 17:-0.0833333 18:10 19:3.22581 20:-5.3395 21:-1.16898 22:-3.90445 23:-8.0598 24:-3.40351 25:-1.055 26:10 27:10 28:10 29:10 30:-9.25926 
128 1:-5.3125 2:-7.5 3:-6.87708 4:-9.68421 5:-6.22739 6:-9.05405 7:-5.89905 8:-7.60684 9:10 10:10 11:10 12:10 13:10 14:10 15:-5.33333 16:-5.26316 17:-4.96237 18:2.12008 19:-2.93255 20:-7.89077 21:0.618056 22:-6.47357 23:-9.64839 24:-5.07895 25:-4.31364 26:3.02596 27:10 28:10 29:10 30:-8.51852 
128 1:-9.375 2:-9.58333 3:-9.20266 4:-9.05263 5:-8.86305 6:-8.91892 7:-9.43218 8:-9.74359 9:3.33333 10:0.666667 11:-1.42857 12:-3.33333 13:-6 14:-7.14286 15:-8.66667 16:-9.21053 17:1.93333 18:10 19:4.91935 20:-7.44291 21:-6.55637 22:-7.07158 23:-8.52287 24:-8.09474 25:-2.06 26:10 27:-3.33333 28:-6 29:-7.14286 30:-8.51852 
128 1:-8.28125 2:-9.79167 3:-8.80399 4:-9.57895 5:-8.19121 6:-9.52703 7:-8.10726 8:-9.65812 9:10 10:10 11:10 12:3.33333 13:0.666667 14:-1.42857 15:-9.33333 16:-8.94737 17:-6.80556 18:10 19:-4.51613 20:-8.94494 21:-5.07813 22:-8.25837 23:-9.01032 24:-6.08421 25:-6.85806 26:10 27:3.33333 28:0.666667 29:-1.42857 30:-10 
128 1:-9.53125 2:-7.29167 3:-9.53488 4:-7.78947 5:-9.27649 6:-6.75676 7:-9.55836 8:-7.26496 9:3.33333 10:0.666667 11:-1.42857 12:10 13:10 14:10 15:-8 16:-8.15789 17:10 18:-4.63415 19:-1.29032 20:-4.71019 21:-8.46301 22:-7.57368 23:-7.55814 24:-9.19139 25:10 26:-5.32176 27:10 28:10 29:10 30:-10 
128 1:-9.21875 2:-7.70833 3:-9.2691 4:-7.15789 5:-9.22481 6:-7.36486 7:-9.2429 8:-8.37607 9:10 10:10 11:10 12:10 13:10 14:10 15:-9.33333 16:-8.94737 17:-3.44444 18:-7.07317 19:-5.80645 20:-7.55193 21:-9.09896 22:-8.64962 23:-8.39424 24:-9.38722 25:-2.36923 26:-5.16854 27:10 28:10 29:10 30:-10 
128 1:-9.84375 2:-9.79167 3:-8.87043 4:-8.21053 5:-9.01809 6:-8.71622 7:-9.68454 8:-9.57265 9:10 10:10 11:10 12:10 13:10 14:10 15:-9.33333 16:-8.68421 17:10 18:10 19:10 20:-8.05341 21:-8.09375 22:-8.07579 23:-8.95164 24:-8.9883 25:10 26:10 27:10 28:10 29:10 30:-10 
128 1:-9.375 2:-8.75 3:-9.33555 4:-8 5:-9.4832 6:-8.64865 7:-9.17981 8:-8.46154 9:10 10:10 11:10 12:10 13:10 14:10 15:-10 16:-9.73684 17:-6.13333 18:-7.56098 19:-6.93548 20:-8.23577 21:-9.14683 22:-8.82895 23:-8.24222 24:-9.1 25:-7.22857 26:-8.0958 27:10 28:10 29:10 30:-10 
128 1:-9.375 2:-9.16667 3:-9.46844 4:-9.05263 5:-9.53488 6:-9.25676 7:-9.55836 8:-8.97436 9:3.33333 10:0.666667 11:-1.42857 12:10 13:10 14:10 15:-9.33333 16:-9.47368 17:-2.1 18:-2.29268 19:-2.19355 20:-6.04748 21:-6.75347 22:-6.43254 23:-7.83684 24:-8.09474 25:-2.5625 26:-5.55748 27:10 28:10 29:10 30:-10 
128 1:-7.1875 2:-9.58333 3:-7.47508 4:-9.47368 5:-5.55556 6:-9.52703 7:-7.47634 8:-9.40171 9:10 10:10 11:10 12:3.33333 13:0.666667 14:-1.42857 15:-9.33333 16:-8.94737 17:-8.04386 18:3.17073 19:-6.62757 20:-9.59821 21:-5.07813 22:-9.23856 23:-9.55192 24:-6.75439 25:-7.64878 26:2.41573 27:3.33333 28:0.666667 29:-1.42857 30:-10 
128 1:-9.6875 2:-8.125 3:-9.93355 4:-8.94737 5:-9.89664 6:-9.12162 7:-9.62145 8:-7.77778 9:3.33333 10:0.666667 11:-1.42857 12:10 13:10 14:10 15:-9.33333 16:-9.21053 17:3.27778 18:-6.39024 19:-4.06948 20:3.31355 21:-7.23214 22:-5.35851 23:-0.0332226 24:-8.27751 25:1.38571 26:-7.22846 27:10 28:10 29:10 30:-10 
128 1:-9.0625 2:-9.16667 3:-8.20598 4:-9.05263 5:-7.9845 6:-9.32432 7:-8.99054 8:-8.80342 9:10 10:10 11:10 12:10 13:10 14:10 15:-10 16:-9.73684 17:-7.28571 18:-6.39024 19:-6.93548 20:-9.55786 21:-8.27652 22:-9.29659 23:-9.34979 24:-8.09474 25:-7.73529 26:-7.52809 27:10 28:10 29:10 30:-10 
128 1:-6.40625 2:-4.375 3:-8.13953 4:-3.05263 5:-6.9509 6:-2.43243 7:-7.09779 8:-3.58974 9:10 10:10 11:10 12:10 13:10 14:10 15:-8.66667 16:-8.94737 17:-7.64583 18:-8.29268 19:-7.97767 20:-9.05638 21:-9.57043 22:-9.38765 23:-9.3745 24:-9.80518 25:-7.9617 26:-8.89415 27:10 28:10 29:10 30:-9.25926 
128 1:-2.8125 2:-8.125 3:-5.28239 4:-8.31579 5:-4.52196 6:-8.58108 7:-2.23975 8:-7.4359 9:10 10:10 11:10 12:10 13:10 14:10 15:-9.33333 16:-8.68421 17:-9.30851 18:-6.39024 19:-8.89643 20:-9.68441 21:-8.27652 22:-9.46144 23:-9.78774 24:-8.9226 25:-9.12742 26:-6.31026 27:10 28:10 29:10 30:-10 
128 1:-5.15625 2:-8.33333 3:-7.27575 4:-7.47368 5:-3.43669 6:-6.62162 7:-4.19558 8:-7.94872 9:10 10:10 11:10 12:10 13:10 14:10 15:-6 16:-5.26316 17:-5.75521 18:5.44715 19:-3.38316 20:-8.96235 21:-7.34477 22:-8.51338 23:-9.58867 24:-9.30105 25:-5.99355 26:5.14607 27:10 28:10 29:10 30:-9.25926 
128 1:-8.90625 2:-8.33333 3:-9.20266 4:-8.63158 5:-7.9845 6:-7.16216 7:-8.80126 8:-8.20513 9:10 10:10 11:10 12:10 13:10 14:10 15:-5.33333 16:-5 17:10 18:7.72358 19:8.80455 20:-6.04748 21:-6.36386 22:-6.21256 23:-8.52287 24:-8.66917 25:10 26:8.16139 27:10 28:10 29:10 30:-6.2963 
128 1:-8.59375 2:-5.20833 3:-9.66777 4:-8.31579 5:-8.39793 6:-5 7:-8.80126 8:-5.38462 9:10 10:10 11:10 12:10 13:10 14:10 15:-4 16:-5 17:10 18:-1.95122 19:1.63188 20:-3.7908 21:-7.42361 22:-6.33015 23:-6.72204 24:-8.9226 25:10 26:-2.87028 27:10 28:10 29:10 30:-7.77778 
128 1:-2.96875 2:-8.54167 3:-6.6113 4:-9.26316 5:-2.1447 6:-7.7027 7:-2.6183 8:-8.88889 9:10 10:10 11:10 12:-3.33333 13:-6 14:-7.14286 15:-5.33333 16:-6.57895 17:-6.65942 18:10 19:-4.30108 20:-9.01049 21:-5.50893 22:-8.37492 23:-9.68055 24:-7.59211 25:-7.71525 26:10 27:-3.33333 28:-6 29:-7.14286 30:-8.51852 
128 1:-8.4375 2:-7.91667 3:-8.33887 4:-7.36842 5:-7.05426 6:-6.14865 7:-8.42271 8:-7.86325 9:10 10:10 11:10 12:10 13:10 14:10 15:-3.33333 16:-3.42105 17:10 18:10 19:10 20:-6.25499 21:-6.29131 22:-6.27514 23:-9.29466 24:-9.33198 25:10 26:10 27:10 28:10 29:10 30:-8.51852 
128 1:-7.96875 2:-6.45833 3:-8.07309 4:-5.26316 5:-7.41602 6:-4.45946 7:-7.98107 8:-6.5812 9:10 10:10 11:10 12:10 13:10 14:10 15:-6 16:-5.78947 17:-0.0833333 18:-2.52033 19:-1.43145 20:-7.3061 21:-8.40863 22:-7.98586 23:-9.39756 24:-9.66819 25:0.254545 26:-1.83886 27:10 28:10 29:10 30:-8.51852 
128 1:-3.75 2:-9.58333 3:-6.6113 4:-9.68421 5:-3.64341 6:-9.52703 7:-3.43849 8:-9.57265 9:10 10:10 11:10 12:-3.33333 13:-6 14:-7.14286 15:-8.66667 16:-8.68421 17:-8.69106 18:10 19:-7.55132 20:-9.57404 21:-2.5651 22:-9.17129 23:-9.68055 24:-5.07895 25:-8.95143 26:10 27:-3.33333 28:-6 29:-7.14286 30:-10 
128 1:-8.75 2:-4.58333 3:-9.06977 4:-4.94737 5:-8.70801 6:-4.72973 7:-8.61199 8:-4.78632 9:10 10:10 11:10 12:10 13:10 14:10 15:-8 16:-7.63158 17:-1.2037 18:-7.45257 19:-5.80645 20:-6.97329 21:-9.08623 22:-8.55398 23:-8.72868 24:-9.69495 25:-1.36087 26:-6.96267 27:10 28:10 29:10 30:-9.25926 
128 1:-4.0625 2:-6.875 3:-5.01661 4:-5.68421 5:-0.645995 6:-4.12162 7:-4.19558 8:-6.41026 9:10 10:10 11:10 12:10 13:10 14:10 15:-1.33333 16:-1.05263 17:-2.92735 18:7.43902 19:0.0234604 20:-8.51632 21:-6.90578 22:-8.0014 23:-9.80241 24:-9.62657 25:-2.53548 26:6.23726 27:10 28:10 29:10 30:-7.77778 
128 1:-7.96875 2:-8.54167 3:-8.40532 4:-8.42105 5:-7.4677 6:-8.44595 7:-7.85489 8:-8.46154 9:10 10:10 11:10 12:10 13:10 14:10 15:-8.66667 16:-7.63158 17:-5.84524 18:-2.80488 19:-4.78006 20:-8.85579 21:-7.59115 22:-8.45576 23:-9.26379 24:-8.84868 25:-4.35714 26:0.41987 27:10 28:10 29:10 30:-10 
128 1:-10 2:-9.58333 3:-9.73422 4:-8.84211 5:-9.79328 6:-9.18919 7:-9.93691 8:-9.23077 9:-3.33333 10:-6 11:-7.14286 12:10 13:10 14:10 15:-10 16:-9.73684 17:10 18:-3.65854 19:-0.16129 20:-6.04748 21:-8.55769 22:-7.85263 23:-6.05316 24:-8.42982 25:10 26:-6.17978 27:10 28:10 29:10 30:-10 
128 1:-9.84375 2:-9.79167 3:-9.86711 4:-9.78947 5:-9.79328 6:-9.72973 7:-9.81073 8:-9.74359 9:-3.33333 10:-6 11:-7.14286 12:-3.33333 13:-6 14:-7.14286 15:-9.33333 16:-9.21053 17:10 18:10 19:10 20:-2.03561 21:-2.0625 22:-2.05053 23:-3.37763 24:-3.40351 25:10 26:10 27:-3.33333 28:-6 29:-7.14286 30:-10 
128 1:-9.53125 2:-7.70833 3:-9.86711 4:-8.31579 5:-9.7416 6:-8.24324 7:-9.49527 8:-6.83761 9:10 10:10 11:10 12:10 13:10 14:10 15:-8 16:-7.89474 17:10 18:-3.65854 19:-0.16129 20:3.31355 21:-7.12577 22:-5.21531 23:-3.37763 24:-8.9226 25:10 26:-5.43465 27:10 28:10 29:10 30:-10 
128 1:-8.59375 2:-9.375 3:-9.33555 4:-9.26316 5:-8.55297 6:-9.18919 7:-8.42271 8:-8.97436 9:10 10:10 11:10 12:10 13:10 14:10 15:-8.66667 16:-7.63158 17:-4.11667 18:4.87805 19:-1.6129 20:-7.98424 21:-5.46474 22:-7.21504 23:-8.24222 24:-7.59211 25:-2.36923 26:5.33276 27:10 28:10 29:10 30:-10 
128 1:-8.28125 2:-9.79167 3:-8.6711 4:-9.89474 5:-8.29457 6:-9.7973 7:-7.7918 8:-9.74359 9:10 10:10 11:10 12:-3.33333 13:-6 14:-7.14286 15:-9.33333 16:-9.21053 17:-6.80556 18:10 19:-4.51613 20:-8.87939 21:-0.0520833 22:-7.97008 23:-9.1109 24:-0.0526316 25:-7.86667 26:10 27:-3.33333 28:-6 29:-7.14286 30:-10 
128 1:-10 2:-10 3:-9.66777 4:-9.47368 5:-9.7416 6:-9.66216 7:-9.93691 8:-9.91453 9:-3.33333 10:-6 11:-7.14286 12:-3.33333 13:-6 14:-7.14286 15:-10 16:-9.73684 17:10 18:10 19:10 20:-6.71612 21:-6.75347 22:-6.73684 23:-6.72204 24:-6.75439 25:10 26:10 27:-3.33333 28:-6 29:-7.14286 30:-10 
128 1:-10 2:-10 3:-9.40199 4:-9.05263 5:-9.53488 6:-9.39189 7:-9.93691 8:-9.91453 9:-3.33333 10:-6 11:-7.14286 12:-3.33333 13:-6 14:-7.14286 15:-10 16:-9.73684 17:10 18:10 19:10 20:-8.05341 21:-8.09375 22:-8.07579 23:-8.0598 24:-8.09474 25:10 26:10 27:-3.33333 28:-6 29:-7.14286 30:-10 
128 1:-1.875 2:-8.95833 3:-2.49169 4:-8.84211 5:-0.0258398 6:-8.58108 7:-1.79811 8:-8.71795 9:10 10:10 11:10 12:10 13:10 14:10 15:-7.33333 16:-7.10526 17:-8.26415 18:6.58537 19:-6.87808 20:-9.54235 21:-5.53504 22:-9.15439 23:-9.89042 24:-8.42982 25:-8.25878 26:4.94382 27:10 28:10 29:10 30:-10 
128 1:-8.28125 2:-8.75 3:-8.27243 4:-9.05263 5:-8.08786 6:-8.85135 7:-8.5489 8:-8.71795 9:10 10:10 11:10 12:3.33333 13:0.666667 14:-1.42857 15:-7.33333 16:-7.63158 17:-1.76389 18:4.14634 19:0.373514 20:-7.41996 21:-4.51968 22:-6.49774 23:-9.32324 24:-8.09474 25:-1.725 26:2.41573 27:3.33333 28:0.666667 29:-1.42857 30:-9.25926 
128 1:-7.8125 2:-9.79167 3:-8.47176 4:-9.68421 5:-7.57106 6:-9.52703 7:-7.47634 8:-9.74359 9:10 10:10 11:10 12:-3.33333 13:-6 14:-7.14286 15:-9.33333 16:-9.21053 17:-7.47778 18:10 19:-5.5408 20:-9.22354 21:-5.07813 22:-8.64962 23:-9.23034 24:-5.07895 25:-8.13902 26:10 27:-3.33333 28:-6 29:-7.14286 30:-10 
128 1:-7.8125 2:-5.41667 3:-6.67774 4:-2.42105 5:-5.50388 6:-1.14865 7:-7.85489 8:-5.29915 9:10 10:10 11:10 12:10 13:10 14:10 15:-0.666667 16:-1.05263 17:10 18:2.87381 19:5.72156 20:-6.64014 21:-7.8196 22:-7.34545 23:-9.67299 24:-9.82985 25:10 26:2.41573 27:10 28:10 29:10 30:-7.03704 
128 1:-9.53125 2:-9.375 3:-9.40199 4:-8.84211 5:-9.27649 6:-8.98649 7:-9.17981 8:-8.88889 9:10 10:10 11:10 12:10 13:10 14:10 15:-8.66667 16:-7.63158 17:4.95833 18:4.87805 19:4.91935 20:-6.04748 21:-6.33464 22:-6.19694 23:-8.0598 24:-8.42982 25:4.25714 26:4.22151 27:10 28:10 29:10 30:-10 
128 1:-7.5 2:-8.125 3:-8.27243 4:-0.736842 5:-7.36434 6:-2.5 7:-7.0347 8:-7.00855 9:10 10:10 11:10 12:10 13:10 14:10 15:-9.33333 16:-8.68421 17:-7.79412 18:-6.39024 19:-7.31183 20:-9.28783 21:-9.74516 22:-9.59435 23:-9.32324 24:-9.87936 25:-7.5875 26:-6.85393 27:10 28:10 29:10 30:-10 
128 1:-7.96875 2:-8.75 3:-8.40532 4:-8.31579 5:-7.82946 6:-8.37838 7:-7.41325 8:-8.37607 9:10 10:10 11:10 12:10 13:10 14:10 15:-6.66667 16:-5.78947 17:-1.52381 18:7.07317 19:1.29032 20:-7.26037 21:-5.27917 22:-6.53994 23:-9.26379 24:-8.9226 25:-1.96429 26:6.96629 27:10 28:10 29:10 30:-9.25926 
128 1:-9.53125 2:-8.75 3:-9.46844 4:-8.63158 5:-9.37984 6:-8.78378 7:-9.43218 8:-8.63248 9:10 10:10 11:10 12:10 13:10 14:10 15:-8 16:-7.63158 17:10 18:1.21951 19:4.45748 20:-3.88724 21:-5.87171 22:-5.06316 23:-7.83684 24:-8.66917 25:10 26:1.67217 27:10 28:10 29:10 30:-10 
128 1:-9.21875 2:-8.54167 3:-10 4:-9.78947 5:-9.7416 6:-9.45946 7:-9.36909 8:-8.71795 9:3.33333 10:0.666667 11:-1.42857 12:3.33333 13:0.666667 14:-1.42857 15:-6.66667 16:-7.36842 17:10 18:4.87805 19:7.09677 20:10 21:3.29861 22:5.98316 23:10 24:-3.40351 25:10 26:3.67978 27:3.33333 28:0.666667 29:-1.42857 30:-9.25926 
128 1:-7.65625 2:-7.08333 3:-8.13953 4:-7.05263 5:-7.77778 6:-7.56757 7:-7.35016 8:-6.75214 9:10 10:10 11:10 12:10 13:10 14:10 15:-7.33333 16:-7.36842 17:-3.86458 18:-3.65854 19:-3.76691 20:-7.77988 21:-7.38739 22:-7.60468 23:-9.3745 24:-9.41198 25:-4.95814 26:-4.52031 27:10 28:10 29:10 30:-9.25926 
128 1:-6.875 2:-9.375 3:-7.80731 4:-9.78947 5:-6.89922 6:-9.45946 7:-6.52997 8:-9.31624 9:10 10:10 11:10 12:10 13:10 14:10 15:-8 16:-7.89474 17:-6.3254 18:10 19:-3.81935 20:-8.74398 21:-1.16898 22:-7.78887 23:-9.47626 24:-3.40351 25:-6.86964 26:10 27:10 28:10 29:10 30:-10 
128 1:-7.5 2:-9.16667 3:-8.53821 4:-9.47368 5:-7.36434 6:-8.85135 7:-7.53943 8:-9.05983 9:10 10:10 11:10 12:10 13:10 14:10 15:-7.33333 16:-7.10526 17:-4.23529 18:10 19:-1.08504 20:-8.13056 21:-4.51968 22:-7.21504 23:-9.19399 24:-6.75439 25:-4.07 26:10 27:10 28:10 29:10 30:-9.25926 
128 1:-8.4375 2:-9.79167 3:-9.20266 4:-9.68421 5:-8.75969 6:-9.72973 7:-8.67508 8:-9.65812 9:3.33333 10:0.666667 11:-1.42857 12:3.33333 13:0.666667 14:-1.42857 15:-9.33333 16:-8.94737 17:-6.5 18:10 19:-4.06948 20:-8.4546 21:-2.0625 22:-7.40632 23:-8.52287 24:-5.07895 25:-5.53182 26:10 27:3.33333 28:0.666667 29:-1.42857 30:-10 
128 1:-9.53125 2:-9.58333 3:-9.86711 4:-9.78947 5:-9.58656 6:-9.66216 7:-9.49527 8:-9.40171 9:10 10:10 11:10 12:10 13:10 14:10 15:-9.33333 16:-8.68421 17:-0.0833333 18:3.17073 19:1.29032 20:-5.60171 21:-3.40278 22:-4.72842 23:-3.37763 24:-3.40351 25:3.3 26:4.94382 27:10 28:10 29:10 30:-9.25926 
128 1:-6.5625 2:-7.91667 3:-6.54485 4:-8.10526 5:-6.74419 6:-7.5 7:-6.21451 8:-7.86325 9:10 10:10 11:10 12:10 13:10 14:10 15:-8.66667 16:-8.42105 17:-7.53623 18:-4.90022 19:-6.73624 20:-9.11907 21:-8.517 22:-8.90279 23:-9.68783 24:-9.04709 25:-7.79344 26:-4.7796 27:10 28:10 29:10 30:-10 
128 1:-9.84375 2:-7.08333 3:-9.86711 4:-6.84211 5:-9.84496 6:-5.33784 7:-9.87382 8:-6.15385 9:-3.33333 10:-6 11:-7.14286 12:10 13:10 14:10 15:-10 16:-9.73684 17:-0.0833333 18:-9.12195 19:-7.93169 20:-5.04451 21:-9.81696 22:-9.54139 23:-3.37763 24:-9.45671 25:3.3 26:-9.34538 27:10 28:10 29:10 30:-10 
128 1:-7.96875 2:-6.875 3:-9.60133 4:-9.26316 5:-7.7261 6:-6.82432 7:-7.41325 8:-5.81197 9:10 10:10 11:10 12:10 13:10 14:10 15:-1.33333 16:0.789474 17:10 18:7.43902 19:8.64516 20:-3.81866 21:-4.24045 22:-4.03735 23:-7.19981 24:-7.59211 25:10 26:6.76404 27:10 28:10 29:10 30:-7.03704 
128 1:-9.84375 2:-9.79167 3:-9.60133 4:-9.47368 5:-9.63824 6:-9.66216 7:-9.81073 8:-9.57265 9:-3.33333 10:-6 11:-7.14286 12:10 13:10 14:10 15:-10 16:-9.73684 17:-0.0833333 18:-0.243902 19:-0.16129 20:-7.55193 21:-6.75347 22:-7.21504 23:-7.19981 24:-6.75439 25:-0.05 26:-3.48315 27:10 28:10 29:10 30:-10 
128 1:-9.53125 2:-8.54167 3:-9.40199 4:-8.84211 5:-9.43152 6:-8.58108 7:-9.49527 8:-8.2906 9:3.33333 10:0.666667 11:-1.42857 12:10 13:10 14:10 15:-9.33333 16:-8.94737 17:-0.0833333 18:-5.36585 19:-3.54839 20:-6.71612 21:-8.27652 22:-7.72136 23:-8.0598 24:-8.42982 25:1.06667 26:-5.40931 27:10 28:10 29:10 30:-10 
128 1:-9.375 2:-9.375 3:-9.46844 4:-9.57895 5:-9.17313 6:-9.32432 7:-9.36909 8:-9.1453 9:10 10:10 11:10 12:10 13:10 14:10 15:-9.33333 16:-9.21053 17:-2.1 18:-0.243902 19:-1.29032 20:-7.69942 21:-6.44886 22:-7.21504 23:-7.83684 24:-6.08421 25:-2.79091 26:-2.87028 27:10 28:10 29:10 30:-10 
128 1:-8.75 2:-9.16667 3:-9.00332 4:-9.05263 5:-8.86305 6:-9.05405 7:-8.42271 8:-9.1453 9:10 10:10 11:10 12:10 13:10 14:10 15:-10 16:-9.73684 17:-7.92593 18:-6.39024 19:-7.41935 20:-9.1872 21:-8.76389 22:-9.02715 23:-8.81229 24:-8.09474 25:-8.55385 26:-6.5475 27:10 28:10 29:10 30:-10 
128 1:-7.96875 2:-9.375 3:-8.40532 4:-9.26316 5:-7.9845 6:-9.32432 7:-7.85489 8:-9.40171 9:10 10:10 11:10 12:10 13:10 14:10 15:-8 16:-8.15789 17:-4.40476 18:10 19:-1.29032 20:-8.05341 21:-2.79356 22:-6.93375 23:-9.26379 24:-7.59211 25:-5.50571 26:10 27:10 28:10 29:10 30:-10 
128 1:-8.4375 2:-10 3:-9.33555 4:-9.68421 5:-9.06977 6:-9.7973 7:-8.35962 8:-9.91453 9:10 10:10 11:10 12:-3.33333 13:-6 14:-7.14286 15:-10 16:-9.73684 17:-8.33333 18:10 19:-6.93548 20:-9.00359 21:-5.07813 22:-8.33776 23:-8.24222 24:-5.07895 25:-8.61111 26:10 27:-3.33333 28:-6 29:-7.14286 30:-10 
128 1:-6.25 2:-8.33333 3:-9.00332 4:-9.36842 5:-7.77778 6:-8.71622 7:-5.77287 8:-7.69231 9:10 10:10 11:10 12:10 13:10 14:10 15:-6.66667 16:-5.52632 17:-5.32667 18:3.17073 19:-3.14991 20:-7.32398 21:-4.07292 22:-6.31842 23:-8.81229 24:-7.23308 25:-4.77941 26:2.77689 27:10 28:10 29:10 30:-9.25926 
128 1:-9.0625 2:-9.375 3:-9.66777 4:-9.68421 5:-9.4832 6:-9.59459 7:-9.11672 8:-9.40171 9:3.33333 10:0.666667 11:-1.42857 12:3.33333 13:0.666667 14:-1.42857 15:-8 16:-8.15789 17:1.35714 18:10 19:4.45748 20:-2.76504 21:1.38393 22:-1.15789 23:-6.72204 24:-5.07895 25:0.62 26:10 27:3.33333 28:0.666667 29:-1.42857 30:-9.25926 
128 1:-8.125 2:-8.125 3:-8.53821 4:-8.52632 5:-8.03618 6:-8.24324 7:-7.85489 8:-7.26496 9:10 10:10 11:10 12:10 13:10 14:10 15:-7.33333 16:-6.05263 17:-2.41026 18:-0.243902 19:-1.48668 20:-7.48764 21:-6.38117 22:-7.04115 23:-9.19399 24:-8.76491 25:-0.911429 26:-0.418795 27:10 28:10 29:10 30:-8.51852 
128 1:-7.1875 2:-8.54167 3:-8.00664 4:-8.10526 5:-6.64083 6:-7.97297 7:-7.22397 8:-8.11966 9:10 10:10 11:10 12:10 13:10 14:10 15:-5.33333 16:-4.21053 17:-1.67544 18:10 19:1.72043 20:-7.62791 21:-4.91599 22:-6.77135 23:-9.41914 24:-9.04709 25:0.173333 26:10 27:10 28:10 29:10 30:-9.25926 
128 1:-8.75 2:-7.5 3:-9.80066 4:-8.84211 5:-8.65633 6:-7.43243 7:-9.05363 8:-7.77778 9:3.33333 10:0.666667 11:-1.42857 12:10 13:10 14:10 15:-4.66667 16:-6.05263 17:10 18:3.69606 19:6.30499 20:-3.3729 21:-5.46474 22:-4.6067 23:-5.04983 24:-8.42982 25:10 26:1.7603 27:10 28:10 29:10 30:-8.51852 
128 1:-9.53125 2:-8.54167 3:-9.80066 4:-9.36842 5:-9.68992 6:-9.25676 7:-9.49527 8:-7.94872 9:10 10:10 11:10 12:10 13:10 14:10 15:-8.66667 16:-8.42105 17:4.95833 18:-2.80488 19:-0.16129 20:-1.46248 21:-5.07813 22:-3.74183 23:-5.04983 24:-7.23308 25:5.53333 26:-4.5618 27:10 28:10 29:10 30:-9.25926 
128 1:-7.65625 2:-9.58333 3:-9.2691 4:-9.68421 5:-8.19121 6:-9.59459 7:-7.66562 8:-9.40171 9:10 10:10 11:10 12:10 13:10 14:10 15:-8.66667 16:-8.15789 17:-6.38542 18:10 19:-3.90492 20:-8.38773 21:-1.4881 22:-7.28176 23:-8.39424 24:-5.07895 25:-5.86842 26:10 27:10 28:10 29:10 30:-10 
128 1:-8.125 2:-8.125 3:-8.47176 4:-9.36842 5:-7.36434 6:-7.83784 7:-8.10726 8:-7.86325 9:10 10:10 11:10 12:10 13:10 14:10 15:-4 16:-3.42105 17:5.34615 18:10 19:7.34923 20:-6.20178 21:-4.01199 22:-5.35851 23:-9.23034 24:-7.23308 25:6.75806 26:10 27:10 28:10 29:10 30:-8.51852 
128 1:-9.0625 2:-10 3:-9.06977 4:-9.78947 5:-8.81137 6:-9.86486 7:-8.86435 8:-9.91453 9:10 10:10 11:10 12:-3.33333 13:-6 14:-7.14286 15:-10 16:-9.73684 17:-7.28571 18:10 19:-5.24194 20:-9.22354 21:-3.40278 22:-8.59649 23:-8.72868 24:-3.40351 25:-7.98421 26:10 27:-3.33333 28:-6 29:-7.14286 30:-10 
128 1:-9.53125 2:-9.16667 3:-9.73422 4:-9.57895 5:-9.7416 6:-9.59459 7:-9.62145 8:-9.23077 9:3.33333 10:0.666667 11:-1.42857 12:3.33333 13:0.666667 14:-1.42857 15:-9.33333 16:-8.94737 17:-0.0833333 18:-2.29268 19:-1.29032 20:-3.3729 21:-4.36012 22:-3.90445 23:-6.05316 24:-6.08421 25:4.25714 26:-0.11236 27:3.33333 28:0.666667 29:-1.42857 30:-10 
128 1:-9.0625 2:-5.625 3:-8.87043 4:-6.21053 5:-8.39793 6:-6.48649 7:-9.17981 8:-5.38462 9:10 10:10 11:10 12:10 13:10 14:10 15:-8.66667 16:-7.89474 17:-1.52381 18:-7.69401 19:-6.11791 20:-8.17878 21:-8.96619 22:-8.6665 23:-8.95164 24:-9.56188 25:2.82143 26:-6.91522 27:10 28:10 29:10 30:-10 
128 1:-9.0625 2:-9.375 3:-9.2691 4:-9.47368 5:-8.86305 6:-9.32432 7:-8.92744 8:-9.1453 9:10 10:10 11:10 12:10 13:10 14:10 15:-8.66667 16:-8.15789 17:-1.52381 18:4.87805 19:0.762463 20:-7.44291 21:-4.62121 22:-6.53994 23:-8.39424 24:-6.75439 25:-1.16667 26:4.48417 27:10 28:10 29:10 30:-10 
128 1:-7.96875 2:-9.58333 3:-8.40532 4:-9.68421 5:-7.77778 6:-9.52703 7:-7.60252 8:-9.31624 9:10 10:10 11:10 12:10 13:10 14:10 15:-8.66667 16:-7.89474 17:-5.84524 18:10 19:-3.14991 20:-8.69166 21:-2.5651 22:-7.7668 23:-9.26379 24:-5.07895 25:-5.46154 26:10 27:10 28:10 29:10 30:-9.25926 
128 1:-8.75 2:-8.75 3:-9.53488 4:-9.36842 5:-9.22481 6:-9.18919 7:-8.4858 8:-8.46154 9:10 10:10 11:10 12:10 13:10 14:10 15:-8 16:-7.89474 17:-1.2037 18:1.21951 19:-0.16129 20:-5.04451 21:-3.91827 22:-4.54374 23:-7.55814 24:-7.23308 25:-2.864 26:-0.644589 27:10 28:10 29:10 30:-10 
128 1:-6.71875 2:-7.91667 3:-8.40532 4:-8.10526 5:-7.15762 6:-7.02703 7:-6.90852 8:-7.69231 9:10 10:10 11:10 12:10 13:10 14:10 15:-4.66667 16:-4.47368 17:-1.91667 18:6.27494 19:0.762463 20:-6.83552 21:-6.08333 22:-6.50485 23:-9.26379 24:-9.04709 25:-1.256 26:5.66613 27:10 28:10 29:10 30:-7.03704 
128 1:-9.53125 2:-9.16667 3:-9.66777 4:-8.84211 5:-9.4832 6:-9.18919 7:-9.30599 8:-8.71795 9:10 10:10 11:10 12:10 13:10 14:10 15:-10 16:-9.73684 17:-5.125 18:-6.39024 19:-5.80645 20:-8.23577 21:-8.55769 22:-8.41053 23:-6.72204 24:-8.42982 25:-6.75 26:-7.69663 27:10 28:10 29:10 30:-10 
128 1:-9.84375 2:-9.79167 3:-9.86711 4:-9.78947 5:-9.7416 6:-9.66216 7:-9.74763 8:-9.65812 9:3.33333 10:0.666667 11:-1.42857 12:3.33333 13:0.666667 14:-1.42857 15:-9.33333 16:-8.94737 17:10 18:10 19:10 20:-3.3729 21:-3.40278 22:-3.38947 23:-3.37763 24:-3.40351 25:10 26:10 27:3.33333 28:0.666667 29:-1.42857 30:-10 
128 1:-7.96875 2:-8.125 3:-8.6711 4:-8.31579 5:-7.2093 6:-7.02703 7:-7.85489 8:-7.94872 9:10 10:10 11:10 12:10 13:10 14:10 15:-4 16:-3.68421 17:4.2381 18:10 19:6.6129 20:-6.41219 21:-5.63657 22:-6.06737 23:-9.1109 24:-8.9226 25:4.25714 26:10 27:10 28:10 29:10 30:-8.51852 
128 1:1.25 2:-3.54167 3:-6.14618 4:-7.36842 5:0.180879 6:-3.64865 7:1.79811 8:-3.93162 9:10 10:10 11:10 12:10 13:10 14:10 15:-1.33333 16:-2.10526 17:-6.29909 18:-1.52439 19:-4.90323 20:-8.64101 21:-7.14145 22:-8.1649 23:-9.72634 24:-9.33198 25:-6.78564 26:-1.51685 27:10 28:10 29:10 30:-8.51852 
128 1:-5.78125 2:-8.33333 3:-7.07641 4:-9.15789 5:-6.48579 6:-8.98649 7:-5.5205 8:-8.03419 9:10 10:10 11:10 12:10 13:10 14:10 15:-6 16:-4.73684 17:-5.125 18:5.44715 19:-2.63296 20:-8.02434 21:-1.30859 22:-6.77622 23:-9.62052 24:-7.87135 25:-4.2375 26:7.47191 27:10 28:10 29:10 30:-9.25926 
128 1:-9.0625 2:-10 3:-9.33555 4:-9.89474 5:-9.06977 6:-9.93243 7:-8.92744 8:-9.91453 9:10 10:10 11:10 12:-3.33333 13:-6 14:-7.14286 15:-10 16:-9.73684 17:-7.28571 18:10 19:-5.24194 20:-9.00359 21:-0.0520833 22:-8.17143 23:-8.24222 24:-0.0526316 25:-7.86667 26:10 27:-3.33333 28:-6 29:-7.14286 30:-10 
128 1:-7.96875 2:-9.79167 3:-8.80399 4:-9.68421 5:-8.08786 6:-9.66216 7:-7.7918 8:-9.57265 9:10 10:10 11:10 12:10 13:10 14:10 15:-9.33333 16:-8.68421 17:-7.28571 18:10 19:-5.24194 20:-9.00359 21:-3.40278 22:-8.25837 23:-9.01032 24:-5.07895 25:-6.75 26:10 27:10 28:10 29:10 30:-10 
128 1:-8.28125 2:-9.58333 3:-8.13953 4:-9.26316 5:-7.93282 6:-9.45946 7:-8.73817 8:-9.31624 9:3.33333 10:0.666667 11:-1.42857 12:10 13:10 14:10 15:-9.33333 16:-8.94737 17:-6.80556 18:3.17073 19:-4.90323 20:-9.08084 21:-5.63657 22:-8.47747 23:-9.3745 24:-7.59211 25:-5.31429 26:1.01124 27:10 28:10 29:10 30:-10 
128 1:-7.96875 2:-8.125 3:-7.9402 4:-8.21053 5:-7.93282 6:-8.31081 7:-8.23344 8:-7.77778 9:10 10:10 11:10 12:10 13:10 14:10 15:-10 16:-9.73684 17:-8.72619 18:-8.43902 19:-8.62903 20:-9.57009 21:-9.33093 22:-9.48468 23:-9.43937 24:-8.9883 25:-8.71379 26:-8.72659 27:10 28:10 29:10 30:-10 
128 1:-6.875 2:-8.125 3:-8.53821 4:-8.52632 5:-7.10594 6:-7.90541 7:-7.47634 8:-8.20513 9:10 10:10 11:10 12:10 13:10 14:10 15:-4.66667 16:-5.52632 17:-1.52381 18:7.95122 19:1.47763 20:-6.89208 21:-4.44987 22:-6.02224 23:-9.19399 24:-8.76491 25:-1.27561 26:6.32278 27:10 28:10 29:10 30:-9.25926 
128 1:-6.09375 2:-6.875 3:-8.60465 4:-8.63158 5:-2.4031 6:-3.04054 7:-5.33123 8:-6.5812 9:10 10:10 11:10 12:10 13:10 14:10 16:0.526316 17:2.24359 18:10 19:5.16129 20:-7.89077 21:-7.01122 22:-7.53383 23:-9.15433 24:-8.66917 25:0.888 26:10 27:10 28:10 29:10 30:-6.2963 
128 1:-8.125 2:-8.33333 3:-8.80399 4:-8.31579 5:-8.39793 6:-8.04054 7:-7.7918 8:-7.86325 9:10 10:10 11:10 12:10 13:10 14:10 15:-7.33333 16:-7.10526 17:-2.41026 18:0.894309 19:-1.08504 20:-6.92507 21:-6.75347 22:-6.84482 23:-9.01032 24:-8.9226 25:-3.4 26:-0.890233 27:10 28:10 29:10 30:-9.25926 
128 1:-8.75 2:-8.95833 3:-8.80399 4:-9.26316 5:-8.19121 6:-8.64865 7:-8.5489 8:-8.97436 9:10 10:10 11:10 12:3.33333 13:0.666667 14:-1.42857 15:-7.33333 16:-7.36842 17:1.03704 18:6.58537 19:3.22581 20:-7.27333 21:-5.31746 22:-6.56066 23:-9.01032 24:-7.59211 25:-0.8875 26:6.8885 27:3.33333 28:0.666667 29:-1.42857 30:-9.25926 
128 1:-8.125 2:-8.33333 3:-8.40532 4:-6.84211 5:-8.19121 6:-7.2973 7:-7.7918 8:-8.71795 9:10 10:10 11:10 12:3.33333 13:0.666667 14:-1.42857 15:-10 16:-9.47368 17:-8.61538 18:-8.21138 19:-8.47507 20:-9.50214 21:-9.61382 22:-9.56254 23:-9.26379 24:-9.45671 25:-8.425 26:-6.43258 27:3.33333 28:0.666667 29:-1.42857 30:-10 
128 1:-4.84375 2:-8.33333 3:-6.87708 4:-9.26316 5:-4.83204 6:-8.10811 7:-4.76341 8:-7.94872 9:10 10:10 11:10 12:10 13:10 14:10 15:-4.66667 16:-3.68421 17:-4.82843 18:10 19:-1.81545 20:-8.27188 21:-3.86494 22:-7.30332 23:-9.64839 24:-7.59211 25:-4.11786 26:10 27:10 28:10 29:10 30:-8.51852 
128 1:-8.4375 2:-5 3:-8.80399 4:-5.78947 5:-8.08786 6:-3.98649 7:-8.5489 8:-4.70085 9:10 10:10 11:10 12:10 13:10 14:10 15:-5.33333 16:-5.52632 17:4.5 18:-3.93171 19:-1.29032 20:-5.83633 21:-8.31713 22:-7.57368 23:-9.01032 24:-9.61489 25:4.975 26:-4.44623 27:10 28:10 29:10 30:-10 
128 1:-6.09375 2:-5.83333 3:-8.60465 4:-7.57895 5:-2.4031 6:-1.68919 7:-5.33123 8:-5.12821 9:10 10:10 11:10 12:10 13:10 14:10 15:2 16:3.15789 17:4.57051 18:8.04878 19:6.10844 20:-7.48416 21:-7.02369 22:-7.27833 23:-9.15433 24:-9.26754 25:3.568 26:7.55909 27:10 28:10 29:10 30:-4.81481 
128 1:-8.4375 2:-6.45833 3:-8.73754 4:-6.31579 5:-7.93282 6:-4.93243 7:-8.29653 8:-5.55556 9:10 10:10 11:10 12:10 13:10 14:10 15:-9.33333 16:-8.94737 17:-6.5 18:-8.21138 19:-7.51947 20:-9.08084 21:-9.57511 22:-9.39757 23:-9.06312 24:-9.54678 25:-6.51071 26:-8.31673 27:10 28:10 29:10 30:-10 
128 1:-9.0625 2:-6.25 3:-9.20266 4:-7.36842 5:-8.91473 6:-6.75676 7:-9.05363 8:-6.23932 9:10 10:10 11:10 12:10 13:10 14:10 15:-6.66667 16:-6.31579 17:7.11905 18:-4.01797 19:-0.942928 20:-4.58862 21:-7.64243 22:-6.6897 23:-8.52287 24:-9.33198 25:8.74375 26:-3.48315 27:10 28:10 29:10 30:-9.25926 
128 1:-7.5 2:-8.54167 3:-7.80731 4:-7.89474 5:-7.15762 6:-7.83784 7:-6.71924 8:-7.52137 9:10 10:10 11:10 12:10 13:10 14:10 15:-5.33333 16:-2.36842 17:-0.676471 18:10 19:2.68387 20:-7.19373 21:-5.23043 22:-6.47357 23:-9.47626 24:-9.14787 25:1.27736 26:10 27:10 28:10 29:10 30:-7.03704 
128 1:-10 2:-9.58333 3:-9.73422 4:-9.47368 5:-9.79328 6:-9.59459 7:-9.87382 8:-9.1453 9:3.33333 10:0.666667 11:-1.42857 12:10 13:10 14:10 15:-10 16:-9.47368 17:10 18:-3.65854 19:-0.16129 20:-6.04748 21:-7.23214 22:-6.73684 23:-6.05316 24:-6.75439 25:10 26:-4.70889 27:10 28:10 29:10 30:-10 
128 1:-8.90625 2:-8.95833 3:-8.73754 4:-7.89474 5:-7.57106 6:-7.2973 7:-9.11672 8:-8.97436 9:10 10:10 11:10 12:10 13:10 14:10 15:-7.33333 16:-7.36842 17:2.4375 18:6.58537 19:4.19355 20:-7.96983 21:-7.65244 22:-7.82756 23:-9.06312 24:-9.14787 25:4.64 26:6.8885 27:10 28:10 29:10 30:-8.51852 
128 1:-8.90625 2:-7.08333 3:-9.06977 4:-6.94737 5:-7.67442 6:-5 7:-8.80126 8:-6.5812 9:10 10:10 11:10 12:10 13:10 14:10 15:-5.33333 16:-5 17:10 18:0.439024 19:3.81487 20:-6.57077 21:-7.95972 22:-7.42845 23:-8.72868 24:-9.43509 25:10 26:-0.359002 27:10 28:10 29:10 30:-6.2963 
128 1:-8.59375 2:-10 3:-8.73754 4:-9.78947 5:-8.86305 6:-9.86486 7:-8.35962 8:-9.82906 9:10 10:10 11:10 12:3.33333 13:0.666667 14:-1.42857 15:-10 16:-9.47368 17:-8.15 18:10 19:-6.62757 20:-9.1872 21:-3.40278 22:-8.53927 23:-9.06312 24:-3.40351 25:-7.86667 26:10 27:3.33333 28:0.666667 29:-1.42857 30:-10 
128 1:-4.6875 2:-8.75 3:-7.47508 4:-8.52632 5:-4.78036 6:-8.04054 7:-4.57413 8:-8.54701 9:10 10:10 11:10 12:3.33333 13:0.666667 14:-1.42857 15:-8 16:-7.36842 17:-7.8619 18:1.21951 19:-6.45161 20:-9.27271 21:-7.42361 22:-8.86699 23:-9.55192 24:-8.76491 25:-7.55862 26:2.13483 27:3.33333 28:0.666667 29:-1.42857 30:-9.25926 
128 1:-8.90625 2:-8.125 3:-9.66777 4:-9.15789 5:-8.96641 6:-8.44595 7:-8.5489 8:-7.4359 9:10 10:10 11:10 12:10 13:10 14:10 15:-5.33333 16:-3.94737 17:10 18:5.90244 19:7.74194 20:-2.41769 21:-3.40278 22:-2.94316 23:-6.72204 24:-7.87135 25:10 26:5.43313 27:10 28:10 29:10 30:-9.25926 
128 1:-4.84375 2:-7.5 3:-7.67442 4:-9.57895 5:-6.27907 6:-8.85135 7:-5.39432 8:-8.11966 9:10 10:10 11:10 12:10 13:10 14:10 15:-2 16:-4.21053 17:-2.45588 18:10 19:0.919698 20:-6.48713 21:4.41551 22:-4.34586 23:-9.50904 24:-6.08421 25:-3.8527 26:10 27:10 28:10 29:10 30:-8.51852 
128 1:-8.90625 2:-9.375 3:-9.46844 4:-9.89474 5:-9.01809 6:-9.52703 7:-8.67508 8:-9.05983 9:10 10:10 11:10 12:10 13:10 14:10 15:-8 16:-7.10526 17:-0.0833333 18:10 19:3.22581 20:-6.04748 21:-0.0520833 22:-4.34586 23:-7.83684 24:-0.0526316 25:0.863636 26:10 27:10 28:10 29:10 30:-9.25926 
128 1:-9.53125 2:-9.58333 3:-9.40199 4:-9.47368 5:-9.53488 6:-9.66216 7:-9.30599 8:-9.31624 9:10 10:10 11:10 12:10 13:10 14:10 15:-10 16:-9.47368 17:-5.125 18:-3.65854 19:-4.51613 20:-8.05341 21:-6.75347 22:-7.57368 23:-8.0598 24:-6.75439 25:-5.075 26:-3.48315 27:10 28:10 29:10 30:-10 
128 1:-9.375 2:-9.79167 3:-9.2691 4:-9.57895 5:-9.32817 6:-9.66216 7:-9.17981 8:-9.57265 9:10 10:10 11:10 12:3.33333 13:0.666667 14:-1.42857 15:-9.33333 16:-8.68421 17:-2.1 18:10 19:1.29032 20:-7.19373 21:-3.40278 22:-6.06737 23:-8.39424 24:-6.08421 25:-1.48571 26:10 27:3.33333 28:0.666667 29:-1.42857 30:-10 
128 1:-8.4375 2:-9.79167 3:-7.74086 4:-8.10526 5:-7.36434 6:-8.64865 7:-8.42271 8:-9.57265 9:3.33333 10:0.666667 11:-1.42857 12:3.33333 13:0.666667 14:-1.42857 15:-9.33333 16:-8.68421 17:-6.5 18:10 19:-4.06948 20:-9.28783 21:-8.18948 22:-8.98371 23:-9.49312 24:-9.04709 25:-5.46154 26:10 27:3.33333 28:0.666667 29:-1.42857 30:-10 
128 1:-5.9375 2:-9.58333 3:-8.47176 4:-9.15789 5:-6.38243 6:-9.32432 7:-5.5205 8:-9.40171 9:10 10:10 11:10 12:10 13:10 14:10 15:-8.66667 16:-8.15789 17:-7.92593 18:10 19:-6.25806 20:-9.21177 21:-4.62121 22:-8.61463 23:-9.23034 24:-7.87135 25:-7.86667 26:10 27:10 28:10 29:10 30:-10 
128 1:-9.84375 2:-9.58333 3:-9.80066 4:-9.15789 5:-9.79328 6:-9.39189 7:-9.62145 8:-9.1453 9:10 10:10 11:10 12:10 13:10 14:10 15:-9.33333 16:-8.42105 17:10 18:3.17073 19:5.93548 20:-2.03561 21:-6.08333 22:-4.72842 23:-5.04983 24:-7.87135 25:10 26:2.64556 27:10 28:10 29:10 30:-10 
128 1:-6.40625 2:-9.58333 3:-8.27243 4:-9.68421 5:-8.19121 6:-9.72973 7:-5.83596 8:-9.48718 9:10 10:10 11:10 12:3.33333 13:0.666667 14:-1.42857 15:-9.33333 16:-8.68421 17:-8.48611 18:3.17073 19:-7.31183 20:-8.94494 21:-2.0625 22:-8.12478 23:-9.32324 24:-5.07895 25:-8.3 26:7.11075 27:3.33333 28:0.666667 29:-1.42857 30:-10 
128 1:-8.28125 2:-7.29167 3:-8.20598 4:-8 5:-7.93282 6:-8.04054 7:-8.10726 8:-7.26496 9:10 10:10 11:10 12:10 13:10 14:10 15:-8 16:-7.89474 17:-3.44444 18:-4.63415 19:-4.06948 20:-8.10234 21:-7.42361 22:-7.8212 23:-9.34979 24:-9.1 25:-4.26452 26:-4.70889 27:10 28:10 29:10 30:-10 
128 1:-5.3125 2:-9.79167 3:-6.87708 4:-9.78947 5:-6.22739 6:-9.72973 7:-5.89905 8:-9.65812 9:10 10:10 11:10 12:3.33333 13:0.666667 14:-1.42857 15:-9.33333 16:-8.94737 17:-8.86559 18:10 19:-7.85924 20:-9.5172 21:-2.0625 22:-9.06729 23:-9.64839 24:-3.40351 25:-8.57727 26:10 27:3.33333 28:0.666667 29:-1.42857 30:-10 
128 1:-7.96875 2:-9.79167 3:-8.53821 4:-9.89474 5:-7.4677 6:-9.7973 7:-7.66562 8:-9.57265 9:10 10:10 11:10 12:3.33333 13:0.666667 14:-1.42857 15:-9.33333 16:-8.68421 17:-7.28571 18:10 19:-5.24194 20:-9.25697 21:-0.0520833 22:-8.59649 23:-9.19399 24:-0.0526316 25:-6.92632 26:10 27:3.33333 28:0.666667 29:-1.42857 30:-10 
128 1:-9.0625 2:-9.79167 3:-9.46844 4:-9.78947 5:-9.4832 6:-9.7973 7:-8.80126 8:-9.57265 9:10 10:10 11:10 12:3.33333 13:0.666667 14:-1.42857 15:-9.33333 16:-8.68421 17:-4.40476 18:10 19:-1.29032 20:-6.41219 21:-0.0520833 22:-4.72842 23:-7.83684 24:-3.40351 25:-4.07 26:10 27:3.33333 28:0.666667 29:-1.42857 30:-9.25926 
128 1:-8.4375 2:-9.16667 3:-8.33887 4:-9.15789 5:-8.34625 6:-9.12162 7:-8.04416 8:-8.80342 9:10 10:10 11:10 12:10 13:10 14:10 15:-8.66667 16:-7.89474 17:-4.66667 18:1.80488 19:-2.70161 20:-8.23577 21:-5.79613 22:-7.52027 23:-9.29466 24:-7.87135 25:-4.44688 26:1.91011 27:10 28:10 29:10 30:-8.51852 
128 1:-9.84375 2:-9.16667 3:-9.80066 4:-9.57895 5:-9.84496 6:-9.32432 7:-9.81073 8:-8.80342 9:3.33333 10:0.666667 11:-1.42857 12:10 13:10 14:10 15:-10 16:-9.47368 17:-0.0833333 18:-6.39024 19:-4.51613 20:-5.04451 21:-8.27652 22:-7.40632 23:-5.04983 24:-6.08421 25:4.975 26:-6.17978 27:10 28:10 29:10 30:-10 
128 1:-9.84375 2:-9.79167 3:-9.93355 4:-9.89474 5:-9.84496 6:-9.7973 7:-9.62145 8:-9.48718 9:10 10:10 11:10 12:10 13:10 14:10 15:-9.33333 16:-8.42105 17:10 18:10 19:10 20:-0.0296736 21:-0.0520833 22:-0.0421053 23:-0.0332226 24:-0.0526316 25:10 26:10 27:10 28:10 29:10 30:-10 
128 1:-8.90625 2:-8.54167 3:-9.46844 4:-9.26316 5:-9.22481 6:-9.12162 7:-8.4858 8:-8.20513 9:10 10:10 11:10 12:10 13:10 14:10 15:-8 16:-7.89474 17:-0.0833333 18:-0.243902 19:-0.16129 20:-5.04451 21:-4.36012 22:-4.72842 23:-7.83684 24:-7.59211 25:-2.864 26:-1.95097 27:10 28:10 29:10 30:-9.25926 
128 1:-9.21875 2:-8.54167 3:-9.00332 4:-8 5:-8.96641 6:-8.24324 7:-9.05363 8:-8.03419 9:10 10:10 11:10 12:10 13:10 14:10 15:-8.66667 16:-8.15789 17:-0.0833333 18:-2.80488 19:-1.6129 20:-7.19373 21:-7.87037 22:-7.57368 23:-8.81229 24:-9.1 25:-0.05 26:-3.48315 27:10 28:10 29:10 30:-9.25926 
128 1:-9.6875 2:-10 3:-9.80066 4:-10 5:-9.84496 6:-10 7:-9.55836 8:-9.82906 9:3.33333 10:0.666667 11:-1.42857 12:3.33333 13:0.666667 14:-1.42857 15:-10 16:-9.47368 17:-3.44444 18:10 19:-0.16129 20:-5.04451 21:10 22:-2.05053 23:-5.04983 24:10 25:-2.5625 26:10 27:3.33333 28:0.666667 29:-1.42857 30:-10 
128 1:-9.0625 2:-8.33333 3:-8.27243 4:-8.10526 5:-7.62274 6:-6.48649 7:-8.86435 8:-7.69231 9:10 10:10 11:10 12:10 13:10 14:10 15:-8 16:-7.36842 17:1.35714 18:-1.38211 19:-0.16129 20:-8.35217 21:-8.58687 22:-8.47747 23:-9.32324 24:-9.04709 25:1.53684 26:-2.27929 27:10 28:10 29:10 30:-10 
128 1:-9.21875 2:-10 3:-8.93688 4:-9.78947 5:-8.96641 6:-9.86486 7:-9.05363 8:-9.82906 9:10 10:10 11:10 12:3.33333 13:0.666667 14:-1.42857 15:-10 16:-9.47368 17:-6.80556 18:10 19:-4.51613 20:-9.10414 21:-3.40278 22:-8.41053 23:-8.88607 24:-3.40351 25:-6.33125 26:10 27:3.33333 28:0.666667 29:-1.42857 30:-10 
128 1:-8.4375 2:-9.58333 3:-9.60133 4:-9.47368 5:-8.55297 6:-9.25676 7:-8.80126 8:-9.31624 9:3.33333 10:0.666667 11:-1.42857 12:3.33333 13:0.666667 14:-1.42857 15:-8.66667 16:-7.89474 17:-4.66667 18:10 19:-1.6129 20:-7.98424 21:-5.07813 22:-7.14506 23:-7.19981 24:-6.75439 25:-1.055 26:10 27:3.33333 28:0.666667 29:-1.42857 30:-9.25926 
128 1:-8.59375 2:-8.75 3:-8.60465 4:-8.52632 5:-7.93282 6:-7.90541 7:-8.29653 8:-8.54701 9:10 10:10 11:10 12:10 13:10 14:10 15:-6.66667 16:-5.78947 17:1.93333 18:7.07317 19:4.02277 20:-7.12383 21:-6.33464 22:-6.7827 23:-9.15433 24:-8.76491 25:2.10357 26:8.8764 27:10 28:10 29:10 30:-9.25926 
128 1:-9.84375 2:-9.79167 3:-9.93355 4:-9.89474 5:-9.84496 6:-9.7973 7:-9.62145 8:-9.48718 9:10 10:10 11:10 12:10 13:10 14:10 15:-9.33333 16:-8.42105 17:10 18:10 19:10 20:-0.0296736 21:-0.0520833 22:-0.0421053 23:-0.0332226 24:-0.0526316 25:10 26:10 27:10 28:10 29:10 30:-10 
128 1:-6.5625 2:-8.75 3:-6.81063 4:-8.94737 5:-6.64083 6:-9.05405 7:-6.52997 8:-8.63248 9:10 10:10 11:10 12:10 13:10 14:10 15:-10 16:-9.47368 17:-9.28986 18:-7.56098 19:-8.96774 20:-9.75542 21:-8.76389 22:-9.5883 23:-9.65693 24:-8.27751 25:-9.02321 26:-6.65565 27:10 28:10 29:10 30:-10 
128 1:-7.65625 2:-8.54167 3:-9.00332 4:-8.31579 5:-7.82946 6:-8.44595 7:-7.47634 8:-7.94872 9:10 10:10 11:10 12:10 13:10 14:10 15:-7.33333 16:-6.31579 17:-3.86458 18:2.31707 19:-1.85484 20:-7.72686 21:-5.9158 22:-7.08657 23:-8.81229 24:-8.9226 25:-2.74634 26:1.91011 27:10 28:10 29:10 30:-10 
128 1:-10 2:-10 3:-9.93355 4:-9.89474 5:-9.94832 6:-9.93243 7:-9.87382 8:-9.82906 9:3.33333 10:0.666667 11:-1.42857 12:3.33333 13:0.666667 14:-1.42857 15:-10 16:-9.47368 17:10 18:10 19:10 20:-0.0296736 21:-0.0520833 22:-0.0421053 23:-0.0332226 24:-0.0526316 25:10 26:10 27:3.33333 28:0.666667 29:-1.42857 30:-10 
128 1:-8.28125 2:-6.66667 3:-8.00664 4:-4.52632 5:-7.57106 6:-4.39189 7:-8.10726 8:-5.81197 9:10 10:10 11:10 12:10 13:10 14:10 15:-8.66667 16:-7.89474 17:-5.125 18:-6.87231 19:-6.11791 20:-8.80564 21:-9.38616 22:-9.17129 23:-9.41914 24:-9.72592 25:-4.26452 26:-6.58427 27:10 28:10 29:10 30:-8.51852 
128 1:-6.71875 2:-9.79167 3:-8.80399 4:-9.47368 5:-7.57106 6:-9.52703 7:-6.84543 8:-9.48718 9:10 10:10 11:10 12:10 13:10 14:10 15:-9.33333 16:-8.42105 17:-8.33333 18:10 19:-6.93548 20:-9.22354 21:-5.07813 22:-8.64962 23:-9.01032 24:-6.75439 25:-7.34118 26:10 27:10 28:10 29:10 30:-9.25926 
128 1:-9.6875 2:-10 3:-9.73422 4:-9.78947 5:-9.68992 6:-9.86486 7:-9.43218 8:-9.82906 9:10 10:10 11:10 12:3.33333 13:0.666667 14:-1.42857 15:-10 16:-9.47368 17:-3.44444 18:10 19:-0.16129 20:-7.19373 21:-3.40278 22:-6.06737 23:-6.05316 24:-3.40351 25:-4.07 26:10 27:3.33333 28:0.666667 29:-1.42857 30:-10 
128 1:-6.40625 2:0.208333 3:-7.47508 4:-0.526316 5:-5.76227 6:-1.41892 7:-5.33123 8:1.53846 9:10 10:10 11:10 12:10 13:10 14:10 15:-6.66667 16:-5 17:-5.125 18:-8.02927 19:-7.02703 20:-8.60927 21:-9.16178 22:-8.94198 23:-9.55192 24:-9.88433 25:-4.74 26:-7.2505 27:10 28:10 29:10 30:-9.25926 
128 1:-8.90625 2:-7.70833 3:-8.73754 4:-8.21053 5:-8.55297 6:-8.31081 7:-8.80126 8:-7.35043 9:10 10:10 11:10 12:10 13:10 14:10 15:-10 16:-9.47368 17:-7.64583 18:-8.78049 19:-8.29032 20:-9.36765 21:-9.33093 22:-9.35388 23:-9.06312 24:-8.9883 25:-7.085 26:-8.32865 27:10 28:10 29:10 30:-10 
128 1:-5.625 2:-8.75 3:-4.08638 4:-3.36842 5:-2.6615 6:-4.25676 7:-5.07886 8:-8.46154 9:10 10:10 11:10 12:10 13:10 14:10 15:-6.66667 16:-6.05263 17:-5.99425 18:7.07317 19:-3.54839 20:-9.2177 21:-8.70155 22:-9.03176 23:-9.84348 24:-9.79112 25:-6.02911 26:6.80662 27:10 28:10 29:10 30:-9.25926 
128 1:-10 2:-9.79167 3:-9.93355 4:-9.68421 5:-9.94832 6:-9.7973 7:-9.87382 8:-9.57265 9:3.33333 10:0.666667 11:-1.42857 12:3.33333 13:0.666667 14:-1.42857 15:-10 16:-9.47368 17:10 18:-0.243902 19:3.22581 20:-0.0296736 21:-5.07813 22:-3.38947 23:-0.0332226 24:-5.07895 25:10 26:-0.11236 27:3.33333 28:0.666667 29:-1.42857 30:-10 
128 1:-9.21875 2:-9.79167 3:-9.53488 4:-9.36842 5:-9.17313 6:-9.25676 7:-9.05363 8:-9.57265 9:10 10:10 11:10 12:3.33333 13:0.666667 14:-1.42857 15:-9.33333 16:-8.68421 17:-3.44444 18:10 19:-0.16129 20:-7.69942 21:-6.75347 22:-7.31397 23:-7.55814 24:-7.23308 25:-2.5625 26:10 27:3.33333 28:0.666667 29:-1.42857 30:-10 
128 1:-9.0625 2:-10 3:-9.13621 4:-9.68421 5:-9.01809 6:-9.7973 7:-8.92744 8:-9.82906 9:10 10:10 11:10 12:3.33333 13:0.666667 14:-1.42857 15:-10 16:-9.47368 17:-7.28571 18:10 19:-5.24194 20:-9.05638 21:-5.07813 22:-8.41053 23:-8.63313 24:-5.07895 25:-6.75 26:10 27:3.33333 28:0.666667 29:-1.42857 30:-10 
128 1:-8.28125 2:-9.58333 3:-8.93688 4:-9.47368 5:-8.50129 6:-9.45946 7:-7.85489 8:-9.23077 9:10 10:10 11:10 12:10 13:10 14:10 15:-9.33333 16:-8.68421 17:-6.80556 18:3.17073 19:-4.90323 20:-8.72206 21:-5.63657 22:-8.02429 23:-8.88607 24:-6.75439 25:-6.65429 26:1.91011 27:10 28:10 29:10 30:-10 
128 1:-5.3125 2:-8.54167 3:-7.2093 4:-9.26316 5:-5.50388 6:-8.78378 7:-5.33123 8:-8.37607 9:10 10:10 11:10 12:10 13:10 14:10 15:-5.33333 16:-5 17:-4.96237 18:10 19:-1.98511 20:-8.23577 21:-1.63925 22:-7.08096 23:-9.59978 24:-7.59211 25:-4.74 26:10 27:10 28:10 29:10 30:-8.51852 
128 1:-7.1875 2:-6.45833 3:-8.40532 4:-6.52632 5:-7.9845 6:-6.14865 7:-6.71924 8:-5.04274 9:10 10:10 11:10 12:10 13:10 14:10 15:-9.33333 16:-8.42105 17:-8.04386 18:-8.21138 19:-8.12554 20:-9.05638 21:-9.41092 22:-9.26445 23:-9.26379 24:-9.51393 25:-7.44528 26:-7.82518 27:10 28:10 29:10 30:-10 
128 1:-6.875 2:-8.95833 3:-7.80731 4:-9.15789 5:-6.89922 6:-8.78378 7:-6.52997 8:-8.63248 9:10 10:10 11:10 12:10 13:10 14:10 15:-8 16:-7.10526 17:-6.3254 18:3.17073 19:-4.30108 20:-8.74398 21:-5.87171 22:-8.07579 23:-9.47626 24:-7.87135 25:-5.79286 26:4.05155 27:10 28:10 29:10 30:-9.25926 
128 1:-9.0625 2:-9.375 3:-8.80399 4:-9.05263 5:-8.65633 6:-8.91892 7:-8.92744 8:-9.31624 9:10 10:10 11:10 12:3.33333 13:0.666667 14:-1.42857 15:-8 16:-7.89474 17:1.35714 18:10 19:4.45748 20:-7.08759 21:-5.37377 22:-6.43254 23:-9.01032 24:-8.09474 25:-0.05 26:10 27:3.33333 28:0.666667 29:-1.42857 30:-10 
128 1:-2.8125 2:-9.375 3:-5.81395 4:-9.57895 5:-4.10853 6:-9.45946 7:-2.30284 8:-9.05983 9:10 10:10 11:10 12:10 13:10 14:10 15:-8 16:-7.10526 17:-8.45035 18:10 19:-7.13472 20:-9.36163 21:-1.16898 22:-8.78846 23:-9.75291 24:-6.08421 25:-8.13902 26:10 27:10 28:10 29:10 30:-9.25926 
128 1:-8.59375 2:-10 3:-8.47176 4:-9.78947 5:-8.29457 6:-9.86486 7:-8.61199 8:-9.82906 9:10 10:10 11:10 12:3.33333 13:0.666667 14:-1.42857 15:-10 16:-9.47368 17:-8.15 18:10 19:-6.62757 20:-9.46937 21:-3.40278 22:-8.99858 23:-9.23034 24:-3.40351 25:-7.47826 26:10 27:3.33333 28:0.666667 29:-1.42857 30:-10 
128 1:-8.75 2:-9.16667 3:-8.73754 4:-9.26316 5:-8.65633 6:-9.18919 7:-8.73817 8:-8.97436 9:10 10:10 11:10 12:3.33333 13:0.666667 14:-1.42857 15:-8.66667 16:-8.42105 17:-3.44444 18:1.80488 19:-1.6129 20:-7.83053 21:-5.46474 22:-7.07158 23:-9.06312 24:-7.59211 25:-3.4 26:0.665514 27:3.33333 28:0.666667 29:-1.42857 30:-9.25926 
128 1:-7.34375 2:-8.95833 3:-7.9402 4:-9.15789 5:-7.26098 6:-9.12162 7:-7.35016 8:-8.63248 9:10 10:10 11:10 12:10 13:10 14:10 15:-8 16:-7.10526 17:-5.68519 18:3.17073 19:-3.54839 20:-8.57347 21:-4.36012 22:-7.72136 23:-9.43937 24:-7.87135 25:-4.4907 26:4.05155 27:10 28:10 29:10 30:-10 
128 1:-10 2:-10 3:-10 4:-10 5:-10 6:-10 7:-9.87382 8:-9.82906 9:3.33333 10:0.666667 11:-1.42857 12:3.33333 13:0.666667 14:-1.42857 15:-10 16:-9.47368 17:10 18:10 19:10 20:10 21:10 22:10 23:10 24:10 25:10 26:10 27:3.33333 28:0.666667 29:-1.42857 30:-10 
128 1:-9.6875 2:-9.58333 3:-9.46844 4:-9.05263 5:-9.27649 6:-9.05405 7:-9.62145 8:-9.23077 9:3.33333 10:0.666667 11:-1.42857 12:10 13:10 14:10 15:-9.33333 16:-8.68421 17:3.27778 18:3.17073 19:3.22581 20:-7.38477 21:-7.42361 22:-7.40632 23:-7.83684 24:-8.09474 25:7.12857 26:1.91011 27:10 28:10 29:10 30:-10 
128 1:-8.28125 2:-8.125 3:-8.80399 4:-8.52632 5:-7.88114 6:-7.63514 7:-7.7918 8:-7.4359 9:10 10:10 11:10 12:10 13:10 14:10 15:-4 16:-2.10526 17:6.63889 18:10 19:8.15249 20:-5.28331 21:-4.51968 22:-4.93441 23:-9.01032 24:-8.76491 25:7.20833 26:10 27:10 28:10 29:10 30:-8.51852 
128 1:-2.34375 2:-9.58333 3:-5.1495 4:-9.78947 5:-2.50646 6:-9.52703 7:-2.23975 8:-9.40171 9:10 10:10 11:10 12:3.33333 13:0.666667 14:-1.42857 15:-8.66667 16:-8.15789 17:-8.95667 18:10 19:-8.02191 20:-9.64717 21:-2.5651 22:-9.30171 23:-9.79528 24:-3.40351 25:-8.80323 26:10 27:3.33333 28:0.666667 29:-1.42857 30:-10 
128 1:-7.03125 2:-9.375 3:-7.07641 4:-9.26316 5:-7.15762 6:-9.25676 7:-6.52997 8:-9.1453 9:10 10:10 11:10 12:10 13:10 14:10 15:-9.33333 16:-8.68421 17:-8.15 18:-0.243902 19:-6.93548 20:-9.34294 21:-6.75347 22:-8.90279 23:-9.62052 24:-7.59211 25:-7.94643 26:0.806946 27:10 28:10 29:10 30:-10 
128 1:-10 2:-10 3:-9.80066 4:-9.68421 5:-9.84496 6:-9.7973 7:-9.87382 8:-9.82906 9:3.33333 10:0.666667 11:-1.42857 12:3.33333 13:0.666667 14:-1.42857 15:-10 16:-9.47368 17:10 18:10 19:10 20:-5.04451 21:-5.07813 22:-5.06316 23:-5.04983 24:-5.07895 25:10 26:10 27:3.33333 28:0.666667 29:-1.42857 30:-10 
128 1:-5.46875 2:-8.54167 3:-8.60465 4:-9.15789 5:-6.89922 6:-9.05405 7:-5.26814 8:-8.2906 9:10 10:10 11:10 12:10 13:10 14:10 15:-8 16:-7.36842 17:-7.47778 18:-0.243902 19:-6.04414 20:-8.74398 21:-4.74306 22:-7.97008 23:-9.15433 24:-7.87135 25:-7.19079 26:0.369181 27:10 28:10 29:10 30:-10 
128 1:-9.53125 2:-9.16667 3:-9.73422 4:-9.47368 5:-9.53488 6:-9.25676 7:-9.49527 8:-9.23077 9:3.33333 10:0.666667 11:-1.42857 12:3.33333 13:0.666667 14:-1.42857 15:-8.66667 16:-8.15789 17:4.95833 18:1.80488 19:3.22581 20:-4.04154 21:-5.07813 22:-4.6067 23:-6.05316 24:-6.75439 25:7.76667 26:5.95506 27:3.33333 28:0.666667 29:-1.42857 30:-10 
128 1:-8.59375 2:-9.79167 3:-8.40532 4:-9.57895 5:-8.19121 6:-9.59459 7:-8.42271 8:-9.65812 9:10 10:10 11:10 12:3.33333 13:0.666667 14:-1.42857 15:-9.33333 16:-8.94737 17:-6.13333 18:10 19:-3.54839 20:-8.94494 21:-4.36012 22:-8.21591 23:-9.26379 24:-6.08421 25:-6.23462 26:10 27:3.33333 28:0.666667 29:-1.42857 30:-10 
128 1:-10 2:-10 3:-9.86711 4:-9.78947 5:-9.89664 6:-9.86486 7:-9.87382 8:-9.82906 9:3.33333 10:0.666667 11:-1.42857 12:3.33333 13:0.666667 14:-1.42857 15:-10 16:-9.47368 17:10 18:10 19:10 20:-3.3729 21:-3.40278 22:-3.38947 23:-3.37763 24:-3.40351 25:10 26:10 27:3.33333 28:0.666667 29:-1.42857 30:-10 
128 1:-9.6875 2:-9.79167 3:-8.93688 4:-6.84211 5:-9.12145 6:-7.90541 7:-9.68454 8:-9.74359 9:3.33333 10:0.666667 11:-1.42857 12:3.33333 13:0.666667 14:-1.42857 15:-10 16:-9.47368 17:-3.44444 18:-0.243902 19:-2.19355 20:-8.94494 21:-9.47591 22:-9.28084 23:-8.88607 24:-9.45671 25:-0.05 26:4.94382 27:3.33333 28:0.666667 29:-1.42857 30:-10 
128 1:-8.125 2:-9.79167 3:-8.33887 4:-9.36842 5:-8.50129 6:-9.59459 7:-7.66562 8:-9.57265 9:10 10:10 11:10 12:3.33333 13:0.666667 14:-1.42857 15:-10 16:-9.47368 17:-8.61538 18:-0.243902 19:-7.6129 20:-9.3907 21:-7.23214 22:-8.99858 23:-9.29466 24:-7.23308 25:-8.51316 26:-0.11236 27:3.33333 28:0.666667 29:-1.42857 30:-10 
128 1:-7.65625 2:-9.16667 3:-8.53821 4:-9.15789 5:-7.10594 6:-9.05405 7:-7.41325 8:-8.88889 9:10 10:10 11:10 12:10 13:10 14:10 15:-7.33333 16:-6.57895 17:-3.86458 18:10 19:-0.645161 20:-8.29976 21:-3.40278 22:-7.29474 23:-9.19399 24:-7.87135 25:-3.4 26:10 27:10 28:10 29:10 30:-10 
128 1:-5.46875 2:-8.33333 3:-7.67442 4:-9.05263 5:-7.05426 6:-8.78378 7:-5.20505 8:-8.20513 9:10 10:10 11:10 12:3.33333 13:0.666667 14:-1.42857 15:-8 16:-7.10526 17:-7.47778 18:-1.38211 19:-6.15385 20:-8.67594 21:-5.87171 22:-7.99754 23:-9.50904 24:-8.09474 25:-6.96753 26:0.806946 27:3.33333 28:0.666667 29:-1.42857 30:-9.25926 
128 1:-6.875 2:-10 3:-8.07309 4:-9.89474 5:-7.67442 6:-9.93243 7:-7.0347 8:-9.82906 9:10 10:10 11:10 12:3.33333 13:0.666667 14:-1.42857 15:-10 16:-9.47368 17:-9.20635 18:10 19:-8.47507 20:-9.62327 21:-0.0520833 22:-9.24737 23:-9.39756 24:-0.0526316 25:-8.84375 26:10 27:3.33333 28:0.666667 29:-1.42857 30:-10 
128 1:-8.125 2:-10 3:-8.47176 4:-9.89474 5:-8.39793 6:-9.93243 7:-8.23344 8:-9.82906 9:10 10:10 11:10 12:3.33333 13:0.666667 14:-1.42857 15:-10 16:-9.47368 17:-8.61538 18:10 19:-7.41935 20:-9.43249 21:-0.0520833 22:-8.90279 23:-9.23034 24:-0.0526316 25:-8.02069 26:10 27:3.33333 28:0.666667 29:-1.42857 30:-10 
128 1:-9.53125 2:-9.375 3:-9.46844 4:-9.15789 5:-9.22481 6:-8.85135 7:-9.43218 8:-9.1453 9:3.33333 10:0.666667 11:-1.42857 12:3.33333 13:0.666667 14:-1.42857 15:-8.66667 16:-8.15789 17:4.95833 18:4.87805 19:4.91935 20:-6.29822 21:-6.75347 22:-6.53994 23:-7.83684 24:-7.87135 25:5.98 26:4.48417 27:3.33333 28:0.666667 29:-1.42857 30:-10 
128 1:-9.53125 2:-10 3:-9.73422 4:-9.89474 5:-9.53488 6:-9.93243 7:-9.49527 8:-9.82906 9:3.33333 10:0.666667 11:-1.42857 12:3.33333 13:0.666667 14:-1.42857 15:-10 16:-9.47368 17:-5.125 18:10 19:-2.19355 20:-8.05341 21:-0.0520833 22:-6.73684 23:-6.05316 24:-0.0526316 25:-3.4 26:10 27:3.33333 28:0.666667 29:-1.42857 30:-10 
128 1:-9.0625 2:-9.16667 3:-9.73422 4:-9.78947 5:-9.12145 6:-9.25676 7:-9.05363 8:-8.88889 9:10 10:10 11:10 12:10 13:10 14:10 15:-7.33333 16:-6.57895 17:4.2381 18:10 19:6.6129 20:-4.48731 21:-1.72743 22:-3.38947 23:-6.05316 24:-3.40351 25:7.4875 26:10 27:10 28:10 29:10 30:-9.25926 
128 1:-9.375 2:-9.79167 3:-9.53488 4:-9.57895 5:-9.32817 6:-9.59459 7:-9.17981 8:-9.57265 9:10 10:10 11:10 12:3.33333 13:0.666667 14:-1.42857 15:-9.33333 16:-8.68421 17:-2.1 18:10 19:1.29032 20:-7.19373 21:-4.36012 22:-6.25865 23:-7.55814 24:-6.08421 25:-1.48571 26:10 27:3.33333 28:0.666667 29:-1.42857 30:-10 
128 1:-2.1875 2:-8.75 3:-6.47841 4:-8.73684 5:-2.86822 6:-8.78378 7:-2.30284 8:-8.37607 9:10 10:10 11:10 12:10 13:10 14:10 15:-7.33333 16:-6.84211 17:-8.18954 18:4.14634 19:-6.81869 20:-9.33779 21:-4.8136 22:-8.81306 23:-9.69484 24:-8.5587 25:-7.97561 26:2.92135 27:10 28:10 29:10 30:-10 
128 1:-9.6875 2:-10 3:-9.80066 4:-10 5:-9.84496 6:-10 7:-9.68454 8:-9.82906 9:3.33333 10:0.666667 11:-1.42857 12:3.33333 13:0.666667 14:-1.42857 15:-10 16:-9.47368 17:-3.44444 18:10 19:-0.16129 20:-5.04451 21:10 22:-2.05053 23:-5.04983 24:10 25:-0.05 26:10 27:3.33333 28:0.666667 29:-1.42857 30:-10 
128 1:-8.90625 2:-9.58333 3:-9.13621 4:-9.78947 5:-8.96641 6:-9.66216 7:-8.80126 8:-9.1453 9:10 10:10 11:10 12:10 13:10 14:10 15:-9.33333 16:-8.42105 17:-5.125 18:3.17073 19:-2.93255 20:-8.14893 21:-3.40278 22:-7.10877 23:-8.63313 24:-3.40351 25:-3.065 26:2.64556 27:10 28:10 29:10 30:-10 
128 1:-9.6875 2:-9.58333 3:-9.2691 4:-9.89474 5:-9.37984 6:-9.7973 7:-9.55836 8:-9.1453 9:3.33333 10:0.666667 11:-1.42857 12:10 13:10 14:10 15:-10 16:-9.47368 17:-3.44444 18:-3.65854 19:-3.54839 20:-8.51632 21:-5.07813 22:-7.72136 23:-8.39424 24:-0.0526316 25:-2.5625 26:-4.70889 27:10 28:10 29:10 30:-10 
128 1:-8.28125 2:-8.33333 3:-9.2691 4:-8.63158 5:-8.55297 6:-8.10811 7:-8.42271 8:-7.86325 9:10 10:10 11:10 12:10 13:10 14:10 15:-8.66667 16:-8.42105 17:-5.125 18:-3.65854 19:-4.51613 20:-7.98424 21:-8.02443 22:-8.00653 23:-8.39424 24:-8.66917 25:-4.68846 26:-4.7796 27:10 28:10 29:10 30:-10 
128 1:-8.90625 2:-9.58333 3:-8.40532 4:-9.78947 5:-8.34625 6:-9.66216 7:-9.05363 8:-9.40171 9:10 10:10 11:10 12:10 13:10 14:10 15:-8.66667 16:-8.15789 17:-2.60417 18:10 19:0.762463 20:-8.23577 21:-0.0520833 22:-6.99433 23:-9.26379 24:-3.40351 25:-0.05 26:10 27:10 28:10 29:10 30:-10 
128 1:-7.34375 2:-4.58333 3:-8.93688 4:-7.05263 5:-7.77778 6:-5.27027 7:-7.09779 8:-4.18803 9:10 10:10 11:10 12:10 13:10 14:10 15:0.666667 16:1.57895 17:8.87963 18:2.41192 19:5.03226 20:-2.30914 21:-5.29049 22:-4.14627 23:-8.88607 24:-9.41198 25:9.14468 26:2.96532 27:10 28:10 29:10 30:-9.25926 
128 1:-6.5625 2:-9.16667 3:-9.00332 4:-9.36842 5:-8.29457 6:-9.18919 7:-5.77287 8:-8.88889 9:10 10:10 11:10 12:10 13:10 14:10 15:-8.66667 16:-8.15789 17:-7.53623 18:1.80488 19:-5.96774 20:-8.2894 21:-5.46474 22:-7.52027 23:-8.81229 24:-7.23308 25:-7.73529 26:1.33226 27:10 28:10 29:10 30:-10 
128 1:-8.28125 2:-10 3:-9.20266 4:-9.78947 5:-9.06977 6:-9.86486 7:-8.29653 8:-9.82906 9:10 10:10 11:10 12:3.33333 13:0.666667 14:-1.42857 15:-10 16:-9.47368 17:-8.48611 18:10 19:-7.19603 20:-9.00359 21:-3.40278 22:-8.25837 23:-8.52287 24:-3.40351 25:-7.94643 26:10 27:3.33333 28:0.666667 29:-1.42857 30:-10 
128 1:-8.59375 2:-9.16667 3:-9.00332 4:-9.05263 5:-8.65633 6:-8.98649 7:-8.29653 8:-8.80342 9:10 10:10 11:10 12:10 13:10 14:10 15:-8.66667 16:-8.15789 17:-4.11667 18:1.80488 19:-2.19355 20:-7.83053 21:-6.33464 22:-7.28176 23:-8.81229 24:-8.09474 25:-4.35714 26:0.561798 27:10 28:10 29:10 30:-10 
128 1:-2.96875 2:-9.58333 3:-6.6113 4:-9.78947 5:-3.38501 6:-9.45946 7:-2.68139 8:-9.40171 9:10 10:10 11:10 12:3.33333 13:0.666667 14:-1.42857 15:-8.66667 16:-8.15789 17:-8.85145 18:10 19:-7.8341 20:-9.59285 21:-3.40278 22:-9.21098 23:-9.68055 24:-3.40351 25:-8.72564 26:10 27:3.33333 28:0.666667 29:-1.42857 30:-10 
128 1:-7.96875 2:-9.58333 3:-9.00332 4:-9.68421 5:-8.08786 6:-9.59459 7:-7.47634 8:-9.40171 9:10 10:10 11:10 12:3.33333 13:0.666667 14:-1.42857 15:-9.33333 16:-8.94737 17:-7.28571 18:3.17073 19:-5.5408 20:-9.00359 21:-4.36012 22:-8.29895 23:-8.81229 24:-5.07895 25:-7.64878 26:2.41573 27:3.33333 28:0.666667 29:-1.42857 30:-10 
128 1:-9.21875 2:-8.95833 3:-9.53488 4:-9.36842 5:-9.43152 6:-9.39189 7:-9.43218 8:-8.97436 9:3.33333 10:0.666667 11:-1.42857 12:3.33333 13:0.666667 14:-1.42857 15:-9.33333 16:-9.21053 17:-3.44444 18:-3.65854 19:-3.54839 20:-6.71612 21:-6.08333 22:-6.43254 23:-7.55814 24:-7.23308 25:-2.06 26:-4.00173 27:3.33333 28:0.666667 29:-1.42857 30:-9.25926 
128 1:-9.21875 2:-9.79167 3:-9.20266 4:-9.57895 5:-9.06977 6:-9.59459 7:-9.05363 8:-9.57265 9:10 10:10 11:10 12:3.33333 13:0.666667 14:-1.42857 15:-9.33333 16:-8.68421 17:-3.44444 18:10 19:-0.16129 20:-7.94784 21:-4.36012 22:-6.99433 23:-8.52287 24:-6.08421 25:-2.5625 26:10 27:3.33333 28:0.666667 29:-1.42857 30:-10 
128 1:-9.6875 2:-9.16667 3:-9.60133 4:-8.94737 5:-9.68992 6:-9.12162 7:-9.55836 8:-8.97436 9:10 10:10 11:10 12:3.33333 13:0.666667 14:-1.42857 15:-10 16:-9.47368 17:-3.44444 18:-6.39024 19:-5.24194 20:-7.19373 21:-8.66815 22:-8.17143 23:-7.19981 24:-8.27751 25:-2.5625 26:-5.55748 27:3.33333 28:0.666667 29:-1.42857 30:-10 
128 1:-8.75 2:-7.29167 3:-9.00332 4:-8.10526 5:-8.65633 6:-7.36486 7:-8.5489 8:-6.66667 9:10 10:10 11:10 12:10 13:10 14:10 15:-8 16:-7.10526 17:-1.2037 18:-4.63415 19:-3.25386 20:-7.08759 21:-8.09375 22:-7.6861 23:-8.81229 24:-9.04709 25:-0.05 26:-4.1573 27:10 28:10 29:10 30:-9.25926 
128 1:-8.28125 2:-9.79167 3:-9.13621 4:-9.36842 5:-8.29457 6:-9.45946 7:-8.35962 8:-9.57265 9:3.33333 10:0.666667 11:-1.42857 12:3.33333 13:0.666667 14:-1.42857 15:-10 16:-9.47368 17:-8.48611 18:-0.243902 19:-7.41935 20:-9.46937 21:-7.87037 22:-9.15006 23:-8.63313 24:-7.23308 25:-7.86667 26:-0.11236 27:3.33333 28:0.666667 29:-1.42857 30:-10 
128 1:-9.53125 2:-10 3:-9.53488 4:-9.89474 5:-9.58656 6:-9.93243 7:-9.2429 8:-9.82906 9:10 10:10 11:10 12:3.33333 13:0.666667 14:-1.42857 15:-10 16:-9.47368 17:-5.125 18:10 19:-2.19355 20:-7.83053 21:-0.0520833 22:-6.43254 23:-7.55814 24:-0.0526316 25:-5.46154 26:10 27:3.33333 28:0.666667 29:-1.42857 30:-10 
128 1:-8.75 2:-10 3:-9.33555 4:-9.89474 5:-9.06977 6:-9.93243 7:-8.73817 8:-9.82906 9:3.33333 10:0.666667 11:-1.42857 12:3.33333 13:0.666667 14:-1.42857 15:-10 16:-9.47368 17:-7.92593 18:10 19:-6.25806 20:-9.00359 21:-0.0520833 22:-8.17143 23:-8.24222 24:-0.0526316 25:-7.22857 26:10 27:3.33333 28:0.666667 29:-1.42857 30:-10 
128 1:-7.96875 2:-10 3:-8.47176 4:-9.57895 5:-8.39793 6:-9.72973 7:-8.04416 8:-9.82906 9:10 10:10 11:10 12:3.33333 13:0.666667 14:-1.42857 15:-10 16:-9.47368 17:-8.72619 18:10 19:-7.6129 20:-9.43249 21:-6.08333 22:-8.99858 23:-9.23034 24:-6.08421 25:-8.21563 26:10 27:3.33333 28:0.666667 29:-1.42857 30:-10 
128 1:-8.28125 2:-7.08333 3:-8.53821 4:-7.05263 5:-7.57106 6:-5.47297 7:-8.61199 8:-7.4359 9:3.33333 10:0.666667 11:-1.42857 12:3.33333 13:0.666667 14:-1.42857 15:-7.33333 16:-6.57895 17:-1.76389 18:-3.65854 19:-2.7957 20:-7.96983 21:-8.62592 22:-8.35281 23:-9.19399 24:-9.41198 25:2.13478 26:-1.09097 27:3.33333 28:0.666667 29:-1.42857 30:-8.51852 
128 1:-9.6875 2:-9.58333 3:-9.53488 4:-8.94737 5:-9.22481 6:-8.78378 7:-9.49527 8:-9.48718 9:10 10:10 11:10 12:3.33333 13:0.666667 14:-1.42857 15:-9.33333 16:-8.94737 17:3.27778 18:3.17073 19:3.22581 20:-7.55193 21:-7.98794 22:-7.78887 23:-7.55814 24:-8.27751 25:1.06667 26:4.22151 27:3.33333 28:0.666667 29:-1.42857 30:-10 
128 1:-5.625 2:-5.41667 3:-6.14618 4:-6 5:-4.83204 6:-4.86486 7:-4.44795 8:-4.87179 9:10 10:10 11:10 12:10 13:10 14:10 15:-9.33333 16:-8.42105 17:-8.77586 18:-8.70626 19:-8.75931 20:-9.66213 21:-9.58198 22:-9.63288 23:-9.72634 24:-9.58974 25:-8.5191 26:-7.90385 27:10 28:10 29:10 30:-10 
128 1:-9.53125 2:-9.58333 3:-9.46844 4:-9.68421 5:-9.43152 6:-9.66216 7:-9.36909 8:-9.31624 9:10 10:10 11:10 12:3.33333 13:0.666667 14:-1.42857 15:-10 16:-9.47368 17:-5.125 18:-3.65854 19:-4.51613 20:-8.38773 21:-6.75347 22:-7.85263 23:-7.83684 24:-5.07895 25:-4.61818 26:-3.48315 27:3.33333 28:0.666667 29:-1.42857 30:-10 
128 1:-10 2:-9.79167 3:-9.93355 4:-9.68421 5:-9.94832 6:-9.7973 7:-9.87382 8:-9.48718 9:3.33333 10:0.666667 11:-1.42857 12:10 13:10 14:10 15:-10 16:-9.47368 17:10 18:-0.243902 19:3.22581 20:-0.0296736 21:-5.07813 22:-3.38947 23:-0.0332226 24:-5.07895 25:10 26:-1.55698 27:10 28:10 29:10 30:-10 
128 1:-6.5625 2:-1.04167 3:-7.9402 4:-5.26316 5:-6.43411 6:-1.21622 7:-5.45741 8:0.42735 9:10 10:10 11:10 12:10 13:10 14:10 15:-2.66667 16:-1.05263 17:0.355072 18:-4.90022 19:-3.04285 20:-6.6206 21:-8.26256 22:-7.6861 23:-9.43937 24:-9.66819 25:-0.463014 26:-4.46972 27:10 28:10 29:10 30:-7.77778 
128 1:-7.03125 2:-7.91667 3:-8.60465 4:-9.36842 5:-7.51938 6:-8.24324 7:-7.22397 8:-8.11966 9:10 10:10 11:10 12:10 13:10 14:10 15:-4.66667 16:-5.26316 17:-1.09167 18:6.27494 19:1.47763 20:-6.37498 21:-3.40278 22:-5.32742 23:-9.15433 24:-7.23308 25:-1.61333 26:6.48266 27:10 28:10 29:10 30:-9.25926 
128 1:-9.375 2:-9.16667 3:-9.60133 4:-9.47368 5:-9.4832 6:-9.32432 7:-9.30599 8:-9.05983 9:3.33333 10:0.666667 11:-1.42857 12:3.33333 13:0.666667 14:-1.42857 15:-8.66667 16:-7.89474 17:1.93333 18:1.80488 19:1.87097 20:-4.58862 21:-4.62121 22:-4.6067 23:-7.19981 24:-6.75439 25:4.975 26:4.94382 27:3.33333 28:0.666667 29:-1.42857 30:-10 
128 1:-8.28125 2:-9.375 3:-8.20598 4:-8.94737 5:-7.57106 6:-8.98649 7:-8.29653 8:-9.05983 9:10 10:10 11:10 12:10 13:10 14:10 15:-9.33333 16:-8.68421 17:-6.80556 18:-0.243902 19:-5.24194 20:-9.22354 21:-7.59115 22:-8.82895 23:-9.34979 24:-8.27751 25:-5.79286 26:-0.11236 27:10 28:10 29:10 30:-10 
128 1:-10 2:-10 3:-9.93355 4:-9.89474 5:-9.94832 6:-9.93243 7:-9.87382 8:-9.82906 9:3.33333 10:0.666667 11:-1.42857 12:3.33333 13:0.666667 14:-1.42857 15:-10 16:-9.47368 17:10 18:10 19:10 20:-0.0296736 21:-0.0520833 22:-0.0421053 23:-0.0332226 24:-0.0526316 25:10 26:10 27:3.33333 28:0.666667 29:-1.42857 30:-10 
128 1:-2.34375 2:-9.375 3:-7.40864 4:-9.15789 5:-2.29974 6:-9.12162 7:-2.80757 8:-9.31624 9:10 10:10 11:10 12:3.33333 13:0.666667 14:-1.42857 15:-9.33333 16:-8.68421 17:-9.36 18:-0.243902 19:-8.8172 20:-9.79189 21:-7.23214 22:-9.59435 23:-9.56478 24:-7.87135 25:-9.0513 26:3.25843 27:3.33333 28:0.666667 29:-1.42857 30:-10 
128 1:-7.5 2:-8.95833 3:-7.14286 4:-9.36842 5:-7.31266 6:-9.18919 7:-7.28707 8:-8.37607 9:10 10:10 11:10 12:10 13:10 14:10 15:-8.66667 16:-7.63158 17:-6.60784 18:-0.243902 19:-5.02104 20:-8.92391 21:-5.46474 22:-8.25837 23:-9.61039 24:-7.23308 25:-5.53182 26:-0.11236 27:10 28:10 29:10 30:-10 
128 1:-9.21875 2:-9.58333 3:-8.80399 4:-8.73684 5:-8.86305 6:-8.98649 7:-9.11672 8:-9.40171 9:10 10:10 11:10 12:3.33333 13:0.666667 14:-1.42857 15:-8.66667 16:-8.15789 17:-0.0833333 18:10 19:3.22581 20:-7.44291 21:-6.33464 22:-6.99433 23:-9.01032 24:-8.5587 25:0.62 26:10 27:3.33333 28:0.666667 29:-1.42857 30:-10 
128 1:-9.6875 2:-9.16667 3:-9.80066 4:-7.57895 5:-9.79328 6:-7.97297 7:-9.62145 8:-8.54701 9:3.33333 10:0.666667 11:-1.42857 12:10 13:10 14:10 15:-10 16:-9.47368 17:-3.44444 18:-6.39024 19:-5.24194 20:-6.04748 21:-9.45565 22:-8.96842 23:-5.04983 24:-9.26754 25:-1.48571 26:-6.85393 27:10 28:10 29:10 30:-10 
128 1:-5.78125 2:-8.75 3:-5.61462 4:-8.84211 5:-4.21189 6:-8.78378 7:-5.26814 8:-8.2906 9:10 10:10 11:10 12:10 13:10 14:10 15:-8.66667 16:-7.36842 17:-8.00595 18:-1.70732 19:-6.83871 20:-9.5268 21:-6.92982 22:-9.17129 23:-9.76695 24:-8.42982 25:-7.19079 26:0.369181 27:10 28:10 29:10 30:-10 
128 1:-9.6875 2:-10 3:-9.33555 4:-9.68421 5:-9.37984 6:-9.7973 7:-9.74763 8:-9.82906 9:3.33333 10:0.666667 11:-1.42857 12:3.33333 13:0.666667 14:-1.42857 15:-10 16:-9.47368 17:-3.44444 18:10 19:-0.16129 20:-8.51632 21:-5.07813 22:-7.72136 23:-8.24222 24:-5.07895 25:1.96 26:10 27:3.33333 28:0.666667 29:-1.42857 30:-10 
128 1:-6.40625 2:-9.375 3:-6.67774 4:-8.84211 5:-6.12403 6:-8.85135 7:-5.5836 8:-9.1453 9:10 10:10 11:10 12:3.33333 13:0.666667 14:-1.42857 15:-8.66667 16:-7.89474 17:-7.64583 18:4.87805 19:-5.96774 20:-9.26753 21:-6.75347 22:-8.80224 23:-9.67299 24:-8.42982 25:-7.55211 26:6.32278 27:3.33333 28:0.666667 29:-1.42857 30:-10 
128 1:-9.53125 2:-9.58333 3:-9.66777 4:-9.57895 5:-9.4832 6:-9.45946 7:-9.36909 8:-9.31624 9:10 10:10 11:10 12:10 13:10 14:10 15:-8.66667 16:-7.89474 17:4.95833 18:10 19:7.09677 20:-4.58862 21:-3.40278 22:-4.05895 23:-6.72204 24:-6.08421 25:6.34545 26:10 27:10 28:10 29:10 30:-9.25926 
128 1:-5.15625 2:-5.20833 3:-7.27575 4:-7.68421 5:-3.43669 6:-4.18919 7:-4.19558 8:-3.93162 9:10 10:10 11:10 12:10 13:10 14:10 15:2 16:3.94737 17:1.80729 18:5.73171 19:3.46774 20:-7.08179 21:-5.7136 22:-6.53444 23:-9.58867 24:-9.23112 25:1.57097 26:4.94382 27:10 28:10 29:10 30:-8.51852 
128 1:-8.75 2:-9.375 3:-9.60133 4:-9.36842 5:-9.06977 6:-9.59459 7:-8.4858 8:-9.23077 9:10 10:10 11:10 12:10 13:10 14:10 15:-10 16:-9.47368 17:-7.92593 18:-5.36585 19:-7.19603 20:-9.00359 21:-7.23214 22:-8.53927 23:-7.19981 24:-7.23308 25:-7.688 26:-4.1573 27:10 28:10 29:10 30:-10 
128 1:-8.125 2:-8.75 3:-8.60465 4:-8.73684 5:-8.03618 6:-8.17568 7:-7.85489 8:-8.37607 9:10 10:10 11:10 12:10 13:10 14:10 15:-8.66667 16:-7.89474 17:-5.51282 18:-1.70732 19:-4.22581 20:-8.51632 21:-7.95015 22:-8.28562 23:-9.15433 24:-8.5587 25:-4.93143 26:-1.1236 27:10 28:10 29:10 30:-10 
128 1:-9.0625 2:-9.58333 3:-9.40199 4:-9.26316 5:-9.22481 6:-9.52703 7:-8.92744 8:-9.40171 9:10 10:10 11:10 12:3.33333 13:0.666667 14:-1.42857 15:-10 16:-9.47368 17:-7.28571 18:-3.65854 19:-6.25806 20:-8.80564 21:-7.59115 22:-8.41053 23:-8.0598 24:-7.59211 25:-6.75 26:-2.64045 27:3.33333 28:0.666667 29:-1.42857 30:-10 
128 1:-8.125 2:-8.95833 3:-9.00332 4:-9.36842 5:-8.60465 6:-9.12162 7:-7.60252 8:-8.71795 9:10 10:10 11:10 12:10 13:10 14:10 15:-7.33333 16:-6.57895 17:-2.41026 18:6.58537 19:0.373514 20:-6.47732 21:-2.92411 22:-5.30226 23:-8.81229 24:-7.23308 25:-2.88462 26:7.47191 27:10 28:10 29:10 30:-9.25926 
128 1:-9.0625 2:-8.95833 3:-8.47176 4:-8.73684 5:-8.55297 6:-8.91892 7:-9.11672 8:-8.97436 9:10 10:10 11:10 12:3.33333 13:0.666667 14:-1.42857 15:-8.66667 16:-8.68421 17:-1.52381 18:-0.243902 19:-0.942928 20:-7.98424 21:-6.55637 22:-7.46453 23:-9.23034 24:-8.5587 25:-2.06 26:-0.890233 27:3.33333 28:0.666667 29:-1.42857 30:-10 
128 1:-9.21875 2:-10 3:-9.60133 4:-9.89474 5:-9.43152 6:-9.93243 7:-8.80126 8:-9.82906 9:10 10:10 11:10 12:3.33333 13:0.666667 14:-1.42857 15:-10 16:-9.47368 17:-6.80556 18:10 19:-4.51613 20:-8.38773 21:-0.0520833 22:-7.21504 23:-7.19981 24:-0.0526316 25:-7.085 26:10 27:3.33333 28:0.666667 29:-1.42857 30:-10 
128 1:-8.75 2:-8.95833 3:-8.33887 4:-8.84211 5:-8.03618 6:-8.64865 7:-8.73817 8:-8.80342 9:10 10:10 11:10 12:10 13:10 14:10 15:-8 16:-7.63158 17:-1.2037 18:3.17073 19:0.516129 20:-8.00198 21:-6.2748 22:-7.40632 23:-9.29466 24:-8.42982 25:-0.528571 26:3.25843 27:10 28:10 29:10 30:-9.25926 
128 1:-7.03125 2:-9.375 3:-8.00664 4:-9.47368 5:-7.41602 6:-9.32432 7:-6.52997 8:-9.1453 9:10 10:10 11:10 12:10 13:10 14:10 15:-8.66667 16:-8.15789 17:-7.14167 18:4.87805 19:-5.24194 20:-8.87939 21:-4.62121 22:-8.14058 23:-9.41914 24:-6.75439 25:-7.22857 26:4.48417 27:10 28:10 29:10 30:-9.25926 
128 1:-8.90625 2:-9.79167 3:-9.2691 4:-9.89474 5:-9.27649 6:-9.7973 7:-8.73817 8:-9.65812 9:10 10:10 11:10 12:3.33333 13:0.666667 14:-1.42857 15:-9.33333 16:-8.94737 17:-5.125 18:10 19:-2.19355 20:-7.38477 21:-0.0520833 22:-5.85596 23:-8.39424 24:-0.0526316 25:-5.31429 26:10 27:3.33333 28:0.666667 29:-1.42857 30:-9.25926 
128 1:-9.375 2:-9.58333 3:-8.87043 4:-8.31579 5:-8.24289 6:-8.31081 7:-9.36909 8:-9.48718 9:3.33333 10:0.666667 11:-1.42857 12:3.33333 13:0.666667 14:-1.42857 15:-9.33333 16:-8.94737 17:-2.1 18:3.17073 19:-0.16129 20:-8.9131 21:-8.55769 22:-8.76721 23:-8.95164 24:-8.9226 25:-0.963636 26:4.22151 27:3.33333 28:0.666667 29:-1.42857 30:-9.25926 
128 1:-9.6875 2:-9.79167 3:-9.66777 4:-9.47368 5:-9.37984 6:-9.45946 7:-9.62145 8:-9.57265 9:3.33333 10:0.666667 11:-1.42857 12:3.33333 13:0.666667 14:-1.42857 15:-9.33333 16:-8.68421 17:3.27778 18:10 19:5.93548 20:-6.97329 21:-5.63657 22:-6.43254 23:-6.72204 24:-6.75439 25:7.12857 26:10 27:3.33333 28:0.666667 29:-1.42857 30:-10 
128 1:-7.65625 2:-8.95833 3:-8.20598 4:-9.05263 5:-7.82946 6:-9.12162 7:-7.09779 8:-8.46154 9:10 10:10 11:10 12:10 13:10 14:10 15:-9.33333 16:-8.68421 17:-7.64583 18:-3.65854 19:-6.62757 20:-9.12635 21:-7.23214 22:-8.67479 23:-9.34979 24:-8.09474 25:-7.53404 26:-3.83797 27:10 28:10 29:10 30:-10 
128 1:-9.6875 2:-10 3:-9.53488 4:-9.36842 5:-9.43152 6:-9.59459 7:-9.43218 8:-9.82906 9:10 10:10 11:10 12:3.33333 13:0.666667 14:-1.42857 15:-10 16:-9.47368 17:-3.44444 18:10 19:-0.16129 20:-8.38773 21:-7.23214 22:-7.97008 23:-7.55814 24:-7.23308 25:-4.07 26:10 27:3.33333 28:0.666667 29:-1.42857 30:-10 
128 1:-4.0625 2:-9.16667 3:-7.14286 4:-9.68421 5:-4.57364 6:-9.39189 7:-3.05994 8:-8.97436 9:10 10:10 11:10 12:10 13:10 14:10 15:-7.33333 16:-6.84211 17:-7.5812 18:10 19:-5.70381 20:-9.11315 21:-0.0520833 22:-8.35281 23:-9.61039 24:-5.07895 25:-7.74595 26:10 27:10 28:10 29:10 30:-10 
128 1:-8.4375 2:-9.79167 3:-9.06977 4:-9.68421 5:-8.81137 6:-9.66216 7:-8.42271 8:-9.48718 9:10 10:10 11:10 12:10 13:10 14:10 15:-9.33333 16:-8.42105 17:-6.5 18:10 19:-4.06948 20:-8.38773 21:-3.40278 22:-7.40632 23:-8.72868 24:-5.07895 25:-4.68846 26:10 27:10 28:10 29:10 30:-10 
128 1:-4.0625 2:-9.375 3:-6.54485 4:-9.78947 5:-5.24548 6:-9.52703 7:-3.75394 8:-8.97436 9:10 10:10 11:10 12:10 13:10 14:10 15:-8 16:-6.84211 17:-8.09829 18:10 19:-6.54164 20:-9.19658 21:-0.0520833 22:-8.49338 23:-9.68783 24:-3.40351 25:-7.487 26:10 27:10 28:10 29:10 30:-9.25926 
128 1:-7.5 2:-10 3:-8.20598 4:-9.57895 5:-7.93282 6:-9.72973 7:-7.09779 8:-9.82906 9:10 10:10 11:10 12:3.33333 13:0.666667 14:-1.42857 15:-10 16:-9.47368 17:-8.98039 18:10 19:-8.06452 20:-9.57009 21:-6.08333 22:-9.21098 23:-9.34979 24:-6.08421 25:-8.81702 26:10 27:3.33333 28:0.666667 29:-1.42857 30:-10 
128 1:-5 2:-8.75 3:-6.74419 4:-9.57895 5:-5.4522 6:-8.85135 7:-5.33123 8:-8.71795 9:10 10:10 11:10 12:10 13:10 14:10 15:-6 16:-6.05263 17:-5.88889 18:10 19:-3.20968 20:-8.48165 21:-2.28588 22:-7.45637 23:-9.66512 24:-6.08421 25:-5.812 26:10 27:10 28:10 29:10 30:-10 
128 1:-7.96875 2:-8.95833 3:-9.20266 4:-9.36842 5:-8.55297 6:-9.12162 7:-7.7918 8:-8.54701 9:10 10:10 11:10 12:10 13:10 14:10 15:-6.66667 16:-5.52632 17:-1.52381 18:10 19:1.87097 20:-5.90914 21:-1.4881 22:-4.47931 23:-8.52287 24:-7.23308 25:-0.05 26:10 27:10 28:10 29:10 30:-8.51852 
128 1:-9.375 2:-9.79167 3:-9.66777 4:-9.68421 5:-9.43152 6:-9.7973 7:-9.11672 8:-9.40171 9:10 10:10 11:10 12:10 13:10 14:10 15:-10 16:-9.21053 17:-6.13333 18:-0.243902 19:-4.51613 20:-8.38773 21:-5.07813 22:-7.57368 23:-6.72204 24:-5.07895 25:-4.74 26:-0.11236 27:10 28:10 29:10 30:-10 
128 1:-7.03125 2:-9.79167 3:-6.94352 4:-8.63158 5:-5.96899 6:-9.05405 7:-6.65615 8:-9.40171 9:10 10:10 11:10 12:10 13:10 14:10 15:-9.33333 16:-8.15789 17:-8.15 18:10 19:-6.62757 20:-9.55152 21:-7.42361 22:-9.22956 23:-9.6395 24:-8.66917 25:-7.12222 26:10 27:10 28:10 29:10 30:-10 
128 1:-4.84375 2:-4.375 3:-7.9402 4:-8.63158 5:-6.48579 6:-6.62162 7:-4.57413 8:-4.10256 9:10 10:10 11:10 12:10 13:10 14:10 15:2.66667 16:3.15789 17:1.69608 18:4.14634 19:2.78876 20:-4.24504 21:-2.22018 22:-3.38947 23:-9.43937 24:-8.66917 25:1.68276 26:4.51043 27:10 28:10 29:10 30:-6.2963 
128 1:-8.28125 2:-9.79167 3:-8.6711 4:-9.68421 5:-8.29457 6:-9.72973 7:-8.35962 8:-9.57265 9:10 10:10 11:10 12:10 13:10 14:10 15:-9.33333 16:-8.68421 17:-6.80556 18:10 19:-4.51613 20:-8.87939 21:-2.0625 22:-8.02429 23:-9.1109 24:-5.07895 25:-5.63333 26:10 27:10 28:10 29:10 30:-9.25926 
128 1:-7.8125 2:-8.75 3:-8.47176 4:-7.78947 5:-8.39793 6:-8.44595 7:-7.22397 8:-8.03419 9:10 10:10 11:10 12:10 13:10 14:10 15:-8.66667 16:-7.36842 17:-6.13333 18:-1.70732 19:-4.78006 20:-8.17878 21:-7.59115 22:-7.93233 23:-9.23034 24:-9.19139 25:-5.18667 26:-0.955056 27:10 28:10 29:10 30:-9.25926 
128 1:-9.21875 2:-10 3:-8.80399 4:-9.89474 5:-8.81137 6:-9.93243 7:-8.80126 8:-9.74359 9:10 10:10 11:10 12:10 13:10 14:10 15:-10 16:-9.21053 17:-6.80556 18:10 19:-4.51613 20:-9.22354 21:-0.0520833 22:-8.53927 23:-9.01032 24:-0.0526316 25:-6.08 26:10 27:10 28:10 29:10 30:-10 
128 1:-7.96875 2:-8.95833 3:-8.40532 4:-8.31579 5:-7.7261 6:-8.78378 7:-7.53943 8:-8.2906 9:10 10:10 11:10 12:10 13:10 14:10 15:-9.33333 16:-8.42105 17:-7.28571 18:-3.65854 19:-6.25806 20:-9.16782 21:-7.98794 22:-8.82895 23:-9.26379 24:-8.9226 25:-6.5825 26:-3.48315 27:10 28:10 29:10 30:-10 
128 1:-5.9375 2:-8.54167 3:-6.94352 4:-8.31579 5:-5.91731 6:-8.58108 7:-5.96215 8:-8.37607 9:10 10:10 11:10 12:10 13:10 14:10 15:-10 16:-9.21053 17:-9.41975 18:-7.92683 19:-9.16129 20:-9.80861 21:-9.19034 22:-9.6904 23:-9.6395 24:-8.9226 25:-8.86308 26:-6.17978 27:10 28:10 29:10 30:-10 
128 1:-6.71875 2:-9.58333 3:-7.54153 4:-8.52632 5:-6.07235 6:-8.58108 7:-6.52997 8:-9.31624 9:10 10:10 11:10 12:10 13:10 14:10 15:-8.66667 16:-7.89474 17:-7.41667 18:10 19:-5.44516 20:-9.27781 21:-7.36269 22:-8.86699 23:-9.53838 24:-8.76491 25:-6.86964 26:10 27:10 28:10 29:10 30:-9.25926 
128 1:-9.21875 2:-3.75 3:-8.73754 4:-5.36842 5:-8.29457 6:-1.82432 7:-8.80126 8:-1.45299 9:10 10:10 11:10 12:10 13:10 14:10 15:-9.33333 16:-8.15789 17:-3.44444 18:-9.16601 19:-8.12554 20:-8.87939 21:-9.77459 22:-9.56923 23:-9.06312 24:-9.65848 25:-2.06 26:-8.62276 27:10 28:10 29:10 30:-10 
128 1:-9.6875 2:-9.58333 3:-9.86711 4:-9.78947 5:-9.79328 6:-9.72973 7:-9.68454 8:-9.57265 9:10 10:10 11:10 12:10 13:10 14:10 15:-9.33333 16:-8.94737 17:3.27778 18:3.17073 19:3.22581 20:-2.03561 21:-2.0625 22:-2.05053 23:-3.37763 24:-3.40351 25:6.65 26:6.62921 27:10 28:10 29:10 30:-10 
128 1:-8.125 2:-10 3:-8.13953 4:-9.78947 5:-8.39793 6:-9.86486 7:-7.53943 8:-9.74359 9:10 10:10 11:10 12:10 13:10 14:10 15:-10 16:-9.21053 17:-8.61538 18:10 19:-7.41935 20:-9.43249 21:-3.40278 22:-8.93654 23:-9.3745 24:-3.40351 25:-8.09 26:10 27:10 28:10 29:10 30:-10 
128 1:-8.4375 2:-9.79167 3:-9.06977 4:-9.89474 5:-8.70801 6:-9.7973 7:-8.29653 8:-9.57265 9:10 10:10 11:10 12:10 13:10 14:10 15:-9.33333 16:-8.68421 17:-6.5 18:10 19:-4.06948 20:-8.51632 21:-0.0520833 22:-7.40632 23:-8.72868 24:-0.0526316 25:-5.79286 26:10 27:10 28:10 29:10 30:-9.25926 
128 1:-7.34375 2:-10 3:-8.93688 4:-9.78947 5:-8.39793 6:-9.86486 7:-7.09779 8:-9.74359 9:10 10:10 11:10 12:10 13:10 14:10 15:-10 16:-9.21053 17:-9.0463 18:10 19:-8.18336 20:-9.43249 21:-3.40278 22:-8.93654 23:-8.88607 24:-3.40351 25:-8.38936 26:10 27:10 28:10 29:10 30:-10 
128 1:-7.1875 2:-9.375 3:-7.47508 4:-9.26316 5:-6.22739 6:-9.05405 7:-7.16088 8:-9.1453 9:10 10:10 11:10 12:10 13:10 14:10 15:-8 16:-7.36842 17:-5.92105 18:10 19:-3.25386 20:-8.97506 21:-4.74306 22:-8.27889 23:-9.55192 24:-7.59211 25:-5.29348 26:10 27:10 28:10 29:10 30:-10 
128 1:-9.84375 2:-10 3:-9.60133 4:-9.78947 5:-9.68992 6:-9.86486 7:-9.74763 8:-9.74359 9:10 10:10 11:10 12:10 13:10 14:10 15:-10 16:-9.21053 17:-0.0833333 18:10 19:3.22581 20:-7.19373 21:-3.40278 22:-6.06737 23:-7.19981 24:-3.40351 25:5.98 26:10 27:10 28:10 29:10 30:-10 
128 1:-9.6875 2:-10 3:-9.2691 4:-9.78947 5:-9.17313 6:-9.86486 7:-9.36909 8:-9.74359 9:10 10:10 11:10 12:10 13:10 14:10 15:-10 16:-9.21053 17:-3.44444 18:10 19:-0.16129 20:-8.87939 21:-3.40278 22:-8.07579 23:-8.39424 24:-3.40351 25:-2.79091 26:10 27:10 28:10 29:10 30:-10 
128 1:-7.65625 2:-8.95833 3:-8.20598 4:-8.63158 5:-7.15762 6:-8.31081 7:-7.16088 8:-8.46154 9:10 10:10 11:10 12:10 13:10 14:10 15:-7.33333 16:-6.05263 17:-3.86458 18:6.58537 19:-1.08504 20:-8.26833 21:-6.23798 22:-7.63492 23:-9.34979 24:-8.66917 25:-3.1087 26:6.80662 27:10 28:10 29:10 30:-9.25926 
128 1:-3.90625 2:-8.75 3:-5.1495 4:-8.52632 5:-3.07494 6:-8.31081 7:-4.0694 8:-8.71795 9:10 10:10 11:10 12:10 13:10 14:10 15:-8 16:-7.63158 17:-8.15 18:1.21951 19:-6.86342 20:-9.465 21:-7.01122 22:-9.08624 23:-9.79528 24:-8.76491 25:-7.98421 26:2.41573 27:10 28:10 29:10 30:-10 
128 1:-8.125 2:-10 3:-7.67442 4:-9.36842 5:-7.77778 6:-9.59459 7:-8.29653 8:-9.74359 9:10 10:10 11:10 12:10 13:10 14:10 15:-10 16:-9.21053 17:-8.61538 18:10 19:-7.41935 20:-9.60345 21:-7.23214 22:-9.29659 23:-9.50904 24:-7.23308 25:-7.22857 26:10 27:10 28:10 29:10 30:-10 
128 1:-4.6875 2:-5 3:-7.9402 4:-7.47368 5:-4.88372 6:-5.27027 7:-3.69085 8:-4.35897 9:10 10:10 11:10 12:10 13:10 14:10 16:1.31579 17:-0.947619 18:2.62439 19:0.516129 20:-6.84985 21:-5.57365 22:-6.32576 23:-9.43937 24:-9.30105 25:-1.34356 26:3.05719 27:10 28:10 29:10 30:-9.25926 
128 1:-8.75 2:-9.58333 3:-6.94352 4:-8.52632 5:-6.07235 6:-9.05405 7:-8.35962 8:-9.1453 9:10 10:10 11:10 12:10 13:10 14:10 15:-10 16:-9.21053 17:-7.92593 18:-3.65854 19:-6.93548 20:-9.79884 21:-8.76389 22:-9.6476 23:-9.6395 24:-8.76491 25:-7.12222 26:-2.87028 27:10 28:10 29:10 30:-10 
128 1:-9.21875 2:-9.375 3:-9.00332 4:-8.84211 5:-8.91473 6:-8.98649 7:-8.92744 8:-8.88889 9:10 10:10 11:10 12:10 13:10 14:10 15:-8 16:-6.57895 17:3.27778 18:10 19:5.93548 20:-6.41219 21:-5.07813 22:-5.85596 23:-8.81229 24:-8.42982 25:5.53333 26:10 27:10 28:10 29:10 30:-9.25926 
128 1:-9.0625 2:-7.91667 3:-9.60133 4:-7.68421 5:-8.91473 6:-7.02703 7:-8.4858 8:-6.75214 9:10 10:10 11:10 12:10 13:10 14:10 15:-6 16:-3.68421 17:10 18:2.54989 19:5.48387 20:-3.67683 21:-6.97685 22:-5.88751 23:-7.19981 24:-9.23112 25:10 26:2.73984 27:10 28:10 29:10 30:-7.77778 
128 1:-5 2:-8.95833 3:-7.00997 4:-8.84211 5:-5.91731 6:-8.91892 7:-4.88959 8:-8.63248 9:10 10:10 11:10 12:10 13:10 14:10 15:-7.33333 16:-6.31579 17:-7.11111 18:6.58537 19:-5.11166 20:-8.80564 21:-4.19118 22:-8.01367 23:-9.63022 24:-8.42982 25:-6.42317 26:7.62062 27:10 28:10 29:10 30:-9.25926 
128 1:-9.53125 2:-9.79167 3:-9.00332 4:-9.78947 5:-9.06977 6:-9.66216 7:-9.2429 8:-9.40171 9:10 10:10 11:10 12:10 13:10 14:10 15:-9.33333 16:-8.15789 17:-0.0833333 18:10 19:3.22581 20:-7.94784 21:-3.40278 22:-6.87074 23:-8.81229 24:-3.40351 25:2.26923 26:10 27:10 28:10 29:10 30:-10 
128 1:-9.84375 2:-9.79167 3:-9.93355 4:-9.89474 5:-9.84496 6:-9.7973 7:-9.55836 8:-9.40171 9:10 10:10 11:10 12:10 13:10 14:10 15:-9.33333 16:-8.15789 17:10 18:10 19:10 20:-0.0296736 21:-0.0520833 22:-0.0421053 23:-0.0332226 24:-0.0526316 25:10 26:10 27:10 28:10 29:10 30:-9.25926 
128 1:-9.0625 2:-9.79167 3:-9.20266 4:-9.57895 5:-8.96641 6:-9.39189 7:-8.92744 8:-9.40171 9:10 10:10 11:10 12:10 13:10 14:10 15:-9.33333 16:-8.15789 17:-4.40476 18:10 19:-1.29032 20:-8.14893 21:-6.08333 22:-7.4927 23:-8.52287 24:-6.08421 25:-1.16667 26:10 27:10 28:10 29:10 30:-10 
128 1:-9.21875 2:-8.75 3:-9.13621 4:-8.21053 5:-9.06977 6:-8.44595 7:-9.05363 8:-8.20513 9:10 10:10 11:10 12:10 13:10 14:10 15:-8.66667 16:-7.36842 17:-0.0833333 18:-1.70732 19:-0.942928 20:-6.89208 21:-7.59115 22:-7.28176 23:-8.63313 24:-8.9883 25:3.71875 26:-0.11236 27:10 28:10 29:10 30:-10 
128 1:-5.3125 2:-8.125 3:-6.6113 4:-7.05263 5:-6.43411 6:-7.7027 7:-5.26814 8:-7.77778 9:10 10:10 11:10 12:10 13:10 14:10 15:-9.33333 16:-8.15789 17:-8.86559 18:-6.39024 19:-8.33989 20:-9.48622 21:-8.95536 22:-9.3191 23:-9.68055 24:-9.41198 25:-7.98421 26:-4.23221 27:10 28:10 29:10 30:-9.25926 
128 1:-7.8125 2:-7.08333 3:-6.34551 4:-3.89474 5:-5.03876 6:-3.31081 7:-7.28707 8:-6.41026 9:10 10:10 11:10 12:10 13:10 14:10 15:-2 16:0.526316 17:7.31111 18:7.26829 19:7.29032 20:-7.37098 21:-7.49063 22:-7.4335 23:-9.70812 24:-9.7645 25:8.62955 26:9.05932 27:10 28:10 29:10 30:-8.51852 
128 1:-9.21875 2:-7.29167 3:-9.60133 4:-8.84211 5:-9.43152 6:-7.97297 7:-8.99054 8:-6.83761 9:10 10:10 11:10 12:10 13:10 14:10 15:-6.66667 16:-5.78947 17:10 18:-1.70732 19:1.87097 20:-0.0296736 21:-6.21304 22:-4.47931 23:-7.19981 24:-8.42982 25:10 26:-1.17682 27:10 28:10 29:10 30:-8.51852 
128 1:-7.03125 2:-9.16667 3:-7.74086 4:-9.36842 5:-6.89922 6:-9.12162 7:-6.78233 8:-8.71795 9:10 10:10 11:10 12:10 13:10 14:10 15:-8 16:-7.10526 17:-6.13333 18:5.90244 19:-3.81935 20:-8.74398 21:-4.36012 22:-7.94189 23:-9.49312 24:-7.23308 25:-5.46154 26:4.94382 27:10 28:10 29:10 30:-10 
128 1:-8.4375 2:-8.125 3:-9.33555 4:-8.84211 5:-8.34625 6:-7.83784 7:-8.35962 8:-7.77778 9:10 10:10 11:10 12:10 13:10 14:10 15:-5.33333 16:-4.73684 17:4.5 18:5.90244 19:5.16129 20:-5.19648 21:-5.23043 22:-5.21531 23:-8.24222 24:-8.42982 25:5.53333 26:5.50562 27:10 28:10 29:10 30:-8.51852 
128 1:-9.375 2:-9.58333 3:-9.40199 4:-9.26316 5:-9.22481 6:-9.32432 7:-9.05363 8:-9.1453 9:10 10:10 11:10 12:10 13:10 14:10 15:-9.33333 16:-8.42105 17:-2.1 18:3.17073 19:-0.16129 20:-7.55193 21:-6.44886 22:-7.10877 23:-8.0598 24:-7.59211 25:-1.30625 26:2.64556 27:10 28:10 29:10 30:-9.25926 
128 1:-9.0625 2:-9.58333 3:-9.53488 4:-9.68421 5:-9.27649 6:-9.72973 7:-8.73817 8:-9.40171 9:10 10:10 11:10 12:10 13:10 14:10 15:-10 16:-9.21053 17:-7.28571 18:-3.65854 19:-6.25806 20:-8.72206 21:-6.08333 22:-8.07579 23:-7.55814 24:-5.07895 25:-6.27143 26:-0.11236 27:10 28:10 29:10 30:-10 
128 1:-7.65625 2:-6.66667 3:-8.20598 4:-7.78947 5:-6.69251 6:-7.90541 7:-7.09779 8:-5.29915 9:10 10:10 11:10 12:10 13:10 14:10 15:-9.33333 16:-8.15789 17:-7.64583 18:-8.07747 19:-7.85924 20:-9.44214 21:-8.84766 22:-9.256 23:-9.34979 24:-9.19139 25:-6.67872 26:-7.33547 27:10 28:10 29:10 30:-9.25926 
128 1:-8.75 2:-10 3:-9.2691 4:-10 5:-9.12145 6:-10 7:-8.42271 8:-9.74359 9:10 10:10 11:10 12:10 13:10 14:10 15:-10 16:-9.21053 17:-7.92593 18:10 19:-6.25806 20:-8.94494 21:10 22:-7.97008 23:-8.39424 24:10 25:-7.00769 26:10 27:10 28:10 29:10 30:-10 
128 1:-9.0625 2:-8.54167 3:-9.13621 4:-8.31579 5:-8.19121 6:-7.2973 7:-8.86435 8:-8.2906 9:10 10:10 11:10 12:10 13:10 14:10 15:-6.66667 16:-6.05263 17:7.11905 18:4.87805 19:5.93548 20:-6.71612 21:-7.16209 22:-6.9542 23:-8.63313 24:-8.9226 25:6.82632 26:5.18459 27:10 28:10 29:10 30:-9.25926 
128 1:-3.90625 2:-8.54167 3:-7.34219 4:-9.15789 5:-3.54005 6:-8.04054 7:-3.18612 8:-7.69231 9:10 10:10 11:10 12:10 13:10 14:10 15:-6.66667 16:-3.94737 17:-7.14167 18:4.87805 19:-5.24194 20:-9.10414 21:-6.08333 22:-8.53927 23:-9.57702 24:-7.87135 25:-5.67431 26:7.11075 27:10 28:10 29:10 30:-9.25926 
128 1:-10 2:-10 3:-9.80066 4:-9.68421 5:-9.84496 6:-9.7973 7:-9.81073 8:-9.74359 9:10 10:10 11:10 12:10 13:10 14:10 15:-10 16:-9.21053 17:10 18:10 19:10 20:-5.04451 21:-5.07813 22:-5.06316 23:-5.04983 24:-5.07895 25:10 26:10 27:10 28:10 29:10 30:-10 
128 1:-9.375 2:-9.79167 3:-9.20266 4:-9.78947 5:-9.01809 6:-9.86486 7:-9.11672 8:-9.48718 9:10 10:10 11:10 12:10 13:10 14:10 15:-10 16:-9.21053 17:-6.13333 18:-0.243902 19:-4.51613 20:-9.05638 21:-3.40278 22:-8.33776 23:-8.52287 24:-3.40351 25:-4.74 26:1.33226 27:10 28:10 29:10 30:-10 
128 1:-5.78125 2:-7.5 3:-7.14286 4:-7.68421 5:-5.71059 6:-5.60811 7:-4.38486 8:-6.75214 9:10 10:10 11:10 12:10 13:10 14:10 15:-8.66667 16:-7.10526 17:-8.00595 18:-5.75985 19:-7.34854 20:-9.34294 21:-9.19034 22:-9.28084 23:-9.61039 24:-9.23112 25:-7.42 26:-4.00173 27:10 28:10 29:10 30:-9.25926 
128 1:-6.875 2:-8.125 3:-7.60797 4:-7.57895 5:-7.41602 6:-7.97297 7:-6.34069 8:-7.77778 9:10 10:10 11:10 12:10 13:10 14:10 15:-10 16:-9.21053 17:-9.20635 18:-8.43902 19:-9.01145 20:-9.66603 21:-9.45565 22:-9.59435 23:-9.52411 24:-9.26754 25:-8.73729 26:-7.22846 27:10 28:10 29:10 30:-10 
128 1:-9.53125 2:-10 3:-9.46844 4:-9.68421 5:-9.4832 6:-9.7973 7:-9.05363 8:-9.74359 9:10 10:10 11:10 12:10 13:10 14:10 15:-10 16:-9.21053 17:-5.125 18:10 19:-2.19355 20:-8.23577 21:-5.07813 22:-7.40632 23:-7.83684 24:-5.07895 25:-5.075 26:10 27:10 28:10 29:10 30:-10 
128 1:-9.375 2:-9.16667 3:-9.46844 4:-9.15789 5:-9.17313 6:-8.91892 7:-9.11672 8:-8.80342 9:10 10:10 11:10 12:10 13:10 14:10 15:-7.33333 16:-6.31579 17:10 18:10 19:10 20:-4.15954 21:-4.19118 22:-4.17709 23:-7.83684 24:-7.87135 25:10 26:10 27:10 28:10 29:10 30:-7.77778 
128 1:-9.84375 2:-10 3:-9.66777 4:-9.57895 5:-9.68992 6:-9.72973 7:-9.55836 8:-9.74359 9:10 10:10 11:10 12:10 13:10 14:10 15:-10 16:-9.21053 17:-0.0833333 18:10 19:3.22581 20:-7.19373 21:-6.08333 22:-6.73684 23:-6.72204 24:-6.08421 25:-0.05 26:10 27:10 28:10 29:10 30:-10 
128 1:-9.6875 2:-10 3:-9.00332 4:-8.63158 5:-9.12145 6:-9.12162 7:-9.30599 8:-9.74359 9:10 10:10 11:10 12:10 13:10 14:10 15:-10 16:-9.21053 17:-3.44444 18:10 19:-0.16129 20:-8.94494 21:-8.66815 22:-8.82895 23:-8.81229 24:-8.66917 25:-3.4 26:10 27:10 28:10 29:10 30:-10 
128 1:-10 2:-10 3:-9.93355 4:-9.89474 5:-9.94832 6:-9.93243 7:-9.81073 8:-9.74359 9:10 10:10 11:10 12:10 13:10 14:10 15:-10 16:-9.21053 17:10 18:10 19:10 20:-0.0296736 21:-0.0520833 22:-0.0421053 23:-0.0332226 24:-0.0526316 25:10 26:10 27:10 28:10 29:10 30:-10 
128 1:-8.75 2:-8.33333 3:-9.66777 4:-9.36842 5:-9.12145 6:-8.91892 7:-8.5489 8:-7.60684 9:10 10:10 11:10 12:10 13:10 14:10 15:-7.33333 16:-6.31579 17:1.03704 18:0.894309 19:0.967742 20:-4.48731 21:-4.19118 22:-4.34586 23:-6.72204 24:-7.23308 25:2.4625 26:0.236343 27:10 28:10 29:10 30:-10 
128 1:-8.90625 2:-8.95833 3:-8.73754 4:-8.10526 5:-8.24289 6:-8.04054 7:-8.80126 8:-8.71795 9:10 10:10 11:10 12:10 13:10 14:10 15:-8.66667 16:-7.89474 17:-2.60417 18:-0.243902 19:-1.6129 20:-8.33997 21:-8.09375 22:-8.23028 23:-9.06312 24:-9.04709 25:-1.055 26:1.15169 27:10 28:10 29:10 30:-9.25926 
128 1:-7.03125 2:-8.54167 3:-8.6711 4:-8.73684 5:-7.26098 6:-8.58108 7:-6.65615 8:-7.94872 9:10 10:10 11:10 12:10 13:10 14:10 15:-8 16:-6.57895 17:-6.13333 18:-0.243902 19:-4.51613 20:-8.57347 21:-6.44886 22:-7.97008 23:-9.1109 24:-8.5587 25:-4.88889 26:1.10112 27:10 28:10 29:10 30:-8.51852 
128 1:-7.8125 2:-8.75 3:-8.6711 4:-9.15789 5:-6.9509 6:-7.97297 7:-7.22397 8:-8.03419 9:10 10:10 11:10 12:10 13:10 14:10 15:-6.66667 16:-4.73684 17:-2.1 18:7.07317 19:0.762463 20:-8.05341 21:-6.21304 22:-7.43574 23:-9.1109 24:-7.87135 25:-0.72 26:7.47191 27:10 28:10 29:10 30:-9.25926 
