svm_type one_class
kernel_type rbf
gamma 0.1
nr_class 2
total_sv 2135
rho 2.02722
SV
0.841369849591206 1:-7.96875 2:-5.76923 3:-8.53821 4:-7.22222 5:-8.24289 6:-7.14286 7:-7.72871 8:-7.46479 9:10 10:10 11:10 12:10 13:10 14:10 15:-8.62069 16:-9.47368 17:-5.84524 18:-5.36585 19:-5.63275 20:-8.33997 21:-8.27652 22:-8.31207 23:-9.19399 24:-9.17989 25:-8.4828 26:-7.03134 27:10 28:10 29:10 30:-10 
1 1:-9.53125 2:-10 3:-9.66777 4:-9.86111 5:-9.68992 6:-9.91071 7:-9.68454 8:-10 9:-3.33333 10:-6 11:-7.14286 12:-10 13:-10 14:-10 15:-10 16:-10 17:-5.125 18:10 19:-2.19355 20:-7.19373 21:-0.0520833 22:-5.62105 23:-6.72204 24:-0.0694444 25:-6.76136 26:10 27:-10 28:-10 29:-10 30:-10 
1 1:-10 2:-9.23077 3:-9.93355 4:-9.30556 5:-9.94832 6:-9.46429 7:-10 8:-9.43662 9:-10 10:-10 11:-10 12:-3.33333 13:-6 14:-7.14286 15:-10 16:-10 17:10 18:-3.65854 19:-0.16129 20:-0.0296736 21:-7.23214 22:-5.62105 23:-0.0332226 24:-6.78241 25:10 26:-6.17978 27:-3.33333 28:-6 29:-7.14286 30:-10 
1 1:-9.84375 2:-8.46154 3:-9.60133 4:-8.61111 5:-9.63824 6:-8.39286 7:-9.81073 8:-8.16901 9:3.33333 10:0.666667 11:-1.42857 12:10 13:10 14:10 15:-10 16:-10 17:-0.0833333 18:-6.39024 19:-4.51613 20:-7.55193 21:-9.04605 22:-8.59649 23:-7.19981 24:-8.30808 25:-5.08523 26:-8.7801 27:10 28:10 29:10 30:-10 
1 1:-6.71875 2:-8.07692 3:-7.47508 4:-7.77778 5:-6.17571 6:-7.58929 7:-6.90852 8:-8.73239 9:10 10:10 11:10 12:3.33333 13:0.666667 14:-1.42857 15:-10 16:-10 17:-9.25 18:-7.07317 19:-8.87097 20:-9.79189 21:-9.38616 22:-9.69423 23:-9.55192 24:-8.95425 25:-9.71136 26:-8.20225 27:3.33333 28:0.666667 29:-1.42857 30:-10 
0.8413015060654889 1:-8.90625 2:-8.84615 3:-8.73754 4:-6.94444 5:-8.29457 6:-7.76786 7:-8.73817 8:-9.29577 9:10 10:10 11:10 12:3.33333 13:0.666667 14:-1.42857 15:-10 16:-10 17:-7.64583 18:-5.36585 19:-6.93548 20:-9.46937 21:-9.33093 22:-9.41474 23:-9.06312 24:-9.26329 25:-9.15584 26:-6.85393 27:3.33333 28:0.666667 29:-1.42857 30:-10 
1 1:-9.6875 2:-9.61538 3:-9.40199 4:-9.02778 5:-9.27649 6:-8.92857 7:-9.68454 8:-9.85915 9:10 10:10 11:10 12:-10 13:-10 14:-10 15:-9.31034 16:-9.73684 17:3.27778 18:10 19:5.93548 20:-7.38477 21:-7.01122 22:-7.21504 23:-8.0598 24:-7.62153 25:-3.40909 26:10 27:-10 28:-10 29:-10 30:-10 
0.7145677414529675 1:-10 2:-9.61538 3:-9.73422 4:-9.16667 5:-9.79328 6:-9.46429 7:-10 8:-9.85915 9:-10 10:-10 11:-10 12:-10 13:-10 14:-10 15:-10 16:-10 17:10 18:-0.243902 19:3.22581 20:-6.04748 21:-7.23214 22:-6.73684 23:-6.05316 24:-7.2619 25:10 26:-0.11236 27:-10 28:-10 29:-10 30:-10 
0.1326014591918309 1:-7.1875 2:-8.46154 3:-8.07309 4:-8.05556 5:-7.7261 6:-8.48214 7:-7.22397 8:-7.74648 9:10 10:10 11:10 12:10 13:10 14:10 15:-10 16:-10 17:-9.10526 18:-6.39024 19:-8.62903 20:-9.61358 21:-8.98727 22:-9.44662 23:-9.39756 24:-8.7963 25:-9.66667 26:-9.03503 27:10 28:10 29:10 30:-10 
1 1:-9.84375 2:-10 3:-9.73422 4:-9.86111 5:-9.79328 6:-9.91071 7:-9.74763 8:-10 9:10 10:10 11:10 12:-10 13:-10 14:-10 15:-10 16:-10 17:-0.0833333 18:10 19:3.22581 20:-6.04748 21:-0.0520833 22:-4.34586 23:-6.05316 24:-0.0694444 25:-6.09091 26:10 27:-10 28:-10 29:-10 30:-10 
0.762394586439305 1:-9.6875 2:-8.84615 3:-9.60133 4:-9.02778 5:-9.63824 6:-9.28571 7:-9.62145 8:-8.4507 9:10 10:10 11:10 12:10 13:10 14:10 15:-10 16:-10 17:-3.44444 18:-5.36585 19:-4.51613 20:-7.55193 21:-7.87037 22:-7.72136 23:-7.19981 24:-7.62153 25:-7.24026 26:-8.53933 27:10 28:10 29:10 30:-10 
1 1:-9.0625 2:-9.61538 3:-9.33555 4:-9.86111 5:-9.32817 6:-9.91071 7:-8.86435 8:-9.85915 9:10 10:10 11:10 12:-10 13:-10 14:-10 15:-10 16:-10 17:-7.28571 18:-0.243902 19:-5.80645 20:-8.62654 21:-0.0520833 22:-7.57368 23:-8.24222 24:-0.0694444 25:-9.05502 26:-0.11236 27:-10 28:-10 29:-10 30:-10 
1 1:-8.90625 2:-8.46154 3:-8.47176 4:-8.75 5:-8.08786 6:-8.57143 7:-8.4858 8:-8.30986 9:10 10:10 11:10 12:10 13:10 14:10 15:-8.62069 16:-8.94737 17:-2.60417 18:1.80488 19:-0.942928 20:-8.47571 21:-6.55637 22:-7.89321 23:-9.23034 24:-8.125 25:-6.09091 26:-2.44598 27:10 28:10 29:10 30:-10 
1 1:-9.0625 2:-8.07692 3:-9.13621 4:-8.75 5:-8.75969 6:-8.39286 7:-8.99054 8:-7.88732 9:10 10:10 11:10 12:10 13:10 14:10 15:-6.55172 16:-6.05263 17:7.11905 18:10 19:8.43672 20:-5.2451 21:-3.75548 22:-4.6067 23:-8.63313 24:-8.125 25:8.81684 26:10 27:10 28:10 29:10 30:-9.25926 
1 1:-10 2:-9.61538 3:-9.06977 4:-7.91667 5:-9.27649 6:-8.57143 7:-10 8:-9.71831 9:-10 10:-10 11:-10 12:-3.33333 13:-6 14:-7.14286 15:-10 16:-10 17:10 18:-0.243902 19:3.22581 20:-8.72206 21:-8.92157 22:-8.82895 23:-8.72868 24:-8.88021 25:10 26:-3.48315 27:-3.33333 28:-6 29:-7.14286 30:-10 
1 1:-9.0625 2:-2.69231 3:-9.86711 4:-8.61111 5:-9.43152 6:-6.69643 7:-8.80126 8:-2.39437 9:10 10:10 11:10 12:10 13:10 14:10 15:-5.86207 16:-5 17:10 18:-3.31707 19:0.215054 20:1.64194 21:-6.40077 22:-4.46063 23:-3.37763 24:-8.30808 25:10 26:-2.87028 27:10 28:10 29:10 30:-9.25926 
1 1:-9.84375 2:-8.84615 3:-9.60133 4:-9.44444 5:-9.68992 6:-9.28571 7:-9.74763 8:-9.15493 9:10 10:10 11:10 12:-3.33333 13:-6 14:-7.14286 15:-10 16:-10 17:-0.0833333 18:-5.36585 19:-3.54839 20:-7.19373 21:-7.87037 22:-7.57368 23:-7.19981 24:-6.11111 25:-6.09091 26:-7.33547 27:-3.33333 28:-6 29:-7.14286 30:-10 
1 1:-9.6875 2:-9.23077 3:-9.46844 4:-8.88889 5:-9.37984 6:-8.92857 7:-9.62145 8:-9.15493 9:3.33333 10:0.666667 11:-1.42857 12:3.33333 13:0.666667 14:-1.42857 15:-9.31034 16:-9.21053 17:3.27778 18:3.17073 19:3.22581 20:-6.97329 21:-7.01122 22:-6.99433 23:-7.83684 24:-7.90123 25:1.37987 26:1.33226 27:3.33333 28:0.666667 29:-1.42857 30:-10 
1 1:-9.53125 2:-9.23077 3:-9.20266 4:-9.30556 5:-9.06977 6:-9.375 7:-9.49527 8:-9.57746 9:10 10:10 11:10 12:-3.33333 13:-6 14:-7.14286 15:-9.31034 16:-9.73684 17:-0.0833333 18:3.17073 19:1.29032 20:-7.94784 21:-5.07813 22:-7.10877 23:-8.52287 24:-6.78241 25:-5.64394 26:-0.11236 27:-3.33333 28:-6 29:-7.14286 30:-9.25926 
0.973145844404286 1:-4.53125 2:-10 3:-7.40864 4:-9.72222 5:-5.03876 6:-9.82143 7:-4.25868 8:-10 9:10 10:10 11:10 12:-10 13:-10 14:-10 15:-10 16:-10 17:-9.60648 18:10 19:-9.22406 20:-9.85255 21:-3.40278 22:-9.68253 23:-9.56478 24:-3.42593 25:-9.89501 26:10 27:-10 28:-10 29:-10 30:-10 
1 1:-6.71875 2:-8.46154 3:-7.54153 4:-9.86111 5:-7.00258 6:-9.55357 7:-6.71924 8:-8.30986 9:10 10:10 11:10 12:10 13:10 14:10 15:-10 16:-10 17:-9.25 18:-6.39024 19:-8.8172 20:-9.71936 21:-6.75347 22:-9.46623 23:-9.53838 24:-0.0694444 25:-9.73413 26:-8.66897 27:10 28:10 29:10 30:-10 
0.02616596143970667 1:-9.6875 2:-10 3:-9.46844 4:-9.58333 5:-9.58656 6:-9.73214 7:-9.68454 8:-10 9:10 10:10 11:10 12:-10 13:-10 14:-10 15:-10 16:-10 17:-3.44444 18:10 19:-0.16129 20:-7.83053 21:-5.07813 22:-6.99433 23:-7.83684 24:-5.10417 25:-6.76136 26:10 27:-10 28:-10 29:-10 30:-10 
0.6988977794002639 1:-8.4375 2:-8.07692 3:-8.53821 4:-8.47222 5:-8.13953 6:-8.30357 7:-8.4858 8:-9.01408 9:10 10:10 11:10 12:-3.33333 13:-6 14:-7.14286 15:-9.31034 16:-9.73684 17:-6.5 18:-3.65854 19:-5.5408 20:-8.97506 21:-8.09375 22:-8.67479 23:-9.19399 24:-8.46065 25:-8.50455 26:-5.16854 27:-3.33333 28:-6 29:-7.14286 30:-10 
1 1:-5.3125 2:10 3:-5.21595 4:7.22222 5:-1.52455 6:10 7:-5.77287 8:10 9:10 10:10 11:10 12:10 13:10 14:10 15:-2.41379 16:-1.57895 17:-2.36022 18:-5.84906 19:-4.51613 20:-8.60049 21:-9.03194 22:-8.84826 23:-9.79156 24:-9.97778 25:-0.352607 26:-5.55748 27:10 28:10 29:10 30:-7.77778 
1 1:-7.96875 2:10 3:-8.13953 4:7.22222 5:-6.33075 6:10 7:-7.85489 8:10 9:10 10:10 11:10 12:10 13:10 14:10 15:-7.24138 16:-7.36842 17:-2.96429 18:-8.55499 19:-7.28936 20:-8.66634 21:-9.65741 22:-9.40797 23:-9.3745 24:-9.97778 25:-3.79221 26:-8.66897 27:10 28:10 29:10 30:-10 
1 1:-8.4375 2:-5.76923 3:-9.13621 4:-6.25 5:-7.9845 6:-5.71429 7:-8.61199 8:-6.76056 9:10 10:10 11:10 12:10 13:10 14:10 15:-5.86207 16:-7.36842 17:2.66667 18:1.46341 19:2.04769 20:-6.54896 21:-7.23214 22:-6.9249 23:-8.63313 24:-9.41964 25:-0.494071 26:-0.955056 27:10 28:10 29:10 30:-9.25926 
1 1:-6.5625 2:-8.84615 3:-9.33555 4:-9.58333 5:-7.9845 6:-9.46429 7:-6.2776 8:-8.73239 9:10 10:10 11:10 12:10 13:10 14:10 15:-9.31034 16:-9.73684 17:-8.41304 18:-0.243902 19:-7.31183 20:-9.05638 21:-4.36012 22:-8.37492 23:-8.24222 24:-5.10417 25:-9.44318 26:-6.17978 27:10 28:10 29:10 30:-10 
1 1:-10 2:-10 3:-9.93355 4:-9.86111 5:-9.94832 6:-9.91071 7:-10 8:-10 9:-10 10:-10 11:-10 12:-10 13:-10 14:-10 15:-10 16:-10 17:10 18:10 19:10 20:-0.0296736 21:-0.0520833 22:-0.0421053 23:-0.0332226 24:-0.0694444 25:10 26:10 27:-10 28:-10 29:-10 30:-10 
0.8692375346365387 1:-5.78125 2:-2.69231 3:-8.6711 4:-3.75 5:-7.41602 6:-3.57143 7:-6.46688 8:-4.22535 9:10 10:10 11:10 12:10 13:10 14:10 15:-9.31034 16:-9.73684 17:-8.72619 18:-8.43902 19:-8.62903 20:-9.27271 21:-9.55337 22:-9.43633 23:-9.1109 24:-9.70109 25:-9.40789 26:-9.26164 27:10 28:10 29:10 30:-9.25926 
1 1:-9.6875 2:-10 3:-8.53821 4:-8.05556 5:-8.81137 6:-8.75 7:-9.68454 8:-10 9:3.33333 10:0.666667 11:-1.42857 12:-10 13:-10 14:-10 15:-10 16:-10 17:-3.44444 18:10 19:-0.16129 20:-9.22354 21:-8.76389 22:-9.05425 23:-9.19399 24:-8.7963 25:-6.76136 26:10 27:-10 28:-10 29:-10 30:-10 
1 1:-9.6875 2:-9.23077 3:-9.66777 4:-9.30556 5:-9.37984 6:-8.92857 7:-9.87382 8:-9.71831 9:-10 10:-10 11:-10 12:-10 13:-10 14:-10 15:-8.62069 16:-9.47368 17:10 18:10 19:10 20:-5.43027 21:-5.46474 22:-5.44939 23:-6.72204 24:-6.78241 25:10 26:10 27:-10 28:-10 29:-10 30:-8.51852 
1 1:-10 2:-7.30769 3:-9.73422 4:-7.63889 5:-9.79328 6:-7.94643 7:-10 8:-8.16901 9:-10 10:-10 11:-10 12:10 13:10 14:10 15:-10 16:-10 17:10 18:-7.92683 19:-5.80645 20:-6.04748 21:-9.26649 22:-8.69909 23:-6.05316 24:-9.02006 25:10 26:-8.7801 27:10 28:10 29:10 30:-10 
0.9339099305792604 1:-10 2:-8.84615 3:-9.80066 4:-9.02778 5:-9.84496 6:-9.10714 7:-10 8:-9.15493 9:-10 10:-10 11:-10 12:10 13:10 14:10 15:-10 16:-10 17:10 18:-5.36585 19:-2.19355 20:-5.04451 21:-8.27652 22:-7.40632 23:-5.04983 24:-7.62153 25:10 26:-7.33547 27:10 28:10 29:10 30:-10 
1 1:-10 2:-10 3:-9.80066 4:-9.58333 5:-9.84496 6:-9.73214 7:-10 8:-10 9:-10 10:-10 11:-10 12:-10 13:-10 14:-10 15:-10 16:-10 17:10 18:10 19:10 20:-5.04451 21:-5.07813 22:-5.06316 23:-5.04983 24:-5.10417 25:10 26:10 27:-10 28:-10 29:-10 30:-10 
1 1:-9.84375 2:-9.23077 3:-9.93355 4:-9.44444 5:-9.89664 6:-9.55357 7:-9.81073 8:-9.29577 9:3.33333 10:0.666667 11:-1.42857 12:3.33333 13:0.666667 14:-1.42857 15:-9.31034 16:-9.21053 17:10 18:3.17073 19:5.93548 20:3.31355 21:-3.40278 22:-1.15789 23:-0.0332226 24:-6.11111 25:10 26:3.25843 27:3.33333 28:0.666667 29:-1.42857 30:-10 
1 1:-9.6875 2:-10 3:-9.73422 4:-9.72222 5:-9.79328 6:-9.82143 7:-9.68454 8:-10 9:10 10:10 11:10 12:-10 13:-10 14:-10 15:-10 16:-10 17:-3.44444 18:10 19:-0.16129 20:-6.04748 21:-3.40278 22:-5.06316 23:-6.05316 24:-3.42593 25:-6.76136 26:10 27:-10 28:-10 29:-10 30:-10 
1 1:-10 2:-9.61538 3:-10 4:-9.86111 5:-10 6:-9.91071 7:-10 8:-9.43662 9:-10 10:-10 11:-10 12:10 13:10 14:10 15:-10 16:-10 17:10 18:-0.243902 19:3.22581 20:10 21:-0.0520833 22:3.30526 23:10 24:-0.0694444 25:10 26:-6.17978 27:10 28:10 29:10 30:-10 
1 1:-9.375 2:-8.07692 3:-9.13621 4:-7.77778 5:-9.22481 6:-7.94643 7:-9.49527 8:-8.30986 9:10 10:10 11:10 12:10 13:10 14:10 15:-8.62069 16:-9.21053 17:1.93333 18:-0.243902 19:0.762463 20:-6.29822 21:-7.59115 22:-7.07158 23:-8.63313 24:-8.95425 25:-1.17424 26:-4.00173 27:10 28:10 29:10 30:-10 
1 1:-9.6875 2:-7.69231 3:-9.80066 4:-9.02778 5:-9.7416 6:-9.10714 7:-9.87382 8:-8.16901 9:-10 10:-10 11:-10 12:10 13:10 14:10 15:-8.62069 16:-9.47368 17:10 18:-1.70732 19:1.87097 20:-0.0296736 21:-4.62121 22:-2.99567 23:-5.04983 24:-7.62153 25:10 26:-5.89085 27:10 28:10 29:10 30:-10 
1 1:-8.4375 2:-5.76923 3:-8.47176 4:-5.83333 5:-8.24289 6:-6.78571 7:-8.4858 8:-6.61972 9:10 10:10 11:10 12:3.33333 13:0.666667 14:-1.42857 15:-7.93103 16:-8.15789 17:-2.83333 18:-3.65854 19:-3.25386 20:-7.76685 21:-7.93074 22:-7.85263 23:-9.23034 24:-9.48925 25:-3.67727 26:-3.75281 27:3.33333 28:0.666667 29:-1.42857 30:-8.51852 
1 1:-8.28125 2:-6.53846 3:-8.87043 4:-7.36111 5:-8.03618 6:-6.96429 7:-8.4858 8:-8.59155 9:10 10:10 11:10 12:-3.33333 13:-6 14:-7.14286 15:-8.62069 16:-9.21053 17:-5.125 18:-4.34146 19:-4.78006 20:-8.51632 21:-8.38095 22:-8.45576 23:-8.95164 24:-9.13194 25:-6.89545 26:-2.87028 27:-3.33333 28:-6 29:-7.14286 30:-10 
0.6412395021529934 1:-9.84375 2:-10 3:-9.46844 4:-9.44444 5:-9.58656 6:-9.64286 7:-9.93691 8:-10 9:-10 10:-10 11:-10 12:-10 13:-10 14:-10 15:-10 16:-10 17:-0.0833333 18:10 19:3.22581 20:-7.83053 21:-6.08333 22:-7.21504 23:-7.83684 24:-6.11111 25:-0.0568182 26:10 27:-10 28:-10 29:-10 30:-10 
1 1:-9.375 2:-5.76923 3:-9.60133 4:-7.91667 5:-9.53488 6:-7.85714 7:-9.36909 8:-5.6338 9:10 10:10 11:10 12:10 13:10 14:10 15:-7.93103 16:-8.42105 17:5.96667 18:-3.65854 19:-0.759013 20:-2.03561 21:-6.8875 22:-5.49353 23:-7.19981 24:-8.88021 25:2.68595 26:-5.80056 27:10 28:10 29:10 30:-9.25926 
0.09892404566964443 1:-10 2:-8.07692 3:-9.93355 4:-8.19444 5:-9.94832 6:-8.57143 7:-10 8:-7.60563 9:-10 10:-10 11:-10 12:10 13:10 14:10 15:-10 16:-10 17:10 18:-7.07317 19:-4.51613 20:-0.0296736 21:-8.92157 22:-7.97008 23:-0.0332226 24:-8.7004 25:10 26:-9.10112 27:10 28:10 29:10 30:-10 
1 1:-9.21875 2:-4.23077 3:-8.87043 4:-5.41667 5:-8.13953 6:-3.48214 7:-9.30599 8:-5.49296 9:10 10:10 11:10 12:10 13:10 14:10 15:-7.93103 16:-8.94737 17:3.27778 18:-5.36585 19:-2.93255 20:-7.89077 21:-9.01745 22:-8.6367 23:-8.95164 24:-9.54657 25:-1.73295 26:-7.16037 27:10 28:10 29:10 30:-9.25926 
1 1:-9.6875 2:-9.23077 3:-9.66777 4:-9.44444 5:-9.7416 6:-9.46429 7:-9.74763 8:-9.43662 9:-3.33333 10:-6 11:-7.14286 12:-3.33333 13:-6 14:-7.14286 15:-10 16:-10 17:-3.44444 18:-3.65854 19:-3.54839 20:-6.71612 21:-7.23214 22:-6.99433 23:-6.72204 24:-6.11111 25:-6.09091 26:-6.17978 27:-3.33333 28:-6 29:-7.14286 30:-10 
1 1:-8.90625 2:-10 3:-8.87043 4:-10 5:-8.91473 6:-10 7:-9.30599 8:-10 9:-3.33333 10:-6 11:-7.14286 12:-10 13:-10 14:-10 15:-10 16:-10 17:-7.64583 18:10 19:-5.80645 20:-9.14756 21:10 22:-8.33776 23:-8.95164 24:10 25:-8.4375 26:10 27:-10 28:-10 29:-10 30:-10 
0.8801899160834589 1:-9.0625 2:-10 3:-9.2691 4:-9.86111 5:-9.43152 6:-9.91071 7:-9.11672 8:-10 9:10 10:10 11:10 12:-10 13:-10 14:-10 15:-10 16:-10 17:-7.28571 18:10 19:-5.24194 20:-8.38773 21:-0.0520833 22:-7.21504 23:-8.39424 24:-0.0694444 25:-8.77273 26:10 27:-10 28:-10 29:-10 30:-10 
0.7802446098047299 1:-8.59375 2:-10 3:-7.87375 4:-7.63889 5:-7.82946 6:-8.48214 7:-8.42271 8:-10 9:10 10:10 11:10 12:-10 13:-10 14:-10 15:-10 16:-10 17:-8.15 18:10 19:-6.62757 20:-9.59285 21:-8.98727 22:-9.42571 23:-9.45837 24:-9.02006 25:-9.34003 26:10 27:-10 28:-10 29:-10 30:-10 
1 1:-10 2:-8.07692 3:-9.86711 4:-9.16667 5:-9.89664 6:-9.10714 7:-10 8:-8.59155 9:-10 10:-10 11:-10 12:3.33333 13:0.666667 14:-1.42857 15:-10 16:-10 17:10 18:-7.07317 19:-4.51613 20:-3.3729 21:-8.27652 22:-7.21504 23:-3.37763 24:-7.2619 25:10 26:-8.38611 27:3.33333 28:0.666667 29:-1.42857 30:-10 
0.7419750674478761 1:-5 2:-10 3:-6.74419 4:-9.16667 5:-5.4522 6:-9.46429 7:-5.33123 8:-10 9:10 10:10 11:10 12:-10 13:-10 14:-10 15:-10 16:-10 17:-9.55556 18:10 19:-9.12713 20:-9.83396 21:-7.23214 22:-9.66579 23:-9.66512 24:-7.2619 25:-9.84545 26:10 27:-10 28:-10 29:-10 30:-10 
0.541886036998803 1:-9.53125 2:-9.23077 3:-9.33555 4:-8.61111 5:-9.32817 6:-8.92857 7:-9.43218 8:-9.01408 9:10 10:10 11:10 12:10 13:10 14:10 15:-10 16:-10 17:-5.125 18:-3.65854 19:-4.51613 20:-8.62654 21:-8.55769 22:-8.59649 23:-8.24222 24:-8.30808 25:-8.10227 26:-7.69663 27:10 28:10 29:10 30:-10 
1 1:-8.125 2:-10 3:-8.6711 4:-9.72222 5:-8.39793 6:-9.82143 7:-8.99054 8:-10 9:-3.33333 10:-6 11:-7.14286 12:-10 13:-10 14:-10 15:-10 16:-10 17:-8.61538 18:10 19:-7.41935 20:-9.43249 21:-3.40278 22:-8.93654 23:-9.1109 24:-3.42593 25:-8.93048 26:10 27:-10 28:-10 29:-10 30:-10 
1 1:-9.6875 2:-6.53846 3:-9.46844 4:-5.55556 5:-9.22481 6:-5.98214 7:-9.87382 8:-7.04225 9:-10 10:-10 11:-10 12:3.33333 13:0.666667 14:-1.42857 15:-10 16:-10 17:-3.44444 18:-8.43902 19:-7.19603 20:-8.80564 21:-9.66712 22:-9.43633 23:-7.83684 24:-9.52862 25:-3.40909 26:-9.30541 27:3.33333 28:0.666667 29:-1.42857 30:-10 
1 1:-10 2:-10 3:-10 4:-10 5:-10 6:-10 7:-10 8:-10 9:-10 10:-10 11:-10 12:-10 13:-10 14:-10 15:-10 16:-10 17:10 18:10 19:10 20:10 21:10 22:10 23:10 24:10 25:10 26:10 27:-10 28:-10 29:-10 30:-10 
0.8287403636496556 1:-7.03125 2:-10 3:-9.2691 4:-9.58333 5:-8.03618 6:-9.73214 7:-7.85489 8:-10 9:10 10:10 11:10 12:-10 13:-10 14:-10 15:-10 16:-10 17:-9.15833 18:10 19:-8.3871 20:-9.545 21:-5.07813 22:-9.15006 23:-8.39424 24:-5.10417 25:-9.53896 26:10 27:-10 28:-10 29:-10 30:-10 
0.3199021742499856 1:-10 2:-8.84615 3:-9.93355 4:-9.02778 5:-9.94832 6:-9.28571 7:-10 8:-8.4507 9:-10 10:-10 11:-10 12:10 13:10 14:10 15:-10 16:-10 17:10 18:-5.36585 19:-2.19355 20:-0.0296736 21:-7.87037 22:-6.43254 23:-0.0332226 24:-7.62153 25:10 26:-8.53933 27:10 28:10 29:10 30:-10 
1 1:-9.21875 2:-5.38462 3:-9.33555 4:-6.66667 5:-8.81137 6:-6.07143 7:-9.2429 8:-6.76056 9:10 10:10 11:10 12:10 13:10 14:10 15:-6.55172 16:-6.84211 17:10 18:-1.03189 19:2.51273 20:-5.04451 21:-7.42361 22:-6.5913 23:-8.24222 24:-9.33333 25:10 26:0.730337 27:10 28:10 29:10 30:-9.25926 
1 1:-9.6875 2:-10 3:-9.53488 4:-9.44444 5:-9.58656 6:-9.64286 7:-9.87382 8:-10 9:-10 10:-10 11:-10 12:-10 13:-10 14:-10 15:-10 16:-10 17:-3.44444 18:10 19:-0.16129 20:-7.83053 21:-6.08333 22:-7.21504 23:-7.55814 24:-6.11111 25:-3.40909 26:10 27:-10 28:-10 29:-10 30:-10 
1 1:-10 2:-9.23077 3:-9.93355 4:-9.30556 5:-9.94832 6:-9.55357 7:-10 8:-9.15493 9:-10 10:-10 11:-10 12:3.33333 13:0.666667 14:-1.42857 15:-10 16:-10 17:10 18:-3.65854 19:-0.16129 20:-0.0296736 21:-6.75347 22:-5.06316 23:-0.0332226 24:-6.78241 25:10 26:-7.33547 27:3.33333 28:0.666667 29:-1.42857 30:-10 
0.956313363546165 1:-10 2:-9.61538 3:-9.73422 4:-9.30556 5:-9.79328 6:-9.55357 7:-10 8:-9.57746 9:-10 10:-10 11:-10 12:3.33333 13:0.666667 14:-1.42857 15:-10 16:-10 17:10 18:-0.243902 19:3.22581 20:-6.04748 21:-6.75347 22:-6.43254 23:-6.05316 24:-6.78241 25:10 26:-5.16854 27:3.33333 28:0.666667 29:-1.42857 30:-10 
1 1:-9.84375 2:-6.15385 3:-9.40199 4:-7.63889 5:-9.01809 6:-5.17857 7:-9.93691 8:-6.90141 9:-10 10:-10 11:-10 12:10 13:10 14:10 15:-9.31034 16:-9.73684 17:10 18:-6.76275 19:-4.06948 20:-8.05341 21:-9.37311 22:-9.01305 23:-8.0598 24:-9.02006 25:10 26:-8.46605 27:10 28:10 29:10 30:-10 
1 1:-6.09375 2:-0.769231 3:-8.27243 4:-6.66667 5:-5.96899 6:-3.75 7:-5.45741 8:-0.704225 9:10 10:10 11:10 12:10 13:10 14:10 15:-2.41379 16:-1.05263 17:-0.858974 18:-0.653659 19:-0.759013 20:-7.01236 21:-6.70628 22:-6.87074 23:-9.32324 24:-9.33333 25:-0.470112 26:0.340433 27:10 28:10 29:10 30:-9.25926 
0.5402310146589846 1:-9.53125 2:-10 3:-9.73422 4:-9.86111 5:-9.68992 6:-9.91071 7:-9.49527 8:-10 9:10 10:10 11:10 12:-10 13:-10 14:-10 15:-10 16:-10 17:-5.125 18:10 19:-2.19355 20:-7.19373 21:-0.0520833 22:-5.62105 23:-6.05316 24:-0.0694444 25:-7.87879 26:10 27:-10 28:-10 29:-10 30:-10 
0.9345907616562712 1:-9.84375 2:-8.84615 3:-9.60133 4:-9.02778 5:-9.68992 6:-9.19643 7:-9.93691 8:-9.29577 9:-10 10:-10 11:-10 12:3.33333 13:0.666667 14:-1.42857 15:-10 16:-10 17:-0.0833333 18:-5.36585 19:-3.54839 20:-7.19373 21:-8.09375 22:-7.72136 23:-7.19981 24:-7.62153 25:-0.0568182 26:-6.85393 27:3.33333 28:0.666667 29:-1.42857 30:-10 
0.7770397671783825 1:-8.90625 2:-8.84615 3:-8.80399 4:-9.30556 5:-8.29457 6:-9.46429 7:-9.05363 8:-9.01408 9:10 10:10 11:10 12:10 13:10 14:10 15:-9.31034 16:-8.94737 17:-5.125 18:-0.243902 19:-3.54839 20:-8.87939 21:-4.36012 22:-8.12478 23:-9.01032 24:-6.78241 25:-3.82812 26:2.41573 27:10 28:10 29:10 30:-10 
1 1:-10 2:-10 3:-10 4:-10 5:-10 6:-10 7:-10 8:-10 9:-10 10:-10 11:-10 12:-10 13:-10 14:-10 15:-10 16:-10 17:10 18:10 19:10 20:10 21:10 22:10 23:10 24:10 25:10 26:10 27:-10 28:-10 29:-10 30:-10 
1 1:-10 2:-9.61538 3:-10 4:-9.86111 5:-10 6:-9.91071 7:-10 8:-9.43662 9:-10 10:-10 11:-10 12:10 13:10 14:10 15:-10 16:-10 17:10 18:-0.243902 19:3.22581 20:10 21:-0.0520833 22:3.30526 23:10 24:-0.0694444 25:10 26:-6.17978 27:10 28:10 29:10 30:-10 
0.9373586198644601 1:-9.53125 2:-8.07692 3:-9.60133 4:-8.33333 5:-9.4832 6:-8.66071 7:-9.36909 8:-7.88732 9:10 10:10 11:10 12:10 13:10 14:10 15:-8.62069 16:-7.89474 17:4.95833 18:-0.243902 19:1.87097 20:-4.58862 21:-6.33464 22:-5.62105 23:-7.19981 24:-8.58974 25:6.34298 26:1.15169 27:10 28:10 29:10 30:-10 
0.2079964244568707 1:-7.96875 2:-6.15385 3:-8.53821 4:-9.16667 5:-8.34625 6:-8.48214 7:-8.04416 8:-6.19718 9:10 10:10 11:10 12:10 13:10 14:10 15:-9.31034 16:-8.94737 17:-7.28571 18:-6.76275 19:-7.07097 20:-8.84363 21:-7.87037 22:-8.50898 23:-9.19399 24:-7.2619 25:-6.97088 26:-6.61316 27:10 28:10 29:10 30:-10 
0.2114289281998933 1:-8.75 2:-10 3:-8.60465 4:-8.33333 5:-8.08786 6:-8.92857 7:-8.5489 8:-10 9:10 10:10 11:10 12:-10 13:-10 14:-10 15:-10 16:-10 17:-7.92593 18:10 19:-6.25806 20:-9.53147 21:-8.55769 22:-9.29659 23:-9.15433 24:-8.58974 25:-9.27557 26:10 27:-10 28:-10 29:-10 30:-10 
1 1:-9.84375 2:-10 3:-8.87043 4:-8.33333 5:-9.12145 6:-8.92857 7:-9.81073 8:-10 9:3.33333 10:0.666667 11:-1.42857 12:-10 13:-10 14:-10 15:-10 16:-10 17:-0.0833333 18:10 19:3.22581 20:-8.94494 21:-8.55769 22:-8.78846 23:-8.95164 24:-8.58974 25:-5.08523 26:10 27:-10 28:-10 29:-10 30:-10 
1 1:-9.53125 2:-9.61538 3:-9.20266 4:-9.02778 5:-9.32817 6:-9.19643 7:-9.62145 8:-9.85915 9:-3.33333 10:-6 11:-7.14286 12:-10 13:-10 14:-10 15:-10 16:-10 17:-5.125 18:-0.243902 19:-3.54839 20:-8.62654 21:-8.09375 22:-8.41053 23:-8.52287 24:-7.62153 25:-7.24026 26:-0.11236 27:-10 28:-10 29:-10 30:-10 
1 1:-6.875 2:4.23077 3:-8.00664 4:0.555556 5:-7.10594 6:1.07143 7:-6.97161 8:3.80282 9:10 10:10 11:10 12:10 13:10 14:10 15:-9.31034 16:-9.73684 17:-8.24603 18:-9.4095 19:-8.94478 20:-9.35551 21:-9.7825 22:-9.6428 23:-9.41914 24:-9.87734 25:-9.29267 26:-9.81614 27:10 28:10 29:10 30:-10 
1 1:-8.90625 2:-9.23077 3:-9.60133 4:-9.44444 5:-9.17313 6:-9.375 7:-9.11672 8:-9.43662 9:3.33333 10:0.666667 11:-1.42857 12:-3.33333 13:-6 14:-7.14286 15:-8.62069 16:-8.94737 17:-2.60417 18:10 19:0.762463 20:-6.51946 21:-2.5651 22:-5.264 23:-7.19981 24:-6.11111 25:-3.40909 26:10 27:-3.33333 28:-6 29:-7.14286 30:-8.51852 
0.0289617710456378 1:-10 2:-10 3:-9.80066 4:-9.58333 5:-9.84496 6:-9.73214 7:-10 8:-10 9:-10 10:-10 11:-10 12:-10 13:-10 14:-10 15:-10 16:-10 17:10 18:10 19:10 20:-5.04451 21:-5.07813 22:-5.06316 23:-5.04983 24:-5.10417 25:10 26:10 27:-10 28:-10 29:-10 30:-10 
0.3345992433441778 1:-9.84375 2:-5.38462 3:-9.86711 4:-7.77778 5:-9.7416 6:-7.23214 7:-9.93691 8:-6.76056 9:-10 10:-10 11:-10 12:10 13:10 14:10 15:-9.31034 16:-9.73684 17:10 18:-7.33583 19:-4.90323 20:-3.3729 21:-8.84766 22:-7.97008 23:-3.37763 24:-8.95425 25:10 26:-8.53933 27:10 28:10 29:10 30:-10 
0.9901214868524181 1:-9.21875 2:-10 3:-9.33555 4:-9.02778 5:-9.01809 6:-9.375 7:-9.17981 8:-10 9:10 10:10 11:10 12:-10 13:-10 14:-10 15:-10 16:-10 17:-6.80556 18:10 19:-4.51613 20:-9.05638 21:-7.59115 22:-8.64962 23:-8.24222 24:-7.62153 25:-8.67695 26:10 27:-10 28:-10 29:-10 30:-10 
1 1:-9.375 2:-5.76923 3:-8.73754 4:-8.05556 5:-8.70801 6:-7.58929 7:-9.43218 8:-6.90141 9:10 10:10 11:10 12:10 13:10 14:10 15:-8.62069 16:-9.21053 17:1.93333 18:-5.36585 19:-3.14991 20:-7.74481 21:-7.95015 22:-7.85263 23:-9.06312 24:-8.7963 25:-2.06818 26:-6.70738 27:10 28:10 29:10 30:-10 
1 1:-10 2:-9.61538 3:-9.93355 4:-9.44444 5:-9.94832 6:-9.64286 7:-10 8:-9.57746 9:-10 10:-10 11:-10 12:3.33333 13:0.666667 14:-1.42857 15:-10 16:-10 17:10 18:-0.243902 19:3.22581 20:-0.0296736 21:-6.08333 22:-4.34586 23:-0.0332226 24:-6.11111 25:10 26:-5.16854 27:3.33333 28:0.666667 29:-1.42857 30:-10 
1 1:-9.53125 2:-9.23077 3:-9.73422 4:-9.58333 5:-9.58656 6:-9.55357 7:-9.68454 8:-9.01408 9:3.33333 10:0.666667 11:-1.42857 12:10 13:10 14:10 15:-10 16:-10 17:-5.125 18:-3.65854 19:-4.51613 20:-7.83053 21:-6.75347 22:-7.40632 23:-6.05316 24:-5.10417 25:-6.76136 26:-7.69663 27:10 28:10 29:10 30:-10 
0.4451668828320836 1:-7.03125 2:-4.61538 3:-7.14286 4:-5.27778 5:-7.41602 6:-5.35714 7:-7.35016 8:-6.19718 9:10 10:10 11:10 12:10 13:10 14:10 15:-10 16:-10 17:-9.15833 18:-9.12195 19:-9.16129 20:-9.66603 21:-9.72484 22:-9.69798 23:-9.61039 24:-9.56349 25:-9.64588 26:-9.50241 27:10 28:10 29:10 30:-10 
0.798725467149474 1:-10 2:-10 3:-9.66777 4:-9.30556 5:-9.7416 6:-9.55357 7:-10 8:-10 9:-10 10:-10 11:-10 12:-10 13:-10 14:-10 15:-10 16:-10 17:10 18:10 19:10 20:-6.71612 21:-6.75347 22:-6.73684 23:-6.72204 24:-6.78241 25:10 26:10 27:-10 28:-10 29:-10 30:-10 
1 1:-10 2:-9.23077 3:-9.06977 4:-7.22222 5:-9.27649 6:-8.21429 7:-10 8:-9.15493 9:-10 10:-10 11:-10 12:10 13:10 14:10 15:-10 16:-10 17:10 18:-3.65854 19:-0.16129 20:-8.72206 21:-9.14683 22:-8.96842 23:-8.72868 24:-9.17989 25:10 26:-7.33547 27:10 28:10 29:10 30:-10 
1 1:-9.21875 2:-6.92308 3:-9.66777 4:-8.61111 5:-9.37984 6:-8.21429 7:-9.55836 8:-8.30986 9:3.33333 10:0.666667 11:-1.42857 12:3.33333 13:0.666667 14:-1.42857 15:-6.55172 16:-8.15789 17:10 18:3.17073 19:5.93548 20:-0.801187 21:-4.36012 22:-2.99567 23:-6.72204 24:-8.30808 25:10 26:2.22126 27:3.33333 28:0.666667 29:-1.42857 30:-9.25926 
1 1:-9.84375 2:-3.84615 3:-9.80066 4:-4.44444 5:-9.68992 6:-4.01786 7:-9.93691 8:-5.35211 9:-10 10:-10 11:-10 12:10 13:10 14:10 15:-9.31034 16:-9.73684 17:10 18:-8.07747 19:-6.04414 20:-4.32811 21:-9.51287 22:-9.01305 23:-5.04983 24:-9.6477 25:10 26:-9.03503 27:10 28:10 29:10 30:-10 
0.9632275656684365 1:-10 2:-8.84615 3:-9.93355 4:-9.02778 5:-9.94832 6:-9.10714 7:-10 8:-8.59155 9:-10 10:-10 11:-10 12:10 13:10 14:10 15:-10 16:-10 17:10 18:-5.36585 19:-2.19355 20:-0.0296736 21:-8.27652 22:-6.99433 23:-0.0332226 24:-7.62153 25:10 26:-8.38611 27:10 28:10 29:10 30:-10 
1 1:-6.71875 2:2.30769 3:-7.14286 4:0.277778 5:-6.02067 6:1.42857 7:-7.09779 8:2.53521 9:10 10:10 11:10 12:10 13:10 14:10 15:-10 16:-10 17:-9.25 18:-9.86696 19:-9.58358 20:-9.80218 21:-9.94832 22:-9.89016 23:-9.61039 24:-9.87037 25:-9.68569 26:-10 27:10 28:10 29:10 30:-10 
1 1:-9.6875 2:-9.61538 3:-9.60133 4:-9.16667 5:-9.53488 6:-9.46429 7:-9.49527 8:-9.43662 9:10 10:10 11:10 12:10 13:10 14:10 15:-10 16:-10 17:-3.44444 18:-0.243902 19:-2.19355 20:-8.05341 21:-7.23214 22:-7.72136 23:-7.19981 24:-7.2619 25:-7.87879 26:-6.17978 27:10 28:10 29:10 30:-10 
0.9917452933327477 1:-7.96875 2:-9.61538 3:-7.87375 4:-7.91667 5:-7.62274 6:-8.39286 7:-8.23344 8:-9.57746 9:10 10:10 11:10 12:3.33333 13:0.666667 14:-1.42857 15:-10 16:-10 17:-8.72619 18:-0.243902 19:-7.78226 20:-9.63255 21:-9.04605 22:-9.4756 23:-9.45837 24:-8.88021 25:-9.42006 26:-5.16854 27:3.33333 28:0.666667 29:-1.42857 30:-10 
0.853411464460744 1:-9.375 2:-9.61538 3:-8.13953 4:-7.22222 5:-8.19121 6:-8.125 7:-9.17981 8:-9.43662 9:10 10:10 11:10 12:10 13:10 14:10 15:-9.31034 16:-8.94737 17:-2.1 18:10 19:1.29032 20:-8.94494 21:-8.27652 22:-8.69909 23:-9.3745 24:-9.17989 25:-2.93019 26:10 27:10 28:10 29:10 30:-10 
0.7728520381712286 1:-2.8125 2:-7.69231 3:-5.81395 4:-8.61111 5:-4.10853 6:-8.30357 7:-2.30284 8:-7.74648 9:10 10:10 11:10 12:10 13:10 14:10 15:-8.62069 16:-8.94737 17:-8.87943 18:-1.70732 19:-8.06452 20:-9.53606 21:-7.08854 22:-9.19158 23:-9.75291 24:-8.30808 25:-9.29601 26:-4.27627 27:10 28:10 29:10 30:-10 
1 1:-10 2:-9.23077 3:-9.93355 4:-9.30556 5:-9.94832 6:-9.55357 7:-10 8:-9.57746 9:-10 10:-10 11:-10 12:-3.33333 13:-6 14:-7.14286 15:-10 16:-10 17:10 18:-3.65854 19:-0.16129 20:-0.0296736 21:-6.75347 22:-5.06316 23:-0.0332226 24:-6.78241 25:10 26:-5.16854 27:-3.33333 28:-6 29:-7.14286 30:-10 
1 1:-10 2:-8.84615 3:-9.86711 4:-9.02778 5:-9.89664 6:-8.92857 7:-10 8:-9.15493 9:-10 10:-10 11:-10 12:-3.33333 13:-6 14:-7.14286 15:-10 16:-10 17:10 18:-5.36585 19:-2.19355 20:-3.3729 21:-8.55769 22:-7.57368 23:-3.37763 24:-7.62153 25:10 26:-7.33547 27:-3.33333 28:-6 29:-7.14286 30:-10 
0.8152898603266907 1:-7.34375 2:-9.61538 3:-9.06977 4:-9.86111 5:-8.19121 6:-9.82143 7:-7.53943 8:-9.43662 9:10 10:10 11:10 12:10 13:10 14:10 15:-9.31034 16:-8.94737 17:-7.92593 18:10 19:-6.25806 20:-8.94494 21:3.29861 22:-8.02429 23:-8.72868 24:-0.0694444 25:-7.59943 26:10 27:10 28:10 29:10 30:-10 
1 1:-9.84375 2:-10 3:-8.00664 4:-7.77778 5:-8.39793 6:-8.57143 7:-9.81073 8:-10 9:3.33333 10:0.666667 11:-1.42857 12:-10 13:-10 14:-10 15:-10 16:-10 17:-0.0833333 18:10 19:3.22581 20:-9.43249 21:-8.92157 22:-9.26445 23:-9.41914 24:-8.95425 25:-5.08523 26:10 27:-10 28:-10 29:-10 30:-10 
1 1:-9.84375 2:-9.23077 3:-9.86711 4:-9.44444 5:-9.79328 6:-9.46429 7:-9.93691 8:-9.29577 9:-10 10:-10 11:-10 12:10 13:10 14:10 15:-9.31034 16:-9.73684 17:10 18:3.17073 19:5.93548 20:-2.03561 21:-4.36012 22:-3.38947 23:-3.37763 24:-6.11111 25:10 26:-3.48315 27:10 28:10 29:10 30:-10 
0.4846774676181299 1:-9.21875 2:-10 3:-9.06977 4:-9.72222 5:-9.27649 6:-9.82143 7:-9.49527 8:-10 9:10 10:10 11:10 12:-10 13:-10 14:-10 15:-10 16:-10 17:-6.80556 18:10 19:-4.51613 20:-8.72206 21:-3.40278 22:-7.85263 23:-8.72868 24:-3.42593 25:-7.87879 26:10 27:-10 28:-10 29:-10 30:-10 
1 1:-10 2:-10 3:-9.86711 4:-9.72222 5:-9.89664 6:-9.82143 7:-10 8:-10 9:-10 10:-10 11:-10 12:-10 13:-10 14:-10 15:-10 16:-10 17:10 18:10 19:10 20:-3.3729 21:-3.40278 22:-3.38947 23:-3.37763 24:-3.42593 25:10 26:10 27:-10 28:-10 29:-10 30:-10 
0.284794338698977 1:-7.8125 2:-8.07692 3:-7.74086 4:-7.22222 5:-7.31266 6:-7.32143 7:-8.29653 8:-8.4507 9:10 10:10 11:10 12:10 13:10 14:10 15:-9.31034 16:-9.47368 17:-7.47778 18:-3.65854 19:-6.45161 20:-9.30239 21:-8.80712 22:-9.12782 23:-9.49312 24:-9.17989 25:-7.9586 26:-5.16854 27:10 28:10 29:10 30:-10 
1 1:-9.84375 2:-8.84615 3:-9.66777 4:-8.47222 5:-9.68992 6:-8.83929 7:-9.74763 8:-8.30986 9:10 10:10 11:10 12:10 13:10 14:10 15:-10 16:-10 17:-0.0833333 18:-5.36585 19:-3.54839 20:-7.19373 21:-8.66815 22:-8.17143 23:-6.72204 24:-8.46065 25:-6.09091 26:-8.66897 27:10 28:10 29:10 30:-10 
1 1:-9.84375 2:-10 3:-9.00332 4:-8.05556 5:-9.17313 6:-8.75 7:-9.87382 8:-10 9:-3.33333 10:-6 11:-7.14286 12:-10 13:-10 14:-10 15:-10 16:-10 17:-0.0833333 18:10 19:3.22581 20:-8.87939 21:-8.76389 22:-8.82895 23:-8.81229 24:-8.7963 25:-3.40909 26:10 27:-10 28:-10 29:-10 30:-10 
0.731266183285013 1:-10 2:-10 3:-9.86711 4:-9.72222 5:-9.89664 6:-9.82143 7:-10 8:-10 9:-10 10:-10 11:-10 12:-10 13:-10 14:-10 15:-10 16:-10 17:10 18:10 19:10 20:-3.3729 21:-3.40278 22:-3.38947 23:-3.37763 24:-3.42593 25:10 26:10 27:-10 28:-10 29:-10 30:-10 
0.5875478343628888 1:-9.53125 2:-6.92308 3:-9.60133 4:-8.05556 5:-9.53488 6:-8.03571 7:-9.62145 8:-7.46479 9:3.33333 10:0.666667 11:-1.42857 12:10 13:10 14:10 15:-10 16:-10 17:-5.125 18:-8.21138 19:-7.19603 20:-8.05341 21:-9.23007 22:-8.86699 23:-7.19981 24:-8.7963 25:-7.24026 26:-9.16026 27:10 28:10 29:10 30:-10 
1 1:-9.6875 2:-9.23077 3:-9.33555 4:-8.47222 5:-9.22481 6:-8.66071 7:-9.68454 8:-9.29577 9:10 10:10 11:10 12:10 13:10 14:10 15:-9.31034 16:-9.73684 17:3.27778 18:3.17073 19:3.22581 20:-7.55193 21:-7.59115 22:-7.57368 23:-8.24222 24:-8.46065 25:-3.40909 26:-3.48315 27:10 28:10 29:10 30:-9.25926 
0.9961930407188327 1:-9.84375 2:-10 3:-9.80066 4:-9.58333 5:-9.7416 6:-9.73214 7:-9.93691 8:-10 9:-10 10:-10 11:-10 12:-10 13:-10 14:-10 15:-10 16:-10 17:-0.0833333 18:10 19:3.22581 20:-6.71612 21:-5.07813 22:-6.06737 23:-5.04983 24:-5.10417 25:-0.0568182 26:10 27:-10 28:-10 29:-10 30:-10 
1 1:-10 2:-8.84615 3:-10 4:-9.30556 5:-10 6:-9.46429 7:-10 8:-8.59155 9:-10 10:-10 11:-10 12:10 13:10 14:10 15:-10 16:-10 17:10 18:-5.36585 19:-2.19355 20:10 21:-7.23214 22:-5.06316 23:10 24:-6.78241 25:10 26:-8.38611 27:10 28:10 29:10 30:-10 
0.1128025669291575 1:-10 2:-10 3:-9.93355 4:-9.86111 5:-9.94832 6:-9.91071 7:-10 8:-10 9:-10 10:-10 11:-10 12:-10 13:-10 14:-10 15:-10 16:-10 17:10 18:10 19:10 20:-0.0296736 21:-0.0520833 22:-0.0421053 23:-0.0332226 24:-0.0694444 25:10 26:10 27:-10 28:-10 29:-10 30:-10 
1 1:-7.34375 2:-3.46154 3:-8.60465 4:-6.80556 5:-7.88114 6:-6.42857 7:-7.16088 8:-2.8169 9:10 10:10 11:10 12:10 13:10 14:10 15:-7.24138 16:-6.57895 17:-4.56481 18:-4.79675 19:-4.67742 20:-7.67133 21:-7.65244 22:-7.66443 23:-9.15433 24:-9.29977 25:-3.99209 26:-4.7796 27:10 28:10 29:10 30:-9.25926 
0.1743442318877181 1:-10 2:-8.07692 3:-9.86711 4:-8.61111 5:-9.89664 6:-8.92857 7:-10 8:-7.88732 9:-10 10:-10 11:-10 12:10 13:10 14:10 15:-10 16:-10 17:10 18:-7.07317 19:-4.51613 20:-3.3729 21:-8.55769 22:-7.57368 23:-3.37763 24:-8.30808 25:10 26:-8.96067 27:10 28:10 29:10 30:-10 
1 1:-9.6875 2:-8.07692 3:-9.80066 4:-9.16667 5:-9.53488 6:-8.75 7:-9.87382 8:-9.01408 9:-10 10:-10 11:-10 12:-3.33333 13:-6 14:-7.14286 15:-8.62069 16:-9.47368 17:10 18:-0.243902 19:3.22581 20:-4.04154 21:-6.08333 22:-5.264 23:-5.04983 24:-7.2619 25:10 26:-2.64045 27:-3.33333 28:-6 29:-7.14286 30:-10 
1 1:-1.875 2:-6.92308 3:-4.88372 4:-6.25 5:-1.93798 6:-6.78571 7:-2.30284 8:-7.60563 9:10 10:10 11:10 12:3.33333 13:0.666667 14:-1.42857 15:-4.48276 16:-5.52632 17:-6.74214 18:10 19:-4.42248 20:-8.90945 21:-5.21396 22:-8.22073 23:-9.80918 24:-9.41964 25:-7.17018 26:10 27:3.33333 28:0.666667 29:-1.42857 30:-9.25926 
1 1:-9.53125 2:-10 3:-9.60133 4:-10 5:-9.68992 6:-10 7:-9.36909 8:-10 9:10 10:10 11:10 12:-10 13:-10 14:-10 15:-10 16:-10 17:-5.125 18:10 19:-2.19355 20:-7.19373 21:10 22:-5.06316 23:-7.19981 24:10 25:-8.28512 26:10 27:-10 28:-10 29:-10 30:-10 
1 1:-9.6875 2:-8.84615 3:-9.53488 4:-8.05556 5:-9.63824 6:-8.75 7:-9.55836 8:-9.29577 9:10 10:10 11:10 12:-3.33333 13:-6 14:-7.14286 15:-10 16:-10 17:-3.44444 18:-5.36585 19:-4.51613 20:-7.55193 21:-8.76389 22:-8.33776 23:-7.55814 24:-8.7963 25:-7.59943 26:-6.85393 27:-3.33333 28:-6 29:-7.14286 30:-10 
1 1:-8.4375 2:-9.23077 3:-9.06977 4:-9.44444 5:-9.06977 6:-9.46429 7:-8.29653 8:-9.15493 9:10 10:10 11:10 12:10 13:10 14:10 15:-8.62069 16:-8.42105 17:-4.66667 18:10 19:-1.6129 20:-6.89208 21:-1.4881 22:-5.44939 23:-8.72868 24:-6.11111 25:-5.08523 26:10 27:10 28:10 29:10 30:-10 
0.2207761199205315 1:-7.34375 2:-9.61538 3:-9.2691 4:-9.86111 5:-8.19121 6:-9.73214 7:-7.35016 8:-9.71831 9:10 10:10 11:10 12:-3.33333 13:-6 14:-7.14286 15:-9.31034 16:-9.47368 17:-7.92593 18:10 19:-6.25806 20:-8.94494 21:-0.0520833 22:-8.07579 23:-8.39424 24:-0.0694444 25:-8.71036 26:10 27:-3.33333 28:-6 29:-7.14286 30:-9.25926 
1 1:-7.96875 2:-10 3:-6.01329 4:-7.77778 5:-6.12403 6:-8.57143 7:-8.17035 8:-10 9:10 10:10 11:10 12:-10 13:-10 14:-10 15:-10 16:-10 17:-8.72619 18:10 19:-7.6129 20:-9.79541 21:-8.92157 22:-9.65229 23:-9.73749 24:-8.95425 25:-9.44318 26:10 27:-10 28:-10 29:-10 30:-10 
1 1:-9.375 2:-5.38462 3:-9.66777 4:-7.36111 5:-9.17313 6:-6.16071 7:-9.43218 8:-5.91549 9:3.33333 10:0.666667 11:-1.42857 12:10 13:10 14:10 15:-7.93103 16:-7.89474 17:5.96667 18:-4.18386 19:-1.29032 20:-5.3395 21:-8.27652 22:-7.45022 23:-6.72204 24:-9.13194 25:7.98864 26:-4.1573 27:10 28:10 29:10 30:-9.25926 
1 1:-9.53125 2:-9.61538 3:-9.00332 4:-9.44444 5:-9.06977 6:-9.55357 7:-9.68454 8:-9.57746 9:-3.33333 10:-6 11:-7.14286 12:3.33333 13:0.666667 14:-1.42857 15:-10 16:-10 17:-5.125 18:-0.243902 19:-3.54839 20:-9.00359 21:-6.75347 22:-8.47747 23:-8.81229 24:-6.11111 25:-6.76136 26:-5.16854 27:3.33333 28:0.666667 29:-1.42857 30:-10 
0.633212549824434 1:-8.125 2:-8.84615 3:-8.53821 4:-9.58333 5:-7.77778 6:-9.19643 7:-8.04416 8:-9.15493 9:10 10:10 11:10 12:-3.33333 13:-6 14:-7.14286 15:-7.93103 16:-8.42105 17:-3.96154 18:10 19:-0.759013 20:-8.23577 21:-2.0625 22:-7.10877 23:-9.19399 24:-5.10417 25:-5.71378 26:10 27:-3.33333 28:-6 29:-7.14286 30:-10 
1 1:-9.53125 2:-9.23077 3:-9.40199 4:-9.02778 5:-8.91473 6:-8.57143 7:-9.62145 8:-9.57746 9:3.33333 10:0.666667 11:-1.42857 12:-3.33333 13:-6 14:-7.14286 15:-8.62069 16:-9.21053 17:4.95833 18:10 19:7.09677 20:-7.32398 21:-6.55637 22:-6.99433 23:-8.0598 24:-7.62153 25:1.37987 26:10 27:-3.33333 28:-6 29:-7.14286 30:-9.25926 
0.5096356791082093 1:-8.75 2:-10 3:-8.47176 4:-9.58333 5:-8.39793 6:-9.73214 7:-8.99054 8:-10 9:3.33333 10:0.666667 11:-1.42857 12:-10 13:-10 14:-10 15:-10 16:-10 17:-7.92593 18:10 19:-6.25806 20:-9.43249 21:-5.07813 22:-8.96842 23:-9.23034 24:-5.10417 25:-8.93048 26:10 27:-10 28:-10 29:-10 30:-10 
0.1626842013774489 1:-8.59375 2:-9.61538 3:-9.46844 4:-9.72222 5:-8.91473 6:-9.55357 7:-8.73817 8:-9.85915 9:10 10:10 11:10 12:-10 13:-10 14:-10 15:-9.31034 16:-9.73684 17:-6.13333 18:10 19:-3.54839 20:-8.23577 21:-3.40278 22:-7.21504 23:-7.83684 24:-3.42593 25:-8.19805 26:10 27:-10 28:-10 29:-10 30:-10 
0.8044461171974705 1:-4.84375 2:-8.07692 3:-6.6113 4:-9.02778 5:-4.26357 6:-8.30357 7:-4.13249 8:-7.88732 9:10 10:10 11:10 12:10 13:10 14:10 15:-7.24138 16:-6.84211 17:-7.20098 18:6.58537 19:-5.24194 20:-9.16384 21:-5.07813 22:-8.56268 23:-9.68055 24:-7.62153 25:-7.33196 26:6.20787 27:10 28:10 29:10 30:-9.25926 
0.4666858572316854 1:-7.5 2:-10 3:-7.54153 4:-8.19444 5:-7.15762 6:-8.83929 7:-7.22397 8:-10 9:10 10:10 11:10 12:-10 13:-10 14:-10 15:-10 16:-10 17:-8.98039 18:10 19:-8.06452 20:-9.70114 21:-8.66815 22:-9.51038 23:-9.53838 24:-8.7004 25:-9.66667 26:10 27:-10 28:-10 29:-10 30:-10 
0.6018876014555236 1:-9.0625 2:-8.07692 3:-8.93688 4:-7.91667 5:-8.75969 6:-8.03571 7:-9.36909 8:-8.02817 9:10 10:10 11:10 12:10 13:10 14:10 15:-8.62069 16:-8.68421 17:-1.52381 18:-0.243902 19:-0.942928 20:-7.65223 21:-7.48188 22:-7.57368 23:-8.88607 24:-8.88021 25:0.857438 26:-2.13483 27:10 28:10 29:10 30:-10 
1 1:-9.53125 2:-9.61538 3:-9.46844 4:-9.02778 5:-9.22481 6:-9.375 7:-9.74763 8:-9.43662 9:-3.33333 10:-6 11:-7.14286 12:10 13:10 14:10 15:-10 16:-10 17:-5.125 18:-0.243902 19:-3.54839 20:-8.80564 21:-7.59115 22:-8.41053 23:-7.83684 24:-7.62153 25:-6.09091 26:-6.17978 27:10 28:10 29:10 30:-10 
1 1:-8.125 2:-10 3:-8.27243 4:-9.44444 5:-7.62274 6:-9.64286 7:-8.42271 8:-10 9:3.33333 10:0.666667 11:-1.42857 12:-10 13:-10 14:-10 15:-10 16:-10 17:-8.61538 18:10 19:-7.41935 20:-9.63255 21:-6.08333 22:-9.31174 23:-9.32324 24:-6.11111 25:-9.34003 26:10 27:-10 28:-10 29:-10 30:-10 
1 1:-9.21875 2:-5.76923 3:-9.13621 4:-7.36111 5:-7.7261 6:-3.83929 7:-9.62145 8:-6.61972 9:-3.33333 10:-6 11:-7.14286 12:10 13:10 14:10 15:-6.55172 16:-8.42105 17:10 18:-0.243902 19:3.22581 20:-7.38477 21:-8.38095 22:-7.98847 23:-8.63313 24:-9.13194 25:10 26:-4.5618 27:10 28:10 29:10 30:-9.25926 
1 1:-10 2:-9.61538 3:-9.93355 4:-9.72222 5:-9.94832 6:-9.73214 7:-10 8:-9.71831 9:-10 10:-10 11:-10 12:-3.33333 13:-6 14:-7.14286 15:-10 16:-10 17:10 18:-0.243902 19:3.22581 20:-0.0296736 21:-5.07813 22:-3.38947 23:-0.0332226 24:-3.42593 25:10 26:-3.48315 27:-3.33333 28:-6 29:-7.14286 30:-10 
1 1:-9.84375 2:-9.23077 3:-9.93355 4:-9.58333 5:-9.94832 6:-9.64286 7:-9.81073 8:-9.29577 9:3.33333 10:0.666667 11:-1.42857 12:3.33333 13:0.666667 14:-1.42857 15:-10 16:-10 17:-0.0833333 18:-3.65854 19:-2.19355 20:-0.0296736 21:-6.08333 22:-4.34586 23:-0.0332226 24:-5.10417 25:-5.08523 26:-6.85393 27:3.33333 28:0.666667 29:-1.42857 30:-10 
1 1:-9.53125 2:-10 3:-9.2691 4:-9.86111 5:-9.37984 6:-9.91071 7:-9.62145 8:-10 9:10 10:10 11:10 12:-10 13:-10 14:-10 15:-10 16:-10 17:-5.125 18:10 19:-2.19355 20:-8.51632 21:-0.0520833 22:-7.40632 23:-8.39424 24:-0.0694444 25:-7.24026 26:10 27:-10 28:-10 29:-10 30:-10 
0.4837012835402626 1:-8.75 2:-8.07692 3:-9.33555 4:-9.16667 5:-9.27649 6:-8.66071 7:-8.61199 8:-9.01408 9:10 10:10 11:10 12:3.33333 13:0.666667 14:-1.42857 15:-10 16:-10 17:-7.92593 18:-7.07317 19:-7.6129 20:-8.72206 21:-8.84766 22:-8.78846 23:-8.24222 24:-7.2619 25:-9.23913 26:-7.69663 27:3.33333 28:0.666667 29:-1.42857 30:-10 
1 1:-8.4375 2:-9.23077 3:-8.80399 4:-9.44444 5:-8.75969 6:-9.46429 7:-8.99054 8:-9.43662 9:3.33333 10:0.666667 11:-1.42857 12:3.33333 13:0.666667 14:-1.42857 15:-8.62069 16:-8.94737 17:-4.66667 18:10 19:-1.6129 20:-7.65223 21:-1.4881 22:-6.31842 23:-9.01032 24:-6.11111 25:-4.19786 26:10 27:3.33333 28:0.666667 29:-1.42857 30:-10 
1 1:-9.21875 2:-9.61538 3:-7.54153 4:-9.02778 5:-7.7261 6:-9.19643 7:-9.36909 8:-9.85915 9:10 10:10 11:10 12:-10 13:-10 14:-10 15:-9.31034 16:-9.73684 17:-3.44444 18:10 19:-0.16129 20:-9.16782 21:-6.08333 22:-8.62354 23:-9.53838 24:-7.62153 25:-6.45661 26:10 27:-10 28:-10 29:-10 30:-10 
1 1:-9.21875 2:-5 3:-9.66777 4:-7.77778 5:-9.4832 6:-7.41071 7:-9.43218 8:-6.47887 9:3.33333 10:0.666667 11:-1.42857 12:10 13:10 14:10 15:-7.93103 16:-8.68421 17:3.27778 18:-4.63415 19:-2.19355 20:-2.76504 21:-7.42361 22:-6.16534 23:-6.72204 24:-8.95425 25:1.95455 26:-5.55748 27:10 28:10 29:10 30:-10 
0.2903784602047156 1:-8.4375 2:-6.53846 3:-9.00332 4:-7.08333 5:-7.67442 6:-6.96429 7:-8.23344 8:-7.46479 9:10 10:10 11:10 12:10 13:10 14:10 15:-8.62069 16:-8.15789 17:-4.66667 18:-4.34146 19:-4.51613 20:-8.75113 21:-8.38095 22:-8.59649 23:-8.81229 24:-9.22348 25:-4.56505 26:-1.70905 27:10 28:10 29:10 30:-9.25926 
1 1:-9.6875 2:-5.76923 3:-9.86711 4:-7.91667 5:-9.79328 6:-8.30357 7:-9.68454 8:-6.76056 9:10 10:10 11:10 12:3.33333 13:0.666667 14:-1.42857 15:-9.31034 16:-9.73684 17:3.27778 18:-7.07317 19:-4.90323 20:-2.03561 21:-8.09375 22:-6.87074 23:-3.37763 24:-8.88021 25:-3.40909 26:-8.53933 27:3.33333 28:0.666667 29:-1.42857 30:-10 
1 1:-9.6875 2:-10 3:-9.73422 4:-9.72222 5:-9.68992 6:-9.82143 7:-9.74763 8:-10 9:3.33333 10:0.666667 11:-1.42857 12:-10 13:-10 14:-10 15:-10 16:-10 17:-3.44444 18:10 19:-0.16129 20:-7.19373 21:-3.40278 22:-6.06737 23:-6.05316 24:-3.42593 25:-6.09091 26:10 27:-10 28:-10 29:-10 30:-10 
0.1836771184989344 1:-7.65625 2:-7.30769 3:-8.27243 4:-8.61111 5:-7.62274 6:-7.67857 7:-7.35016 8:-6.90141 9:10 10:10 11:10 12:10 13:10 14:10 15:-5.17241 16:-4.21053 17:-0.0833333 18:10 19:3.22581 20:-6.64499 21:-4.14738 22:-5.74168 23:-9.32324 24:-8.30808 25:0.64482 26:10 27:10 28:10 29:10 30:-9.25926 
1 1:-9.6875 2:-9.23077 3:-9.73422 4:-9.58333 5:-9.68992 6:-9.64286 7:-9.74763 8:-9.15493 9:3.33333 10:0.666667 11:-1.42857 12:3.33333 13:0.666667 14:-1.42857 15:-9.31034 16:-9.21053 17:3.27778 18:3.17073 19:3.22581 20:-4.32811 21:-2.0625 22:-3.38947 23:-6.05316 24:-5.10417 25:5.97727 26:1.33226 27:3.33333 28:0.666667 29:-1.42857 30:-10 
1 1:-9.6875 2:-9.23077 3:-9.73422 4:-9.44444 5:-9.53488 6:-9.375 7:-9.87382 8:-9.43662 9:-10 10:-10 11:-10 12:3.33333 13:0.666667 14:-1.42857 15:-9.31034 16:-9.73684 17:3.27778 18:3.17073 19:3.22581 20:-6.04748 21:-5.07813 22:-5.62105 23:-6.05316 24:-6.11111 25:3.29545 26:-2.13483 27:3.33333 28:0.666667 29:-1.42857 30:-10 
0.9764543533719016 1:-10 2:-6.53846 3:-9.86711 4:-6.80556 5:-9.89664 6:-7.05357 7:-10 8:-6.61972 9:-10 10:-10 11:-10 12:10 13:10 14:10 15:-10 16:-10 17:10 18:-8.43902 19:-6.62757 20:-3.3729 21:-9.51287 22:-8.99858 23:-3.37763 24:-9.29977 25:10 26:-9.41573 27:10 28:10 29:10 30:-10 
0.1723636744778374 1:-10 2:-9.23077 3:-9.66777 4:-9.02778 5:-9.7416 6:-9.01786 7:-10 8:-9.01408 9:-10 10:-10 11:-10 12:10 13:10 14:10 15:-10 16:-10 17:10 18:-3.65854 19:-0.16129 20:-6.71612 21:-8.42882 22:-7.85263 23:-6.72204 24:-7.62153 25:10 26:-7.69663 27:10 28:10 29:10 30:-10 
1 1:-9.6875 2:-5.38462 3:-9.93355 4:-7.22222 5:-9.84496 6:-7.85714 7:-9.62145 8:-5.49296 9:10 10:10 11:10 12:10 13:10 14:10 15:-9.31034 16:-8.94737 17:3.27778 18:-7.33583 19:-5.24194 20:-0.0296736 21:-8.49583 22:-7.31397 23:-0.0332226 24:-9.17989 25:4.25325 26:-7.16037 27:10 28:10 29:10 30:-10 
0.6735911558806392 1:-9.84375 2:-10 3:-9.73422 4:-9.58333 5:-9.68992 6:-9.73214 7:-9.74763 8:-10 9:10 10:10 11:10 12:-10 13:-10 14:-10 15:-10 16:-10 17:-0.0833333 18:10 19:3.22581 20:-7.19373 21:-5.07813 22:-6.43254 23:-6.05316 24:-5.10417 25:-6.09091 26:10 27:-10 28:-10 29:-10 30:-10 
1 1:-9.84375 2:-6.92308 3:-9.93355 4:-7.91667 5:-9.89664 6:-7.76786 7:-9.87382 8:-8.30986 9:-3.33333 10:-6 11:-7.14286 12:-3.33333 13:-6 14:-7.14286 15:-9.31034 16:-9.47368 17:10 18:-5.93496 19:-2.93255 20:3.31355 21:-8.55769 22:-7.31397 23:-0.0332226 24:-8.88021 25:10 26:-5.55748 27:-3.33333 28:-6 29:-7.14286 30:-10 
1 1:-8.59375 2:4.23077 3:-9.00332 4:-2.5 5:-8.08786 6:1.07143 7:-7.98107 8:2.67606 9:10 10:10 11:10 12:10 13:10 14:10 15:-3.7931 16:-1.57895 17:10 18:-5.09628 19:-1.85484 20:-4.78057 21:-8.49583 22:-7.61989 23:-8.81229 24:-9.77273 25:10 26:-2.89048 27:10 28:10 29:10 30:-7.77778 
0.9785804124844313 1:-9.6875 2:-9.23077 3:-9.66777 4:-9.30556 5:-9.58656 6:-9.28571 7:-9.81073 8:-9.57746 9:-3.33333 10:-6 11:-7.14286 12:-3.33333 13:-6 14:-7.14286 15:-8.62069 16:-9.21053 17:10 18:10 19:10 20:-3.3729 21:-3.40278 22:-3.38947 23:-6.72204 24:-6.78241 25:10 26:10 27:-3.33333 28:-6 29:-7.14286 30:-10 
1 1:-9.6875 2:-9.61538 3:-9.93355 4:-9.86111 5:-9.79328 6:-9.73214 7:-9.81073 8:-9.71831 9:-3.33333 10:-6 11:-7.14286 12:-3.33333 13:-6 14:-7.14286 15:-9.31034 16:-9.47368 17:3.27778 18:10 19:5.93548 20:-2.03561 21:-0.0520833 22:-1.15789 23:-0.0332226 24:-0.0694444 25:4.97159 26:10 27:-3.33333 28:-6 29:-7.14286 30:-10 
1 1:-8.28125 3:-9.53488 4:-5.83333 5:-8.96641 6:-1.60714 7:-8.67508 8:-1.5493 9:3.33333 10:0.666667 11:-1.42857 12:10 13:10 14:10 15:-10 16:-10 17:-8.48611 18:-9.729 19:-9.2804 20:-9.10414 21:-9.89254 22:-9.73793 23:-7.55814 24:-9.48925 25:-9.19938 26:-9.89317 27:10 28:10 29:10 30:-10 
1 1:-9.84375 2:6.92308 3:-9.86711 5:-9.79328 6:2.41071 7:-9.87382 8:6.33803 9:-3.33333 10:-6 11:-7.14286 12:10 13:10 14:10 15:-9.31034 16:-9.47368 17:10 18:-9.57724 19:-8.593 20:-2.03561 21:-9.81696 22:-9.53016 23:-3.37763 24:-9.86301 25:10 26:-9.70614 27:10 28:10 29:10 30:-10 
1 1:-9.53125 2:-4.23077 3:-9.00332 4:-3.19444 5:-8.50129 6:-2.67857 7:-9.43218 8:-4.92958 9:10 10:10 11:10 12:10 13:10 14:10 15:-7.93103 16:-7.63158 17:10 18:-5.36585 19:-2.19355 20:-7.38477 21:-9.13529 22:-8.66232 23:-8.81229 24:-9.73611 25:10 26:-4.75858 27:10 28:10 29:10 30:-10 
1 1:-9.0625 2:-1.15385 3:-9.20266 4:-6.11111 5:-9.06977 6:-4.73214 7:-9.17981 8:-3.52113 9:10 10:10 11:10 12:10 13:10 14:10 15:-9.31034 16:-9.73684 17:-4.40476 18:-8.78049 19:-7.70031 20:-7.94784 21:-9.43403 22:-9.06729 23:-8.52287 24:-9.44444 25:-7.24026 26:-9.36409 27:10 28:10 29:10 30:-10 
1 1:-9.375 2:-6.53846 3:-7.67442 4:-3.47222 5:-8.08786 6:-5.35714 7:-9.55836 8:-7.32394 9:3.33333 10:0.666667 11:-1.42857 12:10 13:10 14:10 15:-10 16:-10 17:-6.13333 18:-8.43902 19:-7.6129 20:-9.53147 21:-9.72484 22:-9.6428 23:-9.50904 24:-9.71933 25:-7.59943 26:-9.21348 27:10 28:10 29:10 30:-10 
0.1311558064062861 1:-9.84375 2:-9.23077 3:-9.73422 4:-9.16667 5:-9.79328 6:-9.01786 7:-9.93691 8:-9.29577 9:-10 10:-10 11:-10 12:3.33333 13:0.666667 14:-1.42857 15:-10 16:-10 17:-0.0833333 18:-3.65854 19:-2.19355 20:-6.04748 21:-8.42882 22:-7.72136 23:-6.05316 24:-7.2619 25:-0.0568182 26:-6.85393 27:3.33333 28:0.666667 29:-1.42857 30:-10 
0.7046333627685958 1:-7.96875 2:-10 3:-8.00664 4:-9.72222 5:-7.88114 6:-9.82143 7:-8.86435 8:-10 9:10 10:10 11:10 12:-10 13:-10 14:-10 15:-10 16:-10 17:-8.72619 18:10 19:-7.6129 20:-9.58174 21:-3.40278 22:-9.19158 23:-9.41914 24:-3.42593 25:-9.05502 26:10 27:-10 28:-10 29:-10 30:-10 
0.2079057170544185 1:-6.71875 2:-10 3:-7.80731 4:-9.72222 5:-7.00258 6:-9.82143 7:-6.78233 8:-10 9:10 10:10 11:10 12:-10 13:-10 14:-10 15:-10 16:-10 17:-9.25 18:10 19:-8.5554 20:-9.71936 21:-3.40278 22:-9.43633 23:-9.47626 24:-3.42593 25:-9.72684 26:10 27:-10 28:-10 29:-10 30:-10 
1 1:-9.6875 2:-8.84615 3:-9.53488 4:-8.61111 5:-9.27649 6:-8.39286 7:-9.74763 8:-9.01408 9:3.33333 10:0.666667 11:-1.42857 12:10 13:10 14:10 15:-9.31034 16:-9.73684 17:3.27778 18:-0.243902 19:1.29032 20:-7.38477 21:-7.98794 22:-7.72136 23:-7.55814 24:-8.30808 25:-2.06818 26:-5.16854 27:10 28:10 29:10 30:-9.25926 
0.3978326994156405 1:-10 2:-9.61538 3:-9.80066 4:-9.30556 5:-9.84496 6:-9.55357 7:-10 8:-9.57746 9:-10 10:-10 11:-10 12:3.33333 13:0.666667 14:-1.42857 15:-10 16:-10 17:10 18:-0.243902 19:3.22581 20:-5.04451 21:-6.75347 22:-6.06737 23:-5.04983 24:-6.78241 25:10 26:-5.16854 27:3.33333 28:0.666667 29:-1.42857 30:-10 
1 1:-9.6875 2:-9.23077 3:-9.40199 4:-9.16667 5:-9.4832 6:-9.375 7:-9.81073 8:-9.43662 9:-3.33333 10:-6 11:-7.14286 12:3.33333 13:0.666667 14:-1.42857 15:-10 16:-10 17:-3.44444 18:-3.65854 19:-3.54839 20:-8.23577 21:-7.59115 22:-7.97008 23:-8.0598 24:-7.2619 25:-5.08523 26:-6.17978 27:3.33333 28:0.666667 29:-1.42857 30:-10 
1 1:-4.375 2:-5.76923 3:-4.75083 4:-7.5 5:-2.76486 6:-7.41071 7:-3.81703 8:-5.35211 9:10 10:10 11:10 12:10 13:10 14:10 15:-7.93103 16:-8.15789 17:-7.98649 18:-3.65854 19:-7.00461 20:-9.49029 21:-7.42361 22:-9.1446 23:-9.81561 24:-9.07895 25:-8.48829 26:-5.46596 27:10 28:10 29:10 30:-9.25926 
1 1:-9.84375 2:-9.23077 3:-9.46844 4:-9.16667 5:-9.53488 6:-9.28571 7:-9.93691 8:-9.15493 9:-10 10:-10 11:-10 12:3.33333 13:0.666667 14:-1.42857 15:-10 16:-10 17:-0.0833333 18:-3.65854 19:-2.19355 20:-8.05341 21:-7.87037 22:-7.97008 23:-7.83684 24:-7.2619 25:-0.0568182 26:-7.33547 27:3.33333 28:0.666667 29:-1.42857 30:-10 
1 1:-9.6875 2:-5.76923 3:-9.66777 4:-5.97222 5:-9.63824 6:-6.60714 7:-9.55836 8:-6.05634 9:10 10:10 11:10 12:10 13:10 14:10 15:-10 16:-10 17:-3.44444 18:-8.78049 19:-7.6129 20:-7.55193 21:-9.58868 22:-9.22956 23:-6.72204 24:-9.46759 25:-7.59943 26:-9.52731 27:10 28:10 29:10 30:-10 
0.544128755774874 1:-6.40625 2:-6.53846 3:-8.93688 4:-8.19444 5:-6.17571 6:-7.67857 7:-6.59306 8:-6.05634 9:10 10:10 11:10 12:10 13:10 14:10 15:-10 16:-10 17:-9.32639 18:-8.43902 19:-9.12713 20:-9.79189 21:-9.35957 22:-9.6904 23:-8.88607 24:-8.7004 25:-9.74793 26:-9.52731 27:10 28:10 29:10 30:-10 
1 1:-8.90625 2:-9.61538 3:-9.2691 4:-9.86111 5:-9.17313 6:-9.82143 7:-8.92744 8:-9.57746 9:10 10:10 11:10 12:3.33333 13:0.666667 14:-1.42857 15:-10 16:-10 17:-7.64583 18:-0.243902 19:-6.25806 20:-8.87939 21:-3.40278 22:-8.07579 23:-8.39424 24:-0.0694444 25:-8.99621 26:-5.16854 27:3.33333 28:0.666667 29:-1.42857 30:-10 
1 1:-9.0625 2:-8.84615 3:-9.33555 4:-9.16667 5:-9.27649 6:-9.10714 7:-9.2429 8:-9.43662 9:3.33333 10:0.666667 11:-1.42857 12:-3.33333 13:-6 14:-7.14286 15:-8.62069 16:-9.21053 17:-1.52381 18:4.87805 19:0.762463 20:-6.04748 21:-4.62121 22:-5.44939 23:-8.24222 24:-7.2619 25:-3.92483 26:5.95506 27:-3.33333 28:-6 29:-7.14286 30:-9.25926 
1 1:-9.21875 2:-7.30769 3:-9.53488 4:-8.88889 5:-9.43152 6:-9.01786 7:-9.49527 8:-7.1831 9:3.33333 10:0.666667 11:-1.42857 12:10 13:10 14:10 15:-8.62069 16:-9.47368 17:-0.0833333 18:-2.80488 19:-1.6129 20:-5.04451 21:-5.07813 22:-5.06316 23:-7.55814 24:-7.90123 25:-3.40909 26:-7.33547 27:10 28:10 29:10 30:-8.51852 
1 1:-9.84375 2:-8.84615 3:-9.73422 4:-7.91667 5:-9.7416 6:-8.30357 7:-9.74763 8:-8.59155 9:10 10:10 11:10 12:10 13:10 14:10 15:-9.31034 16:-8.94737 17:10 18:-0.243902 19:3.22581 20:-3.3729 21:-8.09375 22:-6.99433 23:-6.05316 24:-8.88021 25:10 26:-1.03166 27:10 28:10 29:10 30:-10 
0.9086062124863946 1:-4.375 2:-8.46154 3:-4.95017 4:-8.33333 5:-2.4031 6:-8.21429 7:-3.69085 8:-8.73239 9:10 10:10 11:10 12:10 13:10 14:10 15:-10 16:-10 17:-9.62162 18:-6.39024 19:-9.35484 20:-9.92381 21:-9.14683 22:-9.84653 23:-9.80584 24:-8.58974 25:-9.91449 26:-8.20225 27:10 28:10 29:10 30:-10 
1 1:-9.21875 2:-8.07692 3:-9.33555 4:-8.75 5:-8.75969 6:-7.94643 7:-9.36909 8:-8.30986 9:3.33333 10:0.666667 11:-1.42857 12:10 13:10 14:10 15:-7.24138 16:-7.89474 17:6.63889 18:6.58537 19:6.6129 20:-6.04748 21:-5.9158 22:-5.98539 23:-8.24222 24:-8.125 25:6.34298 26:3.77701 27:10 28:10 29:10 30:-10 
1 1:-9.375 2:-8.46154 3:-9.53488 4:-8.88889 5:-9.43152 6:-9.01786 7:-9.55836 8:-9.01408 9:-3.33333 10:-6 11:-7.14286 12:-3.33333 13:-6 14:-7.14286 15:-7.93103 16:-8.68421 17:5.96667 18:5.90244 19:5.93548 20:-3.3729 21:-3.40278 22:-3.38947 23:-7.55814 24:-7.90123 25:4.97159 26:4.94382 27:-3.33333 28:-6 29:-7.14286 30:-10 
0.6110400709860228 1:-9.84375 2:-9.61538 3:-9.80066 4:-9.58333 5:-9.79328 6:-9.64286 7:-9.87382 8:-9.71831 9:-3.33333 10:-6 11:-7.14286 12:-3.33333 13:-6 14:-7.14286 15:-9.31034 16:-9.47368 17:10 18:10 19:10 20:-2.03561 21:-2.0625 22:-2.05053 23:-5.04983 24:-5.10417 25:10 26:10 27:-3.33333 28:-6 29:-7.14286 30:-10 
1 1:-9.84375 2:-9.61538 3:-9.93355 4:-9.58333 5:-9.94832 6:-9.73214 7:-9.81073 8:-9.85915 9:3.33333 10:0.666667 11:-1.42857 12:-10 13:-10 14:-10 15:-10 16:-10 17:-0.0833333 18:-0.243902 19:-0.16129 20:-0.0296736 21:-5.07813 22:-3.38947 23:-0.0332226 24:-5.10417 25:-5.08523 26:-0.11236 27:-10 28:-10 29:-10 30:-10 
1 1:-7.96875 2:-6.53846 3:-8.6711 4:-8.61111 5:-6.84755 6:-6.07143 7:-8.29653 8:-7.04225 9:10 10:10 11:10 12:10 13:10 14:10 15:-4.48276 16:-5.52632 17:2.79762 18:7.95122 19:4.91935 20:-7.14751 21:-6.08333 22:-6.70556 23:-9.1109 24:-8.30808 25:2.81656 26:6.32278 27:10 28:10 29:10 30:-9.25926 
1 1:-7.96875 2:-8.46154 3:-9.2691 4:-9.16667 5:-7.31266 6:-7.85714 7:-8.4858 8:-9.29577 9:10 10:10 11:10 12:-3.33333 13:-6 14:-7.14286 15:-7.24138 16:-8.68421 17:-2.96429 18:10 19:0.373514 20:-8.16696 21:-6.08333 22:-7.50931 23:-8.39424 24:-7.2619 25:-5.28636 26:10 27:-3.33333 28:-6 29:-7.14286 30:-9.25926 
0.9562377427045314 1:-9.6875 2:-10 3:-9.33555 4:-9.72222 5:-9.4832 6:-9.82143 7:-9.68454 8:-10 9:10 10:10 11:10 12:-10 13:-10 14:-10 15:-10 16:-10 17:-3.44444 18:10 19:-0.16129 20:-8.23577 21:-3.40278 22:-7.21504 23:-8.24222 24:-3.42593 25:-6.76136 26:10 27:-10 28:-10 29:-10 30:-10 
1 1:-8.28125 2:-9.61538 3:-9.2691 4:-10 5:-9.32817 6:-9.91071 7:-8.23344 8:-9.71831 9:10 10:10 11:10 12:-3.33333 13:-6 14:-7.14286 15:-9.31034 16:-9.47368 17:-6.80556 18:10 19:-4.51613 20:-7.19373 21:10 22:-5.06316 23:-8.39424 24:10 25:-8.03292 26:10 27:-3.33333 28:-6 29:-7.14286 30:-9.25926 
1 1:-9.375 2:-8.46154 3:-9.66777 4:-8.47222 5:-9.43152 6:-8.75 7:-9.2429 8:-8.30986 9:10 10:10 11:10 12:10 13:10 14:10 15:-8.62069 16:-8.94737 17:1.93333 18:1.80488 19:1.87097 20:-5.04451 21:-6.08333 22:-5.62105 23:-6.72204 24:-8.46065 25:-2.37762 26:-2.44598 27:10 28:10 29:10 30:-10 
1 1:-9.84375 2:-10 3:-9.93355 4:-10 5:-9.94832 6:-10 7:-9.74763 8:-10 9:10 10:10 11:10 12:-10 13:-10 14:-10 15:-10 16:-10 17:-0.0833333 18:10 19:3.22581 20:-0.0296736 21:10 22:3.30526 23:-0.0332226 24:10 25:-6.09091 26:10 27:-10 28:-10 29:-10 30:-10 
1 1:-9.84375 2:-8.84615 3:-9.86711 4:-9.02778 5:-9.84496 6:-9.375 7:-9.81073 8:-8.73239 9:3.33333 10:0.666667 11:-1.42857 12:10 13:10 14:10 15:-10 16:-10 17:-0.0833333 18:-5.36585 19:-3.54839 20:-5.04451 21:-7.59115 22:-6.73684 23:-3.37763 24:-7.62153 25:-5.08523 26:-8.20225 27:10 28:10 29:10 30:-10 
1 1:-10 2:-9.61538 3:-9.93355 4:-9.86111 5:-9.94832 6:-9.82143 7:-10 8:-9.57746 9:-10 10:-10 11:-10 12:3.33333 13:0.666667 14:-1.42857 15:-10 16:-10 17:10 18:-0.243902 19:3.22581 20:-0.0296736 21:-3.40278 22:-2.05053 23:-0.0332226 24:-0.0694444 25:10 26:-5.16854 27:3.33333 28:0.666667 29:-1.42857 30:-10 
0.5023178582709965 1:-9.6875 2:-10 3:-9.66777 4:-9.86111 5:-9.7416 6:-9.91071 7:-9.62145 8:-10 9:10 10:10 11:10 12:-10 13:-10 14:-10 15:-10 16:-10 17:-3.44444 18:10 19:-0.16129 20:-6.71612 21:-0.0520833 22:-5.06316 23:-6.72204 24:-0.0694444 25:-7.24026 26:10 27:-10 28:-10 29:-10 30:-10 
0.7604086259229833 1:-10 2:-7.69231 3:-9.93355 4:-8.88889 5:-9.94832 6:-8.75 7:-10 8:-7.88732 9:-10 10:-10 11:-10 12:10 13:10 14:10 15:-10 16:-10 17:10 18:-7.56098 19:-5.24194 20:-0.0296736 21:-8.76389 22:-7.72136 23:-0.0332226 24:-7.90123 25:10 26:-8.96067 27:10 28:10 29:10 30:-10 
1 1:-5.46875 2:-7.69231 3:-6.81063 4:-8.47222 5:-5.40052 6:-7.85714 7:-5.45741 8:-8.30986 9:10 10:10 11:10 12:3.33333 13:0.666667 14:-1.42857 15:-6.55172 16:-7.36842 17:-6.13333 18:7.07317 19:-3.73147 20:-8.72206 21:-5.27917 22:-7.98847 23:-9.65693 24:-8.46065 25:-7.08281 26:6.8885 27:3.33333 28:0.666667 29:-1.42857 30:-10 
1 1:-9.84375 2:-9.23077 3:-9.60133 4:-8.47222 5:-9.63824 6:-8.92857 7:-9.81073 8:-9.01408 9:3.33333 10:0.666667 11:-1.42857 12:10 13:10 14:10 15:-9.31034 16:-9.21053 17:10 18:3.17073 19:5.93548 20:-5.04451 21:-7.01122 22:-6.25865 23:-7.19981 24:-8.46065 25:10 26:-0.11236 27:10 28:10 29:10 30:-9.25926 
1 1:-9.6875 2:-9.23077 3:-9.60133 4:-9.72222 5:-9.58656 6:-9.55357 7:-9.49527 8:-9.43662 9:10 10:10 11:10 12:3.33333 13:0.666667 14:-1.42857 15:-10 16:-10 17:-3.44444 18:-3.65854 19:-3.54839 20:-7.83053 21:-6.75347 22:-7.40632 23:-7.19981 24:-3.42593 25:-7.87879 26:-6.17978 27:3.33333 28:0.666667 29:-1.42857 30:-10 
1 1:-9.6875 2:-8.84615 3:-9.40199 4:-8.19444 5:-9.43152 6:-8.39286 7:-9.81073 8:-9.15493 9:-3.33333 10:-6 11:-7.14286 12:3.33333 13:0.666667 14:-1.42857 15:-9.31034 16:-9.73684 17:3.27778 18:-0.243902 19:1.29032 20:-6.71612 21:-7.98794 22:-7.4927 23:-8.0598 24:-8.7004 25:-0.0568182 26:-4.44623 27:3.33333 28:0.666667 29:-1.42857 30:-10 
1 1:-9.84375 2:-5 3:-9.53488 4:-4.72222 5:-9.58656 6:-3.66071 7:-9.74763 8:-4.92958 9:10 10:10 11:10 12:10 13:10 14:10 15:-9.31034 16:-8.94737 17:10 18:-7.56098 19:-5.24194 20:-5.60171 21:-9.54572 22:-9.0924 23:-7.55814 24:-9.62251 25:10 26:-7.49165 27:10 28:10 29:10 30:-10 
0.8476178032416037 1:-9.0625 2:-10 3:-8.93688 4:-9.86111 5:-8.50129 6:-9.91071 7:-8.80126 8:-10 9:10 10:10 11:10 12:-10 13:-10 14:-10 15:-10 16:-10 17:-7.28571 18:10 19:-5.24194 20:-9.3907 21:-0.0520833 22:-8.82895 23:-8.88607 24:-0.0694444 25:-9.10795 26:10 27:-10 28:-10 29:-10 30:-10 
1 1:-10 2:-9.61538 3:-9.93355 4:-9.44444 5:-9.94832 6:-9.64286 7:-10 8:-9.71831 9:-10 10:-10 11:-10 12:-3.33333 13:-6 14:-7.14286 15:-10 16:-10 17:10 18:-0.243902 19:3.22581 20:-0.0296736 21:-6.08333 22:-4.34586 23:-0.0332226 24:-6.11111 25:10 26:-3.48315 27:-3.33333 28:-6 29:-7.14286 30:-10 
1 1:-9.53125 2:-8.46154 3:-9.73422 4:-9.30556 5:-9.32817 6:-8.83929 7:-9.62145 8:-8.30986 9:3.33333 10:0.666667 11:-1.42857 12:10 13:10 14:10 15:-8.62069 16:-8.94737 17:4.95833 18:1.80488 19:3.22581 20:-5.76092 21:-5.79613 22:-5.78045 23:-6.05316 24:-6.78241 25:4.25325 26:-2.44598 27:10 28:10 29:10 30:-10 
1 1:-3.4375 2:-6.92308 3:-3.28904 4:-8.47222 5:-2.9199 6:-7.76786 7:-3.05994 8:-7.74648 9:10 10:10 11:10 12:10 13:10 14:10 15:-7.24138 16:-8.15789 17:-7.82171 18:0.894309 19:-6.41439 20:-9.33256 21:-6.23798 22:-8.85956 23:-9.86972 24:-8.46065 25:-8.664 26:-0.707204 27:10 28:10 29:10 30:-9.25926 
1 1:-9.84375 2:-10 3:-9.60133 4:-9.30556 5:-9.68992 6:-9.55357 7:-9.74763 8:-10 9:10 10:10 11:10 12:-10 13:-10 14:-10 15:-10 16:-10 17:-0.0833333 18:10 19:3.22581 20:-7.19373 21:-6.75347 22:-6.99433 23:-7.19981 24:-6.78241 25:-6.09091 26:10 27:-10 28:-10 29:-10 30:-10 
1 1:-9.84375 2:-9.23077 3:-9.60133 4:-9.58333 5:-9.68992 6:-9.55357 7:-9.93691 8:-9.01408 9:-10 10:-10 11:-10 12:10 13:10 14:10 15:-10 16:-10 17:-0.0833333 18:-3.65854 19:-2.19355 20:-7.19373 21:-6.75347 22:-6.99433 23:-7.19981 24:-5.10417 25:-0.0568182 26:-7.69663 27:10 28:10 29:10 30:-10 
1 1:-8.90625 2:-9.23077 3:-9.00332 4:-9.86111 5:-8.75969 6:-9.55357 7:-8.5489 8:-9.29577 9:10 10:10 11:10 12:3.33333 13:0.666667 14:-1.42857 15:-8.62069 16:-8.68421 17:-2.60417 18:10 19:0.762463 20:-7.65223 21:-0.0520833 22:-6.19694 23:-8.81229 24:-0.0694444 25:-5.08523 26:10 27:3.33333 28:0.666667 29:-1.42857 30:-8.51852 
1 1:-8.90625 2:-8.46154 3:-8.40532 4:-8.47222 5:-8.29457 6:-8.57143 7:-8.61199 8:-9.01408 9:10 10:10 11:10 12:-3.33333 13:-6 14:-7.14286 15:-10 16:-10 17:-7.64583 18:-6.39024 19:-7.19603 20:-9.46937 21:-8.92157 22:-9.29659 23:-9.26379 24:-8.46065 25:-9.23913 26:-7.69663 27:-3.33333 28:-6 29:-7.14286 30:-10 
0.2760284173886369 1:-9.84375 2:-10 3:-9.00332 4:-8.61111 5:-9.01809 6:-9.10714 7:-9.87382 8:-10 9:-3.33333 10:-6 11:-7.14286 12:-10 13:-10 14:-10 15:-10 16:-10 17:-0.0833333 18:10 19:3.22581 20:-9.05638 21:-8.27652 22:-8.78846 23:-8.81229 24:-8.30808 25:-3.40909 26:10 27:-10 28:-10 29:-10 30:-10 
0.3774394567788788 1:-9.84375 2:-9.61538 3:-9.00332 4:-7.91667 5:-9.01809 6:-8.30357 7:-9.87382 8:-9.71831 9:-3.33333 10:-6 11:-7.14286 12:-3.33333 13:-6 14:-7.14286 15:-9.31034 16:-9.47368 17:10 18:10 19:10 20:-8.05341 21:-8.09375 22:-8.07579 23:-8.81229 24:-8.88021 25:10 26:10 27:-3.33333 28:-6 29:-7.14286 30:-9.25926 
0.119973440442612 1:-5.3125 2:-8.46154 3:-7.47508 4:-9.16667 5:-5.24548 6:-8.92857 7:-4.70032 8:-8.59155 9:10 10:10 11:10 12:10 13:10 14:10 15:-10 16:-10 17:-9.51613 18:-6.39024 19:-9.19355 20:-9.84366 21:-8.55769 22:-9.70526 23:-9.55192 24:-7.2619 25:-9.87701 26:-8.38611 27:10 28:10 29:10 30:-10 
1 1:-5.78125 2:-10 3:-7.60797 4:-10 5:-6.58915 6:-10 7:-5.70978 8:-10 9:10 10:10 11:10 12:-10 13:-10 14:-10 15:-10 16:-10 17:-9.44643 18:10 19:-8.92102 20:-9.75995 21:10 22:-9.4935 23:-9.52411 24:10 25:-9.82213 26:10 27:-10 28:-10 29:-10 30:-10 
1 1:-3.125 2:1.92308 3:-3.02326 4:-1.11111 5:-3.07494 6:-3.39286 7:-3.05994 8:-0.140845 9:10 10:10 11:10 12:10 13:10 14:10 15:-10 16:-10 17:-9.71852 18:-9.84756 19:-9.79472 20:-9.91076 21:-9.83611 22:-9.89293 23:-9.87714 24:-9.82906 25:-9.93243 26:-9.93986 27:10 28:10 29:10 30:-10 
1 1:-8.75 2:-9.23077 3:-8.40532 4:-8.47222 5:-8.24289 6:-8.83929 7:-8.61199 8:-9.71831 9:10 10:10 11:10 12:-10 13:-10 14:-10 15:-9.31034 16:-9.73684 17:-5.68519 18:3.17073 19:-3.54839 20:-8.9131 21:-7.23214 22:-8.44468 23:-9.26379 24:-8.46065 25:-8.36462 26:3.25843 27:-10 28:-10 29:-10 30:-10 
1 1:-9.375 2:-8.46154 3:-9.46844 4:-8.61111 5:-9.06977 6:-8.30357 7:-9.36909 8:-8.4507 9:10 10:10 11:10 12:3.33333 13:0.666667 14:-1.42857 15:-9.31034 16:-9.47368 17:-2.1 18:-2.29268 19:-2.19355 20:-7.94784 21:-8.09375 22:-8.02429 23:-7.83684 24:-8.30808 25:-4.6281 26:-5.16854 27:3.33333 28:0.666667 29:-1.42857 30:-10 
1 1:-9.53125 2:-9.61538 3:-9.2691 4:-8.33333 5:-9.37984 6:-8.92857 7:-9.43218 8:-9.71831 9:10 10:10 11:10 12:-3.33333 13:-6 14:-7.14286 15:-10 16:-10 17:-5.125 18:-0.243902 19:-3.54839 20:-8.51632 21:-8.55769 22:-8.53927 23:-8.39424 24:-8.58974 25:-8.10227 26:-3.48315 27:-3.33333 28:-6 29:-7.14286 30:-10 
1 1:-9.53125 2:-8.84615 3:-9.33555 4:-8.61111 5:-9.32817 6:-8.75 7:-9.62145 8:-9.15493 9:3.33333 10:0.666667 11:-1.42857 12:3.33333 13:0.666667 14:-1.42857 15:-9.31034 16:-9.73684 17:-0.0833333 18:-0.243902 19:-0.16129 20:-7.19373 21:-7.42361 22:-7.31397 23:-8.24222 24:-8.30808 25:-4.36688 26:-4.44623 27:3.33333 28:0.666667 29:-1.42857 30:-10 
1 1:-9.84375 2:-10 3:-9.86711 4:-9.86111 5:-9.89664 6:-9.91071 7:-9.74763 8:-10 9:10 10:10 11:10 12:-10 13:-10 14:-10 15:-10 16:-10 17:-0.0833333 18:10 19:3.22581 20:-3.3729 21:-0.0520833 22:-2.05053 23:-3.37763 24:-0.0694444 25:-6.09091 26:10 27:-10 28:-10 29:-10 30:-10 
1 1:-9.0625 2:-5 3:-9.40199 4:-7.63889 5:-8.55297 6:-5.80357 7:-9.17981 8:-5.07042 9:10 10:10 11:10 12:10 13:10 14:10 15:-6.55172 16:-7.36842 17:7.11905 18:-1.70732 19:1.29032 20:-5.90914 21:-7.59115 22:-6.9542 23:-8.0598 24:-9.02006 25:5.68994 26:-4.04494 27:10 28:10 29:10 30:-9.25926 
1 1:-8.59375 2:-8.84615 3:-9.60133 4:-9.86111 5:-9.12145 6:-9.375 7:-8.86435 8:-9.01408 9:3.33333 10:0.666667 11:-1.42857 12:3.33333 13:0.666667 14:-1.42857 15:-7.93103 16:-8.15789 17:-2.1 18:10 19:1.29032 20:-5.60171 21:-0.0520833 22:-3.90445 23:-7.19981 24:-0.0694444 25:-1.64474 26:10 27:3.33333 28:0.666667 29:-1.42857 30:-9.25926 
1 1:-7.1875 2:-5 3:-7.74086 4:-6.80556 5:-6.33075 6:-5.71429 7:-7.28707 8:-5.35211 9:10 10:10 11:10 12:10 13:10 14:10 15:-1.03448 16:-1.31579 17:4.69298 18:10 19:6.92082 20:-6.15892 21:-4.36012 22:-5.43662 23:-9.49312 24:-9.29977 25:5.42872 26:10 27:10 28:10 29:10 30:-4.81481 
1 1:-9.84375 2:-5.38462 3:-9.60133 4:-4.58333 5:-9.53488 6:-4.55357 7:-9.93691 8:-6.19718 9:-10 10:-10 11:-10 12:10 13:10 14:10 15:-10 16:-10 17:-0.0833333 18:-8.91182 19:-7.6129 20:-8.05341 21:-9.77991 22:-9.52632 23:-7.19981 24:-9.63542 25:-0.0568182 26:-9.50241 27:10 28:10 29:10 30:-10 
0.8708780713243952 1:-7.03125 2:-9.23077 3:-8.47176 4:-9.72222 5:-7.62274 6:-9.64286 7:-7.0347 8:-9.15493 9:10 10:10 11:10 12:10 13:10 14:10 15:-8.62069 16:-8.42105 17:-7.14167 18:10 19:-5.02104 20:-8.77896 21:1.95833 22:-7.7668 23:-9.23034 24:-3.42593 25:-7.1804 26:10 27:10 28:10 29:10 30:-9.25926 
0.8253056993739513 1:-3.59375 2:-9.61538 3:-4.15282 4:-9.30556 5:-4.26357 6:-9.46429 7:-3.3123 8:-9.57746 9:10 10:10 11:10 12:3.33333 13:0.666667 14:-1.42857 15:-9.31034 16:-9.21053 17:-9.20635 18:10 19:-8.47507 20:-9.70114 21:-4.36012 22:-9.40911 23:-9.84098 24:-6.78241 25:-9.36172 26:10 27:3.33333 28:0.666667 29:-1.42857 30:-10 
1 1:-9.6875 2:-8.07692 3:-9.86711 4:-8.19444 5:-9.58656 6:-8.30357 7:-9.87382 8:-8.59155 9:-10 10:-10 11:-10 12:10 13:10 14:10 15:-8.62069 16:-9.47368 17:10 18:-0.243902 19:3.22581 20:-3.3729 21:-7.08854 22:-5.92886 23:-3.37763 24:-8.7004 25:10 26:-4.70889 27:10 28:10 29:10 30:-9.25926 
1 1:-9.53125 2:-9.61538 3:-9.66777 4:-9.86111 5:-9.63824 6:-9.73214 7:-9.68454 8:-9.85915 9:3.33333 10:0.666667 11:-1.42857 12:-10 13:-10 14:-10 15:-9.31034 16:-9.73684 17:-0.0833333 18:10 19:3.22581 20:-5.04451 21:-0.0520833 22:-3.38947 23:-6.72204 24:-0.0694444 25:-3.40909 26:10 27:-10 28:-10 29:-10 30:-9.25926 
1 1:-10 2:-9.61538 3:-9.86711 4:-9.44444 5:-9.89664 6:-9.64286 7:-10 8:-9.57746 9:-10 10:-10 11:-10 12:3.33333 13:0.666667 14:-1.42857 15:-10 16:-10 17:10 18:-0.243902 19:3.22581 20:-3.3729 21:-6.08333 22:-5.06316 23:-3.37763 24:-6.11111 25:10 26:-5.16854 27:3.33333 28:0.666667 29:-1.42857 30:-10 
1 1:-9.6875 2:-9.23077 3:-9.86711 4:-9.72222 5:-9.79328 6:-9.64286 7:-9.74763 8:-9.43662 9:3.33333 10:0.666667 11:-1.42857 12:3.33333 13:0.666667 14:-1.42857 15:-8.62069 16:-8.94737 17:10 18:10 19:10 20:1.97626 21:1.95833 22:1.96632 23:-3.37763 24:-3.42593 25:10 26:10 27:3.33333 28:0.666667 29:-1.42857 30:-10 
0.4549627875347366 1:-8.4375 2:-10 3:-9.00332 4:-10 5:-9.06977 6:-10 7:-8.29653 8:-10 9:10 10:10 11:10 12:-10 13:-10 14:-10 15:-10 16:-10 17:-8.33333 18:10 19:-6.93548 20:-9.00359 21:10 22:-8.07579 23:-8.81229 24:10 25:-9.39529 26:10 27:-10 28:-10 29:-10 30:-10 
1 1:-7.8125 2:-9.23077 3:-8.27243 4:-9.02778 5:-8.08786 6:-9.19643 7:-8.23344 8:-9.71831 9:3.33333 10:0.666667 11:-1.42857 12:-10 13:-10 14:-10 15:-10 16:-10 17:-8.82222 18:-3.65854 19:-8.06452 20:-9.53147 21:-8.09375 22:-9.24737 23:-9.32324 24:-7.62153 25:-9.42006 26:-3.48315 27:-10 28:-10 29:-10 30:-10 
1 1:-4.21875 2:-9.61538 3:-6.27907 4:-9.86111 5:-4.47028 6:-9.82143 7:-4.38486 8:-9.57746 9:10 10:10 11:10 12:3.33333 13:0.666667 14:-1.42857 15:-9.31034 16:-9.21053 17:-9.10526 18:10 19:-8.29032 20:-9.68788 21:3.29861 22:-9.36046 23:-9.7144 24:-0.0694444 25:-9.2197 26:10 27:3.33333 28:0.666667 29:-1.42857 30:-10 
0.1640475593484926 1:-9.84375 2:-10 3:-9.60133 4:-9.58333 5:-9.68992 6:-9.73214 7:-9.93691 8:-10 9:-10 10:-10 11:-10 12:-10 13:-10 14:-10 15:-10 16:-10 17:-0.0833333 18:10 19:3.22581 20:-7.19373 21:-5.07813 22:-6.43254 23:-7.19981 24:-5.10417 25:-0.0568182 26:10 27:-10 28:-10 29:-10 30:-10 
1 1:-9.84375 2:-8.07692 3:-9.20266 4:-8.05556 5:-9.37984 6:-8.48214 7:-9.74763 8:-8.87324 9:10 10:10 11:10 12:3.33333 13:0.666667 14:-1.42857 15:-10 16:-10 17:-0.0833333 18:-7.07317 19:-5.24194 20:-8.51632 21:-8.98727 22:-8.78846 23:-8.52287 24:-8.7963 25:-6.09091 26:-7.97753 27:3.33333 28:0.666667 29:-1.42857 30:-10 
0.6286210923710165 1:-10 2:-6.92308 3:-9.86711 4:-8.47222 5:-9.89664 6:-8.125 7:-10 8:-7.88732 9:-10 10:-10 11:-10 12:10 13:10 14:10 15:-10 16:-10 17:10 18:-8.21138 19:-6.25806 20:-3.3729 21:-9.19034 22:-8.47747 23:-3.37763 24:-8.46065 25:10 26:-8.96067 27:10 28:10 29:10 30:-10 
1 1:-8.75 2:-7.69231 3:-8.87043 4:-8.61111 5:-8.65633 6:-8.21429 7:-9.17981 8:-8.87324 9:10 10:10 11:10 12:-3.33333 13:-6 14:-7.14286 15:-7.24138 16:-8.94737 17:1.03704 18:4.14634 19:2.37903 20:-6.34465 21:-5.31746 22:-5.9 23:-8.95164 24:-8.30808 25:-2.93019 26:1.01124 27:-3.33333 28:-6 29:-7.14286 30:-8.51852 
1 1:-9.84375 2:-9.61538 3:-9.93355 4:-9.86111 5:-9.84496 6:-9.73214 7:-9.93691 8:-9.85915 9:-10 10:-10 11:-10 12:-10 13:-10 14:-10 15:-9.31034 16:-9.73684 17:10 18:10 19:10 20:-0.0296736 21:-0.0520833 22:-0.0421053 23:-0.0332226 24:-0.0694444 25:10 26:10 27:-10 28:-10 29:-10 30:-9.25926 
0.02765717370090015 1:-10 2:-10 3:-10 4:-10 5:-10 6:-10 7:-10 8:-10 9:-10 10:-10 11:-10 12:-10 13:-10 14:-10 15:-10 16:-10 17:10 18:10 19:10 20:10 21:10 22:10 23:10 24:10 25:10 26:10 27:-10 28:-10 29:-10 30:-10 
1 1:-9.84375 2:-10 3:-9.60133 4:-9.72222 5:-9.68992 6:-9.82143 7:-9.74763 8:-10 9:10 10:10 11:10 12:-10 13:-10 14:-10 15:-10 16:-10 17:-0.0833333 18:10 19:3.22581 20:-7.19373 21:-3.40278 22:-6.06737 23:-7.19981 24:-3.42593 25:-6.09091 26:10 27:-10 28:-10 29:-10 30:-10 
1 1:-8.125 2:-9.23077 3:-8.80399 4:-9.72222 5:-8.55297 6:-9.64286 7:-8.04416 8:-9.15493 9:10 10:10 11:10 12:3.33333 13:0.666667 14:-1.42857 15:-10 16:-10 17:-8.61538 18:-3.65854 19:-7.78226 20:-9.36765 21:-6.08333 22:-8.90279 23:-9.01032 24:-3.42593 25:-9.48509 26:-7.33547 27:3.33333 28:0.666667 29:-1.42857 30:-10 
1 1:-9.6875 2:-9.23077 3:-9.86711 4:-9.72222 5:-9.68992 6:-9.46429 7:-9.68454 8:-9.29577 9:3.33333 10:0.666667 11:-1.42857 12:3.33333 13:0.666667 14:-1.42857 15:-8.62069 16:-8.68421 17:10 18:10 19:10 20:-1.46248 21:-1.4881 22:-1.47669 23:-3.37763 24:-3.42593 25:10 26:10 27:3.33333 28:0.666667 29:-1.42857 30:-10 
0.3263174496249917 1:-9.53125 2:-10 3:-9.66777 4:-9.86111 5:-9.68992 6:-9.91071 7:-9.36909 8:-10 9:10 10:10 11:10 12:-10 13:-10 14:-10 15:-10 16:-10 17:-5.125 18:10 19:-2.19355 20:-7.19373 21:-0.0520833 22:-5.62105 23:-6.72204 24:-0.0694444 25:-8.28512 26:10 27:-10 28:-10 29:-10 30:-10 
1 1:-9.6875 2:-9.61538 3:-9.66777 4:-9.58333 5:-9.53488 6:-9.375 7:-9.68454 8:-9.85915 9:10 10:10 11:10 12:-10 13:-10 14:-10 15:-9.31034 16:-9.73684 17:3.27778 18:10 19:5.93548 20:-6.04748 21:-5.07813 22:-5.62105 23:-6.72204 24:-5.10417 25:-3.40909 26:10 27:-10 28:-10 29:-10 30:-10 
1 1:-9.53125 2:-5.76923 3:-9.40199 4:-6.25 5:-9.32817 6:-6.69643 7:-9.68454 8:-4.64789 9:3.33333 10:0.666667 11:-1.42857 12:10 13:10 14:10 15:-10 16:-10 17:-5.125 18:-8.78049 19:-7.78226 20:-8.62654 21:-9.57511 22:-9.31174 23:-8.0598 24:-9.41964 25:-6.76136 26:-9.70614 27:10 28:10 29:10 30:-10 
0.9782230943826875 1:-10 2:-8.46154 3:-9.66777 4:-8.47222 5:-9.7416 6:-8.75 7:-10 8:-8.87324 9:-10 10:-10 11:-10 12:3.33333 13:0.666667 14:-1.42857 15:-10 16:-10 17:10 18:-6.39024 19:-3.54839 20:-6.71612 21:-8.76389 22:-8.17143 23:-6.72204 24:-8.46065 25:10 26:-7.97753 27:3.33333 28:0.666667 29:-1.42857 30:-10 
1 1:-9.6875 2:-9.61538 3:-9.66777 4:-9.58333 5:-9.68992 6:-9.64286 7:-9.81073 8:-9.85915 9:-3.33333 10:-6 11:-7.14286 12:-10 13:-10 14:-10 15:-9.31034 16:-9.73684 17:3.27778 18:10 19:5.93548 20:-4.32811 21:-2.0625 22:-3.38947 23:-6.72204 24:-5.10417 25:-0.0568182 26:10 27:-10 28:-10 29:-10 30:-10 
1 1:-4.6875 2:-10 3:-6.54485 4:-9.86111 5:-3.17829 6:-9.91071 7:-4.25868 8:-10 9:10 10:10 11:10 12:-10 13:-10 14:-10 15:-10 16:-10 17:-9.59048 18:10 19:-9.19355 20:-9.90853 21:-0.0520833 22:-9.78667 23:-9.68783 24:-0.0694444 25:-9.89501 26:10 27:-10 28:-10 29:-10 30:-10 
1 1:0.9375 2:-9.61538 3:0.299003 4:-9.44444 5:0.697674 6:-9.64286 7:1.1041 8:-9.71831 9:10 10:10 11:10 12:-3.33333 13:-6 14:-7.14286 15:-10 16:-10 17:-9.88263 18:-0.243902 19:-9.7658 20:-9.96291 21:-6.08333 22:-9.89563 23:-9.93781 24:-6.11111 25:-10 26:-3.48315 27:-3.33333 28:-6 29:-7.14286 30:-10 
0.7353470730621913 1:-9.53125 2:-10 3:-9.73422 4:-9.72222 5:-9.63824 6:-9.82143 7:-9.49527 8:-10 9:10 10:10 11:10 12:-10 13:-10 14:-10 15:-10 16:-10 17:-5.125 18:10 19:-2.19355 20:-7.55193 21:-3.40278 22:-6.43254 23:-6.05316 24:-3.42593 25:-7.87879 26:10 27:-10 28:-10 29:-10 30:-10 
1 1:-3.90625 2:-9.23077 3:-3.8206 4:-9.16667 5:-3.95349 6:-9.01786 7:-4.25868 8:-9.43662 9:10 10:10 11:10 12:3.33333 13:0.666667 14:-1.42857 15:-10 16:-10 17:-9.6625 18:-3.65854 19:-9.37734 20:-9.88935 21:-8.42882 22:-9.77522 23:-9.85297 24:-7.2619 25:-9.89501 26:-6.17978 27:3.33333 28:0.666667 29:-1.42857 30:-10 
1 1:-0.625 2:-10 3:-1.89369 4:-9.86111 5:-2.29974 6:-9.91071 7:-0.0315457 8:-10 9:10 10:10 11:10 12:-10 13:-10 14:-10 15:-10 16:-10 17:-9.83607 18:10 19:-9.66701 20:-9.92562 21:-0.0520833 22:-9.81994 23:-9.9033 24:-0.0694444 25:-9.98714 26:10 27:-10 28:-10 29:-10 30:-10 
1 1:-6.5625 2:-8.84615 3:-8.27243 4:-8.33333 5:-7.57106 6:-8.66071 7:-6.78233 8:-9.15493 9:10 10:10 11:10 12:-3.33333 13:-6 14:-7.14286 15:-10 16:-10 17:-9.28986 18:-5.36585 19:-8.8172 20:-9.64144 21:-8.84766 22:-9.45658 23:-9.32324 24:-8.58974 25:-9.72684 26:-7.33547 27:-3.33333 28:-6 29:-7.14286 30:-10 
1 1:-9.84375 2:-8.84615 3:-9.33555 4:-8.88889 5:-9.4832 6:-9.28571 7:-9.74763 8:-9.01408 9:10 10:10 11:10 12:10 13:10 14:10 15:-10 16:-10 17:-0.0833333 18:-5.36585 19:-3.54839 20:-8.23577 21:-7.87037 22:-8.07579 23:-8.24222 24:-7.90123 25:-6.09091 26:-7.69663 27:10 28:10 29:10 30:-10 
1 1:-9.6875 2:-5.76923 3:-9.86711 4:-7.63889 5:-9.89664 6:-7.76786 7:-9.87382 8:-6.76056 9:-10 10:-10 11:-10 12:10 13:10 14:10 15:-10 16:-10 17:-3.44444 18:-8.78049 19:-7.6129 20:-3.3729 21:-9.33093 22:-8.69909 23:-3.37763 24:-9.02006 25:-3.40909 26:-9.38202 27:10 28:10 29:10 30:-10 
1 1:-7.34375 2:-2.30769 3:-8.13953 4:-4.58333 5:-7.26098 6:-3.57143 7:-8.17035 8:-1.40845 9:3.33333 10:0.666667 11:-1.42857 12:10 13:10 14:10 15:-10 16:-10 17:-9.0463 18:-9.5122 19:-9.2804 20:-9.68788 21:-9.82877 22:-9.76792 23:-9.3745 24:-9.63542 25:-9.44318 26:-9.89851 27:10 28:10 29:10 30:-10 
1 1:-7.03125 2:-8.07692 3:-7.34219 4:-8.61111 5:-6.48579 6:-8.48214 7:-7.41325 8:-9.15493 9:10 10:10 11:10 12:-3.33333 13:-6 14:-7.14286 15:-7.93103 16:-9.21053 17:-6.13333 18:3.17073 19:-4.06948 20:-8.89649 21:-5.63657 22:-8.23739 23:-9.57702 24:-8.30808 25:-8.19805 26:1.33226 27:-3.33333 28:-6 29:-7.14286 30:-9.25926 
1 1:-9.84375 2:-7.30769 3:-9.33555 4:-7.36111 5:-9.17313 6:-6.78571 7:-9.87382 8:-7.60563 9:-3.33333 10:-6 11:-7.14286 12:10 13:10 14:10 15:-9.31034 16:-9.47368 17:10 18:-5.36585 19:-2.19355 20:-7.69942 21:-9.01745 22:-8.59649 23:-8.24222 24:-9.13194 25:10 26:-6.85393 27:10 28:10 29:10 30:-9.25926 
1 1:-9.0625 2:-9.23077 3:-9.2691 4:-9.30556 5:-8.65633 6:-9.28571 7:-9.11672 8:-9.57746 9:10 10:10 11:10 12:-3.33333 13:-6 14:-7.14286 15:-9.31034 16:-9.73684 17:-4.40476 18:3.17073 19:-2.19355 20:-8.57347 21:-5.63657 22:-7.85263 23:-8.39424 24:-6.78241 25:-7.43182 26:-0.11236 27:-3.33333 28:-6 29:-7.14286 30:-10 
1 1:-9.84375 2:-9.61538 3:-9.73422 4:-9.72222 5:-9.68992 6:-9.64286 7:-9.81073 8:-9.43662 9:3.33333 10:0.666667 11:-1.42857 12:10 13:10 14:10 15:-10 16:-10 17:-0.0833333 18:-0.243902 19:-0.16129 20:-7.19373 21:-6.08333 22:-6.73684 23:-6.05316 24:-3.42593 25:-5.08523 26:-6.17978 27:10 28:10 29:10 30:-10 
1 1:-3.75 2:-9.61538 3:-5.08306 4:-8.75 5:-4.677 6:-9.01786 7:-3.75394 8:-9.71831 9:10 10:10 11:10 12:-3.33333 13:-6 14:-7.14286 15:-10 16:-10 17:-9.6748 18:-0.243902 19:-9.37734 20:-9.86647 21:-8.42882 22:-9.73793 23:-9.79889 24:-8.125 25:-9.9125 26:-3.48315 27:-3.33333 28:-6 29:-7.14286 30:-10 
0.853922570714155 1:-9.0625 2:-8.46154 3:-9.40199 4:-8.47222 5:-9.32817 6:-8.75 7:-9.2429 8:-8.59155 9:3.33333 10:0.666667 11:-1.42857 12:3.33333 13:0.666667 14:-1.42857 15:-9.31034 16:-9.21053 17:-4.40476 18:-2.29268 19:-3.54839 20:-7.19373 21:-7.42361 22:-7.31397 23:-8.0598 24:-8.46065 25:-3.92483 26:-2.87028 27:3.33333 28:0.666667 29:-1.42857 30:-10 
0.848306650043004 1:-9.0625 2:-7.30769 3:-9.33555 4:-7.91667 5:-9.17313 6:-8.39286 7:-9.30599 8:-7.46479 9:10 10:10 11:10 12:10 13:10 14:10 15:-8.62069 16:-9.21053 17:-1.52381 18:-2.80488 19:-2.19355 20:-6.51946 21:-6.92982 22:-6.73684 23:-8.24222 24:-8.88021 25:-3.40909 26:-5.96688 27:10 28:10 29:10 30:-10 
1 1:-5.625 2:0.769231 3:-9.93355 4:-9.72222 5:-8.55297 6:-7.41071 7:-6.71924 8:-2.53521 9:3.33333 10:0.666667 11:-1.42857 12:3.33333 13:0.666667 14:-1.42857 15:8.62069 16:3.15789 17:9.3046 18:9.29352 19:9.29922 20:9.3083 21:8.65972 22:8.97877 23:-0.0332226 24:-3.42593 25:9.24099 26:8.8764 27:3.33333 28:0.666667 29:-1.42857 30:10 
1 1:-9.6875 2:-8.07692 3:-9.86711 4:-9.16667 5:-9.7416 6:-8.83929 7:-9.62145 8:-8.4507 9:3.33333 10:0.666667 11:-1.42857 12:3.33333 13:0.666667 14:-1.42857 15:-8.62069 16:-8.42105 17:10 18:-0.243902 19:3.22581 20:-0.0296736 21:-5.79613 22:-4.05895 23:-3.37763 24:-7.2619 25:10 26:1.57303 27:3.33333 28:0.666667 29:-1.42857 30:-10 
1 1:-8.4375 2:-4.61538 3:-8.6711 4:-6.11111 5:-7.7261 6:-4.73214 7:-8.29653 8:-3.94366 9:10 10:10 11:10 12:10 13:10 14:10 15:-4.48276 16:-3.68421 17:6.33333 18:1.80488 19:3.7469 20:-6.04748 21:-7.08854 22:-6.6412 23:-9.1109 24:-9.44444 25:7.84497 26:1.2666 27:10 28:10 29:10 30:-9.25926 
1 1:-9.0625 2:-8.07692 3:-9.40199 4:-8.61111 5:-9.27649 6:-8.75 7:-9.2429 8:-8.73239 9:3.33333 10:0.666667 11:-1.42857 12:3.33333 13:0.666667 14:-1.42857 15:-9.31034 16:-9.73684 17:-4.40476 18:-3.65854 19:-4.06948 20:-7.38477 21:-7.42361 22:-7.40632 23:-8.0598 24:-8.30808 25:-7.01923 26:-6.17978 27:3.33333 28:0.666667 29:-1.42857 30:-10 
1 1:-5 2:1.92308 3:-8.00664 4:-6.66667 5:-6.22739 6:-3.92857 7:-6.40379 8:0.28169 9:10 10:10 11:10 12:10 13:10 14:10 15:1.72414 16:-0.789474 17:0.833333 18:1.03659 19:0.933002 20:-5.18005 21:-4.8596 22:-5.02805 23:-9.41914 24:-9.33333 25:2.37069 26:-0.385667 27:10 28:10 29:10 30:-7.03704 
1 1:-8.90625 2:-9.61538 3:-9.53488 4:-9.72222 5:-9.12145 6:-9.82143 7:-9.05363 8:-9.43662 9:10 10:10 11:10 12:10 13:10 14:10 15:-10 16:-10 17:-7.64583 18:-0.243902 19:-6.25806 20:-8.94494 21:-3.40278 22:-8.17143 23:-7.55814 24:-3.42593 25:-8.85653 26:-6.17978 27:10 28:10 29:10 30:-10 
0.3920552965455227 1:-9.0625 2:-7.69231 3:-9.2691 4:-8.33333 5:-9.32817 6:-8.57143 7:-9.05363 8:-8.16901 9:10 10:10 11:10 12:10 13:10 14:10 15:-10 16:-10 17:-7.28571 18:-7.56098 19:-7.41935 20:-8.62654 21:-8.92157 22:-8.78846 23:-8.39424 24:-8.58974 25:-8.85653 26:-8.7801 27:10 28:10 29:10 30:-10 
1 1:-9.84375 2:-9.61538 3:-9.93355 4:-9.86111 5:-9.89664 6:-9.82143 7:-9.81073 8:-9.57746 9:3.33333 10:0.666667 11:-1.42857 12:3.33333 13:0.666667 14:-1.42857 15:-9.31034 16:-9.21053 17:10 18:10 19:10 20:3.31355 21:3.29861 22:3.30526 23:-0.0332226 24:-0.0694444 25:10 26:10 27:3.33333 28:0.666667 29:-1.42857 30:-10 
0.6144444438383508 1:-7.8125 2:-6.92308 3:-8.27243 4:-7.63889 5:-7.82946 6:-7.14286 7:-7.85489 8:-7.60563 9:10 10:10 11:10 12:10 13:10 14:10 15:-7.93103 16:-8.68421 17:-4.78889 18:-1.38211 19:-3.54839 20:-8.19336 21:-7.6673 22:-7.97008 23:-9.32324 24:-9.02006 25:-6.66558 26:-3.48315 27:10 28:10 29:10 30:-9.25926 
1 1:-10 2:-9.61538 3:-9.86711 4:-9.72222 5:-9.89664 6:-9.73214 7:-10 8:-9.71831 9:-10 10:-10 11:-10 12:-3.33333 13:-6 14:-7.14286 15:-10 16:-10 17:10 18:-0.243902 19:3.22581 20:-3.3729 21:-5.07813 22:-4.34586 23:-3.37763 24:-3.42593 25:10 26:-3.48315 27:-3.33333 28:-6 29:-7.14286 30:-10 
0.917281520976843 1:-7.34375 2:-10 3:-8.60465 4:-9.86111 5:-8.03618 6:-9.91071 7:-7.85489 8:-10 9:10 10:10 11:10 12:-10 13:-10 14:-10 15:-10 16:-10 17:-9.0463 18:10 19:-8.18336 20:-9.545 21:-0.0520833 22:-9.10449 23:-9.15433 24:-0.0694444 25:-9.53896 26:10 27:-10 28:-10 29:-10 30:-10 
1 1:-9.6875 2:-10 3:-9.73422 4:-10 5:-9.79328 6:-10 7:-9.68454 8:-10 9:10 10:10 11:10 12:-10 13:-10 14:-10 15:-10 16:-10 17:-3.44444 18:10 19:-0.16129 20:-6.04748 21:10 22:-3.38947 23:-6.05316 24:10 25:-6.76136 26:10 27:-10 28:-10 29:-10 30:-10 
1 1:-4.0625 2:-8.07692 3:-7.54153 4:-8.75 5:-4.00517 6:-8.92857 7:-3.43849 8:-8.30986 9:10 10:10 11:10 12:10 13:10 14:10 15:-8.62069 16:-9.21053 17:-8.61538 18:-0.243902 19:-7.6129 20:-9.545 21:-5.46474 22:-9.15725 23:-9.53838 24:-8.125 25:-9.3474 26:-4.00173 27:10 28:10 29:10 30:-10 
1 1:-9.53125 2:-10 3:-9.2691 4:-10 5:-9.37984 6:-10 7:-9.55836 8:-10 9:3.33333 10:0.666667 11:-1.42857 12:-10 13:-10 14:-10 15:-10 16:-10 17:-5.125 18:10 19:-2.19355 20:-8.51632 21:10 22:-7.21504 23:-8.39424 24:10 25:-7.59943 26:10 27:-10 28:-10 29:-10 30:-10 
0.1157275638717692 1:-7.34375 2:-10 3:-8.73754 4:-9.86111 5:-7.62274 6:-9.91071 7:-7.47634 8:-10 9:10 10:10 11:10 12:-10 13:-10 14:-10 15:-10 16:-10 17:-9.0463 18:10 19:-8.18336 20:-9.63255 21:-0.0520833 22:-9.26445 23:-9.06312 24:-0.0694444 25:-9.62306 26:10 27:-10 28:-10 29:-10 30:-10 
1 1:-7.65625 2:-6.92308 3:-9.06977 4:-9.58333 5:-7.9845 6:-9.28571 7:-8.17035 8:-7.1831 9:10 10:10 11:10 12:3.33333 13:0.666667 14:-1.42857 15:-10 16:-10 17:-8.90625 18:-8.21138 19:-8.69677 20:-9.55786 21:-7.87037 22:-9.26445 23:-8.72868 24:-5.10417 25:-9.44318 26:-9.26164 27:3.33333 28:0.666667 29:-1.42857 30:-10 
1 1:-1.875 2:-7.69231 3:-4.88372 4:-9.30556 5:-1.93798 6:-8.75 7:-2.30284 8:-7.74648 9:10 10:10 11:10 12:10 13:10 14:10 15:-7.24138 16:-7.63158 17:-8.26415 18:4.14634 19:-6.93548 20:-9.42051 21:-3.40278 22:-8.91652 23:-9.80918 24:-6.78241 25:-8.47838 26:1.67217 27:10 28:10 29:10 30:-10 
1 1:-10 2:-9.23077 3:-9.73422 4:-8.47222 5:-9.79328 6:-8.92857 7:-10 8:-9.29577 9:-10 10:-10 11:-10 12:3.33333 13:0.666667 14:-1.42857 15:-10 16:-10 17:10 18:-3.65854 19:-0.16129 20:-6.04748 21:-8.55769 22:-7.85263 23:-6.05316 24:-8.46065 25:10 26:-6.85393 27:3.33333 28:0.666667 29:-1.42857 30:-10 
1 1:-9.53125 2:-9.61538 3:-8.80399 4:-9.44444 5:-8.96641 6:-9.64286 7:-9.36909 8:-9.57746 9:10 10:10 11:10 12:3.33333 13:0.666667 14:-1.42857 15:-10 16:-10 17:-5.125 18:-0.243902 19:-3.54839 20:-9.10414 21:-6.08333 22:-8.53927 23:-9.01032 24:-6.11111 25:-8.28512 26:-5.16854 27:3.33333 28:0.666667 29:-1.42857 30:-10 
0.8907266252663693 1:-7.03125 2:-8.46154 3:-7.9402 4:-9.58333 5:-6.74419 6:-8.75 7:-6.2776 8:-8.87324 9:10 10:10 11:10 12:10 13:10 14:10 15:-7.24138 16:-7.89474 17:-5.125 18:10 19:-2.19355 20:-8.49221 21:-3.40278 22:-7.54191 23:-9.43937 24:-5.10417 25:-7.09659 26:10 27:10 28:10 29:10 30:-9.25926 
0.5171788855257957 1:-9.84375 2:-10 3:-9.46844 4:-9.30556 5:-9.58656 6:-9.55357 7:-9.87382 8:-10 9:-3.33333 10:-6 11:-7.14286 12:-10 13:-10 14:-10 15:-10 16:-10 17:-0.0833333 18:10 19:3.22581 20:-7.83053 21:-6.75347 22:-7.40632 23:-7.83684 24:-6.78241 25:-3.40909 26:10 27:-10 28:-10 29:-10 30:-10 
1 1:-10 2:-9.61538 3:-9.86711 4:-9.16667 5:-9.89664 6:-9.46429 7:-10 8:-9.85915 9:-10 10:-10 11:-10 12:-10 13:-10 14:-10 15:-10 16:-10 17:10 18:-0.243902 19:3.22581 20:-3.3729 21:-7.23214 22:-6.06737 23:-3.37763 24:-7.2619 25:10 26:-0.11236 27:-10 28:-10 29:-10 30:-10 
0.2153457985230116 1:-7.8125 2:-2.69231 3:-7.9402 4:-5.97222 5:-7.57106 6:-4.01786 7:-7.91798 8:-3.23944 9:10 10:10 11:10 12:10 13:10 14:10 15:-10 16:-10 17:-8.82222 18:-9.46341 19:-9.16129 20:-9.64144 21:-9.80852 22:-9.73793 23:-9.43937 24:-9.46759 25:-9.52206 26:-9.81197 27:10 28:10 29:10 30:-10 
1 1:-9.84375 2:-7.30769 3:-9.80066 4:-8.88889 5:-9.79328 6:-8.30357 7:-9.87382 8:-7.1831 9:-3.33333 10:-6 11:-7.14286 12:10 13:10 14:10 15:-9.31034 16:-9.47368 17:10 18:-5.36585 19:-2.19355 20:-2.03561 21:-8.09375 22:-6.87074 23:-5.04983 24:-7.90123 25:10 26:-7.33547 27:10 28:10 29:10 30:-10 
1 1:-8.28125 2:-9.61538 3:-7.00997 4:-9.72222 5:-7.57106 6:-9.73214 7:-8.23344 8:-9.85915 9:10 10:10 11:10 12:-10 13:-10 14:-10 15:-10 16:-10 17:-8.48611 18:-0.243902 19:-7.41935 20:-9.64144 21:-5.07813 22:-9.31174 23:-9.63022 24:-3.42593 25:-9.42006 26:-0.11236 27:-10 28:-10 29:-10 30:-10 
0.6657649896375387 1:-9.21875 2:-9.23077 3:-8.80399 4:-8.19444 5:-8.86305 6:-8.75 7:-9.2429 8:-9.01408 9:10 10:10 11:10 12:10 13:10 14:10 15:-10 16:-10 17:-6.80556 18:-3.65854 19:-5.80645 20:-9.1872 21:-8.76389 22:-9.02715 23:-9.01032 24:-8.7004 25:-8.56643 26:-7.69663 27:10 28:10 29:10 30:-10 
1 1:-9.21875 2:-9.23077 3:-9.53488 4:-9.58333 5:-9.17313 6:-9.46429 7:-9.49527 8:-9.29577 9:3.33333 10:0.666667 11:-1.42857 12:3.33333 13:0.666667 14:-1.42857 15:-10 16:-10 17:-6.80556 18:-3.65854 19:-5.80645 20:-8.87939 21:-7.23214 22:-8.41053 23:-7.55814 24:-5.10417 25:-7.87879 26:-6.85393 27:3.33333 28:0.666667 29:-1.42857 30:-10 
1 1:-7.03125 2:-6.92308 3:-7.87375 4:-6.94444 5:-6.53747 6:-6.33929 7:-7.0347 8:-7.04225 9:10 10:10 11:10 12:10 13:10 14:10 15:-5.17241 16:-4.73684 17:-2.1 18:7.72358 19:0.889878 20:-7.69942 21:-6.2748 22:-7.16287 23:-9.45837 24:-9.26329 25:-1.31392 26:9.08069 27:10 28:10 29:10 30:-9.25926 
1 1:-10 2:-9.61538 3:-9.86711 4:-9.58333 5:-9.89664 6:-9.55357 7:-10 8:-9.71831 9:-10 10:-10 11:-10 12:-3.33333 13:-6 14:-7.14286 15:-10 16:-10 17:10 18:-0.243902 19:3.22581 20:-3.3729 21:-6.75347 22:-5.62105 23:-3.37763 24:-5.10417 25:10 26:-3.48315 27:-3.33333 28:-6 29:-7.14286 30:-10 
1 1:-10 2:-9.23077 3:-9.93355 4:-9.16667 5:-9.94832 6:-9.46429 7:-10 8:-9.15493 9:-10 10:-10 11:-10 12:10 13:10 14:10 15:-10 16:-10 17:10 18:-3.65854 19:-0.16129 20:-0.0296736 21:-7.23214 22:-5.62105 23:-0.0332226 24:-7.2619 25:10 26:-7.33547 27:10 28:10 29:10 30:-10 
1 1:-9.21875 2:-10 3:-9.46844 4:-10 5:-9.4832 6:-10 7:-8.92744 8:-10 9:10 10:10 11:10 12:-10 13:-10 14:-10 15:-10 16:-10 17:-6.80556 18:10 19:-4.51613 20:-8.23577 21:10 22:-6.73684 23:-7.83684 24:10 25:-8.99621 26:10 27:-10 28:-10 29:-10 30:-10 
0.6060106559932824 1:-6.5625 2:-8.84615 3:-8.40532 4:-8.33333 5:-7.2093 6:-8.75 7:-7.35016 8:-9.01408 9:10 10:10 11:10 12:3.33333 13:0.666667 14:-1.42857 15:-9.31034 16:-9.73684 17:-8.41304 18:-0.243902 19:-7.31183 20:-9.32992 21:-7.42361 22:-8.93654 23:-9.26379 24:-8.58974 25:-9.17812 26:-5.16854 27:3.33333 28:0.666667 29:-1.42857 30:-10 
1 1:-8.125 2:3.84615 3:-9.13621 4:-6.11111 5:-8.29457 6:-2.32143 7:-8.42271 8:3.80282 9:10 10:10 11:10 12:10 13:10 14:10 15:-5.86207 16:-6.05263 17:0.692308 18:-6.61173 19:-4.63226 20:-5.92948 21:-8.48659 22:-7.76042 23:-8.63313 24:-9.44444 25:2.26399 26:-6.95608 27:10 28:10 29:10 30:-9.25926 
1 1:-9.6875 2:-7.30769 3:-9.80066 4:-8.47222 5:-9.63824 6:-8.39286 7:-9.81073 8:-8.02817 9:-3.33333 10:-6 11:-7.14286 12:10 13:10 14:10 15:-8.62069 16:-9.21053 17:10 18:-2.80488 19:0.762463 20:-2.53709 21:-6.92982 22:-5.62105 23:-5.04983 24:-8.46065 25:10 26:-4.83146 27:10 28:10 29:10 30:-10 
0.5330184071369923 1:-7.5 2:-6.92308 3:-6.87708 4:-7.36111 5:-6.64083 6:-5.89286 7:-7.66562 8:-7.88732 9:10 10:10 11:10 12:10 13:10 14:10 15:-10 16:-10 17:-8.98039 18:-8.21138 19:-8.75931 20:-9.75542 21:-9.67642 22:-9.72874 23:-9.64839 24:-9.13194 25:-9.58433 26:-8.96067 27:10 28:10 29:10 30:-10 
1 1:-8.75 2:-8.84615 3:-9.00332 4:-8.47222 5:-8.70801 6:-8.66071 7:-8.86435 8:-9.43662 9:3.33333 10:0.666667 11:-1.42857 12:-3.33333 13:-6 14:-7.14286 15:-7.93103 16:-8.94737 17:-1.2037 18:10 19:2.18362 20:-6.97329 21:-5.07813 22:-6.25865 23:-8.81229 24:-8.46065 25:-4.82057 26:10 27:-3.33333 28:-6 29:-7.14286 30:-10 
1 1:-7.96875 2:-10 3:-8.40532 4:-10 5:-8.39793 6:-10 7:-7.35016 8:-10 9:10 10:10 11:10 12:-10 13:-10 14:-10 15:-10 16:-10 17:-8.72619 18:10 19:-7.6129 20:-9.43249 21:10 22:-8.86699 23:-9.26379 24:10 25:-9.64588 26:10 27:-10 28:-10 29:-10 30:-10 
0.7416380615034533 1:-5.3125 2:-10 3:-8.20598 4:-9.72222 5:-4.57364 6:-9.82143 7:-4.76341 8:-10 9:10 10:10 11:10 12:-10 13:-10 14:-10 15:-10 16:-10 17:-9.51613 18:10 19:-9.05242 20:-9.87011 21:-3.40278 22:-9.71569 23:-9.34979 24:-3.42593 25:-9.87419 26:10 27:-10 28:-10 29:-10 30:-10 
1 1:-9.84375 2:-10 3:-9.80066 4:-9.72222 5:-9.84496 6:-9.82143 7:-9.87382 8:-10 9:-3.33333 10:-6 11:-7.14286 12:-10 13:-10 14:-10 15:-10 16:-10 17:-0.0833333 18:10 19:3.22581 20:-5.04451 21:-3.40278 22:-4.34586 23:-5.04983 24:-3.42593 25:-3.40909 26:10 27:-10 28:-10 29:-10 30:-10 
0.515520557778948 1:-7.96875 2:-5.76923 3:-8.47176 4:-7.77778 5:-7.88114 6:-7.23214 7:-7.60252 8:-6.47887 9:10 10:10 11:10 12:10 13:10 14:10 15:-7.93103 16:-8.68421 17:-4.40476 18:-3.65854 19:-4.06948 20:-8.14893 21:-7.59115 22:-7.91294 23:-9.23034 24:-8.95425 25:-7.01923 26:-5.55748 27:10 28:10 29:10 30:-10 
1 1:-9.0625 2:-8.46154 3:-9.00332 4:-8.19444 5:-7.4677 6:-5.80357 7:-8.86435 8:-8.30986 9:10 10:10 11:10 12:10 13:10 14:10 15:-7.24138 16:-6.84211 17:4.2381 18:10 19:6.6129 20:-8.05341 21:-8.00998 22:-8.0348 23:-8.81229 24:-8.7004 25:3.64833 26:10 27:10 28:10 29:10 30:-8.51852 
1 1:-9.6875 2:-8.07692 3:-9.66777 4:-9.02778 5:-9.53488 6:-8.66071 7:-9.87382 8:-8.02817 9:-10 10:-10 11:-10 12:10 13:10 14:10 15:-9.31034 16:-9.73684 17:3.27778 18:-3.65854 19:-1.29032 20:-6.04748 21:-7.59115 22:-6.99433 23:-6.72204 24:-7.62153 25:3.29545 26:-7.52809 27:10 28:10 29:10 30:-10 
1 1:-6.25 2:-9.23077 3:-3.48837 4:-9.86111 5:-3.28165 6:-9.55357 7:-6.52997 8:-9.01408 9:10 10:10 11:10 12:10 13:10 14:10 15:-8.62069 16:-8.15789 17:-7.74667 18:10 19:-5.96774 20:-9.59997 21:-0.0520833 22:-9.20461 23:-9.86375 24:-0.0694444 25:-7.24026 26:10 27:10 28:10 29:10 30:-10 
1 1:-7.8125 2:-8.46154 3:-9.00332 4:-9.86111 5:-8.86305 6:-9.55357 7:-7.60252 8:-8.59155 9:10 10:10 11:10 12:10 13:10 14:10 15:-7.24138 16:-7.36842 17:-3.44444 18:10 19:-0.16129 20:-5.69862 21:6.64931 22:-3.15862 23:-8.81229 24:-0.0694444 25:-4.44056 26:10 27:10 28:10 29:10 30:-9.25926 
0.817244628499576 1:-8.125 2:-7.69231 3:-8.93688 4:-9.58333 5:-8.19121 6:-9.28571 7:-8.23344 8:-8.16901 9:10 10:10 11:10 12:3.33333 13:0.666667 14:-1.42857 15:-10 16:-10 17:-8.61538 18:-7.56098 19:-8.29032 20:-9.50214 21:-7.87037 22:-9.19158 23:-8.88607 24:-5.10417 25:-9.42006 26:-8.7801 27:3.33333 28:0.666667 29:-1.42857 30:-10 
0.9043511914589119 1:-6.5625 2:-9.61538 3:-8.47176 4:-8.88889 5:-6.58915 6:-9.19643 7:-6.84543 8:-9.57746 9:10 10:10 11:10 12:3.33333 13:0.666667 14:-1.42857 15:-10 16:-10 17:-9.28986 18:-0.243902 19:-8.69677 20:-9.75995 21:-8.09375 22:-9.56254 23:-9.23034 24:-7.90123 25:-9.71925 26:-5.16854 27:3.33333 28:0.666667 29:-1.42857 30:-10 
0.2967318777544731 1:-8.90625 2:-6.92308 3:-8.73754 4:-6.94444 5:-8.19121 6:-7.05357 7:-9.05363 8:-7.04225 9:10 10:10 11:10 12:10 13:10 14:10 15:-10 16:-10 17:-7.64583 18:-8.21138 19:-7.93169 20:-9.50214 21:-9.51287 22:-9.51038 23:-9.06312 24:-9.26329 25:-8.85653 26:-9.30541 27:10 28:10 29:10 30:-10 
1 1:-10 2:-10 3:-8.33887 4:-6.52778 5:-8.70801 6:-7.76786 7:-10 8:-10 9:-10 10:-10 11:-10 12:-10 13:-10 14:-10 15:-10 16:-10 17:10 18:10 19:10 20:-9.28783 21:-9.33093 22:-9.31174 23:-9.29466 24:-9.36432 25:10 26:10 27:-10 28:-10 29:-10 30:-10 
1 1:-8.125 2:-8.84615 3:-6.94352 4:-6.66667 5:-6.9509 6:-7.14286 7:-8.4858 8:-8.4507 9:3.33333 10:0.666667 11:-1.42857 12:10 13:10 14:10 15:-9.31034 16:-9.21053 17:-7.0641 18:-0.243902 19:-5.5408 20:-9.3907 21:-8.88573 22:-9.22037 23:-9.6395 24:-9.33333 25:-6.89545 26:-3.48315 27:10 28:10 29:10 30:-10 
1 1:-9.53125 2:-10 3:-7.74086 4:-6.52778 5:-8.24289 6:-7.76786 7:-9.36909 8:-10 9:10 10:10 11:10 12:-10 13:-10 14:-10 15:-10 16:-10 17:-5.125 18:10 19:-2.19355 20:-9.48622 21:-9.33093 22:-9.42571 23:-9.49312 24:-9.36432 25:-8.28512 26:10 27:-10 28:-10 29:-10 30:-10 
0.7252658120995968 1:-4.0625 2:-7.30769 3:-4.81728 4:-7.63889 5:-4.98708 6:-7.85714 7:-3.81703 8:-7.46479 9:10 10:10 11:10 12:10 13:10 14:10 15:-7.93103 16:-8.15789 17:-8.09829 18:-0.243902 19:-6.86342 20:-9.2406 21:-6.8875 22:-8.77792 23:-9.81244 24:-9.02006 25:-8.48829 26:-1.70905 27:10 28:10 29:10 30:-9.25926 
1 1:-9.84375 2:-10 3:-9.53488 4:-9.30556 5:-9.63824 6:-9.55357 7:-9.93691 8:-10 9:-10 10:-10 11:-10 12:-10 13:-10 14:-10 15:-10 16:-10 17:-0.0833333 18:10 19:3.22581 20:-7.55193 21:-6.75347 22:-7.21504 23:-7.55814 24:-6.78241 25:-0.0568182 26:10 27:-10 28:-10 29:-10 30:-10 
1 1:-10 2:-8.84615 3:-9.86711 4:-8.33333 5:-9.89664 6:-8.92857 7:-10 8:-9.43662 9:-10 10:-10 11:-10 12:-3.33333 13:-6 14:-7.14286 15:-10 16:-10 17:10 18:-5.36585 19:-2.19355 20:-3.3729 21:-8.55769 22:-7.57368 23:-3.37763 24:-8.58974 25:10 26:-6.17978 27:-3.33333 28:-6 29:-7.14286 30:-10 
0.7200161790501168 1:-9.0625 2:-8.46154 3:-8.87043 4:-7.08333 5:-9.01809 6:-7.76786 7:-9.30599 8:-7.88732 9:3.33333 10:0.666667 11:-1.42857 12:10 13:10 14:10 15:-10 16:-10 17:-7.28571 18:-6.39024 19:-6.93548 20:-9.05638 21:-9.33093 22:-9.21098 23:-8.95164 24:-9.22348 25:-8.4375 26:-8.96067 27:10 28:10 29:10 30:-10 
0.8600937054688585 1:-8.75 2:-6.92308 3:-9.33555 4:-8.61111 5:-8.29457 6:-7.05357 7:-8.99054 8:-7.74648 9:10 10:10 11:10 12:10 13:10 14:10 15:-4.48276 16:-5.78947 17:10 18:10 19:10 20:-4.74952 21:-4.78248 22:-4.7678 23:-8.24222 24:-8.30808 25:10 26:10 27:10 28:10 29:10 30:-8.51852 
1 1:-8.4375 2:-8.46154 3:-9.53488 4:-9.72222 5:-8.44961 6:-9.10714 7:-9.17981 8:-9.43662 9:-3.33333 10:-6 11:-7.14286 12:-10 13:-10 14:-10 15:-7.24138 16:-8.94737 17:-1 18:10 19:2.37903 20:-6.82397 21:-0.965909 22:-5.30226 23:-7.55814 24:-3.42593 25:-2.93019 26:10 27:-10 28:-10 29:-10 30:-7.77778 
1 1:-5 2:-8.46154 3:-5.21595 4:-9.30556 5:-3.64341 6:-8.83929 7:-5.45741 8:-8.87324 9:10 10:10 11:10 12:3.33333 13:0.666667 14:-1.42857 15:-7.24138 16:-7.89474 17:-7.11111 18:10 19:-4.97453 20:-9.2505 21:-2.92411 22:-8.62883 23:-9.79156 24:-6.78241 25:-7.63387 26:10 27:3.33333 28:0.666667 29:-1.42857 30:-9.25926 
1 1:-9.84375 2:-9.23077 3:-9.73422 4:-8.88889 5:-9.79328 6:-9.28571 7:-9.93691 8:-9.43662 9:-10 10:-10 11:-10 12:3.33333 13:0.666667 14:-1.42857 15:-10 16:-10 17:-0.0833333 18:-3.65854 19:-2.19355 20:-6.04748 21:-7.87037 22:-7.21504 23:-6.05316 24:-7.90123 25:-0.0568182 26:-6.17978 27:3.33333 28:0.666667 29:-1.42857 30:-10 
1 1:-9.6875 2:-9.23077 3:-9.60133 4:-8.19444 5:-9.63824 6:-8.83929 7:-9.87382 8:-9.29577 9:-10 10:-10 11:-10 12:10 13:10 14:10 15:-10 16:-10 17:-3.44444 18:-3.65854 19:-3.54839 20:-7.55193 21:-8.66815 22:-8.25837 23:-7.19981 24:-8.7004 25:-3.40909 26:-6.85393 27:10 28:10 29:10 30:-10 
0.8274975839132754 1:-6.71875 2:-8.84615 3:-8.73754 4:-8.47222 5:-8.29457 6:-8.92857 7:-6.52997 8:-9.01408 9:10 10:10 11:10 12:10 13:10 14:10 15:-9.31034 16:-8.94737 17:-8.33333 18:-0.243902 19:-7.19603 20:-8.87939 21:-7.01122 22:-8.37492 23:-9.06312 24:-8.46065 25:-8.31778 26:2.41573 27:10 28:10 29:10 30:-10 
1 1:-9.84375 2:-8.46154 3:-9.93355 4:-9.16667 5:-9.89664 6:-9.375 7:-9.87382 8:-8.73239 9:-3.33333 10:-6 11:-7.14286 12:3.33333 13:0.666667 14:-1.42857 15:-9.31034 16:-9.47368 17:10 18:-2.29268 19:1.29032 20:3.31355 21:-5.07813 22:-2.78086 23:-0.0332226 24:-7.2619 25:10 26:-4.1573 27:3.33333 28:0.666667 29:-1.42857 30:-10 
0.7538071696332777 1:-8.90625 2:-8.46154 3:-9.13621 4:-8.33333 5:-8.75969 6:-8.125 7:-8.86435 8:-8.30986 9:10 10:10 11:10 12:3.33333 13:0.666667 14:-1.42857 15:-10 16:-10 17:-7.64583 18:-6.39024 19:-7.19603 20:-9.25697 21:-9.19034 22:-9.22956 23:-8.63313 24:-8.58974 25:-9.05502 26:-8.66897 27:3.33333 28:0.666667 29:-1.42857 30:-10 
0.9112143248803748 1:-9.53125 2:-9.23077 3:-9.60133 4:-9.30556 5:-9.32817 6:-9.10714 7:-9.68454 8:-9.43662 9:-3.33333 10:-6 11:-7.14286 12:-3.33333 13:-6 14:-7.14286 15:-8.62069 16:-8.94737 17:4.95833 18:10 19:7.09677 20:-5.76092 21:-4.62121 22:-5.264 23:-7.19981 24:-6.78241 25:6.64773 26:10 27:-3.33333 28:-6 29:-7.14286 30:-10 
0.2006645793218448 1:-8.59375 2:-9.61538 3:-9.06977 4:-9.30556 5:-8.24289 6:-9.375 7:-8.35962 8:-9.43662 9:10 10:10 11:10 12:10 13:10 14:10 15:-9.31034 16:-8.94737 17:-6.13333 18:10 19:-3.54839 20:-8.9131 21:-5.07813 22:-8.21591 23:-8.72868 24:-6.78241 25:-6.38889 26:10 27:10 28:10 29:10 30:-10 
0.6227922906159329 1:-9.53125 2:-9.61538 3:-9.53488 4:-9.72222 5:-9.43152 6:-9.64286 7:-9.30599 8:-9.57746 9:10 10:10 11:10 12:3.33333 13:0.666667 14:-1.42857 15:-9.31034 16:-9.21053 17:-0.0833333 18:10 19:3.22581 20:-6.71612 21:-2.0625 22:-5.35851 23:-7.55814 24:-3.42593 25:-3.40909 26:10 27:3.33333 28:0.666667 29:-1.42857 30:-9.25926 
0.9879293725716499 1:-10 2:-9.23077 3:-9.53488 4:-8.47222 5:-9.63824 6:-9.01786 7:-10 8:-8.87324 9:-10 10:-10 11:-10 12:10 13:10 14:10 15:-10 16:-10 17:10 18:-3.65854 19:-0.16129 20:-7.55193 21:-8.42882 22:-8.07579 23:-7.55814 24:-8.46065 25:10 26:-7.97753 27:10 28:10 29:10 30:-10 
0.305086673399329 1:-8.90625 2:-10 3:-9.2691 4:-10 5:-9.43152 6:-10 7:-8.99054 8:-10 9:10 10:10 11:10 12:-10 13:-10 14:-10 15:-10 16:-10 17:-7.64583 18:10 19:-5.80645 20:-8.38773 21:10 22:-6.99433 23:-8.39424 24:10 25:-8.93048 26:10 27:-10 28:-10 29:-10 30:-10 
1 1:-9.53125 2:-10 3:-9.20266 4:-10 5:-9.37984 6:-10 7:-9.68454 8:-10 9:3.33333 10:0.666667 11:-1.42857 12:-10 13:-10 14:-10 15:-10 16:-10 17:-5.125 18:10 19:-2.19355 20:-8.51632 21:10 22:-7.21504 23:-8.52287 24:10 25:-6.76136 26:10 27:-10 28:-10 29:-10 30:-10 
0.7324611208774 1:-10 2:-9.61538 3:-9.80066 4:-9.30556 5:-9.84496 6:-9.375 7:-10 8:-9.85915 9:-10 10:-10 11:-10 12:-10 13:-10 14:-10 15:-10 16:-10 17:10 18:-0.243902 19:3.22581 20:-5.04451 21:-7.59115 22:-6.73684 23:-5.04983 24:-6.78241 25:10 26:-0.11236 27:-10 28:-10 29:-10 30:-10 
0.9640224303521886 1:-1.5625 2:-6.92308 3:-2.89037 4:-8.47222 5:-2.24806 6:-8.125 7:-2.6183 8:-7.46479 9:10 10:10 11:10 12:10 13:10 14:10 15:-9.31034 16:-9.73684 17:-9.43333 18:-5.93496 19:-9.05242 20:-9.79366 21:-8.27652 22:-9.61984 23:-9.88064 24:-8.46065 25:-9.77273 26:-8.0958 27:10 28:10 29:10 30:-10 
1 1:-9.375 2:-8.46154 3:-8.93688 4:-8.47222 5:-8.96641 6:-8.03571 7:-9.49527 8:-9.01408 9:3.33333 10:0.666667 11:-1.42857 12:3.33333 13:0.666667 14:-1.42857 15:-9.31034 16:-9.21053 17:-2.1 18:-2.29268 19:-2.19355 20:-8.14893 21:-8.35598 22:-8.25837 23:-8.88607 24:-8.46065 25:-1.17424 26:-0.11236 27:3.33333 28:0.666667 29:-1.42857 30:-10 
1 1:-9.84375 2:-10 3:-9.73422 4:-9.86111 5:-9.7416 6:-9.91071 7:-9.81073 8:-10 9:3.33333 10:0.666667 11:-1.42857 12:-10 13:-10 14:-10 15:-10 16:-10 17:-0.0833333 18:10 19:3.22581 20:-6.71612 21:-0.0520833 22:-5.06316 23:-6.05316 24:-0.0694444 25:-5.08523 26:10 27:-10 28:-10 29:-10 30:-10 
1 1:-9.6875 2:-9.23077 3:-9.53488 4:-9.30556 5:-9.58656 6:-9.375 7:-9.68454 8:-8.87324 9:3.33333 10:0.666667 11:-1.42857 12:10 13:10 14:10 15:-10 16:-10 17:-3.44444 18:-3.65854 19:-3.54839 20:-7.83053 21:-7.59115 22:-7.72136 23:-7.55814 24:-6.78241 25:-6.76136 26:-7.97753 27:10 28:10 29:10 30:-10 
1 1:-9.53125 2:-8.84615 3:-9.46844 4:-8.88889 5:-8.86305 6:-8.03571 7:-9.49527 8:-8.73239 9:10 10:10 11:10 12:10 13:10 14:10 15:-8.62069 16:-8.42105 17:4.95833 18:4.87805 19:4.91935 20:-7.44291 21:-7.48188 22:-7.46453 23:-7.83684 24:-7.90123 25:5.5303 26:3.93258 27:10 28:10 29:10 30:-9.25926 
0.9230567567180463 1:-9.84375 2:-5.76923 3:-9.86711 4:-6.94444 5:-9.79328 6:-6.25 7:-9.93691 8:-6.33803 9:-10 10:-10 11:-10 12:10 13:10 14:10 15:-9.31034 16:-9.73684 17:10 18:-7.07317 19:-4.51613 20:-2.03561 21:-9.16909 22:-8.41053 23:-3.37763 24:-9.26329 25:10 26:-8.72659 27:10 28:10 29:10 30:-10 
0.3937475287514268 1:-9.6875 2:-10 3:-9.53488 4:-9.58333 5:-9.4832 6:-9.73214 7:-9.68454 8:-10 9:10 10:10 11:10 12:-10 13:-10 14:-10 15:-10 16:-10 17:-3.44444 18:10 19:-0.16129 20:-8.23577 21:-5.07813 22:-7.40632 23:-7.55814 24:-5.10417 25:-6.76136 26:10 27:-10 28:-10 29:-10 30:-10 
1 2:-10 3:-5.54817 4:-9.72222 5:-2.19638 6:-9.82143 7:-0.0315457 8:-10 9:10 10:10 11:10 12:-10 13:-10 14:-10 15:-10 16:-10 17:-9.85641 18:10 19:-9.70674 20:-9.92738 21:-3.40278 22:-9.82506 23:-9.77135 24:-3.42593 25:-9.98714 26:10 27:-10 28:-10 29:-10 30:-10 
1 1:-9.84375 2:-9.61538 3:-9.93355 4:-9.44444 5:-9.94832 6:-9.64286 7:-9.87382 8:-9.43662 9:-3.33333 10:-6 11:-7.14286 12:10 13:10 14:10 15:-10 16:-10 17:-0.0833333 18:-0.243902 19:-0.16129 20:-0.0296736 21:-6.08333 22:-4.34586 23:-0.0332226 24:-6.11111 25:-3.40909 26:-6.17978 27:10 28:10 29:10 30:-10 
0.5116456001840578 1:-7.8125 2:-10 3:-8.60465 4:-9.44444 5:-8.44961 6:-9.64286 7:-7.47634 8:-10 9:10 10:10 11:10 12:-10 13:-10 14:-10 15:-10 16:-10 17:-8.82222 18:10 19:-7.78226 20:-9.41227 21:-6.08333 22:-8.96842 23:-9.15433 24:-6.11111 25:-9.62306 26:10 27:-10 28:-10 29:-10 30:-10 
0.9725764647810429 1:-9.0625 2:-9.61538 3:-8.93688 4:-9.58333 5:-9.17313 6:-9.64286 7:-9.17981 8:-9.57746 9:10 10:10 11:10 12:3.33333 13:0.666667 14:-1.42857 15:-10 16:-10 17:-7.28571 18:-0.243902 19:-5.80645 20:-8.87939 21:-6.08333 22:-8.25837 23:-8.88607 24:-5.10417 25:-8.67695 26:-5.16854 27:3.33333 28:0.666667 29:-1.42857 30:-10 
1 1:-3.90625 2:-9.23077 3:-4.4186 4:-8.75 5:-5.14212 6:-9.10714 7:-3.69085 8:-9.15493 9:10 10:10 11:10 12:3.33333 13:0.666667 14:-1.42857 15:-10 16:-10 17:-9.6625 18:-3.65854 19:-9.37734 20:-9.8482 21:-8.27652 22:-9.70526 23:-9.83037 24:-8.125 25:-9.91449 26:-7.33547 27:3.33333 28:0.666667 29:-1.42857 30:-10 
0.1902735196715509 1:-7.34375 2:-10 3:-6.74419 4:-9.58333 5:-7.05426 6:-9.73214 7:-6.90852 8:-10 9:10 10:10 11:10 12:-10 13:-10 14:-10 15:-10 16:-10 17:-9.0463 18:10 19:-8.18336 20:-9.7135 21:-5.07813 22:-9.43633 23:-9.66512 24:-5.10417 25:-9.71136 26:10 27:-10 28:-10 29:-10 30:-10 
1 1:-9.6875 2:-9.61538 3:-9.46844 4:-8.88889 5:-9.22481 6:-9.19643 7:-9.87382 8:-9.85915 9:-10 10:-10 11:-10 12:-10 13:-10 14:-10 15:-10 16:-10 17:-3.44444 18:-0.243902 19:-2.19355 20:-8.80564 21:-8.09375 22:-8.53927 23:-7.83684 24:-7.90123 25:-3.40909 26:-0.11236 27:-10 28:-10 29:-10 30:-10 
1 1:-9.6875 2:-10 3:-8.93688 4:-8.05556 5:-8.60465 6:-8.75 7:-9.81073 8:-10 9:-3.33333 10:-6 11:-7.14286 12:-10 13:-10 14:-10 15:-10 16:-10 17:-3.44444 18:10 19:-0.16129 20:-9.34294 21:-8.76389 22:-9.15006 23:-8.88607 24:-8.7963 25:-5.08523 26:10 27:-10 28:-10 29:-10 30:-10 
0.1944440370883473 1:-8.90625 2:-9.61538 3:-8.47176 4:-8.47222 5:-7.67442 6:-8.66071 7:-8.61199 8:-9.57746 9:10 10:10 11:10 12:3.33333 13:0.666667 14:-1.42857 15:-9.31034 16:-9.21053 17:-5.125 18:10 19:-2.19355 20:-9.1872 21:-7.59115 22:-8.78846 23:-9.23034 24:-8.46065 25:-6.61561 26:10 27:3.33333 28:0.666667 29:-1.42857 30:-10 
0.7636583023895964 1:-7.96875 2:-9.61538 3:-9.00332 4:-9.58333 5:-8.75969 6:-9.73214 7:-7.91798 8:-9.43662 9:10 10:10 11:10 12:10 13:10 14:10 15:-10 16:-10 17:-8.72619 18:-0.243902 19:-7.78226 20:-9.25697 21:-5.07813 22:-8.69909 23:-8.81229 24:-5.10417 25:-9.52206 26:-6.17978 27:10 28:10 29:10 30:-10 
