svm_type c_svc
kernel_type rbf
gamma 3.05176e-05
nr_class 2
total_sv 172
rho 57.21
label 1 -1
nr_sv 84 88
SV
32768 1:-9.2715 2:-9.3172 3:-10 4:-10 5:10 6:-1.66667 
32768 1:-10 2:-8.91107 3:-5.55556 4:-5.86207 5:-7.21925 6:10 
32768 1:-8.24913 2:-8.29024 3:-7.77778 4:-7.93103 5:3.0303 6:10 
32768 1:-8.11919 2:-8.16781 3:-7.77778 4:-7.24138 5:10 6:10 
32768 1:-8.07211 2:-8.121 3:-10 4:-10 5:-3.93939 6:10 
32768 1:-8.08219 2:-8.06114 3:-7.77778 4:-7.24138 5:-4.93506 6:10 
32768 1:-7.29368 2:-7.34444 3:-5.55556 4:-7.24138 5:10 6:10 
26712.5753415831 1:-9.03764 2:-9.08421 3:-3.33333 4:-3.7931 5:-1.61616 6:10 
26509.2347030614 1:-6.99635 2:-7.04752 3:-1.11111 4:-2.41379 5:10 6:1.25 
32768 1:-6.3262 2:-6.37913 3:-5.55556 4:-7.24138 5:4.77273 6:10 
32768 1:-5.00816 2:-5.0638 3:5.55556 4:2.41379 5:7.67677 6:7.40741 
32768 1:-4.35711 2:-4.41461 3:-7.77778 4:-8.62069 5:3.0303 6:10 
23905.58216864476 1:-6.92868 2:-5.47774 3:1.11111 4:-1.03448 5:-0.454545 6:10 
32768 1:-9.34308 2:-3.94846 3:-10 4:-9.31034 5:-0.454545 6:10 
32768 1:-8.55698 2:-3.82289 3:-7.77778 4:-7.24138 5:-2.54545 6:10 
32768 1:-9.46626 2:-3.73212 3:-7.77778 4:-7.24138 5:-6.72727 6:-1.66667 
32768 1:-9.21871 2:-3.05893 3:-10 4:-9.31034 5:-8.58586 6:-7.5 
32768 1:-5.17179 2:-5.22764 3:-7.77778 4:-8.62069 5:3.0303 6:10 
32768 1:-4.52314 2:-2.87514 3:-10 4:-9.31034 5:-5.68182 6:10 
12946.2557561083 1:-2.32846 2:-2.39113 3:-3.33333 4:-3.7931 5:5.81818 6:10 
32768 1:-2.30154 2:-2.33877 3:-10 4:-9.31034 5:-5.68182 6:10 
32768 1:-7.04869 2:-7.09748 3:7.77778 4:2.41379 5:6.19835 6:10 
32768 1:-8.51607 2:-1.96639 3:-10 4:-9.31034 5:-7.42424 6:10 
32768 1:-9.1008 2:-1.74345 3:-5.55556 4:-5.17241 5:-1.94805 6:10 
32768 1:-6.68669 2:-1.18338 3:-10 4:-9.31034 5:-8.81818 6:10 
32768 1:0.00368463 2:-0.0641386 3:-10 4:-9.31034 5:10 6:10 
32768 1:-7.33353 2:-6.76696 3:-3.33333 4:-3.10345 5:-3.30579 6:-7.11111 
32768 1:-7.88457 2:-0.994936 3:-7.77778 4:-7.93103 5:-6.72727 6:10 
32768 1:-5.38956 2:-4.20982 3:-7.77778 4:-7.24138 5:-4.93506 6:-1.66667 
32768 1:-9.8836 2:-9.20738 3:-10 4:-9.31034 5:-10 6:-1.66667 
32768 1:1.32323 2:1.25179 3:-10 4:-9.31034 5:-0.454545 6:-5.55556 
32768 1:1.37151 2:1.30085 3:-10 4:-9.31034 5:10 6:10 
32768 1:-9.06636 2:-5.33461 3:-7.77778 4:-7.93103 5:-7.92208 6:10 
32768 1:-1.16923 2:-1.23469 3:-7.77778 4:-7.24138 5:10 6:10 
32768 1:-9.28608 2:2.07337 3:-7.77778 4:-6.55172 5:3.0303 6:10 
32768 1:-8.43712 2:2.07892 3:-10 4:-8.62069 5:-3.93939 6:10 
32768 1:-5.9227 2:-5.7484 3:-7.77778 4:-7.93103 5:-6.72727 6:10 
32768 1:-5.68869 2:2.92945 3:-10 4:-8.62069 5:10 6:10 
32768 1:-9.1202 2:3.12929 3:-10 4:-8.62069 5:-5.68182 6:10 
32768 1:0.111667 2:0.943776 3:-5.55556 4:-4.48276 5:4.77273 6:10 
32768 1:3.51401 2:3.43731 3:-10 4:-8.62069 5:-0.454545 6:10 
32768 1:-9.77486 2:-0.0749409 3:-10 4:-8.62069 5:-9.51515 6:-1.66667 
32768 1:-4.26913 2:-0.0749409 3:-10 4:-8.62069 5:-7.42424 6:-1.66667 
32768 1:3.56529 2:3.48847 3:-7.77778 4:-5.86207 5:3.0303 6:10 
32768 1:-8.83957 2:-4.92712 3:-10 4:-8.62069 5:-7.92208 6:-8.66667 
18521.52682310827 1:-9.30323 2:3.67886 3:-7.77778 4:-5.86207 5:-5.68182 6:10 
32768 1:-8.83145 2:-8.87851 3:1.11111 4:-1.72414 5:10 6:6.66667 
32768 1:-3.44482 2:4.14576 3:-10 4:-8.62069 5:-0.454545 6:-7.5 
32768 1:-1.55258 2:4.22257 3:-7.77778 4:-5.86207 5:3.0303 6:10 
32768 1:-8.6039 2:4.34545 3:-10 4:-8.62069 5:-0.454545 6:10 
32768 1:4.48314 2:4.40411 3:-10 4:-8.62069 5:-0.454545 6:-5.55556 
32768 1:-2.03489 2:4.58145 3:-10 4:-8.62069 5:-3.93939 6:10 
32768 1:-1.20517 2:4.74348 3:-10 4:-8.62069 5:-5.68182 6:10 
32768 1:-7.21187 2:4.96943 3:-7.77778 4:-5.86207 5:-8.12121 6:10 
32768 1:-4.27153 2:-4.10885 3:-5.55556 4:-5.86207 5:4.77273 6:10 
32768 1:5.81126 2:5.72904 3:-10 4:-8.62069 5:10 6:10 
32768 1:-6.9947 2:-4.5852 3:-7.77778 4:-5.86207 5:-6.72727 6:2.22222 
32768 1:6.00571 2:5.92303 3:-10 4:-7.93103 5:10 6:10 
32768 1:0.810843 2:5.98245 3:-10 4:-7.93103 5:10 6:10 
32768 1:-5.75351 2:-5.80766 3:-7.77778 4:-7.24138 5:10 6:10 
32768 1:-8.7561 2:6.42714 3:-10 4:-7.93103 5:-5.68182 6:10 
32768 1:-5.07824 2:4.35445 3:-10 4:-7.93103 5:10 6:-5.55556 
32768 1:-5.44761 2:6.55677 3:-10 4:-7.93103 5:-0.454545 6:10 
32768 1:-2.99034 2:6.76021 3:-7.77778 4:-5.17241 5:-3.93939 6:10 
32768 1:-4.11874 2:4.72533 3:-7.77778 4:-5.86207 5:-4.93506 6:10 
32768 1:-6.98748 2:6.89899 3:-10 4:-7.93103 5:-0.454545 6:10 
32768 1:-8.01211 2:-2.82758 3:-10 4:-7.93103 5:-6.72727 6:-7.5 
32768 1:-8.01211 2:3.8859 3:-10 4:-7.93103 5:-6.72727 6:-1.66667 
32768 1:-6.98297 2:7.20866 3:-10 4:-7.93103 5:-9.3007 6:10 
32768 1:-9.8851 2:7.32778 3:-10 4:-7.93103 5:-5.68182 6:10 
32768 1:-3.76095 2:7.8913 3:-10 4:-7.93103 5:-7.42424 6:10 
32768 1:-1.95007 2:7.99692 3:-10 4:-7.93103 5:-0.454545 6:10 
32768 1:-4.01662 2:8.03848 3:-10 4:-7.93103 5:-6.72727 6:10 
32768 1:-8.6024 2:-8.63861 3:-5.55556 4:-5.17241 5:-8.74608 6:4.16667 
32768 1:-5.70764 2:-2.82728 3:-10 4:-7.93103 5:-3.93939 6:-1.66667 
32768 1:8.40072 2:8.31229 3:-10 4:-7.93103 5:10 6:10 
32768 1:-2.78911 2:-2.27966 3:-10 4:-7.93103 5:-0.454545 6:-1.66667 
32768 1:8.58781 2:8.49968 3:-7.77778 4:-5.17241 5:3.0303 6:10 
32768 1:7.6089 2:8.90327 3:-10 4:-7.93103 5:10 6:10 
32768 1:-1.28278 2:8.90477 3:-10 4:-7.93103 5:10 6:10 
32768 1:-7.90036 2:9.47819 3:-10 4:-7.93103 5:-6.72727 6:10 
32768 1:-4.58571 2:2.99531 3:-7.77778 4:-5.86207 5:-3.93939 6:10 
16493.07141179355 1:-9.46039 2:5.77075 3:-7.77778 4:-5.86207 5:-0.454545 6:-1.66667 
32768 1:-5.48896 2:9.95859 3:-10 4:-7.93103 5:-0.454545 6:10 
-32768 1:-9.95563 2:-10 3:-7.77778 4:-7.93103 5:-4.93506 6:10 
-32768 1:-9.55243 2:-9.59776 3:1.11111 4:-3.10345 5:7.01299 6:10 
-32768 1:-8.63323 2:-8.66727 3:-7.77778 4:-7.93103 5:-2.54545 6:2.22222 
-25282.431802953 1:-8.2395 2:-8.28799 3:-5.55556 4:-7.93103 5:10 6:4.16667 
-32768 1:-7.99812 2:-8.04643 3:-7.77778 4:-8.62069 5:-5.68182 6:10 
-32768 1:-9.34023 2:-7.86325 3:-7.77778 4:-7.93103 5:-2.54545 6:10 
-32768 1:-6.68489 2:-6.73501 3:3.33333 4:-0.344828 5:1.28788 6:7.08333 
-32768 1:-5.58943 2:-5.64427 3:-7.77778 4:-8.62069 5:10 6:10 
-32768 1:-9.07268 2:-4.23082 3:-7.77778 4:-7.24138 5:-2.54545 6:-1.66667 
-32768 1:-8.33079 2:-4.03818 3:-10 4:-9.31034 5:-5.68182 6:10 
-32768 1:-3.9133 2:-3.93856 3:-7.77778 4:-6.55172 5:3.0303 6:10 
-32768 1:-3.14855 2:-3.20926 3:-7.77778 4:-7.93103 5:-4.93506 6:2.22222 
-32768 1:-3.03846 2:-3.09943 3:-7.77778 4:-7.93103 5:10 6:-1.66667 
-32768 1:-7.74772 2:-3.00086 3:-10 4:-9.31034 5:-6.72727 6:10 
-16209.45384695256 1:-7.45731 2:-2.74161 3:-10 4:-9.31034 5:10 6:10 
-14011.27789721741 1:-5.76734 2:-5.81621 3:-10 4:-9.31034 5:-8.81818 6:10 
-21441.58940153719 1:-1.91322 2:-1.9769 3:-10 4:-9.31034 5:10 6:10 
-28224.27731759499 1:-9.16126 2:-1.86962 3:-10 4:-9.31034 5:-8.29545 6:-1.66667 
-32768 1:-9.27661 2:-1.49274 3:-10 4:-9.31034 5:-5.68182 6:10 
-32768 1:-7.05155 2:-1.11271 3:-10 4:-9.31034 5:-5.68182 6:10 
-32768 1:-1.78148 2:-1.0443 3:-7.77778 4:-6.55172 5:-5.68182 6:10 
-32768 1:-9.86329 2:-0.987135 3:-10 4:-9.31034 5:-9.80861 6:10 
-32768 1:-7.5868 2:-0.836803 3:-10 4:-9.31034 5:-3.93939 6:10 
-27392.04442293953 1:-5.76403 2:-0.178613 3:-10 4:-9.31034 5:-5.68182 6:10 
-32768 1:-8.77039 2:-8.81745 3:-3.33333 4:-5.17241 5:10 6:10 
-32768 1:-8.17859 2:0.223623 3:-10 4:-9.31034 5:-7.42424 6:10 
-11362.32090814038 1:-8.36568 2:-0.0386332 3:-10 4:-9.31034 5:-5.68182 6:-1.66667 
-32768 1:-9.2345 2:-9.2806 3:-1.11111 4:-1.72414 5:6.51515 6:10 
-32768 1:-6.79016 2:0.534339 3:-7.77778 4:-6.55172 5:3.0303 6:10 
-32768 1:-7.14945 2:-5.36026 3:-3.33333 4:-3.7931 5:-2.54545 6:2.22222 
-32768 1:0.843779 2:0.773489 3:-7.77778 4:-7.93103 5:3.0303 6:10 
-32768 1:-5.58853 2:1.24459 3:-10 4:-9.31034 5:-3.93939 6:10 
-32768 1:-8.98876 2:-1.67653 3:3.33333 4:1.03448 5:0.34965 6:10 
-32768 1:1.67681 2:1.60452 3:-10 4:-8.62069 5:10 6:10 
-32768 1:-0.917021 2:1.74615 3:-7.77778 4:-6.55172 5:-3.93939 6:10 
-3509.826596190594 1:-9.29932 2:-9.25989 3:-7.77778 4:-7.93103 5:-7.10744 6:-8.66667 
-19467.93823428196 1:-9.18156 2:-0.695023 3:-10 4:-8.62069 5:10 6:-1.66667 
-32768 1:-9.56461 2:2.07742 3:-10 4:-8.62069 5:-3.93939 6:10 
-32768 1:-6.33086 2:2.2156 3:-10 4:-8.62069 5:-0.454545 6:10 
-32768 1:2.43373 2:2.35963 3:-10 4:-8.62069 5:10 6:10 
-32768 1:2.53149 2:2.45715 3:-10 4:-8.62069 5:10 6:10 
-32768 1:-8.13994 2:-8.18852 3:10 4:3.7931 5:4.02597 6:10 
-32768 1:2.85243 2:2.77732 3:-10 4:-8.62069 5:10 6:10 
-32768 1:2.90777 2:2.83433 3:-10 4:-8.62069 5:10 6:10 
-32768 1:-8.0497 2:-6.26766 3:-10 4:-8.62069 5:-7.42424 6:-7.5 
-32768 1:3.07772 2:3.00281 3:-7.77778 4:-6.55172 5:10 6:10 
-32768 1:-7.04553 2:-6.65654 3:-7.77778 4:-7.93103 5:-6.72727 6:-4 
-32768 1:3.40512 2:3.33033 3:-10 4:-8.62069 5:10 6:10 
-32768 1:0.740911 2:3.38314 3:-7.77778 4:-6.55172 5:3.0303 6:10 
-6713.377696048282 1:3.74305 2:3.6661 3:-10 4:-8.62069 5:10 6:10 
-32768 1:-6.26996 2:3.74082 3:-10 4:-8.62069 5:-6.72727 6:10 
-32768 1:-7.16855 2:-7.21961 3:-5.55556 4:-7.24138 5:-5.68182 6:10 
-32768 1:-8.36809 2:-8.41626 3:-1.11111 4:-1.72414 5:4.02597 6:10 
-32768 1:-9.38204 2:4.1078 3:-10 4:-8.62069 5:-9.16667 6:10 
-32768 1:-9.38189 2:-8.32654 3:-10 4:-8.62069 5:-9.41558 6:10 
-32768 1:-4.64421 2:2.78617 3:-10 4:-8.62069 5:-0.454545 6:-5.55556 
-32768 1:-8.87822 2:-8.92517 3:-7.77778 4:-7.93103 5:10 6:2.22222 
-32768 1:-8.80934 2:4.3342 3:-7.77778 4:-5.86207 5:-7.10744 6:10 
-32768 1:-7.91706 2:1.62087 3:-10 4:-8.62069 5:-9.00826 6:-7.5 
-32768 1:-9.62492 2:5.13447 3:-10 4:-8.62069 5:-7.42424 6:10 
-32768 1:-8.15618 2:5.71554 3:-10 4:-8.62069 5:-0.454545 6:10 
-32768 1:-9.11764 2:0.314092 3:-10 4:-7.93103 5:-0.454545 6:-5.55556 
-32768 1:1.7908 2:5.90293 3:-7.77778 4:-5.17241 5:-2.54545 6:10 
-32768 1:-5.13148 2:6.01095 3:-10 4:-7.93103 5:-3.93939 6:10 
-32768 1:-1.94571 2:6.06076 3:-10 4:-7.93103 5:-3.93939 6:-1.66667 
-32768 1:6.2092 2:6.12693 3:-10 4:-7.93103 5:10 6:10 
-13004.49880327141 1:2.89424 2:6.2249 3:-10 4:-7.93103 5:-0.454545 6:10 
-13744.21047370694 1:6.39523 2:6.31162 3:-10 4:-7.93103 5:10 6:10 
-32768 1:5.44941 2:5.54105 3:-7.77778 4:-5.17241 5:-2.54545 6:-7.5 
-32768 1:-8.0688 2:6.50456 3:-10 4:-7.93103 5:-3.93939 6:10 
-32768 1:-8.50149 2:-8.54799 3:-10 4:-7.93103 5:-9.00826 6:-5.55556 
-32768 1:-3.99451 2:6.63358 3:-10 4:-7.93103 5:-3.93939 6:10 
-23028.99880346432 1:2.71121 2:6.43449 3:-10 4:-7.93103 5:-0.454545 6:-1.66667 
-32768 1:-9.74463 2:-2.90154 3:-10 4:-7.93103 5:-3.93939 6:-9.44444 
-32768 1:4.30973 2:7.07153 3:-7.77778 4:-5.17241 5:3.0303 6:10 
-32768 1:-3.76366 2:7.27017 3:-10 4:-7.93103 5:-3.93939 6:10 
-32768 1:1.03944 2:7.32658 3:-10 4:-7.93103 5:-3.93939 6:10 
-32768 1:-7.81449 2:7.47646 3:-10 4:-7.93103 5:10 6:10 
-32768 1:-7.15908 2:-5.44413 3:-7.77778 4:-5.86207 5:-2.54545 6:-5.55556 
-32768 1:-5.35211 2:7.75492 3:-10 4:-7.93103 5:-6.72727 6:10 
-32768 1:0.508554 2:7.94291 3:-10 4:-7.93103 5:-3.93939 6:10 
-32768 1:-9.26864 2:8.05454 3:-10 4:-7.93103 5:-3.93939 6:10 
-32768 1:-0.866789 2:8.10765 3:-10 4:-7.93103 5:10 6:10 
-32768 1:-1.40053 2:8.16436 3:-7.77778 4:-5.17241 5:-0.454545 6:2.22222 
-32768 1:2.24589 2:2.17224 3:-5.55556 4:-3.10345 5:10 6:10 
-32768 1:-7.45986 2:-5.73594 3:-10 4:-7.93103 5:-9.00826 6:-1.66667 
-32768 1:-3.21021 2:9.41338 3:-10 4:-7.93103 5:-0.454545 6:10 
-32768 1:-4.63188 2:9.64697 3:-5.55556 4:-2.41379 5:-6.42857 6:10 
