svm_type one_class
kernel_type rbf
gamma 0.8
nr_class 2
total_sv 1600
rho 0.0662807
SV
0.06640625 1:429 2:430 3:2 4:4 5:0.28571429 6:1 
0.06640625 1:492 2:496 3:1 4:1 5:0.25 6:0.5 
0.06640625 1:569 2:570 3:1 4:1 5:1 6:1 
0.06640625 1:872 2:873 3:1 4:1 5:1 6:1 
0.06640625 1:894 2:958 3:1 4:1 5:1 6:1 
0.06640625 1:1057 2:1058 3:1 4:1 5:0.5 6:1 
0.06640621716144937 1:1394 2:1396 3:1 4:1 5:0.5 6:1 
0.06640621716145013 1:1391 2:1393 3:1 4:1 5:1 6:0.5 
0.06640625 1:1785 2:1790 3:1 4:1 5:1 6:1 
0.06640625 1:1756 2:1759 3:1 4:1 5:1 6:1 
0.06640625 1:2342 2:2347 3:1 4:1 5:0.33333333 6:0.5 
0.06640625 1:2744 2:2747 3:1 4:1 5:0.5 6:0.5 
0.06640625 1:2766 2:2771 3:1 4:1 5:1 6:1 
0.06640625 1:2894 2:2899 3:1 4:1 5:1 6:1 
0.06640625 1:2874 2:2901 3:2 4:3 5:1 6:1 
0.06640625 1:3003 2:3010 3:1 4:1 5:0.16666667 6:0.5 
0.06640625 1:3110 2:3111 3:6 4:11 5:0.85714286 6:1 
0.06640625 1:3265 2:3282 3:2 4:4 5:1 6:0.66666667 
0.06640625 1:3352 2:3353 3:2 4:4 5:1 6:0.66666667 
0.06640625 1:3423 2:3426 3:1 4:1 5:0.2 6:1 
0.06640625 1:3890 2:3896 3:1 4:1 5:1 6:1 
0.06640625 1:4219 2:4220 3:2 4:3 5:1 6:1 
0.06640625 1:4165 2:4288 3:1 4:1 5:0.1 6:1 
0.06640625 1:4376 2:4392 3:1 4:1 5:0.125 6:1 
0.06640625 1:4491 2:4492 3:1 4:1 5:0.5 6:1 
0.06640625 1:4513 2:4515 3:1 4:1 5:0.25 6:1 
0.06640625 1:4568 2:4569 3:1 4:1 5:1 6:1 
0.06640625 1:4601 2:4602 3:1 4:1 5:0.125 6:1 
0.06640625 1:4748 2:4750 3:1 4:1 5:1 6:1 
0.06640625 1:4777 2:4850 3:2 4:3 5:1 6:1 
0.06640625 1:4910 2:4925 3:2 4:2 5:1 6:1 
0.06640625 1:4978 2:4981 3:1 4:1 5:1 6:0.5 
0.06640625 1:2535 2:5039 3:1 4:1 5:0.11111111 6:1 
0.06640625 1:5253 2:5261 3:1 4:1 5:1 6:0.33333333 
0.06640625 1:4811 2:5294 3:2 4:4 5:0.28571429 6:0.5 
0.06640625 1:5329 2:5330 3:1 4:1 5:0.11111111 6:1 
0.06640625 1:5401 2:5417 3:4 4:7 5:0.57142857 6:1 
0.06640625 1:5508 2:5509 3:1 4:1 5:0.16666667 6:1 
0.06640625 1:5602 2:5604 3:1 4:1 5:1 6:1 
0.06640625 1:3692 2:5620 3:1 4:1 5:0.1 6:1 
0.06640625 1:2996 2:5939 3:4 4:11 5:0.33333333 6:1 
0.06640625 1:5544 2:5766 3:1 4:1 5:1 6:1 
0.06640625 1:6113 2:6114 3:1 4:1 5:0.14285714 6:1 
0.06640625 1:6156 2:6157 3:1 4:1 5:1 6:1 
0.06640625 1:6252 2:6254 3:3 4:9 5:1 6:0.6 
0.06640625 1:6453 2:6454 3:4 4:12 5:1 6:1 
0.06640625 1:6590 2:6593 3:1 4:1 5:0.5 6:0.33333333 
0.06640625 1:6791 2:6792 3:1 4:1 5:0.5 6:1 
0.06640625 1:6807 2:6808 3:2 4:5 5:1 6:1 
0.06640625 1:6318 2:6319 3:3 4:3 5:0.33333333 6:1 
0.06640625 1:6983 2:6985 3:1 4:1 5:1 6:1 
0.06640625 1:7191 2:7210 3:1 4:1 5:1 6:1 
0.06640625 1:7287 2:7290 3:1 4:1 5:0.33333333 6:0.33333333 
0.06640625 1:7114 2:7298 3:3 4:3 5:1 6:1 
0.06640625 1:7363 2:7584 3:3 4:6 5:1 6:1 
0.06640625 1:134 2:7688 3:3 4:7 5:0.17647059 6:1 
0.06640624999933009 1:7745 2:7746 3:1 4:1 5:1 6:1 
0.06640624999933009 1:7749 2:7750 3:1 4:1 5:1 6:1 
0.06640625 1:7687 2:7850 3:1 4:1 5:0.058823529 6:0.33333333 
0.0542965348102243 1:8000 2:8003 3:1 4:1 5:0.5 6:0.5 
0.06640621098787386 1:8004 2:8005 3:1 4:1 5:0.33333333 6:1 
0.05518017507245624 1:8001 2:8002 3:1 4:1 5:0.5 6:0.5 
0.06640625 1:7854 2:7856 3:5 4:9 5:0.26315789 6:1 
0.06640625 1:8076 2:8077 3:2 4:2 5:1 6:1 
0.06640625 1:8145 2:8361 3:1 4:1 5:0.16666667 6:1 
0.06640625 1:8694 2:8695 3:1 4:1 5:1 6:1 
0.06640625 1:7714 2:8842 3:1 4:1 5:0.2 6:1 
0.06640625 1:8914 2:8915 3:1 4:1 5:1 6:1 
0.06640625 1:6977 2:6978 3:2 4:2 5:0.66666667 6:1 
0.06601038326273498 1:2453 2:9077 3:1 4:1 5:0.2 6:1 
0.06601038249213477 1:9288 2:9289 3:1 4:1 5:1 6:1 
0.06601038249221433 1:9235 2:9316 3:2 4:4 5:0.66666667 6:0.66666667 
0.06601038249221433 1:9524 2:9526 3:1 4:1 5:1 6:1 
0.06601038249221433 1:9608 2:9625 3:6 4:12 5:0.75 6:0.75 
0.06601038249221433 1:9829 2:9842 3:1 4:1 5:1 6:1 
0.06601038249221433 1:9222 2:9313 3:2 4:4 5:0.4 6:0.66666667 
0.06601038249221433 1:10023 2:10046 3:3 4:5 5:0.6 6:1 
0.06589032536809883 1:10095 2:10122 3:2 4:4 5:0.66666667 6:0.4 
0.06565510728834623 1:10261 2:10263 3:2 4:3 5:1 6:1 
0.06561009014608045 1:10558 2:10559 3:1 4:1 5:1 6:1 
0.06559571670368314 1:9432 2:9435 3:7 4:10 5:1 6:1 
0.06565463451698432 1:10104 2:10585 3:1 4:1 5:0.076923077 6:1 
0.06553918241553018 1:10951 2:10952 3:1 4:1 5:0.5 6:1 
0.0662895657033154 1:11071 2:11072 3:1 4:1 5:0.25 6:1 
0.06581451624911472 1:11127 2:11134 3:1 4:1 5:1 6:1 
0.06582976754869654 1:6279 2:11264 3:2 4:4 5:0.33333333 6:1 
0.06582976754893796 1:11302 2:11303 3:1 4:1 5:0.33333333 6:1 
0.06542698946287891 1:11406 2:11408 3:1 4:1 5:1 6:1 
0.06640432328810721 1:11584 2:11585 3:1 4:1 5:0.1 6:0.5 
0.06640432329045379 1:11586 2:11588 3:1 4:1 5:0.5 6:1 
0.06542698946287891 1:11705 2:11707 3:1 4:1 5:0.14285714 6:0.5 
0.06542698946287891 1:11776 2:11826 3:2 4:4 5:0.66666667 6:1 
0.06542698841542345 1:11840 2:11841 3:3 4:4 5:1 6:0.75 
0.06565464183323999 1:7926 2:7928 3:6 4:15 5:0.75 6:1 
0.06565464151450295 1:11917 2:11920 3:1 4:1 5:0.2 6:1 
0.06565464130601506 1:11941 2:11949 3:1 4:1 5:1 6:0.16666667 
0.06565464071126781 1:11967 2:11968 3:2 4:3 5:1 6:0.66666667 
0.06565607619533709 1:12329 2:12330 3:2 4:5 5:1 6:0.5 
0.06565607618949923 1:12425 2:12434 3:2 4:3 5:0.66666667 6:1 
0.06565963780491116 1:12640 2:12642 3:2 4:5 5:1 6:1 
0.06585191589448197 1:2568 2:12644 3:1 4:1 5:0.027027027 6:0.5 
0.06601038249213477 1:12675 2:12686 3:1 4:1 5:0.33333333 6:1 
0.06601038326273498 1:12705 2:12706 3:2 4:2 5:0.18181818 6:1 
0.06601038326273498 1:12614 2:12617 3:1 4:1 5:1 6:1 
0.06624287376791743 1:12820 2:12821 3:1 4:1 5:0.5 6:1 
0.06562500686036156 1:12794 2:12862 3:1 4:1 5:0.5 6:1 
0.06640577903502401 1:12953 2:12954 3:1 4:1 5:0.33333333 6:1 
0.06640586465687086 1:12993 2:12996 3:1 4:1 5:1 6:1 
0.06640586465687086 1:13162 2:13163 3:1 4:1 5:0.5 6:1 
0.06640590747037542 1:4810 2:13254 3:2 4:2 5:0.28571429 6:1 
0.06640590747037542 1:13445 2:13451 3:2 4:3 5:0.25 6:1 
0.06640590747412975 1:13532 2:13533 3:2 4:2 5:0.33333333 6:1 
0.06640595028481858 1:13540 2:13541 3:5 4:15 5:0.625 6:1 
0.06640595028481858 1:13416 2:13664 3:1 4:1 5:0.5 6:0.5 
0.06640595028481858 1:13229 2:13700 3:1 4:1 5:0.5 6:1 
0.06640595028481858 1:13726 2:13729 3:1 4:1 5:1 6:1 
0.0664059931011388 1:13868 2:13873 3:1 4:1 5:0.14285714 6:1 
0.0664059931011388 1:13904 2:13907 3:1 4:1 5:0.5 6:1 
0.06640607872908647 1:10040 2:13930 3:1 4:1 5:0.5 6:1 
0.06640607872908647 1:14000 2:14003 3:1 4:1 5:1 6:1 
0.06640607872908647 1:14072 2:14074 3:1 4:1 5:0.5 6:1 
0.06640607872908647 1:14091 2:14095 3:2 4:3 5:1 6:0.66666667 
0.06640607872908647 1:14131 2:14132 3:1 4:1 5:0.25 6:1 
0.06640607872908647 1:14335 2:14336 3:3 4:6 5:0.6 6:1 
0.06640607872908647 1:14334 2:14411 3:1 4:1 5:1 6:1 
0.06640607872908647 1:8796 2:14452 3:2 4:3 5:0.15384615 6:0.5 
0.06640607872908647 1:14167 2:14472 3:6 4:15 5:0.42857143 6:1 
0.06640607872908647 1:14488 2:14489 3:1 4:1 5:1 6:1 
0.06640607872908647 1:4521 2:14672 3:2 4:4 5:0.4 6:1 
0.06640607872908647 1:14676 2:14677 3:1 4:1 5:1 6:1 
0.06640616436266594 1:12765 2:14748 3:1 4:1 5:0.5 6:1 
0.06640616436266594 1:6577 2:14780 3:1 4:1 5:0.076923077 6:1 
0.06565463638146629 1:14937 2:14938 3:1 4:1 5:1 6:0.16666667 
0.06640616436266594 1:14985 2:14986 3:1 4:1 5:1 6:1 
0.06640616436266594 1:15121 2:15122 3:1 4:1 5:0.33333333 6:1 
0.06640616436266594 1:15142 2:15143 3:1 4:1 5:0.5 6:1 
0.06640616436266594 1:15386 2:15387 3:1 4:1 5:0.25 6:0.16666667 
0.06640616436266594 1:15342 2:15372 3:2 4:2 5:1 6:1 
0.04784412937517697 1:15540 2:15549 3:1 4:1 5:0.5 6:1 
0.06640616436266594 1:15590 2:15722 3:1 4:1 5:0.2 6:1 
0.04842757162483355 1:15541 2:15549 3:1 4:1 5:1 6:1 
0.06640616436266594 1:15845 2:15851 3:1 4:1 5:1 6:1 
0.06640616436266594 1:5351 2:5353 3:3 4:4 5:0.75 6:1 
0.06640616436266594 1:16105 2:16106 3:1 4:1 5:0.5 6:0.5 
0.06640616436266594 1:16178 2:16180 3:1 4:1 5:1 6:1 
0.06640616436266594 1:16214 2:16226 3:1 4:1 5:1 6:1 
0.06640616436266594 1:15996 2:16076 3:1 4:1 5:1 6:1 
0.06640616436266594 1:16272 2:16274 3:1 4:1 5:0.33333333 6:1 
0.06640616436266594 1:16069 2:16078 3:1 4:1 5:1 6:1 
0.06542691193193724 1:16356 2:16363 3:1 4:1 5:1 6:1 
0.06542692949926275 1:16360 2:16364 3:1 4:1 5:1 6:1 
0.06640616436548191 1:6589 2:16404 3:1 4:1 5:0.2 6:1 
0.06640616436548191 1:15829 2:16526 3:2 4:2 5:0.5 6:1 
0.06640616436548191 1:15829 2:15934 3:2 4:2 5:0.5 6:1 
0.06640616436548191 1:16680 2:16681 3:2 4:3 5:1 6:1 
0.06565510474278646 1:12886 2:13353 3:2 4:5 5:0.28571429 6:1 
0.06565463873784592 1:12886 2:13351 3:1 4:1 5:0.14285714 6:0.5 
0.06640616436548191 1:16815 2:16816 3:2 4:4 5:0.66666667 6:1 
0.06640616436548191 1:16984 2:16986 3:1 4:1 5:1 6:1 
0.06640616436548191 1:17193 2:17194 3:1 4:1 5:1 6:1 
0.06640616436548191 1:17225 2:17226 3:1 4:1 5:1 6:0.33333333 
0.06640624168058473 1:2547 2:2548 3:2 4:2 5:0.33333333 6:1 
0.06640624197280139 1:3538 2:17530 3:1 4:1 5:0.11111111 6:1 
0.06310699672468016 1:17601 2:17604 3:1 4:1 5:1 6:1 
0.06373153209441822 1:17602 2:17605 3:2 4:2 5:1 6:1 
0.06640624343228968 1:18069 2:18071 3:1 4:1 5:1 6:1 
0.06640624343228968 1:17952 2:18100 3:5 4:11 5:1 6:1 
0.06640624362288981 1:18129 2:18130 3:3 4:5 5:1 6:1 
0.06640624392871031 1:18282 2:18286 3:2 4:4 5:0.66666667 6:0.5 
0.06640624392871031 1:18473 2:18475 3:1 4:1 5:1 6:1 
0.06640624416203457 1:18530 2:18531 3:1 4:1 5:1 6:1 
0.06640624416203457 1:18555 2:18556 3:1 4:1 5:1 6:1 
0.06640624416203567 1:6533 2:6534 3:4 4:10 5:0.44444444 6:1 
0.06640624489177974 1:18582 2:18583 3:1 4:1 5:0.16666667 6:1 
0.06640624489177974 1:3995 2:18678 3:3 4:6 5:0.23076923 6:0.75 
0.06640624489177974 1:18698 2:18700 3:1 4:1 5:0.5 6:1 
0.06640624489177974 1:18732 2:18733 3:2 4:3 5:1 6:1 
0.0664062449168871 1:18896 2:18897 3:1 4:1 5:1 6:1 
0.0664062449168871 1:6001 2:19333 3:1 4:1 5:0.5 6:1 
0.0664062449168871 1:19480 2:19482 3:1 4:1 5:0.33333333 6:0.33333333 
0.0664062449168871 1:12877 2:19725 3:1 4:1 5:0.33333333 6:1 
0.06640624562152544 1:20043 2:20045 3:2 4:3 5:0.33333333 6:0.66666667 
0.06640624562152544 1:20106 2:20109 3:5 4:12 5:1 6:0.625 
0.06640624708101552 1:20531 2:20532 3:1 4:1 5:1 6:1 
0.06640624708101552 1:20475 2:20738 3:1 4:1 5:1 6:0.5 
0.06640624708101552 1:20831 2:20832 3:2 4:4 5:1 6:1 
0.06640624708101552 1:193 2:196 3:2 4:2 5:0.66666667 6:0.66666667 
0.06640624708101552 1:13437 2:13439 3:3 4:3 5:0.75 6:1 
0.06640624708101552 1:20972 2:20980 3:1 4:1 5:1 6:1 
0.06640624708101552 1:20996 2:21001 3:1 4:1 5:1 6:0.33333333 
0.06640624708101552 1:13872 2:21197 3:1 4:1 5:0.25 6:1 
0.06640624708101552 1:21263 2:21275 3:1 4:1 5:0.5 6:1 
0.06640624708101552 1:21288 2:21289 3:1 4:1 5:0.5 6:1 
0.06640624708101552 1:21322 2:21324 3:1 4:1 5:1 6:1 
0.06640624708101552 1:21450 2:21451 3:4 4:7 5:1 6:1 
0.06640624828490889 1:21819 2:21820 3:1 4:1 5:1 6:1 
0.06640624828490889 1:22177 2:22192 3:7 4:15 5:0.58333333 6:0.875 
0.06640624828490889 1:22366 2:22372 3:1 4:1 5:1 6:1 
0.06640624828490889 1:22546 2:22548 3:1 4:1 5:1 6:1 
0.06640624828490889 1:22797 2:22799 3:1 4:1 5:1 6:1 
0.06640624828490889 1:22856 2:22857 3:1 4:1 5:1 6:1 
0.04510655360250711 1:23052 2:23061 3:2 4:3 5:1 6:1 
0.04556208677517846 1:23053 2:23061 3:2 4:3 5:1 6:1 
0.06640624828490889 1:2909 2:23090 3:1 4:1 5:0.16666667 6:1 
0.06640624828490889 1:23096 2:23098 3:1 4:1 5:1 6:1 
0.06640624854050721 1:23354 2:23355 3:1 4:1 5:1 6:1 
0.06640624854050721 1:23400 2:23402 3:1 4:1 5:1 6:1 
0.06640624854050721 1:23413 2:23420 3:1 4:1 5:0.5 6:1 
0.06640624854050721 1:23506 2:23513 3:1 4:1 5:0.14285714 6:1 
0.06640624854050721 1:23447 2:23449 3:3 4:5 5:0.75 6:1 
0.05995528982982373 1:23696 2:23697 3:2 4:2 5:0.2 6:1 
0.05955763036280404 1:23695 2:23696 3:2 4:2 5:1 6:0.5 
0.06601038249208366 1:23757 2:23758 3:1 4:1 5:0.11111111 6:1 
0.06640624854050721 1:16106 2:23755 3:1 4:1 5:0.076923077 6:0.33333333 
0.06640624854050721 1:11545 2:23864 3:2 4:3 5:0.28571429 6:1 
0.06640624854050721 1:23877 2:23879 3:1 4:1 5:1 6:1 
0.06640624854050721 1:24045 2:24046 3:2 4:3 5:0.66666667 6:1 
0.06640624854050721 1:24039 2:24040 3:1 4:1 5:1 6:0.5 
0.06640624854050721 1:24452 2:24453 3:1 4:1 5:1 6:1 
0.06640624854050721 1:24314 2:24316 3:2 4:3 5:1 6:0.66666667 
0.06640624854050721 1:24595 2:24596 3:1 4:1 5:1 6:1 
0.06640624854050721 1:24562 2:24564 3:3 4:5 5:0.75 6:1 
0.06640624854050721 1:8617 2:13951 3:3 4:4 5:0.33333333 6:1 
0.06640624854050721 1:24950 2:24951 3:4 4:6 5:0.5 6:1 
0.06640624854050803 1:6872 2:25008 3:1 4:1 5:0.2 6:1 
0.06640624854050803 1:25011 2:25013 3:2 4:3 5:1 6:1 
0.06640624854050803 1:25049 2:25052 3:1 4:1 5:0.5 6:1 
0.06640624854050803 1:25089 2:25102 3:1 4:1 5:1 6:1 
0.06640624854050803 1:25139 2:25140 3:1 4:1 5:1 6:0.25 
0.06640624854050803 1:23075 2:25163 3:1 4:1 5:0.33333333 6:1 
0.06640624854050803 1:5515 2:23075 3:1 4:1 5:0.066666667 6:0.5 
0.06640624854050803 1:25320 2:25323 3:1 4:1 5:1 6:0.5 
0.06640624999983624 1:25874 2:25882 3:5 4:6 5:0.5 6:1 
0.06640624999986602 1:25917 2:25919 3:2 4:5 5:0.66666667 6:1 
0.06640624999986602 1:25957 2:25959 3:1 4:1 5:1 6:1 
0.0664062499998809 1:26254 2:26255 3:1 4:1 5:1 6:1 
0.0664062499998809 1:26361 2:26362 3:1 4:1 5:1 6:1 
0.0664062499998809 1:26692 2:26694 3:1 4:1 5:0.33333333 6:1 
0.06640624999989579 1:4065 2:21656 3:5 4:11 5:1 6:1 
0.06640624999989579 1:8473 2:26887 3:1 4:1 5:0.33333333 6:1 
0.06640624999989579 1:24313 2:26900 3:1 4:1 5:0.33333333 6:1 
0.06565607606651498 1:23749 2:23751 3:2 4:2 5:1 6:1 
0.06565607609544094 1:23753 2:23754 3:2 4:2 5:1 6:1 
0.06640624999989579 1:27041 2:27042 3:1 4:1 5:1 6:1 
0.06640624999991068 1:3858 2:27109 3:1 4:1 5:0.16666667 6:1 
0.06640624999991068 1:2263 2:27111 3:2 4:3 5:0.66666667 6:1 
0.06640624999994045 1:27298 2:27300 3:1 4:1 5:0.2 6:1 
0.06640624999994045 1:27406 2:27407 3:1 4:1 5:1 6:1 
0.06640624999994045 1:26637 2:27487 3:1 4:1 5:0.25 6:1 
0.06640624999994045 1:27609 2:27610 3:1 4:1 5:1 6:1 
0.06640624999994045 1:27671 2:27672 3:1 4:1 5:1 6:1 
0.06640624999994045 1:5515 2:27968 3:1 4:1 5:0.066666667 6:0.5 
0.06640624999994045 1:21606 2:28000 3:1 4:1 5:0.25 6:1 
0.06640624999994045 1:28385 2:28387 3:1 4:1 5:1 6:1 
0.06640624999994045 1:487 2:550 3:2 4:2 5:1 6:1 
0.06640624999994045 1:28568 2:28587 3:5 4:11 5:0.45454545 6:1 
0.06640624999994045 1:485 2:524 3:2 4:2 5:1 6:1 
0.06640624999994045 1:11799 2:17040 3:2 4:4 5:0.5 6:0.22222222 
0.06640624999997022 1:28966 2:28969 3:1 4:1 5:1 6:1 
0.06640624999997022 1:8425 2:8426 3:6 4:10 5:1 6:1 
0.06640624999997022 1:29299 2:29301 3:1 4:1 5:1 6:1 
0.06640624999997022 1:29145 2:29153 3:1 4:1 5:1 6:1 
0.06640624999997022 1:29461 2:29462 3:2 4:3 5:1 6:1 
0.06640624999997022 1:29481 2:29482 3:1 4:1 5:0.25 6:1 
0.06640624999997022 1:29489 2:29490 3:1 4:1 5:0.5 6:1 
0.06640624999997022 1:29652 2:29666 3:2 4:3 5:0.66666667 6:0.5 
0.06640624999997022 1:29904 2:29905 3:1 4:1 5:0.25 6:1 
0.06640624999997022 1:29950 2:29951 3:1 4:1 5:1 6:1 
0.06640624999997022 1:30019 2:30021 3:1 4:1 5:1 6:1 
0.06640624999997022 1:30256 2:30258 3:1 4:1 5:1 6:1 
0.06640624999997022 1:30286 2:30287 3:1 4:1 5:0.5 6:1 
0.06640624999997022 1:30366 2:30369 3:1 4:1 5:1 6:1 
0.06640624999997022 1:540 2:4578 3:1 4:1 5:0.33333333 6:0.33333333 
0.06640624999997022 1:2091 2:30574 3:1 4:1 5:0.16666667 6:0.33333333 
0.06640624999997022 1:30763 2:30764 3:1 4:1 5:1 6:1 
0.06640624999997022 1:25114 2:30878 3:1 4:1 5:0.33333333 6:1 
0.06640624999997022 1:10486 2:30887 3:1 4:1 5:1 6:1 
0.06640624999997022 1:19045 2:19046 3:2 4:2 5:1 6:1 
0.06640624999997022 1:31085 2:31097 3:1 4:1 5:1 6:0.5 
0.06640624999997022 1:31041 2:31173 3:1 4:1 5:0.5 6:1 
0.06640624999997022 1:31274 2:31275 3:1 4:1 5:1 6:1 
0.06640624999997022 1:31060 2:31297 3:1 4:1 5:1 6:1 
0.06640625 1:31318 2:31322 3:1 4:1 5:1 6:1 
0.06640625 1:31585 2:31586 3:1 4:1 5:1 6:1 
0.06640625 1:31539 2:31608 3:2 4:2 5:0.28571429 6:1 
0.06640625 1:31653 2:31655 3:2 4:2 5:1 6:1 
0.06640625 1:31804 2:31813 3:1 4:1 5:1 6:1 
0.06640625 1:31848 2:31849 3:1 4:1 5:1 6:1 
0.06640625 1:32075 2:32076 3:1 4:1 5:1 6:0.5 
0.06640625 1:32125 2:32126 3:1 4:1 5:0.33333333 6:1 
0.06640625 1:32264 2:32265 3:1 4:1 5:1 6:1 
0.06640625 1:32495 2:32496 3:1 4:1 5:0.5 6:1 
0.06640625 1:32540 2:32542 3:1 4:1 5:1 6:1 
0.06640625 1:21695 2:32631 3:1 4:1 5:0.5 6:1 
0.06640625 1:32699 2:32700 3:1 4:1 5:1 6:1 
0.06640625 1:14463 2:14468 3:3 4:5 5:1 6:1 
0.06640625 1:7985 2:32820 3:1 4:1 5:1 6:1 
0.06640625 1:32937 2:32938 3:1 4:1 5:0.33333333 6:1 
0.06640625 1:33037 2:33046 3:1 4:1 5:1 6:1 
0.06640625 1:25700 2:33216 3:1 4:1 5:0.076923077 6:1 
0.06640625 1:33326 2:33331 3:8 4:19 5:0.88888889 6:0.88888889 
0.06640625 1:33625 2:33652 3:1 4:1 5:1 6:1 
0.06640625 1:33733 2:33734 3:1 4:1 5:1 6:1 
0.06640625 1:10873 2:14394 3:1 4:1 5:0.16666667 6:0.2 
0.06640625 1:33937 2:33940 3:1 4:1 5:1 6:1 
0.06640625 1:33999 2:34000 3:2 4:4 5:1 6:1 
0.06640625 1:34047 2:34049 3:1 4:1 5:1 6:1 
0.06640625 1:17835 2:34137 3:1 4:1 5:0.25 6:1 
0.06640625 1:34224 2:34226 3:1 4:1 5:1 6:1 
0.06640625 1:10862 2:10863 3:3 4:6 5:0.6 6:1 
0.06640625 1:6532 2:34506 3:2 4:4 5:0.28571429 6:1 
0.06640625 1:4299 2:34473 3:1 4:1 5:0.2 6:0.5 
0.06640625 1:34789 2:34790 3:1 4:1 5:1 6:0.5 
0.06640625 1:34883 2:34884 3:1 4:1 5:1 6:1 
0.06640625 1:34945 2:34955 3:1 4:1 5:1 6:1 
0.06640625 1:13792 2:34982 3:1 4:1 5:0.5 6:1 
0.06640625 1:35062 2:35064 3:1 4:1 5:1 6:1 
0.06640625 1:22540 2:35143 3:1 4:1 5:0.2 6:1 
0.06640625 1:15913 2:34818 3:6 4:15 5:0.31578947 6:1 
0.06640625 1:12731 2:35265 3:1 4:1 5:0.25 6:1 
0.06640625 1:35591 2:35592 3:1 4:1 5:0.2 6:1 
0.06640625 1:35621 2:35623 3:1 4:1 5:0.33333333 6:1 
0.06640625 1:35676 2:35677 3:1 4:1 5:1 6:1 
0.06640625 1:35748 2:35749 3:3 4:6 5:0.5 6:0.6 
0.06640625 1:35845 2:35846 3:1 4:1 5:0.2 6:1 
0.06640625 1:19570 2:36002 3:1 4:1 5:0.2 6:1 
0.06640625 1:36136 2:36137 3:1 4:1 5:0.16666667 6:0.5 
0.06640625 1:5071 2:36446 3:1 4:1 5:1 6:1 
0.06640625 1:36535 2:36536 3:2 4:3 5:0.5 6:1 
0.06640625 1:36558 2:36613 3:1 4:1 5:1 6:0.5 
0.06640625 1:17866 2:36854 3:1 4:1 5:0.25 6:1 
0.06640625 1:36865 2:36867 3:1 4:1 5:1 6:1 
0.06640625 1:37052 2:37053 3:1 4:1 5:0.5 6:1 
0.06640625 1:37140 2:37141 3:3 4:6 5:0.6 6:1 
0.06640625 1:37129 2:37133 3:1 4:1 5:1 6:1 
0.06640625 1:31253 2:37221 3:1 4:1 5:0.25 6:1 
0.06640625 1:37655 2:37658 3:2 4:3 5:0.66666667 6:1 
0.06640625 1:37667 2:37668 3:1 4:1 5:0.5 6:0.5 
0.06640625 1:134 2:37664 3:1 4:1 5:0.058823529 6:1 
0.06640625 1:21428 2:37787 3:1 4:1 5:0.5 6:1 
0.06640625 1:37806 2:37807 3:1 4:1 5:1 6:1 
0.06640625 1:37559 2:37560 3:3 4:5 5:0.5 6:1 
0.04510655360143252 1:38221 2:38224 3:3 4:8 5:0.75 6:0.5 
0.06640625 1:38417 2:38460 3:1 4:2 5:0.33333333 6:1 
0.06640625 1:6300 2:38883 3:2 4:5 5:0.4 6:0.5 
0.06640625 1:1940 2:38885 3:5 4:13 5:0.71428571 6:1 
0.06640625 1:9507 2:38431 3:1 4:2 5:0.2 6:1 
0.06640625 1:38454 2:38463 3:1 4:2 5:1 6:0.5 
0.06640625 1:39020 2:39022 3:1 4:2 5:1 6:1 
0.06640625 1:7470 2:16792 3:1 4:2 5:0.071428571 6:0.25 
0.06640625 1:13039 2:39063 3:1 4:2 5:1 6:1 
0.06640625 1:20556 2:30572 3:6 4:14 5:0.5 6:1 
0.06640625 1:10713 2:39131 3:1 4:2 5:0.055555556 6:1 
0.06640625 1:39077 2:39088 3:1 4:2 5:0.33333333 6:1 
0.06640625 1:38580 2:39266 3:1 4:2 5:0.14285714 6:1 
0.06640625 1:39448 2:39449 3:1 4:2 5:1 6:1 
0.06640625 1:38629 2:38630 3:1 4:2 5:1 6:1 
0.06640625 1:10911 2:39865 3:3 4:7 5:0.5 6:1 
0.06640625 1:39759 2:39793 3:1 4:2 5:1 6:1 
0.06640625 1:39889 2:39890 3:1 4:2 5:0.2 6:1 
0.06640625 1:39815 2:39914 3:1 4:2 5:1 6:0.5 
0.06640625 1:11233 2:40167 3:1 4:2 5:0.25 6:1 
0.06640625 1:4447 2:40384 3:2 4:5 5:1 6:1 
0.06640625 1:40462 2:40465 3:2 4:6 5:0.4 6:1 
0.06640625 1:40427 2:40515 3:1 4:2 5:0.33333333 6:0.33333333 
0.06640625 1:40549 2:40556 3:1 4:2 5:1 6:1 
0.06640625 1:40649 2:40665 3:1 4:2 5:0.33333333 6:1 
0.06640625 1:4502 2:40765 3:1 4:2 5:0.5 6:1 
0.06640625 1:38897 2:38928 3:1 4:2 5:1 6:0.33333333 
0.06640625 1:3387 2:40811 3:1 4:2 5:0.083333333 6:0.5 
0.06640625 1:40606 2:40831 3:2 4:6 5:0.66666667 6:1 
0.06640625 1:25498 2:38177 3:3 4:7 5:0.6 6:1 
0.06640625 1:41014 2:41017 3:1 4:2 5:1 6:1 
0.06640625 1:9729 2:41602 3:2 4:5 5:0.4 6:1 
0.06640625 1:3638 2:22947 3:1 4:2 5:0.33333333 6:0.2 
0.06640625 1:23683 2:41945 3:6 4:17 5:0.85714286 6:1 
0.06640625 1:42095 2:42097 3:1 4:2 5:0.5 6:1 
0.06640625 1:3683 2:42207 3:2 4:5 5:0.2 6:0.5 
0.06640625 1:2441 2:2444 3:2 4:3 5:0.28571429 6:1 
0.06640625 1:1993 2:41269 3:3 4:6 5:0.17647059 6:1 
0.06640625 1:1648 2:1993 3:1 4:2 5:0.33333333 6:0.16666667 
0.06640625 1:41849 2:41851 3:3 4:8 5:1 6:1 
0.06640625 1:20705 2:20707 3:2 4:3 5:1 6:1 
0.06640625 1:42450 2:42451 3:1 4:2 5:0.33333333 6:0.2 
0.06640625 1:6189 2:41527 3:1 4:2 5:0.058823529 6:0.2 
0.06640625 1:42879 2:42885 3:1 4:2 5:0.090909091 6:0.5 
0.06640625 1:18602 2:43007 3:5 4:16 5:0.25 6:1 
0.06640625 1:43040 2:43042 3:1 4:2 5:1 6:1 
0.06640625 1:43053 2:43055 3:1 4:2 5:1 6:1 
0.06640625 1:43101 2:43103 3:1 4:2 5:1 6:1 
0.06640625 1:4067 2:43113 3:1 4:2 5:0.33333333 6:0.5 
0.06640625 1:42945 2:43126 3:1 4:2 5:0.16666667 6:1 
0.06640625 1:12530 2:43276 3:1 4:2 5:0.16666667 6:1 
0.06640625 1:43321 2:43322 3:1 4:2 5:0.5 6:1 
0.06640625 1:7815 2:19468 3:1 4:2 5:0.33333333 6:0.25 
0.06640625 1:36064 2:43405 3:1 4:2 5:0.125 6:1 
0.06640625 1:43581 2:43582 3:2 4:4 5:1 6:1 
0.06640625 1:5227 2:39673 3:1 4:2 5:0.5 6:0.5 
0.06640625 1:28208 2:28256 3:5 4:12 5:0.71428571 6:1 
0.06640625 1:43803 2:43891 3:1 4:2 5:0.33333333 6:0.5 
0.06640625 1:38518 2:38715 3:3 4:6 5:0.27272727 6:1 
0.06640625 1:5695 2:44166 3:1 4:2 5:0.25 6:1 
0.06640625 1:557 2:42012 3:1 4:2 5:0.037037037 6:0.5 
0.06640625 1:41795 2:44392 3:1 4:2 5:0.5 6:1 
0.06640625 1:37230 2:44747 3:1 4:2 5:0.5 6:1 
0.06640625 1:8848 2:44736 3:1 4:2 5:0.5 6:1 
0.06640625 1:45049 2:45051 3:1 4:2 5:1 6:1 
0.06640625 1:11989 2:38385 3:1 4:2 5:0.2 6:0.5 
0.06640625 1:45361 2:45362 3:1 4:2 5:0.33333333 6:1 
0.06640625 1:3242 2:45502 3:1 4:2 5:0.076923077 6:1 
0.06640625 1:45485 2:45554 3:1 4:2 5:0.33333333 6:1 
0.06640625 1:20930 2:45634 3:1 4:2 5:0.14285714 6:1 
0.06640625 1:45649 2:45652 3:1 4:2 5:1 6:1 
0.06640625 1:45691 2:45692 3:2 4:4 5:0.28571429 6:0.66666667 
0.06640625 1:45952 2:45990 3:1 4:2 5:0.5 6:1 
0.06640625 1:46162 2:46163 3:1 4:2 5:1 6:0.5 
0.06640625 1:9665 2:46224 3:1 4:2 5:0.2 6:1 
0.06640625 1:984 2:997 3:8 4:13 5:0.57142857 6:1 
0.06640625 1:46349 2:46350 3:1 4:2 5:1 6:1 
0.06640625 1:46359 2:46361 3:1 4:2 5:1 6:0.5 
0.06640625 1:46396 2:46397 3:1 4:2 5:1 6:1 
0.06640625 1:46423 2:46424 3:2 4:4 5:1 6:0.5 
0.06640625 1:29080 2:29081 3:2 4:3 5:0.33333333 6:1 
0.06640625 1:1748 2:46646 3:3 4:7 5:0.17647059 6:1 
0.06640625 1:5329 2:46694 3:1 4:2 5:0.11111111 6:0.25 
0.06640625 1:5091 2:46753 3:1 4:2 5:0.5 6:0.33333333 
0.06640625 1:46841 2:46842 3:1 4:2 5:1 6:1 
0.06640625 1:46931 2:46932 3:1 4:2 5:1 6:1 
0.06640625 1:46990 2:46991 3:1 4:2 5:1 6:1 
0.06640625 1:46984 2:47001 3:1 4:2 5:1 6:1 
0.06640625 1:32238 2:32239 3:2 4:3 5:0.66666667 6:1 
0.06640625 1:15110 2:47081 3:1 4:2 5:0.2 6:1 
0.06640625 1:6116 2:47264 3:1 4:2 5:0.5 6:1 
0.06640625 1:47293 2:47295 3:1 4:2 5:0.5 6:1 
0.06640625 1:14914 2:47406 3:1 4:2 5:0.5 6:1 
0.06640625 1:47534 2:47535 3:2 4:4 5:1 6:0.66666667 
0.06640625 1:47841 2:47842 3:1 4:2 5:1 6:1 
0.06640625 1:36551 2:47919 3:1 4:2 5:0.25 6:1 
0.06640625 1:48099 2:48100 3:1 4:2 5:1 6:0.5 
0.06640625 1:48170 2:48173 3:1 4:2 5:1 6:0.33333333 
0.06640625 1:48238 2:48239 3:1 4:2 5:0.5 6:0.25 
0.06640625 1:48350 2:48352 3:2 4:4 5:0.66666667 6:1 
0.06640625 1:48402 2:48405 3:1 4:2 5:1 6:1 
0.06640625 1:13674 2:48437 3:1 4:2 5:0.066666667 6:1 
0.06640625 1:48453 2:48454 3:1 4:2 5:1 6:1 
0.06640625 1:48464 2:48466 3:1 4:2 5:1 6:0.5 
0.06640625 1:48524 2:48525 3:1 4:2 5:1 6:1 
0.06640625 1:48665 2:48666 3:1 4:2 5:1 6:1 
0.06640625 1:17041 2:48809 3:1 4:2 5:1 6:1 
0.06542691193193724 1:48832 2:48833 3:2 4:5 5:1 6:1 
0.06542692949926275 1:48828 2:48832 3:2 4:5 5:1 6:1 
0.06640625 1:6685 2:48846 3:1 4:2 5:0.5 6:1 
0.06640625 1:48857 2:48858 3:1 4:2 5:1 6:1 
0.06640625 1:14669 2:48974 3:2 4:4 5:0.25 6:1 
0.06640625 1:810 2:49096 3:1 4:2 5:0.5 6:0.5 
0.06640625 1:49119 2:49120 3:1 4:2 5:1 6:1 
0.06640625 1:49141 2:49142 3:1 4:2 5:1 6:1 
0.06640625 1:35130 2:49180 3:1 4:2 5:0.33333333 6:1 
0.06640625 1:1640 2:49355 3:1 4:2 5:0.25 6:1 
0.06640625 1:47160 2:49425 3:2 4:5 5:0.2 6:1 
0.06640625 1:31712 2:49450 3:1 4:2 5:0.25 6:1 
0.06640625 1:49473 2:49475 3:1 4:2 5:1 6:1 
0.06640625 1:49498 2:49499 3:1 4:2 5:1 6:1 
0.06640625 1:31667 2:49602 3:1 4:2 5:0.5 6:1 
0.06640625 1:49891 2:49892 3:1 4:2 5:1 6:1 
0.06640625 1:50066 2:50067 3:1 4:2 5:1 6:1 
0.06640625 1:50160 2:50161 3:1 4:2 5:1 6:1 
0.06640625 1:21404 2:32529 3:2 4:4 5:0.064516129 6:0.4 
0.06640625 1:50266 2:50267 3:1 4:2 5:1 6:1 
0.06640625 1:29985 2:29986 3:2 4:3 5:1 6:1 
0.06640625 1:50514 2:50515 3:1 4:2 5:1 6:1 
0.06640625 1:4944 2:50529 3:1 4:2 5:0.25 6:1 
0.06640625 1:28278 2:28316 3:1 4:2 5:0.1 6:1 
0.06640625 1:23983 2:30474 3:1 4:2 5:0.16666667 6:0.33333333 
0.06640625 1:39251 2:50768 3:2 4:4 5:0.4 6:1 
0.06640625 1:50922 2:50923 3:1 4:2 5:0.33333333 6:1 
0.06640625 1:50436 2:51092 3:1 4:2 5:1 6:0.25 
0.06640625 1:51144 2:51145 3:4 4:10 5:0.8 6:1 
0.06640625 1:51483 2:51485 3:1 4:2 5:1 6:0.5 
0.06640625 1:51323 2:51494 3:1 4:2 5:0.25 6:1 
0.06640625 1:6254 2:6258 3:6 4:15 5:0.66666667 6:0.85714286 
0.06640625 1:51696 2:51699 3:1 4:2 5:1 6:1 
0.06640625 1:51480 2:51752 3:1 4:2 5:0.33333333 6:1 
0.06640625 1:46360 2:51830 3:1 4:2 5:0.5 6:1 
0.06640625 1:52208 2:52209 3:1 4:2 5:1 6:1 
0.06640625 1:24771 2:52234 3:1 4:2 5:0.5 6:1 
0.06640625 1:52529 2:52530 3:1 4:2 5:1 6:0.33333333 
0.06640625 1:52629 2:52630 3:1 4:2 5:1 6:1 
0.06640625 1:27111 2:52766 3:1 4:2 5:0.5 6:1 
0.06640625 1:13720 2:30406 3:3 4:7 5:0.375 6:1 
0.06640625 1:19758 2:19776 3:9 4:19 5:0.81818182 6:1 
0.06640625 1:53061 2:53064 3:1 4:2 5:1 6:1 
0.06640625 1:16643 2:26487 3:1 4:2 5:0.066666667 6:0.33333333 
0.06640625 1:6288 2:53294 3:1 4:2 5:0.071428571 6:1 
0.06640625 1:5444 2:53339 3:1 4:2 5:0.5 6:1 
0.06640625 1:16271 2:53450 3:1 4:2 5:0.33333333 6:1 
0.06640625 1:16793 2:53485 3:1 4:2 5:0.33333333 6:1 
0.06640625 1:53562 2:53564 3:1 4:2 5:1 6:1 
0.06640625 1:53570 2:53571 3:1 4:2 5:1 6:1 
0.06640625 1:53905 2:53906 3:1 4:2 5:1 6:1 
0.06640625 1:53964 2:53965 3:3 4:9 5:1 6:0.6 
0.06640625 1:10001 2:53976 3:1 4:2 5:0.16666667 6:1 
0.06640625 1:30273 2:54019 3:1 4:2 5:1 6:1 
0.06640625 1:46792 2:54186 3:1 4:2 5:0.5 6:0.25 
0.06640625 1:1631 2:6687 3:3 4:5 5:0.2 6:1 
0.06640625 1:53531 2:54255 3:1 4:2 5:0.2 6:0.5 
0.06640625 1:32564 2:54601 3:1 4:2 5:0.25 6:1 
0.06640625 1:6704 2:54260 3:1 4:2 5:0.076923077 6:0.33333333 
0.06640625 1:5711 2:54621 3:1 4:2 5:0.125 6:0.5 
0.06640625 1:37492 2:54657 3:1 4:2 5:0.5 6:1 
0.06640625 1:54692 2:54694 3:1 4:2 5:1 6:0.33333333 
0.06640625 1:3656 2:19415 3:2 4:6 5:0.11764706 6:1 
0.06640625 1:14924 2:54719 3:1 4:2 5:0.1 6:1 
0.06640625 1:54828 2:54830 3:1 4:2 5:1 6:1 
0.06640625 1:54882 2:54883 3:1 4:2 5:0.5 6:1 
0.06640625 1:8843 2:54365 3:3 4:6 5:0.6 6:1 
0.06640625 1:10911 2:51350 3:1 4:2 5:0.16666667 6:0.25 
0.06640625 1:39865 2:55083 3:1 4:2 5:0.25 6:0.33333333 
0.06640625 1:55286 2:55287 3:3 4:8 5:1 6:1 
0.06640625 1:6113 2:55462 3:3 4:8 5:0.42857143 6:1 
0.06640625 1:5282 2:55550 3:1 4:2 5:0.2 6:1 
0.06640625 1:15201 2:15203 3:9 4:24 5:0.81818182 6:0.81818182 
0.06640625 1:55608 2:55609 3:1 4:2 5:0.5 6:1 
0.06640625 1:53785 2:55707 3:1 4:2 5:0.5 6:1 
0.06640625 1:7224 2:55703 3:1 4:2 5:0.33333333 6:0.5 
0.06640625 1:50422 2:55705 3:1 4:2 5:0.16666667 6:1 
0.06640625 1:55242 2:55246 3:1 4:2 5:1 6:1 
0.06640625 1:56042 2:56048 3:1 4:2 5:1 6:1 
0.06640625 1:14388 2:46581 3:1 4:2 5:0.33333333 6:0.33333333 
0.06640625 1:56432 2:56434 3:1 4:2 5:1 6:1 
0.06640625 1:57015 2:57017 3:1 4:2 5:0.33333333 6:1 
0.06640625 1:57049 2:57051 3:1 4:2 5:1 6:1 
0.06640625 1:45062 2:46424 3:2 4:4 5:0.2 6:0.5 
0.06640625 1:4944 2:57133 3:1 4:2 5:0.25 6:1 
0.06640625 1:57200 2:57201 3:1 4:2 5:1 6:1 
0.06640625 1:23327 2:57016 3:2 4:4 5:0.5 6:1 
0.06640625 1:39805 2:57237 3:2 4:4 5:0.66666667 6:1 
0.06640625 1:15592 2:57451 3:1 4:2 5:0.25 6:1 
0.06640625 1:11129 2:11199 3:2 4:3 5:0.66666667 6:1 
0.06640625 1:53726 2:53740 3:3 4:7 5:1 6:1 
0.06640625 1:57673 2:57674 3:4 4:10 5:1 6:1 
0.06640625 1:57747 2:57749 3:1 4:2 5:1 6:1 
0.06640625 1:57773 2:57774 3:1 4:2 5:1 6:1 
0.06640625 1:8157 2:8160 3:5 4:9 5:1 6:1 
0.06640625 1:14844 2:58346 3:1 4:2 5:0.2 6:1 
0.06640625 1:58634 2:58636 3:1 4:2 5:1 6:1 
0.06640625 1:4615 2:23593 3:2 4:6 5:0.074074074 6:0.66666667 
0.06640625 1:58844 2:58860 3:1 4:2 5:1 6:1 
0.06640625 1:58873 2:58874 3:1 4:2 5:1 6:1 
0.06640625 1:59084 2:59085 3:1 4:2 5:0.5 6:0.5 
0.06640625 1:262 2:59101 3:1 4:2 5:0.052631579 6:1 
0.06640625 1:59143 2:59145 3:1 4:2 5:1 6:1 
0.06640625 1:33973 2:59169 3:1 4:2 5:0.33333333 6:1 
0.06640625 1:22165 2:59195 3:1 4:2 5:0.1 6:1 
0.06640625 1:59328 2:59329 3:1 4:2 5:1 6:0.5 
0.06640625 1:59420 2:59421 3:1 4:2 5:1 6:1 
0.06640625 1:3094 2:59259 3:2 4:4 5:0.4 6:1 
0.06640625 1:59593 2:59602 3:2 4:4 5:1 6:1 
0.06640625 1:19739 2:59666 3:1 4:2 5:0.25 6:1 
0.06640625 1:59748 2:59758 3:1 4:2 5:0.14285714 6:1 
0.06640625 1:11064 2:59782 3:1 4:2 5:0.16666667 6:1 
0.06640625 1:31104 2:31126 3:5 4:14 5:0.83333333 6:0.41666667 
0.06640625 1:59886 2:59891 3:1 4:2 5:0.25 6:1 
0.06640625 1:8051 2:8052 3:7 4:19 5:0.63636364 6:0.77777778 
0.06640625 1:7927 2:7928 3:4 4:8 5:0.44444444 6:0.66666667 
0.06640625 1:60085 2:60088 3:1 4:2 5:1 6:1 
0.06640625 1:50819 2:60073 3:1 4:2 5:0.25 6:1 
0.06640625 1:54781 2:60122 3:2 4:6 5:0.25 6:1 
0.06565463575600261 1:60155 2:60156 3:1 4:2 5:1 6:1 
0.06565463705029992 1:60157 2:60160 3:1 4:2 5:1 6:0.5 
0.06640625 1:60176 2:60177 3:1 4:2 5:1 6:1 
0.06640625 1:13146 2:31575 3:1 4:2 5:0.066666667 6:0.16666667 
0.06640625 1:4394 2:47475 3:3 4:6 5:0.21428571 6:1 
0.06640625 1:38165 2:60435 3:1 4:2 5:0.5 6:1 
0.04510655360143252 1:38224 2:39695 3:3 4:7 5:0.75 6:1 
0.06640625 1:1043 2:60503 3:1 4:2 5:0.052631579 6:1 
0.06640625 1:41323 2:60600 3:1 4:2 5:0.33333333 6:1 
0.06640625 1:19219 2:60809 3:1 4:2 5:0.14285714 6:1 
0.06640625 1:12360 2:56614 3:4 4:11 5:0.30769231 6:1 
0.06640625 1:39410 2:61225 3:1 4:2 5:0.5 6:1 
0.06640625 1:9511 2:61275 3:1 4:2 5:0.16666667 6:1 
0.06640625 1:61263 2:61268 3:1 4:2 5:1 6:1 
0.06640625 1:10434 2:61382 3:1 4:2 5:0.2 6:0.33333333 
0.06640625 1:16180 2:61505 3:1 4:2 5:0.33333333 6:1 
0.06640625 1:4601 2:61403 3:2 4:4 5:0.25 6:1 
0.06640625 1:61575 2:61582 3:1 4:2 5:1 6:1 
0.06640625 1:12127 2:41367 3:3 4:7 5:0.375 6:0.75 
0.06640625 1:31800 2:61690 3:2 4:4 5:0.66666667 6:0.66666667 
0.06640625 1:61341 2:61344 3:2 4:4 5:1 6:1 
0.06640625 1:9777 2:9783 3:10 4:19 5:0.90909091 6:1 
0.06640625 1:2568 2:49137 3:7 4:21 5:0.18918919 6:1 
0.06640625 1:55245 2:61765 3:1 4:2 5:0.5 6:0.5 
0.06640625 1:42124 2:61774 3:1 4:2 5:0.33333333 6:1 
0.06582782411924995 1:61769 2:61772 3:1 4:2 5:1 6:1 
0.06581248926241337 1:61772 2:61774 3:1 4:2 5:1 6:1 
0.06640625 1:14518 2:61864 3:1 4:2 5:0.14285714 6:1 
0.06640625 1:61868 2:61893 3:1 4:2 5:1 6:1 
0.06640625 1:14112 2:61910 3:3 4:8 5:0.75 6:1 
0.06640625 1:4445 2:11979 3:2 4:3 5:0.11764706 6:0.66666667 
0.06640625 1:18654 2:18690 3:4 4:8 5:0.66666667 6:0.8 
0.06640625 1:62041 2:62042 3:1 4:2 5:0.33333333 6:1 
0.06640625 1:27205 2:62124 3:1 4:2 5:0.33333333 6:1 
0.06640625 1:62133 2:62138 3:2 4:4 5:1 6:1 
0.06640625 1:55784 2:55785 3:3 4:6 5:0.42857143 6:1 
0.06640625 1:62605 2:62625 3:1 4:2 5:1 6:1 
0.06640625 1:62430 2:62442 3:1 4:2 5:1 6:0.33333333 
0.06640625 1:62640 2:62643 3:1 4:2 5:1 6:1 
0.06640625 1:62863 2:62864 3:1 4:2 5:1 6:1 
0.06640625 1:27529 2:62902 3:1 4:2 5:0.5 6:1 
0.06640625 1:63112 2:63115 3:7 4:24 5:1 6:0.53846154 
0.06640625 1:63373 2:63375 3:1 4:2 5:1 6:1 
0.06640625 1:63097 2:63104 3:3 4:6 5:1 6:0.6 
0.06640625 1:63549 2:63552 3:1 4:2 5:1 6:1 
0.06640625 1:63802 2:63803 3:1 4:2 5:1 6:0.5 
0.06640625 1:63823 2:63824 3:1 4:2 5:1 6:1 
0.06640625 1:64056 2:64057 3:1 4:2 5:1 6:1 
0.06640625 1:64035 2:64085 3:1 4:2 5:1 6:1 
0.06640625 1:26430 2:64106 3:1 4:2 5:0.5 6:1 
0.06640625 1:64129 2:64130 3:1 4:2 5:1 6:1 
0.06640625 1:63115 2:64178 3:1 4:2 5:0.083333333 6:1 
0.06640625 1:64303 2:64305 3:1 4:2 5:1 6:1 
0.06640625 1:13243 2:13245 3:2 4:3 5:0.25 6:0.66666667 
0.06640625 1:19697 2:64588 3:1 4:2 5:0.2 6:1 
0.06640625 1:64747 2:64748 3:1 4:2 5:1 6:1 
0.06640625 1:61472 2:61473 3:1 4:2 5:1 6:1 
0.06640625 1:22693 2:22695 3:2 4:3 5:0.66666667 6:1 
0.06640625 1:6527 2:65096 3:1 4:2 5:0.16666667 6:1 
0.06640625 1:65212 2:65213 3:1 4:2 5:1 6:1 
0.06640625 1:32975 2:65262 3:1 4:2 5:0.5 6:1 
0.06640625 1:31208 2:32629 3:1 4:2 5:0.33333333 6:0.5 
0.05532970583195443 1:39514 2:65345 3:1 4:2 5:0.33333333 6:1 
0.05500681102122464 1:39513 2:65344 3:1 4:2 5:0.2 6:1 
0.06640625 1:28300 2:65892 3:1 4:2 5:0.25 6:1 
0.06640625 1:65844 2:65845 3:3 4:6 5:1 6:1 
0.06640625 1:24983 2:24984 3:2 4:3 5:0.66666667 6:1 
0.06640625 1:32663 2:32958 3:1 4:2 5:0.2 6:0.5 
0.06640625 1:66064 2:66068 3:1 4:2 5:0.33333333 6:1 
0.06640625 1:7956 2:13642 3:7 4:15 5:0.63636364 6:1 
0.06640625 1:7626 2:66263 3:1 4:2 5:0.25 6:1 
0.06640625 1:66352 2:66353 3:1 4:2 5:1 6:1 
0.06640625 1:66535 2:66540 3:1 4:2 5:1 6:1 
0.06640625 1:66651 2:66655 3:1 4:2 5:1 6:1 
0.06640625 1:66778 2:66779 3:1 4:2 5:1 6:1 
0.06640625 1:61444 2:61446 3:2 4:4 5:1 6:1 
0.06640625 1:50416 2:66994 3:1 4:2 5:0.25 6:1 
0.06640625 1:67016 2:67018 3:1 4:2 5:0.5 6:1 
0.06640625 1:62274 2:67231 3:1 4:2 5:0.2 6:1 
0.06640625 1:67263 2:67264 3:1 4:2 5:0.5 6:1 
0.06640625 1:7764 2:67428 3:1 4:2 5:0.071428571 6:1 
0.06640625 1:8310 2:8312 3:4 4:8 5:1 6:1 
0.06640625 1:67094 2:67558 3:1 4:2 5:0.33333333 6:1 
0.06640625 1:67400 2:67597 3:1 4:2 5:1 6:1 
0.06640625 1:17864 2:21979 3:4 4:11 5:0.36363636 6:0.26666667 
0.06640625 1:67865 2:67866 3:1 4:2 5:1 6:1 
0.06640625 1:12931 2:67920 3:3 4:9 5:0.6 6:1 
0.06640625 1:7359 2:68385 3:1 4:2 5:0.5 6:1 
0.06640625 1:7358 2:68412 3:1 4:2 5:0.2 6:1 
0.06640625 1:36912 2:68488 3:4 4:14 5:0.8 6:1 
0.06640625 1:12245 2:68573 3:1 4:2 5:0.16666667 6:1 
0.06640625 1:22834 2:22836 3:2 4:3 5:0.66666667 6:1 
0.06640625 1:68776 2:68777 3:1 4:2 5:1 6:1 
0.06640625 1:33767 2:68909 3:1 4:2 5:0.2 6:1 
0.06640625 1:33900 2:68984 3:1 4:2 5:0.090909091 6:1 
0.06640625 1:69038 2:69039 3:1 4:2 5:1 6:1 
0.06640625 1:29462 2:69102 3:1 4:2 5:0.14285714 6:1 
0.06640625 1:14200 2:60451 3:2 4:4 5:0.2 6:1 
0.06640625 1:19525 2:47163 3:4 4:9 5:0.44444444 6:1 
0.06640625 1:11001 2:66825 3:1 4:2 5:0.25 6:0.5 
0.06570899417867523 1:69232 2:69234 3:1 4:2 5:1 6:1 
0.06619543218115104 1:69230 2:69232 3:1 4:2 5:1 6:1 
0.06640625 1:67371 2:69109 3:1 4:2 5:0.33333333 6:0.5 
0.06640625 1:7186 2:69365 3:2 4:5 5:0.4 6:1 
0.06640625 1:20934 2:69427 3:1 4:2 5:0.5 6:1 
0.06640625 1:12798 2:69168 3:1 4:2 5:0.125 6:0.33333333 
0.06640625 1:30790 2:39023 3:2 4:5 5:0.28571429 6:0.5 
0.06640625 1:69638 2:69639 3:1 4:2 5:1 6:1 
0.06640625 1:6602 2:29060 3:1 4:2 5:0.5 6:0.5 
0.06345335302904258 1:69652 2:69653 3:1 4:2 5:1 6:1 
0.06395890212155508 1:69650 2:69653 3:1 4:2 5:0.5 6:1 
0.06640625 1:69711 2:69715 3:1 4:2 5:1 6:1 
0.06640625 1:52909 2:65936 3:2 4:4 5:0.25 6:1 
0.06640625 1:69773 2:69774 3:1 4:2 5:1 6:1 
0.06640625 1:69792 2:69793 3:1 4:2 5:1 6:1 
0.06640625 1:36370 2:37203 3:3 4:5 5:0.6 6:1 
0.06640625 1:5224 2:5225 3:5 4:13 5:0.83333333 6:1 
0.06640625 1:70079 2:70080 3:1 4:2 5:1 6:1 
0.06640625 1:70211 2:70214 3:1 4:2 5:1 6:1 
0.06640625 1:70293 2:70294 3:1 4:2 5:1 6:0.33333333 
0.06640625 1:31752 2:70342 3:1 4:2 5:0.25 6:0.33333333 
0.06640625 1:33016 2:70374 3:2 4:5 5:0.28571429 6:1 
0.06640625 1:70491 2:70492 3:1 4:2 5:1 6:1 
0.06640625 1:53619 2:70597 3:1 4:2 5:0.5 6:1 
0.06640625 1:21477 2:70644 3:2 4:6 5:0.66666667 6:1 
0.06640625 1:70647 2:70648 3:1 4:2 5:1 6:1 
0.06640625 1:70708 2:70710 3:1 4:2 5:1 6:0.25 
0.06640625 1:10796 2:70714 3:2 4:4 5:0.4 6:1 
0.06640625 1:30809 2:70859 3:1 4:2 5:0.5 6:1 
0.06640625 1:14740 2:37369 3:4 4:11 5:1 6:1 
0.06640625 1:4850 2:54022 3:4 4:12 5:0.44444444 6:0.44444444 
0.06640625 1:16259 2:71050 3:2 4:6 5:0.15384615 6:1 
0.06640625 1:63705 2:63706 3:5 4:11 5:0.625 6:1 
0.06640625 1:30500 2:30510 3:7 4:17 5:0.875 6:1 
0.06640625 1:19088 2:31355 3:4 4:10 5:0.4 6:0.66666667 
0.06640625 1:71522 2:71523 3:1 4:2 5:1 6:1 
0.06640625 1:18675 2:71571 3:2 4:5 5:0.28571429 6:1 
0.06640625 1:71588 2:71589 3:1 4:2 5:0.14285714 6:0.14285714 
0.06640625 1:12703 2:71759 3:1 4:2 5:0.11111111 6:0.5 
0.06640625 1:71794 2:71801 3:1 4:2 5:1 6:1 
0.06640625 1:71817 2:71818 3:1 4:2 5:0.5 6:1 
0.06640625 1:71837 2:71838 3:2 4:5 5:1 6:1 
0.06542691507430361 1:25612 2:71848 3:1 4:2 5:0.25 6:0.25 
0.06640625 1:11823 2:71929 3:1 4:2 5:0.11111111 6:1 
0.06542693169227773 1:25608 2:71849 3:1 4:2 5:0.5 6:0.33333333 
0.06640625 1:69876 2:71966 3:1 4:2 5:1 6:1 
0.06640625 1:24441 2:72020 3:1 4:2 5:0.2 6:1 
0.06640625 1:72165 2:72166 3:1 4:2 5:1 6:0.25 
0.06640625 1:29666 2:72218 3:3 4:6 5:0.75 6:0.75 
0.06640625 1:72301 2:72303 3:1 4:2 5:1 6:1 
0.06640625 1:72279 2:72282 3:1 4:2 5:0.5 6:1 
0.06640625 1:72285 2:72287 3:1 4:2 5:0.5 6:1 
0.06640625 1:27102 2:27103 3:10 4:25 5:0.76923077 6:0.76923077 
0.06640625 1:72360 2:72368 3:1 4:2 5:1 6:1 
0.06640625 1:71803 2:72376 3:1 4:2 5:0.5 6:1 
0.06640625 1:9094 2:72347 3:2 4:4 5:0.2 6:1 
0.06640625 1:42714 2:42716 3:7 4:14 5:1 6:1 
0.06640625 1:34735 2:37070 3:1 4:2 5:0.16666667 6:0.33333333 
0.06640625 1:72237 2:72238 3:2 4:4 5:0.66666667 6:1 
0.06640625 1:72528 2:72529 3:1 4:2 5:1 6:1 
0.06640625 1:72622 2:72623 3:1 4:2 5:1 6:1 
0.06640625 1:7365 2:31595 3:5 4:11 5:0.20833333 6:0.35714286 
0.06640625 1:36805 2:72941 3:1 4:2 5:1 6:1 
0.06640625 1:73084 2:73089 3:1 4:2 5:1 6:1 
0.06640625 1:73058 2:73111 3:2 4:6 5:1 6:1 
0.06640625 1:14439 2:73257 3:2 4:6 5:0.66666667 6:1 
0.06640625 1:60386 2:73267 3:1 4:2 5:0.33333333 6:1 
0.06585191642646777 1:72776 2:72783 3:1 4:2 5:1 6:1 
0.06640625 1:73515 2:73525 3:1 4:2 5:1 6:1 
0.06565607616036521 1:72774 2:72778 3:1 4:2 5:1 6:1 
0.06640625 1:29972 2:73676 3:1 4:2 5:1 6:1 
0.06640625 1:4850 2:69969 3:4 4:12 5:0.44444444 6:1 
0.06640625 1:31898 2:73736 3:1 4:2 5:0.090909091 6:1 
0.06640625 1:31897 2:60463 3:2 4:4 5:0.33333333 6:1 
0.06640625 1:73764 2:73766 3:1 4:2 5:1 6:0.5 
0.06640625 1:73868 2:73869 3:1 4:2 5:1 6:1 
0.06640625 1:74387 2:74388 3:1 4:2 5:1 6:1 
0.06640625 1:19018 2:74421 3:2 4:4 5:1 6:1 
0.06640625 1:908 2:5713 3:1 4:2 5:0.043478261 6:0.5 
0.06640625 1:4767 2:74932 3:1 4:2 5:0.125 6:1 
0.06640625 1:75021 2:75022 3:1 4:2 5:1 6:1 
0.06640625 1:24436 2:75141 3:1 4:2 5:0.5 6:1 
0.06640625 1:75298 2:75299 3:2 4:6 5:1 6:1 
0.06640625 1:75425 2:75426 3:1 4:2 5:0.5 6:0.33333333 
0.06640625 1:31382 2:74682 3:1 4:2 5:0.125 6:1 
0.06640625 1:29467 2:75378 3:1 4:2 5:0.33333333 6:1 
0.06640625 1:120 2:37649 3:1 4:2 5:0.047619048 6:0.14285714 
0.06640625 1:74877 2:74894 3:2 4:4 5:1 6:1 
0.06640625 1:75815 2:75826 3:1 4:2 5:1 6:1 
0.06640625 1:75746 2:75753 3:1 4:2 5:1 6:1 
0.06640625 1:75996 2:75997 3:1 4:2 5:1 6:1 
0.06640625 1:75822 2:75831 3:1 4:2 5:1 6:0.33333333 
0.06640625 1:13851 2:76061 3:1 4:2 5:0.16666667 6:1 
0.06640625 1:76265 2:76273 3:1 4:2 5:1 6:1 
0.06640625 1:75038 2:75075 3:1 4:2 5:1 6:1 
0.06640625 1:71537 2:71538 3:2 4:4 5:1 6:1 
0.06640625 1:6342 2:31526 3:2 4:4 5:0.14285714 6:1 
0.06640625 1:76862 2:76873 3:1 4:3 5:1 6:0.5 
0.06640625 1:76896 2:76899 3:1 4:3 5:1 6:1 
0.06640625 1:23079 2:76885 3:1 4:3 5:0.16666667 6:1 
0.06640625 1:9989 2:10093 3:1 4:3 5:0.25 6:1 
0.06640625 1:7440 2:76924 3:1 4:3 5:0.33333333 6:1 
0.06640625 1:42154 2:59904 3:2 4:5 5:0.5 6:1 
0.06640625 1:6858 2:55908 3:7 4:17 5:0.53846154 6:1 
0.06640625 1:52073 2:77266 3:1 4:3 5:0.25 6:1 
0.06640625 1:6370 2:6372 3:2 4:4 5:0.5 6:0.28571429 
0.06640625 1:18527 2:77424 3:1 4:3 5:0.125 6:1 
0.06640625 1:74423 2:77281 3:1 4:3 5:1 6:1 
0.06640625 1:22216 2:45143 3:1 4:3 5:0.33333333 6:0.33333333 
0.06640625 1:35907 2:38149 3:1 4:3 5:0.25 6:0.090909091 
0.06640625 1:58852 2:58853 3:2 4:5 5:1 6:1 
0.06640625 1:77483 2:77484 3:1 4:3 5:1 6:1 
0.06640625 1:77776 2:77777 3:1 4:3 5:1 6:1 
0.06640625 1:4680 2:77882 3:1 4:3 5:0.090909091 6:0.5 
0.06640625 1:26121 2:77895 3:1 4:3 5:0.5 6:1 
0.06640625 1:77942 2:77943 3:1 4:3 5:0.5 6:1 
0.06640625 1:59347 2:78264 3:2 4:6 5:0.66666667 6:1 
0.06640625 1:21688 2:78304 3:1 4:3 5:0.33333333 6:1 
0.06640625 1:8230 2:21688 3:1 4:3 5:0.058823529 6:0.5 
0.06640625 1:4848 2:5376 3:3 4:7 5:0.23076923 6:0.5 
0.06640625 1:60529 2:78721 3:2 4:6 5:0.33333333 6:1 
0.06640625 1:47201 2:78749 3:2 4:6 5:1 6:1 
0.06640625 1:13642 2:13643 3:3 4:7 5:0.42857143 6:1 
0.06640625 1:78791 2:78793 3:1 4:3 5:1 6:0.5 
0.05525454771809182 1:78764 2:78770 3:1 4:3 5:1 6:1 
0.05494201055701079 1:78765 2:78771 3:1 4:3 5:1 6:1 
0.06581266803133984 1:78766 2:78767 3:1 4:3 5:1 6:1 
0.06601038249221433 1:26707 2:78810 3:2 4:6 5:0.5 6:1 
0.06601038249221433 1:4793 2:5363 3:2 4:4 5:0.18181818 6:0.2 
0.06601038249221433 1:78942 2:78943 3:1 4:3 5:0.5 6:1 
0.06601038249221433 1:14360 2:79011 3:1 4:3 5:0.2 6:1 
0.06601038249221433 1:1492 2:79005 3:1 4:3 5:0.16666667 6:0.5 
0.06601038249221433 1:78992 2:79006 3:1 4:3 5:1 6:0.33333333 
0.06585191643066292 1:49618 2:49620 3:3 4:7 5:0.75 6:1 
0.06585191643066292 1:79296 2:79298 3:1 4:3 5:1 6:1 
0.06585191643066292 1:5575 2:5576 3:2 4:4 5:0.5 6:1 
0.06585191643066292 1:5576 2:62450 3:1 4:3 5:1 6:0.5 
0.06565464541381549 1:22659 2:59798 3:5 4:16 5:1 6:1 
0.06565464541381549 1:79743 2:79744 3:1 4:3 5:1 6:1 
0.06562500583796597 1:11724 2:11740 3:3 4:7 5:0.3 6:1 
0.06562500583796597 1:79900 2:79901 3:1 4:3 5:1 6:1 
0.06562500583796597 1:1338 2:80094 3:1 4:3 5:0.2 6:1 
0.06562500583796597 1:79088 2:79727 3:2 4:6 5:0.5 6:1 
0.06562500583796597 1:30049 2:79748 3:1 4:3 5:0.33333333 6:1 
0.06562500583796597 1:78886 2:80309 3:1 4:3 5:0.5 6:1 
0.06561009014608045 1:1394 2:80342 3:1 4:3 5:0.5 6:1 
0.06640625 1:80429 2:80430 3:1 4:3 5:1 6:1 
0.04510655105720364 1:80422 2:80426 3:1 4:3 5:1 6:1 
0.0455620895815142 1:80423 2:80426 3:1 4:3 5:1 6:1 
0.06562500686036156 1:68303 2:80584 3:1 4:3 5:0.2 6:1 
0.06562500686036156 1:37150 2:37151 3:5 4:12 5:1 6:1 
0.06640625 1:80896 2:80897 3:1 4:3 5:1 6:1 
0.06542698175607926 1:4881 2:80902 3:2 4:6 5:0.66666667 6:1 
0.06542698175607926 1:80890 2:80904 3:1 4:3 5:1 6:1 
0.06542698175607926 1:3029 2:80929 3:1 4:3 5:0.33333333 6:1 
0.06542698175607926 1:10526 2:80939 3:1 4:3 5:0.33333333 6:1 
0.06607507218802963 1:77101 2:80952 3:2 4:6 5:0.5 6:1 
0.06607507218802963 1:38774 2:39223 3:3 4:8 5:0.75 6:1 
0.06607507218802963 1:4587 2:27259 3:2 4:6 5:0.4 6:0.18181818 
0.06607507208725623 1:72055 2:81060 3:1 4:3 5:0.2 6:1 
0.06607507208725623 1:81067 2:81068 3:1 4:3 5:1 6:1 
0.06607507295898034 1:81145 2:81146 3:1 4:3 5:1 6:1 
0.06581432965641432 1:10515 2:81163 3:1 4:3 5:0.5 6:1 
0.06581432965641432 1:81170 2:81171 3:1 4:3 5:0.5 6:1 
0.06581432965641432 1:27245 2:28768 3:2 4:4 5:0.2 6:1 
0.06581432965641432 1:64353 2:64354 3:2 4:5 5:0.66666667 6:1 
0.06630391241145198 1:1031 2:53286 3:2 4:6 5:0.22222222 6:0.25 
0.06630363565613531 1:9234 2:81465 3:1 4:3 5:0.33333333 6:0.33333333 
0.06628956851928858 1:59319 2:81522 3:1 4:3 5:0.33333333 6:1 
0.06607654801626148 1:81027 2:81611 3:1 4:3 5:1 6:1 
0.06565463451698432 1:76053 2:81566 3:1 4:3 5:0.25 6:0.5 
0.06565463451698432 1:80631 2:80637 3:1 4:3 5:1 6:1 
0.06562500686036156 1:24531 2:81850 3:1 4:3 5:0.5 6:1 
0.06562500686036156 1:81635 2:81646 3:2 4:6 5:1 6:1 
0.06562500686036156 1:21311 2:81370 3:4 4:13 5:0.66666667 6:1 
0.06562500686036156 1:952 2:4941 3:2 4:5 5:0.66666667 6:0.4 
0.06565464591284358 1:82351 2:82353 3:1 4:3 5:0.5 6:1 
0.06565464541381549 1:82432 2:82435 3:1 4:3 5:0.5 6:1 
0.06565464541381549 1:38867 2:82515 3:1 4:3 5:0.5 6:1 
0.06565464541381549 1:11006 2:82521 3:1 4:3 5:0.33333333 6:1 
0.06607507295898034 1:82809 2:82810 3:1 4:3 5:1 6:1 
0.06542701066102423 1:43828 2:59256 3:1 4:3 5:0.33333333 6:0.33333333 
0.06565607623082219 1:12013 2:23674 3:1 4:3 5:0.25 6:0.11111111 
0.06640607872908647 1:12014 2:68661 3:2 4:5 5:0.66666667 6:1 
0.06640616436266594 1:82928 2:82929 3:1 4:3 5:1 6:1 
0.06640616436548191 1:19298 2:82938 3:1 4:3 5:0.33333333 6:1 
0.06640624708101552 1:31001 2:31002 3:4 4:10 5:0.57142857 6:0.66666667 
0.06640624828490889 1:76600 2:83226 3:1 4:3 5:0.5 6:1 
0.06640624854050721 1:83459 2:83460 3:1 4:3 5:1 6:1 
0.06640624854050803 1:17445 2:17450 3:8 4:24 5:1 6:1 
0.06640624999994045 1:83835 2:83836 3:1 4:3 5:1 6:1 
0.06640624999997022 1:76421 2:84065 3:1 4:3 5:0.5 6:1 
0.06640624999997022 1:45994 2:84086 3:1 4:3 5:0.33333333 6:1 
0.06640625 1:83276 2:84204 3:1 4:3 5:1 6:1 
0.06640625 1:84321 2:84322 3:1 4:3 5:1 6:1 
0.06607513780476401 1:61502 2:83596 3:8 4:30 5:0.88888889 6:1 
0.06607513780476401 1:22947 2:84673 3:1 4:3 5:0.1 6:1 
0.06607507295898034 1:74306 2:84737 3:1 4:3 5:0.5 6:1 
0.06607507295898034 1:12502 2:12504 3:10 4:21 5:0.71428571 6:1 
0.06607507295898034 1:5203 2:32077 3:1 4:3 5:0.125 6:0.5 
0.06607507218802963 1:85092 2:85093 3:1 4:3 5:1 6:1 
0.06620643811284456 1:85094 2:85107 3:1 4:3 5:1 6:1 
0.06620643811284456 1:5063 2:26388 3:1 4:3 5:0.125 6:0.16666667 
0.06581509141086922 1:4150 2:11472 3:1 4:3 5:0.5 6:0.14285714 
0.06581451624911472 1:85214 2:85215 3:1 4:3 5:0.5 6:1 
0.06581451624911472 1:1211 2:77416 3:1 4:3 5:0.25 6:0.5 
0.06581448332222845 1:85593 2:85594 3:1 4:3 5:1 6:1 
0.06581448332222845 1:85625 2:85651 3:1 4:3 5:0.5 6:1 
0.06581443136117819 1:85703 2:85706 3:1 4:3 5:1 6:1 
0.06581432965641432 1:51203 2:85786 3:1 4:3 5:0.25 6:0.5 
0.06581432965641432 1:25636 2:85809 3:1 4:3 5:0.33333333 6:1 
0.06581432965641432 1:3899 2:38895 3:2 4:5 5:0.071428571 6:0.66666667 
0.06581432965641432 1:68461 2:85894 3:1 4:3 5:0.25 6:1 
0.06581432965641432 1:85948 2:85949 3:1 4:3 5:1 6:1 
0.06581432965641432 1:85961 2:85974 3:1 4:3 5:1 6:1 
0.06615730574529591 1:86056 2:86058 3:1 4:3 5:1 6:1 
0.06620643811284456 1:28167 2:86081 3:1 4:3 5:0.25 6:1 
0.06607507295898034 1:23558 2:86124 3:3 4:10 5:0.3 6:0.75 
0.06607507295898034 1:8750 2:55083 3:1 4:3 5:0.5 6:0.33333333 
0.06585357601943548 1:81080 2:86215 3:1 4:3 5:0.5 6:1 
0.06587136639939647 1:30332 2:86317 3:1 4:3 5:1 6:1 
0.06589032536809883 1:17045 2:86381 3:1 4:3 5:0.14285714 6:1 
0.06542701066102423 1:13242 2:81015 3:1 4:3 5:1 6:0.33333333 
0.06542700846800925 1:13102 2:25307 3:1 4:3 5:0.16666667 6:0.25 
0.06542698946287891 1:51517 2:86570 3:2 4:7 5:1 6:0.66666667 
0.06542698946287891 1:28801 2:86608 3:1 4:3 5:1 6:1 
0.06542698946287891 1:31492 2:86750 3:1 4:3 5:0.25 6:1 
0.06542698946287891 1:66083 2:86927 3:1 4:3 5:1 6:1 
0.06542698946287891 1:87064 2:87066 3:1 4:3 5:1 6:1 
0.06542698841542345 1:29006 2:45794 3:1 4:3 5:0.25 6:0.25 
0.0658101911082481 1:87092 2:87096 3:1 4:3 5:1 6:1 
0.06551599015318393 1:70283 2:87181 3:1 4:3 5:0.33333333 6:1 
0.06581065420518764 1:87091 2:87097 3:2 4:6 5:1 6:1 
0.06562500686036156 1:87497 2:87500 3:1 4:3 5:1 6:1 
0.06562500583796597 1:87539 2:87541 3:1 4:3 5:1 6:1 
0.06562500583796597 1:87705 2:87706 3:1 4:3 5:1 6:1 
0.06562500583796597 1:87830 2:87833 3:1 4:3 5:0.5 6:1 
0.06562500583796597 1:5984 2:87940 3:1 4:3 5:0.25 6:1 
0.06562500583796597 1:87979 2:87981 3:1 4:3 5:1 6:1 
0.06562500583796597 1:35518 2:88273 3:1 4:3 5:1 6:1 
0.06562500583796597 1:41205 2:41257 3:4 4:12 5:0.8 6:1 
0.06565464541381549 1:19779 2:22715 3:2 4:4 5:0.2 6:0.4 
0.06565464376910579 1:8254 2:8255 3:6 4:18 5:0.75 6:1 
0.06565464309945582 1:27370 2:88719 3:1 4:3 5:0.5 6:1 
0.06565464266143353 1:88826 2:88827 3:1 4:3 5:1 6:1 
0.06565464183323999 1:19521 2:88850 3:1 4:3 5:0.33333333 6:1 
0.06565464183323999 1:14114 2:88973 3:1 4:3 5:0.16666667 6:1 
0.06565464151450295 1:89125 2:89127 3:1 4:3 5:1 6:1 
0.06565464151450295 1:35941 2:57760 3:1 4:3 5:1 6:0.5 
0.06565607621852987 1:89268 2:89280 3:1 4:3 5:1 6:1 
0.06565607619533709 1:67369 2:73373 3:3 4:9 5:0.75 6:1 
0.06565607619533709 1:14591 2:89644 3:1 4:3 5:0.5 6:1 
0.06565607618949923 1:89669 2:89670 3:1 4:3 5:1 6:1 
0.0658938152448898 1:89682 2:89685 3:1 4:3 5:0.5 6:1 
0.06601038249221433 1:89865 2:89866 3:1 4:3 5:1 6:1 
0.06601038249221433 1:89992 2:89993 3:1 4:3 5:0.5 6:1 
0.06601038249221433 1:89992 2:90011 3:1 4:3 5:0.5 6:0.5 
0.06601038249221433 1:52103 2:90053 3:1 4:3 5:0.5 6:1 
0.06601038249221433 1:20190 2:90056 3:1 4:3 5:0.25 6:1 
0.06601038249221433 1:68545 2:90164 3:1 4:3 5:0.2 6:1 
0.06601038249213477 1:90202 2:90204 3:1 4:3 5:1 6:1 
0.06601038326273498 1:34777 2:58153 3:1 4:3 5:0.5 6:0.5 
0.06624287376791743 1:1631 2:90111 3:1 4:3 5:0.066666667 6:1 
0.06640586465687086 1:1631 2:66583 3:1 4:3 5:0.066666667 6:0.5 
0.06640590747037542 1:38240 2:66583 3:1 4:3 5:0.16666667 6:0.5 
0.06640590747412975 1:90333 2:90334 3:2 4:7 5:0.66666667 6:1 
0.06640595028481858 1:7850 2:34242 3:1 4:3 5:0.14285714 6:0.2 
0.06640595028481858 1:43426 2:90719 3:1 4:3 5:0.5 6:1 
0.0664059931011388 1:48160 2:90772 3:1 4:3 5:0.2 6:1 
0.06640607872908647 1:90855 2:90856 3:1 4:3 5:1 6:1 
0.06640607872908647 1:37505 2:37507 3:2 4:4 5:1 6:1 
0.06640607872908647 1:71553 2:89632 3:2 4:6 5:0.66666667 6:1 
0.06640607872908647 1:90928 2:90929 3:1 4:3 5:1 6:1 
0.06640607872908647 1:36974 2:45052 3:2 4:5 5:0.18181818 6:1 
0.06640607872908647 1:4073 2:20991 3:1 4:3 5:0.16666667 6:0.33333333 
0.06640616436266594 1:7974 2:65312 3:1 4:3 5:0.125 6:0.5 
0.06640616436266594 1:12481 2:91170 3:1 4:3 5:0.2 6:1 
0.06640616436266594 1:91270 2:91272 3:1 4:3 5:1 6:1 
0.06640616436266594 1:91296 2:91298 3:1 4:3 5:1 6:1 
0.06640616436266594 1:91515 2:91518 3:1 4:3 5:1 6:1 
0.06640616436266594 1:65762 2:79462 3:2 4:7 5:0.4 6:0.66666667 
0.06640616436266594 1:91564 2:91566 3:1 4:3 5:0.33333333 6:1 
0.06640616436266594 1:4767 2:91603 3:2 4:7 5:0.25 6:1 
0.06640616436548191 1:91603 2:91605 3:1 4:3 5:0.5 6:1 
0.06640616436548191 1:91835 2:91836 3:1 4:3 5:1 6:1 
0.06640616436548191 1:91896 2:91897 3:1 4:3 5:1 6:0.2 
0.06640616436548191 1:91947 2:91948 3:1 4:3 5:1 6:1 
0.06640624343228968 1:91971 2:91972 3:1 4:3 5:1 6:1 
0.06640624362288981 1:24936 2:92016 3:1 4:3 5:0.2 6:1 
0.06640624392871031 1:92143 2:92144 3:2 4:6 5:1 6:1 
0.06640624416203457 1:92164 2:92168 3:1 4:3 5:1 6:1 
0.06640624416203567 1:92157 2:92160 3:1 4:3 5:1 6:1 
0.06640624489177974 1:13633 2:92224 3:1 4:3 5:0.25 6:1 
0.06640624489177974 1:92175 2:92176 3:1 4:3 5:0.5 6:1 
0.0664062449168871 1:92373 2:92375 3:1 4:3 5:1 6:1 
0.0664062449168871 1:24983 2:36607 3:1 4:3 5:0.33333333 6:0.1 
0.06640624562152544 1:7904 2:7905 3:6 4:13 5:1 6:0.85714286 
0.06640624708101552 1:3090 2:7905 3:1 4:3 5:0.16666667 6:0.14285714 
0.06640624708101552 1:92300 2:92413 3:3 4:10 5:0.42857143 6:1 
0.06640624708101552 1:59124 2:92620 3:1 4:3 5:0.125 6:1 
0.06640624708101552 1:24666 2:39026 3:1 4:3 5:0.5 6:0.33333333 
0.06640624708101552 1:15356 2:92777 3:1 4:3 5:0.2 6:1 
0.06640624708101552 1:28144 2:64958 3:2 4:5 5:0.5 6:0.66666667 
0.06640624828490889 1:14618 2:14619 3:7 4:21 5:0.875 6:1 
0.06640624828490889 1:12478 2:91724 3:1 4:3 5:0.5 6:0.33333333 
0.06640624828490889 1:93078 2:93079 3:1 4:3 5:1 6:1 
0.06640624828490889 1:18961 2:18962 3:3 4:5 5:0.25 6:1 
0.06640624854050721 1:51039 2:93340 3:1 4:3 5:0.5 6:1 
0.06640624854050721 1:93601 2:93603 3:1 4:3 5:1 6:1 
0.06640624854050721 1:93626 2:93628 3:1 4:3 5:1 6:1 
0.06640624854050721 1:23742 2:33808 3:1 4:3 5:0.33333333 6:0.14285714 
0.06640624854050721 1:49480 2:75247 3:1 4:3 5:0.5 6:1 
0.06640624854050721 1:93838 2:93839 3:1 4:3 5:1 6:1 
0.06640624854050721 1:93857 2:93861 3:1 4:3 5:1 6:0.5 
0.06640624854050721 1:10985 2:10986 3:5 4:13 5:0.71428571 6:1 
0.06640624854050803 1:77324 2:93855 3:1 4:3 5:0.16666667 6:1 
0.06640624854050803 1:93976 2:93978 3:1 4:3 5:1 6:1 
0.06640624854050803 1:10206 2:91086 3:2 4:6 5:0.28571429 6:1 
0.06640624854050803 1:79006 2:79009 3:2 4:6 5:0.66666667 6:1 
0.06640624999986602 1:13159 2:94123 3:2 4:6 5:0.66666667 6:1 
0.0664062499998809 1:84263 2:94223 3:3 4:11 5:0.6 6:1 
0.0664062499998809 1:59643 2:84848 3:1 4:3 5:0.16666667 6:1 
0.06640624999989579 1:4243 2:94462 3:1 4:3 5:0.083333333 6:1 
0.06640624999989579 1:48239 2:94488 3:2 4:6 5:0.66666667 6:1 
0.06640624999991068 1:94522 2:94523 3:1 4:3 5:0.16666667 6:0.33333333 
0.06640624999994045 1:18011 2:91897 3:3 4:9 5:1 6:0.6 
0.06640624999994045 1:60953 2:94605 3:1 4:3 5:0.5 6:1 
0.06640624999994045 1:2233 2:49462 3:6 4:15 5:0.33333333 6:0.54545455 
0.06640624999994045 1:43721 2:94715 3:1 4:3 5:0.5 6:0.25 
0.06640624999994045 1:59196 2:94958 3:1 4:3 5:0.33333333 6:1 
0.06640624999994045 1:49639 2:67943 3:1 4:3 5:0.33333333 6:1 
0.06640624999997022 1:4244 2:11584 3:1 4:3 5:0.071428571 6:1 
0.06640624999997022 1:95219 2:95220 3:1 4:3 5:1 6:1 
0.06640624999997022 1:56303 2:95227 3:2 4:7 5:0.66666667 6:1 
0.06640624999997022 1:28820 2:95279 3:2 4:7 5:0.5 6:0.66666667 
0.06640624999997022 1:13370 2:95320 3:1 4:3 5:0.5 6:1 
0.06640624999997022 1:19381 2:95432 3:1 4:3 5:1 6:1 
0.06640624999997022 1:40688 2:95463 3:1 4:3 5:0.2 6:1 
0.06640624999997022 1:95503 2:95504 3:1 4:3 5:1 6:1 
0.06640624999997022 1:95391 2:95393 3:1 4:3 5:1 6:1 
0.06640624999997022 1:95526 2:95527 3:1 4:3 5:1 6:1 
0.06640624999997022 1:36795 2:63726 3:1 4:3 5:0.5 6:0.33333333 
0.06640624999997022 1:11332 2:95856 3:1 4:3 5:1 6:1 
0.06640625 1:95886 2:95888 3:1 4:3 5:1 6:1 
0.06640625 1:96039 2:96040 3:1 4:3 5:1 6:1 
0.06640625 1:9417 2:96046 3:1 4:3 5:0.5 6:1 
0.06640625 1:56298 2:96073 3:1 4:3 5:0.5 6:1 
0.06640625 1:3839 2:96259 3:1 4:3 5:0.125 6:1 
0.06640625 1:68563 2:85329 3:4 4:12 5:1 6:1 
0.06640625 1:96358 2:96364 3:1 4:3 5:1 6:1 
0.06640625 1:35746 2:85653 3:1 4:3 5:0.5 6:0.33333333 
0.06640625 1:96436 2:96437 3:1 4:3 5:0.5 6:0.33333333 
0.06640625 1:96420 2:96421 3:1 4:3 5:1 6:1 
0.06640625 1:75813 2:96449 3:1 4:3 5:0.5 6:0.5 
0.06640625 1:96507 2:96508 3:1 4:3 5:1 6:1 
0.06640625 1:4865 2:52968 3:2 4:7 5:0.33333333 6:0.66666667 
0.06640625 1:51363 2:96647 3:1 4:3 5:0.33333333 6:0.5 
0.06640625 1:17764 2:96764 3:1 4:3 5:0.16666667 6:0.5 
0.06640625 1:39656 2:96713 3:2 4:7 5:0.66666667 6:1 
0.06640625 1:96828 2:96839 3:1 4:3 5:1 6:1 
0.06640625 1:96863 2:96864 3:1 4:3 5:1 6:1 
0.06640625 1:49839 2:96903 3:1 4:3 5:0.33333333 6:1 
0.06640625 1:7908 2:97116 3:1 4:3 5:0.1 6:1 
0.06640625 1:93343 2:96988 3:1 4:3 5:0.5 6:1 
0.06640625 1:34914 2:97143 3:1 4:3 5:0.25 6:1 
0.06640625 1:76129 2:97182 3:1 4:3 5:0.25 6:1 
0.06640625 1:97308 2:97309 3:1 4:3 5:0.5 6:1 
0.06640625 1:97355 2:97358 3:1 4:3 5:1 6:1 
0.06640625 1:41964 2:67605 3:1 4:3 5:0.33333333 6:0.5 
0.06640625 1:19204 2:19222 3:4 4:9 5:1 6:1 
0.06640625 1:22679 2:64776 3:2 4:5 5:1 6:1 
0.06640625 1:97623 2:97624 3:1 4:3 5:1 6:1 
0.06640625 1:53096 2:97619 3:1 4:3 5:0.33333333 6:1 
0.06640625 1:97676 2:97677 3:2 4:7 5:1 6:1 
0.06640625 1:40369 2:97627 3:4 4:13 5:0.66666667 6:1 
0.06640625 1:19375 2:97706 3:1 4:3 5:0.16666667 6:1 
0.06640625 1:2183 2:2185 3:2 4:4 5:1 6:1 
0.06640625 1:97999 2:98000 3:1 4:3 5:1 6:1 
0.06640625 1:98044 2:98047 3:1 4:3 5:1 6:1 
0.06640625 1:98069 2:98072 3:1 4:3 5:1 6:1 
0.06640625 1:97472 2:98107 3:2 4:6 5:0.15384615 6:0.5 
0.06640625 1:98143 2:98145 3:1 4:3 5:1 6:1 
0.06640625 1:863 2:98201 3:1 4:3 5:1 6:1 
0.06640625 1:96250 2:96255 3:2 4:6 5:0.66666667 6:1 
0.06640625 1:2915 2:69118 3:2 4:7 5:0.086956522 6:0.66666667 
0.06640625 1:7593 2:7594 3:2 4:4 5:1 6:0.66666667 
0.06640625 1:7593 2:98428 3:1 4:3 5:0.5 6:1 
0.06640625 1:98568 2:98569 3:1 4:3 5:1 6:1 
0.06640625 1:36104 2:98558 3:1 4:3 5:0.33333333 6:1 
0.06640625 1:58613 2:98699 3:1 4:3 5:0.25 6:1 
0.06640625 1:98900 2:98901 3:1 4:3 5:1 6:1 
0.06640625 1:6552 2:77056 3:2 4:7 5:0.66666667 6:0.66666667 
0.06640625 1:77570 2:99010 3:1 4:3 5:0.33333333 6:1 
0.06640625 1:98933 2:98935 3:1 4:3 5:1 6:1 
0.06640625 1:8051 2:95971 3:2 4:7 5:0.18181818 6:1 
0.06640625 1:36213 2:86193 3:4 4:14 5:0.8 6:1 
0.06640625 1:99225 2:99226 3:1 4:3 5:1 6:1 
0.06640625 1:21675 2:55684 3:1 4:3 5:0.5 6:0.5 
0.06640625 1:99259 2:99261 3:1 4:3 5:1 6:0.25 
0.06640625 1:99262 2:99263 3:3 4:9 5:1 6:1 
0.06640625 1:42379 2:99475 3:1 4:3 5:0.33333333 6:1 
0.06640625 1:99542 2:99543 3:1 4:3 5:1 6:1 
0.06640625 1:13984 2:77886 3:1 4:3 5:0.090909091 6:0.25 
0.06640625 1:47674 2:81919 3:2 4:6 5:1 6:1 
0.06640625 1:99881 2:99888 3:1 4:3 5:1 6:1 
0.06640625 1:63973 2:99976 3:1 4:3 5:0.5 6:1 
0.06640625 1:100127 2:100128 3:1 4:3 5:1 6:1 
0.06640625 1:18673 2:100205 3:2 4:7 5:0.13333333 6:1 
0.06640625 1:100327 2:100328 3:2 4:6 5:1 6:1 
0.06640625 1:55380 2:100347 3:1 4:3 5:0.33333333 6:1 
0.06640625 1:1189 2:17685 3:1 4:3 5:0.33333333 6:1 
0.06640625 1:34510 2:58650 3:1 4:3 5:1 6:0.5 
0.06640625 1:100858 2:100865 3:1 4:3 5:1 6:0.5 
0.06640625 1:100976 2:100977 3:1 4:3 5:1 6:1 
0.06640625 1:101008 2:101010 3:1 4:3 5:1 6:1 
0.06640625 1:60919 2:101017 3:1 4:3 5:0.5 6:1 
0.06640625 1:100845 2:100846 3:2 4:6 5:1 6:1 
0.06640625 1:15511 2:99933 3:1 4:3 5:0.16666667 6:0.5 
0.06640625 1:101192 2:101200 3:1 4:3 5:1 6:1 
0.06640625 1:2628 2:101305 3:1 4:3 5:0.16666667 6:1 
0.06640625 1:101389 2:101390 3:1 4:3 5:1 6:1 
0.04556219155972557 1:38224 2:39696 3:3 4:7 5:0.75 6:1 
0.04556219155972557 1:38221 2:38223 3:3 4:8 5:0.75 6:0.5 
0.06640625 1:22199 2:101679 3:1 4:3 5:0.25 6:1 
0.06640625 1:60505 2:101730 3:1 4:3 5:0.5 6:1 
0.06640625 1:12585 2:101654 3:1 4:3 5:0.2 6:1 
0.06640625 1:4419 2:37858 3:1 4:3 5:0.071428571 6:0.25 
0.06640625 1:72813 2:101823 3:2 4:6 5:0.5 6:1 
0.06640625 1:101959 2:101962 3:1 4:3 5:1 6:1 
0.06640625 1:44197 2:101942 3:1 4:3 5:1 6:1 
0.06640625 1:66095 2:94807 3:2 4:6 5:0.66666667 6:0.66666667 
0.06640625 1:79667 2:79674 3:4 4:13 5:1 6:1 
0.06640625 1:54556 2:102062 3:1 4:3 5:0.5 6:1 
0.06640625 1:102125 2:102126 3:1 4:3 5:1 6:1 
0.06640625 1:15213 2:102256 3:1 4:3 5:0.33333333 6:1 
0.06640625 1:77633 2:102310 3:1 4:3 5:1 6:1 
0.06640625 1:102304 2:102309 3:1 4:3 5:1 6:1 
0.06640625 1:72418 2:102375 3:1 4:3 5:0.5 6:1 
0.06640625 1:102576 2:102577 3:1 4:3 5:1 6:1 
0.06640625 1:75335 2:102600 3:1 4:3 5:0.25 6:1 
0.06640625 1:102590 2:102602 3:1 4:3 5:1 6:1 
0.06640625 1:45300 2:89570 3:2 4:6 5:0.66666667 6:0.5 
0.06640625 1:102851 2:102852 3:1 4:3 5:1 6:1 
0.06640625 1:22383 2:24870 3:2 4:5 5:0.28571429 6:0.5 
0.06640625 1:52338 2:94715 3:1 4:3 5:0.2 6:0.25 
0.06640625 1:103060 2:103066 3:1 4:3 5:1 6:0.5 
0.06640625 1:20195 2:20196 3:2 4:4 5:0.15384615 6:1 
0.06640625 1:38647 2:103211 3:2 4:7 5:0.28571429 6:1 
0.06640625 1:28457 2:103313 3:1 4:3 5:0.25 6:1 
0.06640625 1:70010 2:103385 3:1 4:3 5:1 6:1 
0.06640625 1:19329 2:103415 3:1 4:3 5:0.052631579 6:0.5 
0.06640625 1:42052 2:103550 3:1 4:3 5:0.5 6:1 
0.06640625 1:41423 2:103550 3:1 4:3 5:1 6:1 
0.06585191642648643 1:103555 2:103556 3:1 4:3 5:1 6:1 
0.06565607616036521 1:103557 2:103561 3:1 4:3 5:1 6:1 
0.06640625 1:103566 2:103568 3:1 4:3 5:1 6:1 
0.06640625 1:103590 2:103592 3:1 4:3 5:1 6:1 
0.06640625 1:5083 2:103648 3:1 4:3 5:0.1 6:1 
0.06640625 1:48688 2:103711 3:1 4:3 5:0.33333333 6:1 
0.06640625 1:103763 2:103764 3:1 4:3 5:1 6:1 
0.06640625 1:21118 2:103625 3:1 4:3 5:0.33333333 6:1 
0.06640625 1:103790 2:103791 3:1 4:3 5:1 6:1 
0.06640625 1:6216 2:103832 3:1 4:3 5:0.33333333 6:0.5 
0.06640625 1:56033 2:56034 3:3 4:9 5:0.75 6:1 
0.06640625 1:103825 2:103826 3:1 4:3 5:1 6:0.5 
0.06640625 1:41211 2:103876 3:1 4:3 5:0.055555556 6:1 
0.06640625 1:103862 2:103872 3:1 4:3 5:1 6:1 
0.06640625 1:103904 2:103905 3:1 4:3 5:1 6:1 
0.06640625 1:15020 2:61800 3:1 4:3 5:0.14285714 6:0.33333333 
0.06640625 1:103851 2:104160 3:1 4:3 5:0.2 6:1 
0.06640625 1:4781 2:49308 3:1 4:3 5:0.043478261 6:0.5 
0.06640625 1:71875 2:72012 3:1 4:3 5:0.25 6:0.33333333 
0.06640625 1:3487 2:81760 3:1 4:3 5:0.33333333 6:0.33333333 
0.06640625 1:12135 2:12136 3:2 4:4 5:1 6:0.66666667 
0.06640625 1:31065 2:104213 3:1 4:3 5:0.5 6:0.5 
0.06640625 1:18874 2:104413 3:1 4:3 5:0.2 6:1 
0.06640625 1:104424 2:104425 3:1 4:3 5:1 6:1 
0.06640625 1:104649 2:104652 3:1 4:3 5:1 6:1 
0.06640625 1:104304 2:104305 3:1 4:3 5:1 6:0.33333333 
0.06640625 1:104666 2:104668 3:1 4:3 5:1 6:1 
0.06640625 1:104800 2:104801 3:1 4:3 5:1 6:1 
0.06640625 1:49044 2:104830 3:2 4:7 5:0.4 6:0.66666667 
0.06640625 1:12502 2:12505 3:6 4:15 5:0.42857143 6:1 
0.06640625 1:103606 2:103609 3:2 4:7 5:0.5 6:1 
0.06640625 1:105077 2:105080 3:1 4:3 5:1 6:1 
0.06640625 1:104943 2:105107 3:1 4:3 5:1 6:1 
0.06640625 1:12394 2:105178 3:1 4:3 5:0.5 6:1 
0.06640625 1:105171 2:105174 3:1 4:3 5:1 6:1 
0.06640625 1:34001 2:90726 3:2 4:6 5:0.33333333 6:1 
0.06640625 1:105267 2:105268 3:1 4:3 5:1 6:1 
0.06640625 1:81836 2:81843 3:2 4:6 5:1 6:1 
0.0656560760840286 1:105445 2:105446 3:1 4:3 5:1 6:1 
0.06565607610773327 1:105441 2:105443 3:1 4:3 5:1 6:0.5 
0.06640625 1:12449 2:20360 3:3 4:5 5:0.75 6:0.5 
0.06640625 1:45716 2:105466 3:1 4:3 5:1 6:1 
0.06640625 1:96013 2:105509 3:1 4:3 5:0.5 6:1 
0.06640625 1:1494 2:105302 3:2 4:6 5:0.22222222 6:0.66666667 
0.06640625 1:37485 2:105657 3:1 4:3 5:0.33333333 6:1 
0.06640625 1:2695 2:64258 3:2 4:5 5:0.5 6:1 
0.06640625 1:20117 2:36521 3:2 4:7 5:0.2 6:0.66666667 
0.06640625 1:1344 2:105733 3:1 4:3 5:0.090909091 6:1 
0.06640625 1:5062 2:69772 3:1 4:3 5:0.055555556 6:0.5 
0.06640625 1:35982 2:61920 3:2 4:5 5:0.66666667 6:0.33333333 
0.06640625 1:1199 2:96066 3:1 4:3 5:0.16666667 6:0.5 
0.06640625 1:6001 2:69176 3:1 4:4 5:0.5 6:0.33333333 
0.06640625 1:30018 2:106134 3:1 4:4 5:0.5 6:1 
0.06640625 1:106144 2:106148 3:1 4:4 5:1 6:1 
0.06640625 1:106269 2:106270 3:1 4:4 5:1 6:1 
0.06640625 1:106108 2:106129 3:1 4:4 5:1 6:1 
0.06640625 1:4703 2:75488 3:1 4:4 5:0.052631579 6:0.5 
0.06640625 1:106560 2:106561 3:1 4:4 5:1 6:1 
0.06640625 1:106632 2:106633 3:1 4:4 5:1 6:1 
0.06640625 1:106645 2:106647 3:1 4:4 5:1 6:1 
0.06640625 1:78534 2:106427 3:2 4:8 5:0.4 6:1 
0.06640625 1:106721 2:106742 3:1 4:4 5:1 6:1 
0.06640625 1:106777 2:106778 3:1 4:4 5:1 6:1 
0.06640625 1:20739 2:41698 3:1 4:4 5:0.5 6:0.2 
0.06640625 1:72018 2:106957 3:1 4:4 5:1 6:1 
0.06640625 1:5171 2:106742 3:1 4:4 5:0.14285714 6:1 
0.06640625 1:5171 2:106721 3:1 4:4 5:0.14285714 6:1 
0.06640625 1:43415 2:107013 3:1 4:4 5:0.33333333 6:1 
0.06640625 1:107017 2:107018 3:1 4:4 5:1 6:1 
0.06640625 1:32506 2:107147 3:1 4:4 5:0.33333333 6:1 
0.06640625 1:5880 2:107207 3:1 4:4 5:1 6:1 
0.06640625 1:106127 2:106129 3:1 4:4 5:1 6:1 
0.06640625 1:107297 2:107298 3:1 4:4 5:1 6:1 
0.06640625 1:107146 2:107150 3:1 4:4 5:1 6:1 
0.06640625 1:28370 2:28373 3:2 4:5 5:1 6:1 
0.06640625 1:107550 2:107552 3:2 4:8 5:1 6:1 
0.06640625 1:55151 2:107561 3:1 4:4 5:0.5 6:1 
0.06640625 1:57361 2:107458 3:1 4:4 5:0.5 6:0.5 
0.06640625 1:53689 2:107479 3:1 4:4 5:0.33333333 6:0.5 
0.06640625 1:107604 2:107605 3:5 4:20 5:0.71428571 6:1 
0.06640625 1:107661 2:107668 3:1 4:4 5:1 6:1 
0.06640625 1:107708 2:107710 3:1 4:4 5:1 6:1 
0.06640625 1:1874 2:61596 3:3 4:10 5:0.25 6:1 
0.06640625 1:28368 2:107874 3:1 4:4 5:0.33333333 6:1 
0.06640625 1:21328 2:41227 3:1 4:4 5:0.33333333 6:0.25 
0.06640625 1:11229 2:26464 3:3 4:7 5:0.3 6:1 
0.06640625 1:107913 2:107920 3:1 4:4 5:1 6:1 
0.06640625 1:61372 2:107943 3:2 4:8 5:0.33333333 6:0.66666667 
0.06640625 1:108017 2:108033 3:1 4:4 5:1 6:0.5 
0.06640625 1:107865 2:107868 3:1 4:4 5:1 6:1 
0.06640625 1:86569 2:86571 3:3 4:11 5:1 6:0.75 
0.06640625 1:78149 2:78159 3:2 4:7 5:1 6:1 
0.06640625 1:108237 2:108245 3:1 4:4 5:0.5 6:1 
0.06640625 1:108524 2:108525 3:2 4:8 5:1 6:1 
0.06640625 1:85871 2:108573 3:1 4:4 5:0.5 6:1 
0.06640625 1:108605 2:108606 3:1 4:4 5:1 6:1 
0.06640625 1:31135 2:108649 3:1 4:4 5:0.071428571 6:1 
0.06640625 1:81014 2:108679 3:1 4:4 5:0.2 6:1 
0.06640625 1:20020 2:108718 3:2 4:8 5:0.33333333 6:1 
0.06640625 1:106935 2:106942 3:1 4:4 5:1 6:1 
0.06640625 1:108923 2:108929 3:1 4:4 5:1 6:1 
0.06640625 1:4909 2:22871 3:1 4:4 5:0.11111111 6:1 
0.06640625 1:109150 2:109151 3:1 4:4 5:1 6:1 
0.06640625 1:9755 2:109165 3:1 4:4 5:0.33333333 6:1 
0.06640625 1:20994 2:109250 3:1 4:4 5:0.25 6:1 
0.06640625 1:22811 2:109267 3:1 4:4 5:0.5 6:1 
0.06640625 1:39987 2:109217 3:2 4:8 5:0.22222222 6:1 
0.06640625 1:104122 2:109282 3:1 4:4 5:0.2 6:1 
0.06640625 1:48767 2:106696 3:2 4:8 5:0.5 6:1 
0.06640625 1:109325 2:109326 3:1 4:4 5:1 6:0.33333333 
0.06640625 1:102861 2:104015 3:2 4:8 5:0.4 6:0.25 
0.06640625 1:55056 2:109383 3:1 4:4 5:0.5 6:1 
0.06640625 1:109581 2:109583 3:2 4:8 5:1 6:1 
0.06640625 1:109585 2:109587 3:1 4:4 5:1 6:1 
0.06640625 1:105938 2:109668 3:1 4:4 5:0.33333333 6:1 
0.06640625 1:109086 2:109704 3:1 4:4 5:0.5 6:0.5 
0.06640625 1:109855 2:109856 3:1 4:4 5:1 6:1 
0.06640625 1:8405 2:109921 3:1 4:4 5:0.25 6:1 
0.06640625 1:8407 2:36087 3:1 4:4 5:0.33333333 6:0.5 
0.06640625 1:109873 2:110010 3:1 4:4 5:1 6:1 
0.06640625 1:110022 2:110024 3:1 4:4 5:1 6:1 
0.06640625 1:22963 2:110073 3:1 4:4 5:0.047619048 6:1 
0.06640625 1:110115 2:110117 3:1 4:4 5:1 6:1 
0.06640625 1:2987 2:10713 3:2 4:8 5:0.4 6:0.33333333 
0.06640625 1:27011 2:38769 3:1 4:4 5:0.5 6:0.5 
0.06640625 1:110274 2:110279 3:1 4:4 5:1 6:1 
0.06640625 1:6248 2:67790 3:1 4:4 5:0.33333333 6:0.33333333 
0.06640625 1:12975 2:110437 3:1 4:4 5:0.33333333 6:1 
0.06640625 1:34209 2:110482 3:1 4:4 5:0.25 6:1 
0.06640625 1:67434 2:67575 3:1 4:4 5:1 6:0.5 
0.06640625 1:32860 2:96106 3:1 4:4 5:1 6:0.33333333 
0.06601038249221433 1:31126 2:110613 3:1 4:4 5:0.071428571 6:1 
0.06601038249221433 1:96329 2:96330 3:2 4:7 5:1 6:1 
0.06601038249221433 1:110660 2:110661 3:1 4:4 5:1 6:1 
0.06585191643066292 1:110690 2:110691 3:1 4:4 5:1 6:1 
0.0658938152448898 1:4561 2:107789 3:1 4:4 5:0.5 6:0.5 
0.06565464541381549 1:10098 2:10108 3:1 4:4 5:0.090909091 6:0.33333333 
0.06562500583796597 1:30404 2:110785 3:1 4:4 5:0.5 6:1 
0.06562500583796597 1:31282 2:110845 3:1 4:4 5:0.33333333 6:1 
0.06562500583796597 1:20611 2:110960 3:1 4:4 5:0.2 6:1 
0.06562500686036156 1:103211 2:110955 3:1 4:4 5:1 6:1 
0.06562500686036156 1:54832 2:110971 3:1 4:4 5:1 6:0.5 
0.06542698175607926 1:13812 2:74283 3:1 4:4 5:1 6:0.25 
0.06542698175607926 1:99667 2:99668 3:2 4:7 5:1 6:1 
0.06585357601943548 1:111282 2:111284 3:1 4:4 5:1 6:1 
0.06585357601943548 1:40066 2:111297 3:1 4:4 5:0.33333333 6:1 
0.06587136639939647 1:11823 2:101575 3:1 4:4 5:0.11111111 6:0.5 
0.06581432965641432 1:20515 2:25499 3:1 4:4 5:0.5 6:0.5 
0.06581432965641432 1:41706 2:111473 3:1 4:4 5:0.5 6:1 
0.0663036356561353 1:81558 2:111508 3:3 4:12 5:0.6 6:1 
0.06553918241553018 1:66918 2:66922 3:2 4:6 5:1 6:1 
0.06553918241553018 1:33076 2:95977 3:5 4:17 5:0.29411765 6:1 
0.06562500583796597 1:111613 2:111614 3:1 4:4 5:1 6:1 
0.06562500583796597 1:111773 2:111774 3:1 4:4 5:1 6:1 
0.06565464141190981 1:84654 2:109970 3:1 4:4 5:0.5 6:0.5 
0.06565464130601506 1:111797 2:111799 3:1 4:4 5:1 6:1 
0.06542698841542345 1:36664 2:36665 3:2 4:5 5:0.66666667 6:0.5 
0.06640616436266594 1:59688 2:111700 3:1 4:4 5:0.25 6:1 
0.06640624854050721 1:46743 2:112141 3:2 4:8 5:0.33333333 6:1 
0.06640624999997022 1:41449 2:79462 3:1 4:4 5:0.16666667 6:0.33333333 
0.06640625 1:112321 2:112323 3:1 4:4 5:1 6:1 
0.06640625 1:13449 2:112506 3:1 4:4 5:0.33333333 6:1 
0.06640625 1:3401 2:112551 3:1 4:4 5:0.1 6:1 
0.06640625 1:112580 2:112581 3:1 4:4 5:1 6:1 
0.06640625 1:2034 2:56648 3:1 4:4 5:1 6:1 
0.06640625 1:39240 2:98578 3:2 4:7 5:0.28571429 6:1 
0.06640625 1:28131 2:112803 3:1 4:4 5:0.33333333 6:1 
0.06640625 1:112935 2:112952 3:1 4:4 5:0.25 6:1 
0.06640625 1:51070 2:112986 3:1 4:4 5:0.5 6:1 
0.06640625 1:113030 2:113031 3:1 4:4 5:1 6:1 
0.06640625 1:6457 2:113048 3:1 4:4 5:0.33333333 6:1 
0.06640625 1:20165 2:113066 3:1 4:4 5:0.5 6:1 
0.06640625 1:40121 2:40124 3:4 4:13 5:0.57142857 6:1 
0.06607507208725623 1:113178 2:113180 3:1 4:4 5:1 6:1 
0.06607507218802963 1:2461 2:96997 3:3 4:10 5:0.5 6:1 
0.06607507218802963 1:63024 2:113233 3:1 4:4 5:0.2 6:1 
0.06614248605420464 1:38826 2:38829 3:2 4:6 5:0.25 6:1 
0.06581432965641432 1:113265 2:113266 3:1 4:4 5:1 6:1 
0.06581432965641432 1:84471 2:84495 3:3 4:11 5:0.75 6:1 
0.06582976754899569 1:9298 2:31543 3:1 4:4 5:0.14285714 6:1 
0.06582976921159514 1:63115 2:63825 3:4 4:12 5:0.33333333 6:1 
0.06607513780476401 1:113605 2:113606 3:1 4:4 5:1 6:1 
0.06607513780476401 1:1832 2:47743 3:1 4:4 5:0.33333333 6:0.16666667 
0.06620643811284456 1:2275 2:113849 3:1 4:4 5:0.16666667 6:1 
0.06607507295898034 1:113905 2:113906 3:1 4:4 5:1 6:1 
0.06542698175607926 1:41617 2:41618 3:5 4:15 5:1 6:0.83333333 
0.06542698175607926 1:113964 2:113965 3:1 4:4 5:1 6:1 
0.06542698175607926 1:9558 2:108236 3:2 4:8 5:0.22222222 6:1 
0.06542698175607926 1:114093 2:114094 3:1 4:4 5:1 6:1 
0.06565607618949923 1:14077 2:114137 3:1 4:4 5:0.2 6:1 
0.06565607616589791 1:95283 2:114216 3:2 4:8 5:0.66666667 6:1 
0.0658938152448898 1:15485 2:114277 3:1 4:4 5:0.090909091 6:1 
0.06640590747037542 1:52090 2:114484 3:1 4:4 5:0.33333333 6:1 
0.06640595028481858 1:114494 2:114495 3:1 4:4 5:1 6:1 
0.0664059931011388 1:114249 2:114253 3:2 4:8 5:1 6:1 
0.06640607872908647 1:114524 2:114526 3:1 4:4 5:1 6:1 
0.06640607872908647 1:4405 2:21979 3:4 4:10 5:0.36363636 6:0.26666667 
0.06640607872908647 1:60336 2:79451 3:3 4:11 5:0.6 6:1 
0.06640616436266594 1:90668 2:114743 3:1 4:4 5:0.33333333 6:1 
0.06640616436266594 1:74360 2:114783 3:1 4:4 5:0.5 6:1 
0.06640616436266594 1:13352 2:48236 3:1 4:4 5:0.2 6:0.25 
0.06640616436266594 1:13352 2:92983 3:1 4:4 5:0.2 6:0.5 
0.06640616436548191 1:94320 2:114934 3:1 4:4 5:0.33333333 6:1 
0.06640616436548191 1:88765 2:115005 3:1 4:4 5:0.33333333 6:1 
0.06640624392871031 1:39360 2:115050 3:1 4:4 5:0.25 6:1 
0.06640624416203457 1:20195 2:115130 3:1 4:4 5:0.076923077 6:1 
0.06640624489177974 1:39192 2:115133 3:1 4:4 5:0.076923077 6:1 
0.0664062449168871 1:222 2:102765 3:2 4:7 5:0.33333333 6:1 
0.06640624562152544 1:115230 2:115234 3:1 4:4 5:1 6:1 
0.06640624708101552 1:103000 2:115358 3:1 4:4 5:0.5 6:1 
0.06640624708101552 1:41601 2:115540 3:1 4:4 5:0.33333333 6:1 
0.06640624708101552 1:115269 2:115276 3:1 4:4 5:1 6:1 
0.06640624828490889 1:73289 2:73290 3:3 4:9 5:1 6:0.6 
0.06640624828490889 1:115639 2:115640 3:1 4:4 5:1 6:0.5 
0.06640624854050721 1:94215 2:115663 3:1 4:4 5:0.5 6:1 
0.06640624854050721 1:89710 2:115732 3:3 4:12 5:0.6 6:1 
0.06640624854050721 1:103357 2:103376 3:3 4:11 5:1 6:1 
0.06640624854050721 1:115819 2:115820 3:1 4:4 5:1 6:1 
0.06640624854050803 1:73538 2:115916 3:1 4:4 5:0.33333333 6:1 
0.06640624854050803 1:898 2:115924 3:1 4:4 5:0.25 6:1 
0.0664062499998809 1:30752 2:99281 3:2 4:7 5:0.66666667 6:1 
0.06640624999989579 1:17700 2:99794 3:1 4:4 5:0.5 6:0.5 
0.06640624999991068 1:4921 2:116047 3:1 4:4 5:0.33333333 6:1 
0.06640624999994045 1:116167 2:116168 3:1 4:4 5:1 6:1 
0.06640624999994045 1:41045 2:44270 3:1 4:4 5:0.5 6:0.33333333 
0.06640624999994045 1:64918 2:116292 3:1 4:4 5:1 6:1 
0.06640624999997022 1:40254 2:116310 3:1 4:4 5:0.5 6:1 
0.06640624999997022 1:116324 2:116326 3:1 4:4 5:1 6:1 
0.06640624999997022 1:56548 2:116352 3:1 4:4 5:0.5 6:1 
0.06640624999997022 1:8018 2:116533 3:1 4:4 5:0.5 6:1 
0.06640624999997022 1:1465 2:98447 3:2 4:7 5:0.16666667 6:1 
0.06640624999997022 1:85918 2:116717 3:1 4:4 5:0.5 6:1 
0.06640625 1:37246 2:39084 3:1 4:4 5:0.5 6:0.5 
0.06640625 1:28311 2:96283 3:2 4:7 5:0.66666667 6:1 
0.06640625 1:2411 2:6667 3:1 4:4 5:0.052631579 6:0.5 
0.06640625 1:14666 2:116915 3:1 4:4 5:1 6:1 
0.06640625 1:22289 2:117034 3:1 4:4 5:0.33333333 6:1 
0.06640625 1:117166 2:117167 3:1 4:4 5:1 6:1 
0.06640625 1:117247 2:117250 3:1 4:4 5:1 6:1 
0.06640625 1:7336 2:117275 3:1 4:4 5:0.2 6:1 
0.06640625 1:95354 2:95355 3:2 4:7 5:1 6:1 
0.06640625 1:57958 2:57960 3:2 4:6 5:1 6:1 
0.06640625 1:10482 2:58826 3:2 4:6 5:0.11764706 6:1 
0.06640625 1:117384 2:117386 3:1 4:4 5:1 6:1 
0.06640625 1:12783 2:88610 3:2 4:7 5:0.28571429 6:1 
0.06640625 1:40921 2:40922 3:2 4:6 5:0.4 6:1 
0.06640625 1:28642 2:115935 3:1 4:4 5:0.25 6:0.5 
0.06640625 1:117530 2:117531 3:1 4:4 5:1 6:1 
0.06640625 1:117566 2:117568 3:1 4:4 5:1 6:1 
0.06640625 1:77518 2:77521 3:2 4:7 5:1 6:1 
0.06640625 1:63511 2:117621 3:1 4:4 5:1 6:1 
0.06640625 1:117672 2:117674 3:1 4:4 5:1 6:1 
0.06640625 1:25995 2:117710 3:1 4:4 5:0.083333333 6:1 
0.06640625 1:26340 2:117796 3:1 4:4 5:0.125 6:1 
0.06640625 1:8030 2:115739 3:1 4:4 5:0.33333333 6:0.5 
0.06640625 1:117804 2:117805 3:1 4:4 5:1 6:1 
0.0656546347997915 1:117810 2:117813 3:1 4:4 5:1 6:1 
0.06565463638064994 1:117814 2:117815 3:1 4:4 5:1 6:1 
0.06640625 1:25382 2:25383 3:4 4:11 5:0.5 6:1 
0.06640625 1:19024 2:30796 3:2 4:7 5:0.4 6:0.33333333 
0.06640625 1:15774 2:99187 3:1 4:4 5:1 6:1 
0.06640625 1:4497 2:117256 3:1 4:4 5:0.090909091 6:0.5 
0.06640625 1:58533 2:58534 3:4 4:12 5:1 6:1 
0.06640625 1:3242 2:3259 3:2 4:5 5:0.15384615 6:0.25 
0.06640625 1:69805 2:118552 3:1 4:4 5:0.5 6:1 
0.06640625 1:118632 2:118638 3:1 4:4 5:1 6:1 
0.06640625 1:118671 2:118672 3:1 4:4 5:1 6:1 
0.06640625 1:31039 2:118771 3:1 4:4 5:0.2 6:1 
0.06640625 1:118811 2:118812 3:1 4:4 5:1 6:1 
0.06640625 1:113737 2:118816 3:1 4:4 5:0.5 6:1 
0.06640625 1:12757 2:30091 3:1 4:4 5:0.076923077 6:0.25 
0.06640625 1:57989 2:104815 3:3 4:11 5:0.75 6:1 
0.06640625 1:119001 2:119002 3:1 4:4 5:1 6:1 
0.06640625 1:109938 2:119090 3:1 4:4 5:1 6:1 
0.06640625 1:78390 2:119165 3:1 4:4 5:0.33333333 6:1 
0.06640625 1:119194 2:119197 3:1 4:4 5:1 6:1 
0.06640625 1:18762 2:119203 3:1 4:4 5:0.2 6:1 
0.06640625 1:9392 2:9393 3:4 4:9 5:0.66666667 6:1 
0.06640625 1:44847 2:119274 3:1 4:4 5:0.5 6:1 
0.06640625 1:119287 2:119288 3:2 4:8 5:1 6:1 
0.06640625 1:19656 2:119326 3:1 4:4 5:1 6:1 
0.06640625 1:39071 2:82303 3:1 4:4 5:0.5 6:0.5 
0.06640625 1:119483 2:119484 3:1 4:4 5:1 6:1 
0.06640625 1:80824 2:119539 3:1 4:4 5:0.2 6:1 
0.06640625 1:119603 2:119604 3:1 4:4 5:1 6:1 
0.06640625 1:33986 2:119645 3:1 4:4 5:1 6:1 
0.06640625 1:41619 2:119680 3:1 4:4 5:0.16666667 6:1 
0.06640625 1:119722 2:119723 3:1 4:4 5:0.5 6:1 
0.06640625 1:119729 2:119730 3:1 4:4 5:1 6:1 
0.06640625 1:119688 2:119739 3:2 4:8 5:1 6:1 
0.06640625 1:9256 2:119784 3:1 4:4 5:0.33333333 6:1 
0.06640625 1:101410 2:101412 3:4 4:15 5:1 6:1 
0.06640625 1:70008 2:120024 3:1 4:4 5:0.33333333 6:1 
0.06640625 1:11472 2:120030 3:1 4:4 5:0.066666667 6:1 
0.06640625 1:4321 2:97785 3:1 4:4 5:0.16666667 6:0.5 
0.06640625 1:101296 2:120049 3:1 4:4 5:1 6:1 
0.06640625 1:22602 2:120074 3:1 4:4 5:0.14285714 6:1 
0.06640625 1:93977 2:120129 3:1 4:4 5:0.16666667 6:1 
0.06640625 1:13603 2:68583 3:1 4:4 5:0.071428571 6:0.33333333 
0.06640625 1:120359 2:120360 3:1 4:4 5:1 6:1 
0.06640625 1:120387 2:120388 3:1 4:4 5:1 6:1 
0.06640625 1:53660 2:120384 3:1 4:4 5:0.5 6:1 
0.06640625 1:120472 2:120474 3:1 4:4 5:1 6:1 
0.06640625 1:43207 2:95486 3:4 4:15 5:0.30769231 6:0.8 
0.06640625 1:14638 2:114192 3:2 4:8 5:0.5 6:1 
0.06640625 1:16092 2:94419 3:1 4:4 5:0.33333333 6:0.5 
0.06640625 1:28115 2:48173 3:1 4:4 5:0.16666667 6:0.33333333 
0.06640625 1:94751 2:120624 3:1 4:4 5:0.5 6:1 
0.06640625 1:39919 2:120661 3:1 4:4 5:0.2 6:1 
0.06640625 1:53357 2:94808 3:1 4:4 5:1 6:0.33333333 
0.06640625 1:3092 2:120717 3:1 4:4 5:0.125 6:1 
0.06640625 1:3087 2:3092 3:8 4:22 5:0.8 6:1 
0.06640625 1:4997 2:120768 3:1 4:4 5:0.33333333 6:1 
0.06640625 1:120754 2:120756 3:1 4:4 5:1 6:1 
0.06640625 1:4393 2:103390 3:2 4:7 5:0.28571429 6:1 
0.06640625 1:120937 2:120939 3:1 4:4 5:1 6:1 
0.06640625 1:120925 2:120926 3:1 4:4 5:1 6:1 
0.06640625 1:9427 2:9504 3:3 4:8 5:0.10344828 6:0.75 
0.06640625 1:3390 2:121009 3:1 4:4 5:0.083333333 6:1 
0.06640625 1:69384 2:121102 3:1 4:4 5:0.5 6:1 
0.06640625 1:25755 2:93520 3:1 4:4 5:1 6:0.25 
0.06640625 1:60863 2:121122 3:1 4:4 5:1 6:1 
0.06640625 1:22076 2:22084 3:2 4:5 5:1 6:1 
0.06640625 1:121330 2:121331 3:1 4:4 5:1 6:0.5 
0.06640625 1:95110 2:121414 3:1 4:4 5:0.5 6:1 
0.06640625 1:2576 2:121417 3:1 4:4 5:0.14285714 6:1 
0.06640625 1:33784 2:121467 3:1 4:4 5:1 6:1 
0.06640625 1:50252 2:74929 3:1 4:4 5:0.25 6:0.5 
0.06640625 1:121497 2:121598 3:1 4:4 5:0.5 6:1 
0.06640625 1:57314 2:121500 3:2 4:8 5:0.5 6:0.66666667 
0.06640625 1:60812 2:121722 3:1 4:4 5:0.125 6:1 
0.06640625 1:121780 2:121781 3:1 4:4 5:1 6:1 
0.06640625 1:121852 2:121853 3:1 4:4 5:1 6:1 
0.06640625 1:121885 2:121887 3:1 4:4 5:1 6:1 
0.06640625 1:28024 2:122027 3:1 4:4 5:0.33333333 6:1 
0.06582782411924995 1:122045 2:122050 3:1 4:4 5:1 6:1 
0.06581248926241337 1:122042 2:122048 3:1 4:4 5:1 6:1 
0.04510655360143252 1:122066 2:122068 3:1 4:4 5:1 6:1 
0.04556212817473131 1:122066 2:122067 3:1 4:4 5:1 6:1 
0.06640625 1:122305 2:122307 3:1 4:4 5:1 6:1 
0.06640625 1:28675 2:48238 3:1 4:4 5:0.33333333 6:0.5 
0.06640625 1:67273 2:122427 3:1 4:4 5:0.5 6:1 
0.06640625 1:122472 2:122473 3:1 4:4 5:1 6:1 
0.06640625 1:122485 2:122486 3:1 4:4 5:1 6:1 
0.06640625 1:122645 2:122647 3:1 4:4 5:1 6:1 
0.06640625 1:122912 2:122913 3:1 4:4 5:1 6:1 
0.06640625 1:123187 2:123188 3:1 4:4 5:1 6:1 
0.06640625 1:123251 2:123253 3:1 4:4 5:1 6:1 
0.06640625 1:86492 2:123234 3:1 4:4 5:1 6:1 
0.06640625 1:48081 2:51888 3:1 4:4 5:0.5 6:0.5 
0.06640625 1:123442 2:123458 3:1 4:4 5:1 6:1 
0.06640625 1:123529 2:123530 3:1 4:4 5:1 6:1 
0.06640625 1:26343 2:123557 3:1 4:4 5:0.33333333 6:1 
0.06640625 1:27455 2:27459 3:4 4:12 5:1 6:1 
0.06640625 1:123729 2:123735 3:2 4:8 5:0.66666667 6:1 
0.06640625 1:4850 2:60303 3:1 4:4 5:0.11111111 6:0.33333333 
0.06601038249221433 1:22394 2:89560 3:2 4:7 5:0.33333333 6:1 
0.06601038249221433 1:81560 2:81561 3:3 4:11 5:1 6:1 
0.0658938152448898 1:20154 2:20155 3:6 4:19 5:0.75 6:0.6 
0.06565464541381549 1:123914 2:123916 3:1 4:4 5:1 6:1 
0.06562500583796597 1:7401 2:123927 3:1 4:4 5:0.2 6:1 
0.06563396317982635 1:68912 2:68913 3:2 4:6 5:1 6:1 
0.06562500686036156 1:124184 2:124185 3:1 4:4 5:1 6:1 
0.06544239298906751 1:41984 2:82234 3:2 4:8 5:0.5 6:0.66666667 
0.06587136639939647 1:22909 2:124316 3:1 4:4 5:0.5 6:1 
0.06589032536809883 1:79072 2:124383 3:1 4:4 5:0.33333333 6:1 
0.06582987233300222 1:124407 2:124408 3:1 4:4 5:1 6:1 
0.0662895657033154 1:23533 2:124514 3:1 4:4 5:0.33333333 6:1 
0.06630363565613531 1:3915 2:124683 3:1 4:4 5:0.33333333 6:1 
0.06562500583796597 1:64668 2:124747 3:2 4:8 5:1 6:1 
0.06565464130601506 1:29184 2:82697 3:1 4:4 5:1 6:0.5 
0.06640625 1:45544 2:124890 3:1 4:4 5:0.25 6:1 
0.06640625 1:55669 2:78681 3:1 4:4 5:1 6:0.5 
0.06640625 1:124946 2:124961 3:1 4:4 5:1 6:1 
0.06640625 1:125186 2:125187 3:1 4:4 5:1 6:1 
0.06640625 1:67538 2:125200 3:1 4:4 5:0.5 6:1 
0.06640625 1:65091 2:125411 3:1 4:4 5:0.33333333 6:1 
0.06607507208725623 1:125430 2:125433 3:1 4:4 5:1 6:1 
0.06601993059317468 1:14498 2:125567 3:1 4:4 5:0.5 6:1 
0.06542698175607926 1:5511 2:125692 3:1 4:4 5:0.052631579 6:1 
0.06542698175607926 1:126035 2:126036 3:1 4:4 5:1 6:1 
0.06565607616589791 1:15526 2:80816 3:1 4:4 5:0.5 6:0.14285714 
0.06640595028481858 1:126208 2:126209 3:1 4:4 5:1 6:1 
0.06640607872908647 1:13390 2:32894 3:1 4:4 5:0.125 6:0.33333333 
0.06640607872908647 1:65020 2:126316 3:1 4:4 5:1 6:1 
0.06640616436266594 1:126373 2:126376 3:1 4:4 5:1 6:1 
0.06640616436266594 1:117220 2:126425 3:1 4:4 5:1 6:1 
0.06640616436548191 1:58097 2:126435 3:1 4:4 5:1 6:1 
0.06640624489177974 1:12089 2:97868 3:2 4:7 5:0.18181818 6:1 
0.0664062449168871 1:21412 2:43254 3:2 4:6 5:0.5 6:0.66666667 
0.06640624708101552 1:40364 2:92468 3:1 4:4 5:0.25 6:0.5 
0.06640624708101552 1:126665 2:126669 3:1 4:4 5:1 6:1 
0.06640624828490889 1:17024 2:28851 3:1 4:4 5:0.090909091 6:0.5 
0.06640624854050721 1:70806 2:72989 3:1 4:4 5:0.33333333 6:0.5 
0.06640624854050721 1:33868 2:63617 3:1 4:4 5:0.5 6:0.5 
0.06640624854050803 1:126956 2:126957 3:1 4:4 5:1 6:1 
0.06640624999989579 1:127023 2:127025 3:1 4:4 5:1 6:1 
0.06640624999994045 1:127073 2:127075 3:1 4:4 5:1 6:1 
0.06640624999994045 1:17658 2:53021 3:3 4:10 5:0.23076923 6:1 
0.06640624999997022 1:127325 2:127326 3:1 4:4 5:1 6:1 
0.06640624999997022 1:127388 2:127389 3:1 4:4 5:1 6:1 
0.06640624999997022 1:15701 2:127493 3:1 4:4 5:1 6:1 
0.06640625 1:46160 2:127608 3:1 4:4 5:0.16666667 6:1 
0.06640625 1:14652 2:81062 3:1 4:4 5:0.041666667 6:1 
0.06640625 1:23032 2:61170 3:1 4:4 5:0.33333333 6:0.25 
0.06640625 1:127627 2:127665 3:1 4:4 5:1 6:1 
0.06640625 1:128066 2:128067 3:1 4:4 5:1 6:1 
0.06640625 1:128119 2:128121 3:1 4:4 5:1 6:1 
0.06640625 1:100616 2:128195 3:1 4:4 5:0.5 6:1 
0.06640625 1:73997 2:128349 3:1 4:4 5:1 6:1 
0.06640625 1:87003 2:128414 3:1 4:4 5:0.33333333 6:1 
0.06640625 1:100516 2:128448 3:1 4:4 5:0.5 6:1 
0.06640625 1:128465 2:128467 3:1 4:4 5:1 6:1 
0.06640625 1:51031 2:128465 3:1 4:4 5:0.5 6:1 
0.06640625 1:44080 2:128539 3:1 4:4 5:1 6:1 
0.06640625 1:128598 2:128607 3:1 4:4 5:1 6:1 
0.06640625 1:128637 2:128638 3:1 4:4 5:1 6:1 
0.06640625 1:5920 2:128647 3:1 4:4 5:0.11111111 6:1 
0.06640625 1:19232 2:40398 3:4 4:11 5:0.66666667 6:1 
0.06640625 1:48993 2:80227 3:1 4:4 5:1 6:0.2 
0.06640625 1:67 2:128868 3:1 4:4 5:1 6:1 
0.06640625 1:103031 2:103044 3:2 4:7 5:1 6:1 
0.06640625 1:77453 2:128991 3:1 4:4 5:0.5 6:1 
0.06640625 1:33386 2:36525 3:1 4:4 5:0.5 6:1 
0.06640625 1:129131 2:129132 3:1 4:4 5:1 6:1 
0.06640625 1:5984 2:87924 3:2 4:7 5:0.5 6:1 
0.06589032536809883 1:5848 2:129147 3:1 4:4 5:0.33333333 6:1 
0.06589032536809883 1:129497 2:129498 3:1 4:4 5:1 6:1 
0.06589032536809883 1:46245 2:129291 3:3 4:12 5:0.42857143 6:1 
0.06589032536809883 1:104320 2:129674 3:1 4:4 5:0.5 6:1 
0.06587136639939647 1:93813 2:93815 3:2 4:7 5:0.66666667 6:1 
0.06587136639939647 1:129896 2:129899 3:1 4:4 5:1 6:1 
0.06587136639939647 1:45281 2:129825 3:1 4:4 5:0.5 6:1 
0.06585524346649313 1:129838 2:130095 3:2 4:8 5:1 6:1 
0.06585357601943548 1:130101 2:130133 3:1 4:4 5:0.33333333 6:1 
0.04510655360143252 1:130023 2:130024 3:2 4:8 5:1 6:1 
0.04556212817473131 1:130022 2:130024 3:2 4:8 5:1 6:1 
0.06585357601943548 1:130158 2:130164 3:1 4:4 5:1 6:1 
0.06585357601943548 1:9103 2:130185 3:1 4:4 5:0.33333333 6:1 
0.06581898167817471 1:14095 2:130257 3:1 4:4 5:0.2 6:1 
0.06581511144644087 1:130435 2:130436 3:1 4:4 5:0.33333333 6:1 
0.06581509141086922 1:130670 2:130671 3:1 4:4 5:1 6:1 
0.06581460834379751 1:130748 2:130750 3:2 4:8 5:1 6:1 
0.06581451624911472 1:130488 2:130761 3:1 4:4 5:0.5 6:1 
0.06581451624911472 1:36135 2:87047 3:2 4:7 5:0.33333333 6:1 
0.06581451624911472 1:34865 2:130883 3:1 4:4 5:0.2 6:1 
0.06581449256649669 1:130705 2:130707 3:2 4:8 5:1 6:1 
0.06581449256649669 1:26039 2:58587 3:1 4:4 5:0.14285714 6:0.25 
0.06581448332222845 1:131092 2:131094 3:1 4:4 5:1 6:1 
0.06581448332222845 1:2352 2:131211 3:1 4:4 5:0.066666667 6:1 
0.06581443136117819 1:94855 2:131217 3:1 4:4 5:0.5 6:1 
0.06581441771967073 1:14373 2:131348 3:1 4:4 5:0.5 6:1 
0.06581432965641432 1:131500 2:131502 3:1 4:4 5:1 6:1 
0.06581432965641432 1:4793 2:5299 3:1 4:4 5:0.090909091 6:0.25 
0.06581432965641432 1:57637 2:131721 3:1 4:4 5:0.5 6:1 
0.04510655360143252 1:131796 2:131798 3:2 4:8 5:1 6:1 
0.04556208677541989 1:131797 2:131798 3:2 4:8 5:1 6:1 
0.06581432965641432 1:3722 2:105546 3:2 4:7 5:0.5 6:0.5 
0.06581432965641432 1:132018 2:132044 3:1 4:4 5:1 6:1 
0.06581432965641432 1:35828 2:131382 3:3 4:12 5:0.21428571 6:1 
0.06581432965641432 1:9724 2:38900 3:1 4:4 5:0.14285714 6:0.5 
0.06581432965641432 1:73045 2:132038 3:1 4:4 5:0.5 6:0.5 
0.0656546374883222 1:14938 2:14939 3:2 4:5 5:0.13333333 6:1 
0.06581432965641432 1:53503 2:132857 3:1 4:4 5:0.5 6:1 
0.06581432965641432 1:18213 2:35947 3:1 4:4 5:0.33333333 6:0.5 
0.06581432965641432 1:5909 2:5911 3:2 4:5 5:1 6:1 
0.06581432965641432 1:63123 2:133070 3:1 4:4 5:1 6:1 
0.06581432965641432 1:133119 2:133121 3:1 4:4 5:1 6:1 
0.06581432965641432 1:2334 2:2336 3:5 4:15 5:1 6:1 
0.06601038249221433 1:18329 2:133419 3:1 4:4 5:0.25 6:1 
0.04510655360241873 1:133445 2:133448 3:1 4:4 5:1 6:1 
0.0455620867752759 1:133445 2:133449 3:1 4:4 5:1 6:1 
0.06565464591284358 1:30129 2:133459 3:1 4:4 5:0.5 6:1 
0.06562500686036156 1:81490 2:101941 3:1 4:4 5:1 6:0.33333333 
0.06551599015318393 1:59385 2:59386 3:4 4:12 5:1 6:1 
0.06589032536809883 1:28003 2:122660 3:1 4:4 5:0.25 6:0.5 
0.06582987233300222 1:69723 2:69724 3:2 4:6 5:1 6:1 
0.06628956851928858 1:120479 2:133735 3:1 4:4 5:0.5 6:1 
0.06565464071126781 1:3466 2:48061 3:1 4:4 5:0.2 6:0.33333333 
