svm_type c_svc
kernel_type rbf
gamma 3.05176e-05
nr_class 2
total_sv 258
rho 11.9924
label 1 -1
nr_sv 127 131
SV
128 1:-2.55814 2:-10 3:-5.42056 4:-8.73684 5:-2.98805 6:-9.33333 7:-2.6 8:-10 9:10 10:10 11:10 12:-10 13:-10 14:-10 15:-10 16:-10 17:-9.82492 18:10 19:-9.57647 20:-9.90981 21:-7.28938 22:-9.81786 23:-9.69159 24:-7.32331 25:-9.90345 26:10 27:-10 28:-10 29:-10 30:-10 
128 1:-7.44186 2:-8.77551 3:-8.8785 4:-8.73684 5:-8.24701 6:-9 7:-7.3 8:-8.96296 9:10 10:10 11:10 12:3.33333 13:0.666667 14:-1.42857 15:-8.18182 16:-8.49057 17:-5.33333 18:4.87179 19:-3 20:-7.50961 21:-4.11966 22:-6.55961 23:-8.54781 24:-7.32331 25:-6.5702 26:2.22727 27:3.33333 28:0.666667 29:-1.42857 30:-10 
128 1:-7.44186 2:-8.77551 3:-7.85047 4:-8.10526 5:-5.93625 6:-8.22222 7:-7.5 8:-8.81481 9:10 10:10 11:10 12:10 13:10 14:10 15:-7.27273 16:-6.98113 17:-3.62963 18:10 19:-0.4 20:-8.58713 21:-5.42484 22:-7.89291 23:-9.25623 24:-8.18947 25:-3.18966 26:10 27:10 28:10 29:10 30:-10 
128 1:-9.30233 2:-3.87755 3:-8.59813 4:0.315789 5:-7.68924 6:-0.888889 7:-9.1 8:-4.66667 9:10 10:10 11:10 12:10 13:10 14:10 15:-7.27273 16:-6.60377 17:10 18:-5.38462 19:-2.48 20:-7.45125 21:-9.19885 22:-8.80663 23:-8.83762 24:-9.80632 25:10 26:-5.12531 27:10 28:10 29:10 30:-10 
38.97874363393341 1:-1.62791 2:-5.5102 3:-2.61682 4:-6.21053 5:1.15538 6:-6.77778 7:-0.2 8:-5.11111 9:10 10:10 11:10 12:10 13:10 14:10 15:-7.27273 16:-7.35849 17:-8.23423 18:-3.67521 19:-7.40408 20:-9.56482 21:-7.48148 22:-9.29264 23:-9.84229 24:-9.14681 25:-8.54232 26:-5.85027 27:10 28:10 29:10 30:-8.46154 
128 1:-5.81395 2:-5.91837 3:-7.38318 4:-7.68421 5:-6.1753 6:-7.33333 7:-6.7 8:-6.59259 9:10 10:10 11:10 12:10 13:10 14:10 15:-8.18182 16:-8.11321 17:-7.21637 18:-4.91841 19:-6.64 20:-8.90323 21:-7.75043 22:-8.59848 23:-9.40058 24:-8.52632 25:-6.61258 26:-5.54545 27:10 28:10 29:10 30:-10 
128 1:-8.83721 2:-8.77551 3:-9.06542 4:-7.89474 5:-8.32669 6:-8.22222 7:-8.8 8:-8.96296 9:10 10:10 11:10 12:10 13:10 14:10 15:-9.09091 16:-8.49057 17:-3.62963 18:-0.25641 19:-2.48 20:-8.3055 21:-7.79789 22:-8.16367 23:-8.26678 24:-8.37321 25:-2.41379 26:2.22727 27:10 28:10 29:10 30:-8.46154 
128 1:-8.13953 2:-6.73469 3:-8.97196 4:-8.31579 5:-8.00797 6:-7 7:-8.4 8:-7.62963 9:10 10:10 11:10 12:3.33333 13:0.666667 14:-1.42857 15:-7.27273 16:-8.49057 17:-1.35802 18:-1.39601 19:-1.55556 20:-7.0382 21:-7.28938 22:-7.24107 23:-8.419 24:-7.96491 25:-4.23935 26:-4.63102 27:3.33333 28:0.666667 29:-1.42857 30:-8.46154 
64.26042210153634 1:-5.5814 2:-9.18367 3:-7.85047 4:-9.57895 5:-6.33466 6:-9.55556 7:-5.3 8:-9.11111 9:10 10:10 11:10 12:10 13:10 14:10 15:-8.18182 16:-7.73585 17:-7.37778 18:10 19:-5.37391 20:-8.85077 21:1.93162 22:-7.90419 23:-9.25623 24:-3.47368 25:-7.2306 26:10 27:10 28:10 29:10 30:-8.46154 
128 1:-9.30233 2:-10 3:-9.53271 4:-9.78947 5:-9.52191 6:-9.88889 7:-9 8:-10 9:10 10:10 11:10 12:-10 13:-10 14:-10 15:-10 16:-10 17:-5.33333 18:10 19:-2.48 20:-7.25948 21:-0.0854701 22:-5.74185 23:-6.74455 24:-0.105263 25:-8.33856 26:10 27:-10 28:-10 29:-10 30:-10 
128 1:-6.04651 2:-10 3:-8.2243 4:-9.78947 5:-6.33466 6:-9.88889 7:-6 8:-10 9:10 10:10 11:10 12:-10 13:-10 14:-10 15:-10 16:-10 17:-9.30864 18:10 19:-8.61053 20:-9.70763 21:-0.0854701 22:-9.41342 23:-9.08879 24:-0.105263 25:-9.6804 26:10 27:-10 28:-10 29:-10 30:-10 
128 1:-9.53488 2:-7.14286 3:-9.71963 4:-7.68421 5:-9.44223 6:-8 7:-9.7 8:-7.92593 9:-3.33333 10:-6 11:-7.14286 12:10 13:10 14:10 15:-8.18182 16:-8.86792 17:10 18:-2.82051 19:0.545455 20:-2.58503 21:-6.98605 22:-5.74185 23:-5.07009 24:-8.52632 25:10 26:-5.2 27:10 28:10 29:10 30:-10 
128 1:-5.34884 2:-8.77551 3:-6.54206 4:-8.52632 5:-3.86454 6:-8.44444 7:-5.3 8:-8.51852 9:10 10:10 11:10 12:10 13:10 14:10 15:-7.27273 16:-6.22642 17:-6.55026 18:10 19:-4.144 20:-9.10344 21:-4.79202 22:-8.49849 23:-9.56468 24:-7.68421 25:-5.54957 26:10 27:10 28:10 29:10 30:-10 
128 1:-9.30233 2:-10 3:-9.43925 4:-9.78947 5:-9.44223 6:-9.88889 7:-9.5 8:-10 9:3.33333 10:0.666667 11:-1.42857 12:-10 13:-10 14:-10 15:-10 16:-10 17:-5.33333 18:10 19:-2.48 20:-7.61905 21:-0.0854701 22:-6.19162 23:-7.22296 24:-0.105263 25:-6.81034 26:10 27:-10 28:-10 29:-10 30:-10 
128 1:0.465116 2:-9.18367 3:-5.23364 4:-8.94737 5:0.199203 6:-9.22222 7:1.6 8:-8.96296 9:10 10:10 11:10 12:10 13:10 14:10 15:-10 16:-10 17:-10 18:-3.67521 19:-9.95102 20:-9.97996 21:-7.64957 22:-9.94405 23:-9.70705 24:-6.84211 25:-10 26:-8.13636 27:10 28:10 29:10 30:-10 
128 1:-9.76744 2:-8.77551 3:-9.81308 4:-7.68421 5:-9.84064 6:-8.55556 7:-9.9 8:-8.81481 9:-10 10:-10 11:-10 12:10 13:10 14:10 15:-10 16:-10 17:-0.222222 18:-5.38462 19:-3.86667 20:-3.42404 21:-8.73016 22:-7.8584 23:-3.39564 24:-8.52632 25:-0.0862069 26:-8.42424 27:10 28:10 29:10 30:-10 
128 1:-7.44186 2:-8.77551 3:-8.03738 4:-8.31579 5:-7.37052 6:-8.55556 7:-7.4 8:-8.96296 9:10 10:10 11:10 12:10 13:10 14:10 15:-7.27273 16:-7.35849 17:-3.62963 18:10 19:-0.4 20:-7.76711 21:-4.40781 22:-6.86627 23:-9.18012 24:-7.96491 25:-4.1954 26:10 27:10 28:10 29:10 30:-8.46154 
128 1:-9.06977 2:-6.73469 3:-9.15888 4:-6.63158 5:-8.64542 6:-7.11111 7:-9.4 8:-7.33333 9:-3.33333 10:-6 11:-7.14286 12:10 13:10 14:10 15:-7.27273 16:-8.11321 17:5.91111 18:-1.39601 19:1.08571 20:-5.66138 21:-7.18265 22:-6.64138 23:-8.08411 24:-9.02167 25:7.11823 26:-4.18182 27:10 28:10 29:10 30:-10 
128 1:-9.53488 2:-6.32653 3:-9.81308 4:-8.52632 5:-9.36255 6:-7.55556 7:-9.6 8:-8.07407 9:3.33333 10:0.666667 11:-1.42857 12:3.33333 13:0.666667 14:-1.42857 15:-8.18182 16:-8.49057 17:10 18:-4.35897 19:-1.2 20:-3.42404 21:-7.53995 22:-6.44461 23:-3.39564 24:-7.68421 25:10 26:-3.32468 27:3.33333 28:0.666667 29:-1.42857 30:-10 
128 1:-7.44186 2:-9.59184 3:-8.31776 4:-9.15789 5:-7.21116 6:-9.22222 7:-7 8:-9.40741 9:10 10:10 11:10 12:3.33333 13:0.666667 14:-1.42857 15:-9.09091 16:-8.49057 17:-7.03704 18:10 19:-4.85714 20:-9.01738 21:-5.12821 22:-8.39956 23:-9.03591 24:-6.16842 25:-6.9188 26:10 27:3.33333 28:0.666667 29:-1.42857 30:-10 
128 1:-9.53488 2:-6.32653 3:-9.90654 4:-7.89474 5:-9.84064 6:-8.55556 7:-9.4 8:-6.14815 9:3.33333 10:0.666667 11:-1.42857 12:10 13:10 14:10 15:-9.09091 16:-8.86792 17:3.18519 18:-6.41026 19:-4.4 20:3.28798 21:-7.28938 22:-5.47728 23:-0.046729 24:-8.37321 25:1.35468 26:-7.65657 27:10 28:10 29:10 30:-10 
128 1:-4.65116 2:1.02041 3:-7.38318 4:3.89474 5:-5.2988 6:2.44444 7:-5.4 8:1.11111 9:10 10:10 11:10 12:10 13:10 14:10 15:-8.18182 16:-8.49057 17:-7.88889 18:-8.31502 19:-8.4 20:-9.12925 21:-9.63543 22:-9.53757 23:-9.40058 24:-9.90888 25:-8.02641 26:-9.36364 27:10 28:10 29:10 30:-8.46154 
128 1:-0.697674 2:-9.18367 3:-5.23364 4:-9.36842 5:-0.199203 6:-9.22222 7:0.4 8:-9.25926 9:10 10:10 11:10 12:-3.33333 13:-6 14:-7.14286 15:-8.18182 16:-8.11321 17:-8.94851 18:10 19:-7.96364 20:-9.64889 21:-2.60684 22:-9.31954 23:-9.70705 24:-5.15789 25:-9.0197 26:10 27:-3.33333 28:-6 29:-7.14286 30:-10 
128 1:-6.97674 2:-7.14286 3:-7.75701 4:-6.84211 5:-6.09562 6:-7.44444 7:-6.6 8:-7.33333 9:10 10:10 11:10 12:10 13:10 14:10 15:-8.18182 16:-6.60377 17:-6.06349 18:-2.82051 19:-5.12727 20:-8.92789 21:-7.64957 22:-8.59848 23:-9.28972 24:-8.94737 25:-4.40887 26:0.181818 27:10 28:10 29:10 30:-10 
128 1:-10 2:-9.18367 3:-9.62617 4:-7.68421 5:-9.68127 6:-8.66667 7:-9.9 8:-8.66667 9:-3.33333 10:-6 11:-7.14286 12:10 13:10 14:10 15:-10 16:-9.62264 17:10 18:-3.67521 19:-0.4 20:-6.10884 21:-8.61933 22:-7.99069 23:-6.07477 24:-8.52632 25:10 26:-6.58182 27:10 28:10 29:10 30:-10 
128 1:-7.44186 2:-9.59184 3:-8.13084 4:-9.78947 5:-7.37052 6:-9.66667 7:-6.5 8:-9.55556 9:10 10:10 11:10 12:-3.33333 13:-6 14:-7.14286 15:-9.09091 16:-8.86792 17:-7.03704 18:10 19:-4.85714 20:-8.95158 21:-0.0854701 22:-8.10905 23:-9.13663 24:-0.105263 25:-7.93103 26:10 27:-3.33333 28:-6 29:-7.14286 30:-10 
128 1:-10 2:-10 3:-9.53271 4:-8.94737 5:-9.60159 6:-9.44444 7:-9.9 8:-9.85185 9:-3.33333 10:-6 11:-7.14286 12:-3.33333 13:-6 14:-7.14286 15:-10 16:-9.62264 17:10 18:10 19:10 20:-6.78005 21:-6.80912 22:-6.86627 23:-6.74455 24:-6.84211 25:10 26:10 27:-3.33333 28:-6 29:-7.14286 30:-10 
128 1:-10 2:-10 3:-9.15888 4:-8.10526 5:-9.28287 6:-9 7:-9.9 8:-9.85185 9:-3.33333 10:-6 11:-7.14286 12:-3.33333 13:-6 14:-7.14286 15:-10 16:-9.62264 17:10 18:10 19:10 20:-8.12245 21:-8.15385 22:-8.21557 23:-8.08411 24:-8.18947 25:10 26:10 27:-3.33333 28:-6 29:-7.14286 30:-10 
128 1:-7.44186 2:-7.55102 3:-7.57009 4:-8.10526 5:-7.05179 6:-8.11111 7:-7.7 8:-7.77778 9:10 10:10 11:10 12:3.33333 13:0.666667 14:-1.42857 15:-6.36364 16:-6.60377 17:-1.92593 18:4.13919 19:0.147368 20:-7.48657 21:-4.5679 22:-6.62532 23:-9.34926 24:-8.18947 25:-1.76724 26:2.22727 27:3.33333 28:0.666667 29:-1.42857 30:-8.46154 
128 1:-6.74419 2:-9.59184 3:-7.85047 4:-9.36842 5:-6.25498 6:-9.22222 7:-6 8:-9.55556 9:10 10:10 11:10 12:-3.33333 13:-6 14:-7.14286 15:-9.09091 16:-8.86792 17:-7.71852 18:10 19:-5.90588 20:-9.29705 21:-5.12821 22:-8.79384 23:-9.25623 24:-5.15789 25:-8.20437 26:10 27:-3.33333 28:-6 29:-7.14286 30:-10 
128 1:-9.30233 2:-8.77551 3:-9.15888 4:-7.68421 5:-8.88446 6:-8.33333 7:-8.7 8:-8.07407 9:10 10:10 11:10 12:10 13:10 14:10 15:-8.18182 16:-6.60377 17:4.88889 18:4.87179 19:4.8 20:-6.10884 21:-6.38889 22:-6.32219 23:-8.08411 24:-8.52632 25:4.23645 26:4.07792 27:10 28:10 29:10 30:-10 
31.73970060291452 1:-8.83721 2:-7.14286 3:-10 4:-9.57895 5:-9.60159 6:-9.11111 7:-9 8:-7.77778 9:3.33333 10:0.666667 11:-1.42857 12:3.33333 13:0.666667 14:-1.42857 15:-5.45455 16:-6.22642 17:10 18:4.87179 19:7.02857 20:10 21:3.27635 22:5.9521 23:10 24:-3.47368 25:10 26:3.52273 27:3.33333 28:0.666667 29:-1.42857 30:-8.46154 
93.9144566735884 1:-5.34884 2:-8.77551 3:-6.91589 4:-9.57895 5:-5.21912 6:-9.11111 7:-4.5 8:-8.81481 9:10 10:10 11:10 12:10 13:10 14:10 15:-7.27273 16:-6.98113 17:-6.55026 18:10 19:-4.144 20:-8.81566 21:-1.20608 22:-7.92643 23:-9.50247 24:-3.47368 25:-6.93042 26:10 27:10 28:10 29:10 30:-10 
128 1:-6.27907 2:-8.36735 3:-7.94393 4:-8.94737 5:-5.93625 6:-8.11111 7:-6.1 8:-8.37037 9:10 10:10 11:10 12:10 13:10 14:10 15:-6.36364 16:-5.84906 17:-4.43137 18:10 19:-1.34545 20:-8.1999 21:-4.5679 22:-7.34816 23:-9.21983 24:-6.84211 25:-4.12069 26:10 27:10 28:10 29:10 30:-8.46154 
128 1:-4.88372 2:-5.91837 3:-5.14019 4:-6.21053 5:-4.98008 6:-5.88889 7:-4 8:-6.2963 9:10 10:10 11:10 12:10 13:10 14:10 15:-8.18182 16:-7.73585 17:-7.77778 18:-4.91841 19:-7.12941 20:-9.19218 21:-8.5785 22:-9.04896 23:-9.71434 24:-9.14681 25:-7.85755 26:-5.14685 27:10 28:10 29:10 30:-10 
128 1:-9.30233 2:-7.14286 3:-9.15888 4:-7.68421 5:-9.12351 6:-7.66667 7:-9.2 8:-7.03704 9:3.33333 10:0.666667 11:-1.42857 12:10 13:10 14:10 15:-9.09091 16:-8.49057 17:-0.222222 18:-5.38462 19:-3.86667 20:-6.78005 21:-8.33722 22:-7.8584 23:-8.08411 24:-8.52632 25:1.03448 26:-5.79221 27:10 28:10 29:10 30:-10 
128 1:-9.06977 2:-8.77551 3:-9.25234 4:-9.15789 5:-8.7251 6:-8.88889 7:-9 8:-8.51852 9:10 10:10 11:10 12:10 13:10 14:10 15:-9.09091 16:-8.86792 17:-2.26667 18:-0.25641 19:-1.55556 20:-7.76711 21:-6.5035 22:-7.34816 23:-7.86085 24:-6.16842 25:-2.83699 26:-3.19008 27:10 28:10 29:10 30:-10 
38.49769942486934 1:-9.30233 2:-7.14286 3:-9.71963 4:-8.73684 5:-9.52191 6:-8.77778 7:-9.2 8:-6.44444 9:10 10:10 11:10 12:10 13:10 14:10 15:-8.18182 16:-7.73585 17:4.88889 18:-2.82051 19:-0.4 20:-1.50632 21:-5.12821 22:-3.84809 23:-5.07009 24:-7.32331 25:5.51724 26:-4.92364 27:10 28:10 29:10 30:-8.46154 
128 1:-6.51163 2:-9.18367 3:-8.97196 4:-9.36842 5:-7.21116 6:-9.33333 7:-6.3 8:-8.96296 9:10 10:10 11:10 12:10 13:10 14:10 15:-8.18182 16:-7.35849 17:-6.61111 18:10 19:-4.23158 20:-8.45805 21:-1.52625 22:-7.4154 23:-8.419 24:-5.15789 25:-5.92559 26:10 27:10 28:10 29:10 30:-10 
128 1:-8.60465 2:-10 3:-8.69159 4:-9.57895 5:-8.16733 6:-9.77778 7:-8.2 8:-9.85185 9:10 10:10 11:10 12:-3.33333 13:-6 14:-7.14286 15:-10 16:-9.62264 17:-7.52381 18:10 19:-5.6 20:-9.29705 21:-3.44729 22:-8.7403 23:-8.75389 24:-3.47368 25:-8.049 26:10 27:-3.33333 28:-6 29:-7.14286 30:-10 
128 1:-9.30233 2:-8.36735 3:-9.62617 4:-9.15789 5:-9.60159 6:-9.33333 7:-9.4 8:-8.66667 9:3.33333 10:0.666667 11:-1.42857 12:3.33333 13:0.666667 14:-1.42857 15:-9.09091 16:-8.49057 17:-0.222222 18:-2.30769 19:-1.55556 20:-3.42404 21:-4.40781 22:-4.01198 23:-6.07477 24:-6.16842 25:4.23645 26:-0.363636 27:3.33333 28:0.666667 29:-1.42857 30:-10 
128 1:-8.60465 2:-8.77551 3:-8.97196 4:-8.94737 5:-8.24701 6:-8.88889 7:-8.3 8:-8.51852 9:10 10:10 11:10 12:10 13:10 14:10 15:-8.18182 16:-7.35849 17:-1.68254 18:4.87179 19:0.545455 20:-7.50961 21:-4.66977 22:-6.66784 23:-8.419 24:-6.84211 25:-1.2069 26:4.34711 27:10 28:10 29:10 30:-10 
128 1:-9.30233 2:-8.36735 3:-9.53271 4:-7.68421 5:-9.20319 6:-8.66667 7:-8.9 8:-7.77778 9:10 10:10 11:10 12:10 13:10 14:10 15:-10 16:-9.62264 17:-5.33333 18:-6.41026 19:-6.17778 20:-8.3055 21:-8.61933 22:-8.55289 23:-6.74455 24:-8.52632 25:-6.81034 26:-8.13636 27:10 28:10 29:10 30:-10 
128 1:-8.60465 2:-10 3:-9.06542 4:-9.78947 5:-8.56574 6:-9.88889 7:-8.3 8:-9.85185 9:10 10:10 11:10 12:-3.33333 13:-6 14:-7.14286 15:-10 16:-9.62264 17:-7.52381 18:10 19:-5.6 20:-9.07626 21:-0.0854701 22:-8.31195 23:-8.26678 24:-0.105263 25:-7.93103 26:10 27:-3.33333 28:-6 29:-7.14286 30:-10 
128 1:-7.44186 2:-9.18367 3:-7.38318 4:-8.52632 5:-6.81275 6:-9.11111 7:-8 8:-8.81481 9:3.33333 10:0.666667 11:-1.42857 12:10 13:10 14:10 15:-9.09091 16:-8.49057 17:-7.03704 18:3.16239 19:-5.25333 20:-9.15381 21:-5.68851 22:-8.62036 23:-9.40058 24:-7.68421 25:-5.36946 26:0.787879 27:10 28:10 29:10 30:-10 
128 1:-6.97674 2:-6.32653 3:-7.1028 4:-6.42105 5:-6.81275 6:-7.22222 7:-7.2 8:-6.14815 9:10 10:10 11:10 12:10 13:10 14:10 15:-10 16:-9.62264 17:-8.98413 18:-8.46154 19:-9.06667 20:-9.64493 21:-9.39513 22:-9.63536 23:-9.46554 24:-9.08772 25:-8.78121 26:-9.19192 27:10 28:10 29:10 30:-10 
128 1:-7.2093 2:-6.73469 3:-7.75701 4:-3.68421 5:-7.21116 6:-5.55556 7:-6.5 8:-7.77778 9:10 10:10 11:10 12:3.33333 13:0.666667 14:-1.42857 15:-10 16:-9.24528 17:-8.87179 18:-8.23362 19:-8.90909 20:-9.57672 21:-9.67897 22:-9.71382 23:-9.28972 24:-9.55857 25:-8.49138 26:-6.84091 27:3.33333 28:0.666667 29:-1.42857 30:-10 
128 1:-7.67442 2:-3.06122 3:-8.2243 4:-2.63158 5:-6.81275 6:-1.66667 7:-7.3 8:-2.2963 9:10 10:10 11:10 12:10 13:10 14:10 15:-9.09091 16:-8.49057 17:-6.72727 18:-8.23362 19:-7.93103 20:-9.15381 21:-9.64013 22:-9.54757 23:-9.08879 24:-9.64912 25:-6.5702 26:-8.77187 27:10 28:10 29:10 30:-10 
128 1:-10 2:-9.18367 3:-9.62617 4:-8.94737 5:-9.68127 6:-9.33333 7:-9.8 8:-8.51852 9:3.33333 10:0.666667 11:-1.42857 12:10 13:10 14:10 15:-10 16:-9.24528 17:10 18:-3.67521 19:-0.4 20:-6.10884 21:-7.28938 22:-6.86627 23:-6.07477 24:-6.84211 25:10 26:-5.07438 27:10 28:10 29:10 30:-10 
128 1:-9.76744 2:-9.18367 3:-9.71963 4:-8.31579 5:-9.68127 6:-9 7:-9.4 8:-8.51852 9:10 10:10 11:10 12:10 13:10 14:10 15:-9.09091 16:-7.73585 17:10 18:3.16239 19:5.84 20:-2.08163 21:-6.13675 22:-4.84232 23:-5.07009 24:-7.96491 25:10 26:2.46281 27:10 28:10 29:10 30:-10 
128 1:-7.44186 2:-4.69388 3:-7.47664 4:-6 5:-6.81275 6:-6.77778 7:-7 8:-5.25926 9:10 10:10 11:10 12:10 13:10 14:10 15:-7.27273 16:-6.98113 17:-3.62963 18:-4.65201 19:-4.4 20:-8.17156 21:-7.48148 22:-7.95901 23:-9.37583 24:-9.2 25:-4.31591 26:-5.07438 27:10 28:10 29:10 30:-10 
128 1:-9.76744 2:-8.36735 3:-9.71963 4:-9.15789 5:-9.76096 6:-8.88889 7:-9.7 8:-7.92593 9:3.33333 10:0.666667 11:-1.42857 12:10 13:10 14:10 15:-10 16:-9.24528 17:-0.222222 18:-6.41026 19:-4.85714 20:-5.10204 21:-8.33722 22:-7.54092 23:-5.07009 24:-6.16842 25:4.9569 26:-6.58182 27:10 28:10 29:10 30:-10 
128 1:-9.76744 2:-9.59184 3:-9.90654 4:-9.78947 5:-9.76096 6:-9.66667 7:-9.4 8:-9.11111 9:10 10:10 11:10 12:10 13:10 14:10 15:-9.09091 16:-7.73585 17:10 18:10 19:10 20:-0.0680272 21:-0.0854701 22:-0.11976 23:-0.046729 24:-0.105263 25:10 26:10 27:10 28:10 29:10 30:-10 
128 1:-8.37209 2:-7.14286 3:-9.25234 4:-8.52632 5:-8.80478 6:-8.55556 7:-7.6 8:-6.88889 9:10 10:10 11:10 12:10 13:10 14:10 15:-7.27273 16:-6.98113 17:-0.222222 18:-0.25641 19:-0.4 20:-5.10204 21:-4.40781 22:-4.84232 23:-7.86085 24:-7.68421 25:-2.91034 26:-2.24793 27:10 28:10 29:10 30:-8.46154 
128 1:-8.83721 2:-10 3:-8.50467 4:-9.57895 5:-8.40637 6:-9.77778 7:-8.5 8:-9.7037 9:10 10:10 11:10 12:3.33333 13:0.666667 14:-1.42857 15:-10 16:-9.24528 17:-7.03704 18:10 19:-4.85714 20:-9.17719 21:-3.44729 22:-8.55289 23:-8.91149 24:-3.47368 25:-6.39009 26:10 27:3.33333 28:0.666667 29:-1.42857 30:-10 
128 1:-7.67442 2:-9.18367 3:-9.43925 4:-8.94737 5:-7.76892 6:-8.77778 7:-8.1 8:-8.81481 9:3.33333 10:0.666667 11:-1.42857 12:3.33333 13:0.666667 14:-1.42857 15:-8.18182 16:-6.98113 17:-4.86869 18:10 19:-1.88571 20:-8.05301 21:-5.12821 22:-7.27764 23:-7.22296 24:-6.84211 25:-1.09483 26:10 27:3.33333 28:0.666667 29:-1.42857 30:-8.46154 
128 1:-4.88372 2:-7.55102 3:-5.51402 4:-7.89474 5:-4.82072 6:-8.44444 7:-4.5 8:-7.62963 9:10 10:10 11:10 12:10 13:10 14:10 15:-10 16:-9.24528 17:-9.55556 18:-7.58242 19:-9.41333 20:-9.83096 21:-8.82621 22:-9.73978 23:-9.68339 24:-8.37321 25:-9.09175 26:-7.06952 27:10 28:10 29:10 30:-10 
128 1:-3.48837 2:-7.55102 3:-1.68224 4:3.26316 5:1.31474 6:-0.555556 7:-2.2 8:-7.33333 9:10 10:10 11:10 12:10 13:10 14:10 15:-5.45455 16:-4.33962 17:-6.21456 18:7.0696 19:-3.86667 20:-9.29119 21:-8.76367 22:-9.17893 23:-9.8702 24:-9.89474 25:-6.08686 26:6.72727 27:10 28:10 29:10 30:-8.46154 
128 1:-10 2:-9.59184 3:-9.90654 4:-9.36842 5:-9.92032 6:-9.66667 7:-9.8 8:-9.25926 9:3.33333 10:0.666667 11:-1.42857 12:3.33333 13:0.666667 14:-1.42857 15:-10 16:-9.24528 17:10 18:-0.25641 19:3.06667 20:-0.0680272 21:-5.12821 22:-3.49301 23:-0.046729 24:-5.15789 25:10 26:-0.363636 27:3.33333 28:0.666667 29:-1.42857 30:-10 
128 1:-8.60465 2:-10 3:-8.78505 4:-9.36842 5:-8.48606 6:-9.66667 7:-8.3 8:-9.7037 9:10 10:10 11:10 12:3.33333 13:0.666667 14:-1.42857 15:-10 16:-9.24528 17:-7.52381 18:10 19:-5.6 20:-9.12925 21:-5.12821 22:-8.55289 23:-8.65821 24:-5.15789 25:-6.81034 26:10 27:3.33333 28:0.666667 29:-1.42857 30:-10 
128 1:-8.13953 2:-8.36735 3:-8.2243 4:-8.52632 5:-7.92829 6:-8.66667 7:-8 8:-8.22222 9:10 10:10 11:10 12:3.33333 13:0.666667 14:-1.42857 15:-8.18182 16:-7.73585 17:-3.62963 18:1.79487 19:-1.88571 20:-7.89872 21:-5.51611 22:-7.20359 23:-9.08879 24:-7.68421 25:-3.44828 26:0.433566 27:3.33333 28:0.666667 29:-1.42857 30:-8.46154 
128 1:-7.90698 2:-9.59184 3:-7.75701 4:-9.15789 5:-7.21116 6:-9.33333 7:-7.5 8:-9.40741 9:10 10:10 11:10 12:3.33333 13:0.666667 14:-1.42857 15:-9.09091 16:-8.49057 17:-6.35556 18:10 19:-3.86667 20:-9.01738 21:-4.40781 22:-8.35677 23:-9.28972 24:-6.16842 25:-6.2931 26:10 27:3.33333 28:0.666667 29:-1.42857 30:-10 
128 1:-10 2:-10 3:-9.81308 4:-9.57895 5:-9.84064 6:-9.77778 7:-9.8 8:-9.7037 9:3.33333 10:0.666667 11:-1.42857 12:3.33333 13:0.666667 14:-1.42857 15:-10 16:-9.24528 17:10 18:10 19:10 20:-3.42404 21:-3.44729 22:-3.49301 23:-3.39564 24:-3.47368 25:10 26:10 27:3.33333 28:0.666667 29:-1.42857 30:-10 
128 1:-5.34884 2:-10 3:-7.28972 4:-9.78947 5:-6.41434 6:-9.88889 7:-5.3 8:-9.7037 9:10 10:10 11:10 12:3.33333 13:0.666667 14:-1.42857 15:-10 16:-9.24528 17:-9.4709 18:10 19:-8.90909 20:-9.69831 21:-0.0854701 22:-9.39621 23:-9.42368 24:-0.105263 25:-8.91164 26:10 27:3.33333 28:0.666667 29:-1.42857 30:-10 
128 1:-9.53488 2:-10 3:-9.71963 4:-10 5:-9.76096 6:-10 7:-9.5 8:-9.7037 9:3.33333 10:0.666667 11:-1.42857 12:3.33333 13:0.666667 14:-1.42857 15:-10 16:-9.24528 17:-3.62963 18:10 19:-0.4 20:-5.10204 21:10 22:-2.14371 23:-5.07009 24:10 25:-0.0862069 26:10 27:3.33333 28:0.666667 29:-1.42857 30:-10 
128 1:-9.53488 2:-9.18367 3:-8.97196 4:-9.78947 5:-9.04382 6:-9.66667 7:-9.3 8:-8.51852 9:3.33333 10:0.666667 11:-1.42857 12:10 13:10 14:10 15:-10 16:-9.24528 17:-3.62963 18:-3.67521 19:-3.86667 20:-8.58713 21:-5.12821 22:-7.8584 23:-8.419 24:-0.105263 25:-2.60776 26:-5.07438 27:10 28:10 29:10 30:-10 
128 1:-7.44186 2:-6.73469 3:-8.97196 4:-7.26316 5:-7.76892 6:-6.88889 7:-7.5 8:-6.2963 9:10 10:10 11:10 12:10 13:10 14:10 15:-8.18182 16:-7.73585 17:-5.33333 18:-3.67521 19:-4.85714 20:-8.05301 21:-8.08429 22:-8.14578 23:-8.419 24:-8.76692 25:-4.74138 26:-5.14685 27:10 28:10 29:10 30:-10 
128 1:-8.37209 2:-9.18367 3:-7.75701 4:-9.57895 5:-7.4502 6:-9.44444 7:-8.5 8:-8.96296 9:10 10:10 11:10 12:10 13:10 14:10 15:-8.18182 16:-7.35849 17:-2.77778 18:10 19:0.545455 20:-8.3055 21:-0.0854701 22:-7.12575 23:-9.28972 24:-3.47368 25:-0.0862069 26:10 27:10 28:10 29:10 30:-10 
128 1:-7.90698 2:-8.36735 3:-8.59813 4:-8.10526 5:-7.92829 6:-8.33333 7:-7.3 8:-7.92593 9:10 10:10 11:10 12:10 13:10 14:10 15:-8.18182 16:-7.35849 17:-4.31111 18:1.79487 19:-2.48 20:-7.89872 21:-6.38889 22:-7.4154 23:-8.83762 24:-8.18947 25:-4.40887 26:0.327273 27:10 28:10 29:10 30:-10 
128 1:-8.83721 2:-7.95918 3:-9.34579 4:-8.73684 5:-9.12351 6:-9 7:-9.1 8:-8.22222 9:3.33333 10:0.666667 11:-1.42857 12:3.33333 13:0.666667 14:-1.42857 15:-9.09091 16:-8.86792 17:-3.62963 18:-3.67521 19:-3.86667 20:-6.78005 21:-6.13675 22:-6.55961 23:-7.58178 24:-7.32331 25:-2.10345 26:-4.34965 27:3.33333 28:0.666667 29:-1.42857 30:-8.46154 
128 1:-8.83721 2:-9.59184 3:-8.8785 4:-9.15789 5:-8.56574 6:-9.33333 7:-8.5 8:-9.25926 9:10 10:10 11:10 12:3.33333 13:0.666667 14:-1.42857 15:-9.09091 16:-8.11321 17:-3.62963 18:10 19:-0.4 20:-8.01647 21:-4.40781 22:-7.12575 23:-8.54781 24:-6.16842 25:-2.60776 26:10 27:3.33333 28:0.666667 29:-1.42857 30:-10 
128 1:-7.44186 2:-9.59184 3:-8.78505 4:-8.73684 5:-7.37052 6:-9.11111 7:-7.4 8:-9.25926 9:3.33333 10:0.666667 11:-1.42857 12:3.33333 13:0.666667 14:-1.42857 15:-10 16:-9.24528 17:-8.74074 18:-0.25641 19:-7.82857 20:-9.54382 21:-7.92972 22:-9.29815 23:-8.65821 24:-7.32331 25:-7.93103 26:-0.363636 27:3.33333 28:0.666667 29:-1.42857 30:-10 
128 1:-9.30233 2:-10 3:-9.34579 4:-9.78947 5:-9.36255 6:-9.88889 7:-8.8 8:-9.7037 9:10 10:10 11:10 12:3.33333 13:0.666667 14:-1.42857 15:-10 16:-9.24528 17:-5.33333 18:10 19:-2.48 20:-7.89872 21:-0.0854701 22:-6.55961 23:-7.58178 24:-0.105263 25:-5.51724 26:10 27:3.33333 28:0.666667 29:-1.42857 30:-10 
128 1:-9.53488 2:-9.18367 3:-9.34579 4:-7.89474 5:-8.80478 6:-8 7:-9.2 8:-9.11111 9:10 10:10 11:10 12:3.33333 13:0.666667 14:-1.42857 15:-9.09091 16:-8.49057 17:3.18519 18:3.16239 19:3.06667 20:-7.61905 21:-8.04768 22:-7.92643 23:-7.58178 24:-8.37321 25:1.03448 26:4.07792 27:3.33333 28:0.666667 29:-1.42857 30:-10 
128 1:-3.48837 2:-1.02041 3:-4.57944 4:-2 5:-2.03187 6:-1.55556 7:-1.2 8:-1.11111 9:10 10:10 11:10 12:10 13:10 14:10 15:-9.09091 16:-7.73585 17:-9.03448 18:-8.7291 19:-9.2 20:-9.73732 21:-9.64702 22:-9.7847 23:-9.75289 24:-9.69231 25:-8.58582 26:-8.34873 27:10 28:10 29:10 30:-10 
128 1:-9.06977 2:-8.36735 3:-9.43925 4:-8.94737 5:-9.20319 6:-8.88889 7:-8.9 8:-8.37037 9:3.33333 10:0.666667 11:-1.42857 12:3.33333 13:0.666667 14:-1.42857 15:-8.18182 16:-6.98113 17:1.82222 18:1.79487 19:1.68 20:-4.6444 21:-4.66977 22:-4.71965 23:-7.22296 24:-6.84211 25:4.9569 26:4.81818 27:3.33333 28:0.666667 29:-1.42857 30:-10 
128 1:-10 2:-10 3:-9.90654 4:-9.78947 5:-9.92032 6:-9.88889 7:-9.8 8:-9.7037 9:3.33333 10:0.666667 11:-1.42857 12:3.33333 13:0.666667 14:-1.42857 15:-10 16:-9.24528 17:10 18:10 19:10 20:-0.0680272 21:-0.0854701 22:-0.11976 23:-0.046729 24:-0.105263 25:10 26:10 27:3.33333 28:0.666667 29:-1.42857 30:-10 
128 1:-7.2093 2:-7.55102 3:-8.03738 4:-7.47368 5:-6.97211 6:-7 7:-6.6 8:-7.18519 9:10 10:10 11:10 12:10 13:10 14:10 15:-8.18182 16:-6.98113 17:-5.7265 18:-1.72161 19:-4.56 20:-8.58713 21:-8.00977 22:-8.42703 23:-9.18012 24:-8.65587 25:-4.98522 26:-1.4 27:10 28:10 29:10 30:-10 
128 1:-8.60465 2:-9.18367 3:-9.15888 4:-8.52632 5:-8.80478 6:-9.22222 7:-8.3 8:-8.96296 9:10 10:10 11:10 12:3.33333 13:0.666667 14:-1.42857 15:-10 16:-9.24528 17:-7.52381 18:-3.67521 19:-6.64 20:-8.87755 21:-7.64957 22:-8.55289 23:-8.08411 24:-7.68421 25:-6.81034 26:-2.95455 27:3.33333 28:0.666667 29:-1.42857 30:-10 
128 1:-8.60465 2:-7.95918 3:-7.85047 4:-7.47368 5:-7.76892 6:-8.22222 7:-8.6 8:-8.22222 9:10 10:10 11:10 12:3.33333 13:0.666667 14:-1.42857 15:-8.18182 16:-8.11321 17:-1.68254 18:-0.25641 19:-1.2 20:-8.05301 21:-6.61136 22:-7.59958 23:-9.25623 24:-8.65587 25:-2.10345 26:-1.16084 27:3.33333 28:0.666667 29:-1.42857 30:-10 
128 1:-8.83721 2:-10 3:-9.43925 4:-9.78947 5:-9.12351 6:-9.88889 7:-8.1 8:-9.7037 9:10 10:10 11:10 12:3.33333 13:0.666667 14:-1.42857 15:-10 16:-9.24528 17:-7.03704 18:10 19:-4.85714 20:-8.45805 21:-0.0854701 22:-7.34816 23:-7.22296 24:-0.105263 25:-7.14655 26:10 27:3.33333 28:0.666667 29:-1.42857 30:-10 
128 1:-8.37209 2:-9.59184 3:-8.97196 4:-9.78947 5:-8.88446 6:-9.66667 7:-8 8:-9.40741 9:10 10:10 11:10 12:3.33333 13:0.666667 14:-1.42857 15:-9.09091 16:-8.49057 17:-5.33333 18:10 19:-2.48 20:-7.45125 21:-0.0854701 22:-5.97857 23:-8.419 24:-0.105263 25:-5.36946 26:10 27:3.33333 28:0.666667 29:-1.42857 30:-8.46154 
128 1:-9.53488 2:-9.59184 3:-9.53271 4:-8.94737 5:-9.04382 6:-9.11111 7:-9.4 8:-9.25926 9:3.33333 10:0.666667 11:-1.42857 12:3.33333 13:0.666667 14:-1.42857 15:-9.09091 16:-8.11321 17:3.18519 18:10 19:5.84 20:-7.0382 21:-5.68851 22:-6.55961 23:-6.74455 24:-6.84211 25:7.11823 26:10 27:3.33333 28:0.666667 29:-1.42857 30:-10 
128 1:-7.67442 2:-9.59184 3:-8.69159 4:-9.36842 5:-8.16733 6:-9.44444 7:-7.5 8:-9.11111 9:10 10:10 11:10 12:10 13:10 14:10 15:-9.09091 16:-7.73585 17:-6.72727 18:10 19:-4.4 20:-8.45805 21:-3.44729 22:-7.54092 23:-8.75389 24:-5.15789 25:-4.74138 26:10 27:10 28:10 29:10 30:-10 
128 1:-6.27907 2:-10 3:-7.47664 4:-9.15789 5:-6.81275 6:-9.55556 7:-5.4 8:-9.7037 9:10 10:10 11:10 12:3.33333 13:0.666667 14:-1.42857 15:-10 16:-9.24528 17:-9.24183 18:10 19:-8.48889 20:-9.64493 21:-6.13675 22:-9.35954 23:-9.37583 24:-6.16842 25:-8.88481 26:10 27:3.33333 28:0.666667 29:-1.42857 30:-10 
128 1:-6.74419 2:-7.55102 3:-7.85047 4:-5.57895 5:-7.52988 6:-7.44444 7:-5.6 8:-6.59259 9:10 10:10 11:10 12:10 13:10 14:10 15:-8.18182 16:-6.22642 17:-6.35556 18:-1.72161 19:-5.12727 20:-8.2483 21:-7.64957 22:-8.071 23:-9.25623 24:-9.29187 25:-5.24138 26:-1.22727 27:10 28:10 29:10 30:-8.46154 
128 1:-3.95349 2:-7.14286 3:-5.70093 4:-6.63158 5:-3.70518 6:-7.66667 7:-3.6 8:-7.18519 9:10 10:10 11:10 12:10 13:10 14:10 15:-10 16:-8.86792 17:-9.68724 18:-7.94872 19:-9.61143 20:-9.88435 21:-9.25408 22:-9.84267 23:-9.66594 24:-9.02167 25:-8.93103 26:-6.58182 27:10 28:10 29:10 30:-10 
128 1:-7.2093 2:-10 3:-7.38318 4:-9.57895 5:-7.52988 6:-9.77778 7:-6.1 8:-9.55556 9:10 10:10 11:10 12:10 13:10 14:10 15:-10 16:-8.86792 17:-8.87179 18:10 19:-7.82857 20:-9.5068 21:-3.44729 22:-9.08298 23:-9.40058 24:-3.47368 25:-8.15517 26:10 27:10 28:10 29:10 30:-10 
128 1:-7.67442 2:-9.59184 3:-8.69159 4:-9.78947 5:-8.00797 6:-9.66667 7:-7.3 8:-9.25926 9:10 10:10 11:10 12:10 13:10 14:10 15:-9.09091 16:-8.11321 17:-6.72727 18:10 19:-4.4 20:-8.58713 21:-0.0854701 22:-7.54092 23:-8.75389 24:-0.105263 25:-5.84975 26:10 27:10 28:10 29:10 30:-8.46154 
128 1:-6.04651 2:-10 3:-8.50467 4:-9.57895 5:-7.52988 6:-9.77778 7:-5.4 8:-9.55556 9:10 10:10 11:10 12:10 13:10 14:10 15:-10 16:-8.86792 17:-9.30864 18:10 19:-8.61053 20:-9.5068 21:-3.44729 22:-9.08298 23:-8.91149 24:-3.47368 25:-8.45561 26:10 27:10 28:10 29:10 30:-10 
128 1:-9.76744 2:-9.59184 3:-9.90654 4:-9.78947 5:-9.76096 6:-9.66667 7:-9.3 8:-8.96296 9:10 10:10 11:10 12:10 13:10 14:10 15:-9.09091 16:-7.35849 17:10 18:10 19:10 20:-0.0680272 21:-0.0854701 22:-0.11976 23:-0.046729 24:-0.105263 25:10 26:10 27:10 28:10 29:10 30:-8.46154 
128 1:-3.02326 2:-6.32653 3:-5.23364 4:-4.10526 5:-4.50199 6:-6.22222 7:-2.5 8:-6.14815 9:10 10:10 11:10 12:10 13:10 14:10 15:-9.09091 16:-7.35849 17:-9.12545 18:-6.41026 19:-8.77073 20:-9.56074 21:-9.01832 22:-9.46849 23:-9.70705 24:-9.51361 25:-8.049 26:-4.58586 27:10 28:10 29:10 30:-8.46154 
128 1:-9.06977 2:-9.59184 3:-8.8785 4:-9.57895 5:-8.48606 6:-9.77778 7:-8.6 8:-9.11111 9:10 10:10 11:10 12:10 13:10 14:10 15:-10 16:-8.86792 17:-6.35556 18:-0.25641 19:-4.85714 20:-9.12925 21:-3.44729 22:-8.47956 23:-8.54781 24:-3.47368 25:-4.7931 26:1.11688 27:10 28:10 29:10 30:-10 
128 1:-9.30233 2:-10 3:-9.25234 4:-9.36842 5:-9.20319 6:-9.66667 7:-8.5 8:-9.55556 9:10 10:10 11:10 12:10 13:10 14:10 15:-10 16:-8.86792 17:-5.33333 18:10 19:-2.48 20:-8.3055 21:-5.12821 22:-7.54092 23:-7.86085 24:-5.15789 25:-5.12931 26:10 27:10 28:10 29:10 30:-10 
128 1:-9.76744 2:-10 3:-9.53271 4:-9.15789 5:-9.52191 6:-9.55556 7:-9.3 8:-9.55556 9:10 10:10 11:10 12:10 13:10 14:10 15:-10 16:-8.86792 17:-0.222222 18:10 19:3.06667 20:-7.25948 21:-6.13675 22:-6.86627 23:-6.74455 24:-6.16842 25:-0.0862069 26:10 27:10 28:10 29:10 30:-10 
128 1:-10 2:-10 3:-9.90654 4:-9.78947 5:-9.92032 6:-9.88889 7:-9.7 8:-9.55556 9:10 10:10 11:10 12:10 13:10 14:10 15:-10 16:-8.86792 17:10 18:10 19:10 20:-0.0680272 21:-0.0854701 22:-0.11976 23:-0.046729 24:-0.105263 25:10 26:10 27:10 28:10 29:10 30:-10 
128 1:-8.83721 2:-7.55102 3:-8.97196 4:-7.47368 5:-8.48606 6:-7.33333 7:-8.9 8:-7.33333 9:10 10:10 11:10 12:10 13:10 14:10 15:-6.36364 16:-6.22642 17:6.59259 18:4.13919 19:5.2 20:-5.10204 21:-6.13675 22:-5.74185 23:-8.419 24:-8.65587 25:8.31897 26:1.27273 27:10 28:10 29:10 30:-5.38462 
128 1:-9.06977 2:-9.59184 3:-9.71963 4:-10 5:-9.52191 6:-9.88889 7:-8.6 8:-8.96296 9:10 10:10 11:10 12:10 13:10 14:10 15:-9.09091 16:-7.35849 17:-2.26667 18:10 19:1.08571 20:-4.3829 21:10 22:-1.24418 23:-5.07009 24:10 25:0.586207 26:10 27:10 28:10 29:10 30:-10 
128 1:-3.95349 2:-10 3:-6.91589 4:-9.57895 5:-5.85657 6:-9.77778 7:-3.5 8:-9.55556 9:10 10:10 11:10 12:10 13:10 14:10 15:-10 16:-8.86792 17:-9.68724 18:10 19:-9.31429 20:-9.75613 21:-3.44729 22:-9.51668 23:-9.50247 24:-3.47368 25:-8.94984 26:10 27:10 28:10 29:10 30:-10 
128 1:-10 2:-10 3:-10 4:-10 5:-10 6:-10 7:-9.7 8:-9.55556 9:10 10:10 11:10 12:10 13:10 14:10 15:-10 16:-8.86792 17:10 18:10 19:10 20:10 21:10 22:10 23:10 24:10 25:10 26:10 27:10 28:10 29:10 30:-10 
128 1:-3.72093 2:-7.14286 3:-3.5514 4:-3.89474 5:-1.79283 6:-6.11111 7:-2.1 8:-6.88889 9:10 10:10 11:10 12:10 13:10 14:10 15:-10 16:-8.86792 17:-9.71429 18:-7.94872 19:-9.64444 20:-9.94244 21:-9.61064 22:-9.95038 23:-9.80641 24:-9.53684 25:-9.16379 26:-6.95868 27:10 28:10 29:10 30:-10 
128 1:-7.44186 2:-9.59184 3:-7.1028 4:-9.36842 5:-6.73307 6:-9.66667 7:-7.2 8:-9.40741 9:10 10:10 11:10 12:10 13:10 14:10 15:-10 16:-8.86792 17:-8.74074 18:-0.25641 19:-7.82857 20:-9.65662 21:-5.12821 22:-9.35954 23:-9.46554 24:-5.15789 25:-7.39001 26:5.85455 27:10 28:10 29:10 30:-10 
128 1:-1.39535 2:-9.59184 3:-4.39252 4:-8.31579 5:1.0757 6:-8.55556 7:-0.2 8:-8.96296 9:10 10:10 11:10 12:10 13:10 14:10 15:-9.09091 16:-7.35849 17:-9.36842 18:10 19:-8.72 20:-9.8484 21:-7.28938 22:-9.71382 23:-9.76406 24:-7.96491 25:-8.54232 26:10 27:10 28:10 29:10 30:-8.46154 
128 1:-9.30233 2:-9.18367 3:-9.53271 4:-7.26316 5:-9.36255 6:-8.11111 7:-8.9 8:-8.37037 9:10 10:10 11:10 12:10 13:10 14:10 15:-10 16:-8.86792 17:-5.33333 18:-3.67521 19:-4.85714 20:-7.89872 21:-9.05033 22:-8.7403 23:-6.74455 24:-8.76692 25:-3.44828 26:-3.81818 27:10 28:10 29:10 30:-10 
128 1:-7.90698 2:-0.612245 3:-8.8785 4:-3.05263 5:-8.40637 6:-2 7:-7.2 8:-2 9:10 10:10 11:10 12:10 13:10 14:10 15:-10 16:-8.86792 17:-8.4 18:-9.65812 19:-9.57647 20:-9.17719 21:-9.89463 22:-9.80889 23:-8.54781 24:-9.6161 25:-7.39001 26:-9.21983 27:10 28:10 29:10 30:-10 
128 1:-6.97674 2:-9.18367 3:-8.50467 4:-9.36842 5:-6.89243 6:-9.11111 7:-6.3 8:-8.37037 9:10 10:10 11:10 12:10 13:10 14:10 15:-8.18182 16:-5.84906 17:-6.06349 18:10 19:-3.45882 20:-8.62585 21:-3.44729 22:-7.76121 23:-8.91149 24:-5.15789 25:-3.80218 26:10 27:10 28:10 29:10 30:-10 
128 1:-9.06977 2:-10 3:-9.43925 4:-9.78947 5:-9.12351 6:-9.88889 7:-8.2 8:-9.55556 9:10 10:10 11:10 12:10 13:10 14:10 15:-10 16:-8.86792 17:-6.35556 18:10 19:-3.86667 20:-8.45805 21:-0.0854701 22:-7.34816 23:-7.22296 24:-0.105263 25:-5.92559 26:10 27:10 28:10 29:10 30:-10 
128 1:-6.51163 2:-8.77551 3:-7.57009 4:-7.05263 5:-5.2988 6:-7.22222 7:-5.6 8:-9.11111 9:10 10:10 11:10 12:10 13:10 14:10 15:-8.18182 16:-8.11321 17:-6.61111 18:4.87179 19:-4.56 20:-9.12925 21:-7.84352 22:-8.82746 23:-9.34926 24:-8.86316 25:-7.48276 26:7.03896 27:10 28:10 29:10 30:-10 
128 1:-9.06977 2:-7.95918 3:-8.13084 4:-6.84211 5:-7.05179 6:-6.66667 7:-8.8 8:-6.74074 9:10 10:10 11:10 12:10 13:10 14:10 15:-9.09091 16:-7.35849 17:-2.26667 18:-3.67521 19:-3.23636 20:-9.07626 21:-8.86959 22:-9.06622 23:-9.13663 24:-8.94737 25:2.24138 26:-3.51779 27:10 28:10 29:10 30:-10 
128 1:-9.30233 2:-10 3:-9.62617 4:-9.57895 5:-9.44223 6:-9.77778 7:-8.9 8:-9.55556 9:10 10:10 11:10 12:10 13:10 14:10 15:-10 16:-8.86792 17:-5.33333 18:10 19:-2.48 20:-7.61905 21:-3.44729 22:-6.55961 23:-6.07477 24:-3.47368 25:-3.44828 26:10 27:10 28:10 29:10 30:-10 
128 1:-8.60465 2:-8.36735 3:-9.71963 4:-9.78947 5:-9.04382 6:-9 7:-8.5 8:-8.37037 9:10 10:10 11:10 12:10 13:10 14:10 15:-6.36364 16:-5.84906 17:4.15873 18:10 19:6.53333 20:-2.39142 21:-0.0854701 22:-1.43973 23:-5.07009 24:-0.105263 25:4.9569 26:10 27:10 28:10 29:10 30:-6.92308 
128 1:-5.5814 2:-6.32653 3:-8.13084 4:-8.31579 5:-6.49402 6:-8.22222 7:-5.7 8:-5.40741 9:10 10:10 11:10 12:10 13:10 14:10 15:-10 16:-8.86792 17:-9.42222 18:-8.46154 19:-9.41333 20:-9.68859 21:-8.98441 22:-9.58663 23:-9.13663 24:-7.96491 25:-8.33856 26:-8.13636 27:10 28:10 29:10 30:-10 
128 1:-9.53488 2:-9.59184 3:-9.53271 4:-9.15789 5:-9.28287 6:-9.22222 7:-9.5 8:-9.40741 9:10 10:10 11:10 12:10 13:10 14:10 15:-9.09091 16:-8.49057 17:3.18519 18:10 19:5.84 20:-6.10884 21:-5.12821 22:-5.74185 23:-6.74455 24:-6.16842 25:6.63793 26:10 27:10 28:10 29:10 30:-10 
128 1:-7.44186 2:-8.36735 3:-6.91589 4:-8.94737 5:-6.73307 6:-9 7:-7.3 8:-8.51852 9:10 10:10 11:10 12:10 13:10 14:10 15:-6.36364 16:-6.22642 17:-1.92593 18:10 19:1.43529 20:-7.73891 21:-0.0854701 22:-6.34731 23:-9.50247 24:-6.84211 25:-2.24754 26:10 27:10 28:10 29:10 30:-5.38462 
128 1:-9.76744 2:-8.77551 3:-9.43925 4:-8.31579 5:-9.52191 6:-8.66667 7:-9.6 8:-8.07407 9:10 10:10 11:10 12:10 13:10 14:10 15:-10 16:-8.86792 17:-0.222222 18:-5.38462 19:-3.86667 20:-7.25948 21:-8.61933 22:-8.21557 23:-7.22296 24:-7.96491 25:5.96552 26:-4.80519 27:10 28:10 29:10 30:-10 
128 1:-9.76744 2:-9.18367 3:-9.43925 4:-7.47368 5:-9.28287 6:-8.33333 7:-9.4 8:-8.51852 9:10 10:10 11:10 12:10 13:10 14:10 15:-9.09091 16:-7.73585 17:10 18:3.16239 19:5.84 20:-6.10884 21:-7.64957 22:-7.12575 23:-7.22296 24:-8.65587 25:10 26:2.46281 27:10 28:10 29:10 30:-10 
128 1:-8.13953 2:-8.36735 3:-9.34579 4:-8.10526 5:-7.76892 6:-7.33333 7:-7.2 8:-7.48148 9:10 10:10 11:10 12:10 13:10 14:10 15:-8.18182 16:-5.84906 17:-3.62963 18:1.79487 19:-1.88571 20:-8.05301 21:-7.75043 22:-7.99069 23:-7.58178 24:-8.18947 25:-1.82521 26:3.09091 27:10 28:10 29:10 30:-10 
128 1:-10 2:-10 3:-9.71963 4:-9.36842 5:-9.76096 6:-9.66667 7:-9.7 8:-9.55556 9:10 10:10 11:10 12:10 13:10 14:10 15:-10 16:-8.86792 17:10 18:10 19:10 20:-5.10204 21:-5.12821 22:-5.17964 23:-5.07009 24:-5.15789 25:10 26:10 27:10 28:10 29:10 30:-10 
60.47892999524764 1:-8.60465 2:-8.36735 3:-8.50467 4:-7.68421 5:-7.76892 6:-7.55556 7:-8.1 8:-7.48148 9:10 10:10 11:10 12:10 13:10 14:10 15:-6.36364 16:-3.58491 17:4.15873 18:10 19:6.53333 20:-6.66432 21:-5.78595 22:-6.34731 23:-8.91149 24:-8.52632 25:7.98276 26:10 27:10 28:10 29:10 30:-8.46154 
128 1:-7.90698 2:-9.59184 3:-8.50467 4:-10 5:-8.32669 6:-9.88889 7:-7.5 8:-9.25926 9:10 10:10 11:10 12:10 13:10 14:10 15:-9.09091 16:-8.11321 17:-6.35556 18:10 19:-3.86667 20:-8.3055 21:10 22:-6.86627 23:-8.91149 24:10 25:-5.51724 26:10 27:10 28:10 29:10 30:-10 
128 1:-6.51163 2:-7.55102 3:-7.28972 4:-6.42105 5:-6.33466 6:-7.66667 7:-5 8:-6.74074 9:10 10:10 11:10 12:10 13:10 14:10 15:-9.09091 16:-7.35849 17:-7.88889 18:-4.65201 19:-7.18261 20:-9.2792 21:-8.33722 22:-9.06622 23:-9.42368 24:-9.08772 25:-7.00811 26:-3.51779 27:10 28:10 29:10 30:-10 
128 1:-10 2:-10 3:-9.71963 4:-9.36842 5:-9.76096 6:-9.66667 7:-9.7 8:-9.55556 9:10 10:10 11:10 12:10 13:10 14:10 15:-10 16:-8.86792 17:10 18:10 19:10 20:-5.10204 21:-5.12821 22:-5.17964 23:-5.07009 24:-5.15789 25:10 26:10 27:10 28:10 29:10 30:-10 
128 1:-10 2:-10 3:-9.62617 4:-9.15789 5:-9.68127 6:-9.55556 7:-9.7 8:-9.55556 9:10 10:10 11:10 12:10 13:10 14:10 15:-10 16:-8.86792 17:10 18:10 19:10 20:-6.10884 21:-6.13675 22:-6.19162 23:-6.07477 24:-6.16842 25:10 26:10 27:10 28:10 29:10 30:-10 
128 1:-9.30233 2:-10 3:-9.06542 4:-9.36842 5:-9.04382 6:-9.66667 7:-8.8 8:-9.55556 9:10 10:10 11:10 12:10 13:10 14:10 15:-10 16:-8.86792 17:-5.33333 18:10 19:-2.48 20:-8.58713 21:-5.12821 22:-7.8584 23:-8.26678 24:-5.15789 25:-3.96552 26:10 27:10 28:10 29:10 30:-10 
128 1:-8.37209 2:-8.36735 3:-8.8785 4:-7.68421 5:-8.40637 6:-8.44444 7:-7.9 8:-8.37037 9:10 10:10 11:10 12:10 13:10 14:10 15:-9.09091 16:-8.11321 17:-5.33333 18:-2.30769 19:-4.4 20:-8.21833 21:-7.48148 22:-7.99069 23:-8.54781 24:-8.52632 25:-4.67085 26:-0.363636 27:10 28:10 29:10 30:-10 
128 1:-10 2:-10 3:-9.90654 4:-9.78947 5:-9.92032 6:-9.88889 7:-9.7 8:-9.55556 9:10 10:10 11:10 12:10 13:10 14:10 15:-10 16:-8.86792 17:10 18:10 19:10 20:-0.0680272 21:-0.0854701 22:-0.11976 23:-0.046729 24:-0.105263 25:10 26:10 27:10 28:10 29:10 30:-10 
128 1:-4.65116 2:-10 3:-7.38318 4:-9.78947 5:-3.6255 6:-9.88889 7:-4.7 8:-9.55556 9:10 10:10 11:10 12:10 13:10 14:10 15:-10 16:-8.86792 17:-9.59259 18:10 19:-9.136 20:-9.88746 21:-0.0854701 22:-9.75182 23:-9.40058 24:-0.105263 25:-8.67816 26:10 27:10 28:10 29:10 30:-10 
-128 1:-8.60465 2:-9.18367 3:-9.25234 4:-9.57895 5:-8.96414 6:-9.44444 7:-8.9 8:-9.40741 9:10 10:10 11:10 12:-3.33333 13:-6 14:-7.14286 15:-8.18182 16:-8.49057 17:-1.68254 18:10 19:1.68 20:-5.82119 21:-0.0854701 22:-4.16766 23:-7.86085 24:-3.47368 25:-1.76724 26:10 27:-3.33333 28:-6 29:-7.14286 30:-10 
-128 1:-9.76744 2:-9.18367 3:-9.81308 4:-9.36842 5:-9.60159 6:-9.22222 7:-9.8 8:-9.25926 9:-3.33333 10:-6 11:-7.14286 12:3.33333 13:0.666667 14:-1.42857 15:-9.09091 16:-9.24528 17:10 18:3.16239 19:5.84 20:-3.42404 21:-5.12821 22:-4.4568 23:-3.39564 24:-5.15789 25:10 26:-0.363636 27:3.33333 28:0.666667 29:-1.42857 30:-10 
-78.360165625866 1:-10 2:-9.59184 3:-9.90654 4:-9.57895 5:-9.92032 6:-9.66667 7:-10 8:-9.7037 9:-10 10:-10 11:-10 12:-3.33333 13:-6 14:-7.14286 15:-10 16:-10 17:10 18:-0.25641 19:3.06667 20:-0.0680272 21:-5.12821 22:-3.49301 23:-0.046729 24:-3.47368 25:10 26:-3.81818 27:-3.33333 28:-6 29:-7.14286 30:-10 
-128 1:-10 2:-6.32653 3:-9.81308 4:-5.15789 5:-9.84064 6:-6.33333 7:-10 8:-6.44444 9:-10 10:-10 11:-10 12:10 13:10 14:10 15:-10 16:-10 17:10 18:-8.46154 19:-7.01818 20:-3.42404 21:-9.57768 22:-9.14549 23:-3.39564 24:-9.36842 25:10 26:-9.89818 27:10 28:10 29:10 30:-10 
-128 1:-8.60465 2:-0.612245 3:-8.8785 4:-4.10526 5:-8.56574 6:-3.44444 7:-8.7 8:-3.18519 9:10 10:10 11:10 12:10 13:10 14:10 15:-9.09091 16:-9.62264 17:-4.60317 18:-8.80342 19:-8.11613 20:-8.01647 21:-9.49858 22:-9.21474 23:-8.54781 24:-9.51361 25:-7.29064 26:-9.84526 27:10 28:10 29:10 30:-10 
-128 1:-1.62791 2:-8.36735 3:-2.8972 4:-7.47368 5:1.71315 6:-7.77778 8:-8.66667 9:10 10:10 11:10 12:10 13:10 14:10 15:-10 16:-10 17:-9.89189 18:-6.41026 19:-9.80952 20:-10 21:-9.21042 22:-10 23:-9.8325 24:-8.65587 25:-9.97269 26:-8.65455 27:10 28:10 29:10 30:-10 
-128 1:-7.67442 2:-7.95918 3:-7.19626 4:-6.84211 5:-7.4502 6:-7.77778 7:-7.5 8:-8.22222 9:10 10:10 11:10 12:10 13:10 14:10 15:-9.09091 16:-9.62264 17:-6.72727 18:-3.67521 19:-5.90588 20:-8.91569 21:-8.2499 22:-8.7403 23:-9.44528 24:-8.94737 25:-8.62069 26:-7.53846 27:10 28:10 29:10 30:-10 
-5.025765227337383 1:-9.76744 2:-8.77551 3:-9.90654 4:-8.52632 5:-9.84064 6:-8.88889 7:-9.9 8:-8.66667 9:-10 10:-10 11:-10 12:10 13:10 14:10 15:-9.09091 16:-9.62264 17:10 18:-0.25641 19:3.06667 20:3.28798 21:-6.5035 22:-4.4568 23:-0.046729 24:-7.68421 25:10 26:-6.58182 27:10 28:10 29:10 30:-10 
-126.4002129052787 1:-6.04651 2:-10 3:-8.03738 4:-9.78947 5:-6.97211 6:-9.88889 7:-6.6 8:-10 9:10 10:10 11:10 12:-10 13:-10 14:-10 15:-10 16:-10 17:-9.30864 18:10 19:-8.61053 20:-9.61975 21:-0.0854701 22:-9.25223 23:-9.18012 24:-0.105263 25:-9.59606 26:10 27:-10 28:-10 29:-10 30:-10 
-59.41357800099819 1:-5.11628 2:-10 3:-5.88785 4:-8.94737 5:-4.18327 6:-9.44444 7:-4.5 8:-10 9:10 10:10 11:10 12:-10 13:-10 14:-10 15:-10 16:-10 17:-9.51515 18:10 19:-8.9913 20:-9.86395 21:-6.80912 22:-9.73353 23:-9.64694 24:-6.84211 25:-9.81219 26:10 27:-10 28:-10 29:-10 30:-10 
-128 1:-6.74419 2:-9.59184 3:-7.38318 4:-8.94737 5:-4.9004 6:-9.44444 7:-7.5 8:-9.7037 9:10 10:10 11:10 12:-3.33333 13:-6 14:-7.14286 15:-10 16:-10 17:-9.08148 18:-0.25641 19:-8.35294 20:-9.82627 21:-6.80912 22:-9.66939 23:-9.40058 24:-6.84211 25:-9.39655 26:-3.81818 27:-3.33333 28:-6 29:-7.14286 30:-10 
-128 1:-9.06977 2:-9.18367 3:-9.62617 4:-10 5:-9.52191 6:-9.77778 7:-9 8:-9.55556 9:10 10:10 11:10 12:-3.33333 13:-6 14:-7.14286 15:-8.18182 16:-8.86792 17:1.82222 18:10 19:4.8 20:-1.50632 21:10 22:1.90419 23:-6.07477 24:10 25:-2.83699 26:10 27:-3.33333 28:-6 29:-7.14286 30:-10 
-128 1:-5.11628 2:-6.73469 3:-5.98131 4:-7.89474 5:-4.74104 6:-8.11111 7:-5.2 8:-6.88889 9:10 10:10 11:10 12:10 13:10 14:10 15:-8.18182 16:-9.24528 17:-7.65657 18:-3.67521 19:-6.77419 20:-9.23444 21:-6.80912 22:-8.81085 23:-9.63679 24:-8.37321 25:-8.93737 26:-7.90083 27:10 28:10 29:10 30:-10 
-128 1:-8.60465 2:-8.36735 3:-8.50467 4:-8.94737 5:-8.24701 6:-8.44444 7:-8.8 8:-8.51852 9:10 10:10 11:10 12:10 13:10 14:10 15:-9.09091 16:-9.62264 17:-4.60317 18:-2.30769 19:-3.86667 20:-8.38509 21:-7.48148 22:-8.10905 23:-8.91149 24:-6.84211 25:-7.06897 26:-6.95868 27:10 28:10 29:10 30:-10 
-128 1:-9.76744 2:-9.59184 3:-9.62617 4:-9.15789 5:-9.28287 6:-9 7:-9.7 8:-9.55556 9:3.33333 10:0.666667 11:-1.42857 12:3.33333 13:0.666667 14:-1.42857 15:-9.09091 16:-8.86792 17:10 18:10 19:10 20:-6.10884 21:-6.13675 22:-6.19162 23:-6.07477 24:-6.16842 25:10 26:10 27:3.33333 28:0.666667 29:-1.42857 30:-10 
-128 1:-6.97674 2:0.204082 3:-8.03738 4:-1.36842 5:-6.97211 6:-2.33333 7:-7.4 8:-1.11111 9:10 10:10 11:10 12:10 13:10 14:10 15:-8.18182 16:-8.86792 17:-6.06349 18:-8.14596 19:-7.68 20:-8.58713 21:-9.30647 22:-9.12542 23:-9.18012 24:-9.72932 25:-7.18391 26:-9.36811 27:10 28:10 29:10 30:-8.46154 
-128 1:-7.90698 2:-7.14286 3:-7.85047 4:-5.15789 5:-7.76892 6:-6.77778 7:-7.1 8:-7.77778 9:10 10:10 11:10 12:10 13:10 14:10 15:-6.36364 16:-5.4717 17:-0.222222 18:2.30769 19:0.755556 20:-6.66432 21:-6.80912 22:-6.80909 23:-9.25623 24:-9.36842 25:-1.43103 26:6.11364 27:10 28:10 29:10 30:-8.46154 
-128 1:-9.53488 2:-5.10204 3:-9.62617 4:-5.36842 5:-9.20319 6:-5.22222 7:-9.6 8:-5.40741 9:3.33333 10:0.666667 11:-1.42857 12:10 13:10 14:10 15:-8.18182 16:-8.49057 17:10 18:-5.77909 19:-3 20:-4.6444 21:-8.79565 22:-8.03157 23:-6.07477 24:-9.33181 25:10 26:-7.48864 27:10 28:10 29:10 30:-10 
-128 1:-7.67442 2:-9.59184 3:-8.41121 4:-9.36842 5:-8.16733 6:-9.55556 7:-7.5 8:-9.55556 9:10 10:10 11:10 12:-3.33333 13:-6 14:-7.14286 15:-10 16:-9.62264 17:-8.58586 18:-0.25641 19:-7.6 20:-9.29705 21:-6.13675 22:-8.84369 23:-8.97715 24:-5.15789 25:-8.62069 26:-0.363636 27:-3.33333 28:-6 29:-7.14286 30:-10 
-128 1:-3.95349 2:-10 3:-4.39252 4:-9.78947 5:-4.74104 6:-9.88889 7:-2.5 8:-9.85185 9:10 10:10 11:10 12:-3.33333 13:-6 14:-7.14286 15:-10 16:-9.62264 17:-9.68724 18:10 19:-9.31429 20:-9.83552 21:-0.0854701 22:-9.65287 23:-9.76406 24:-0.105263 25:-9.64156 26:10 27:-3.33333 28:-6 29:-7.14286 30:-10 
-128 1:-8.13953 2:-9.18367 3:-9.25234 4:-9.15789 5:-8.08765 6:-8.88889 7:-7.8 8:-9.11111 9:10 10:10 11:10 12:3.33333 13:0.666667 14:-1.42857 15:-8.18182 16:-7.73585 17:-3.62963 18:10 19:-0.4 20:-7.71973 21:-4.66977 22:-6.86627 23:-7.86085 24:-6.16842 25:-4.03298 26:10 27:3.33333 28:0.666667 29:-1.42857 30:-8.46154 
-128 1:-7.67442 2:-6.32653 3:-7.00935 4:-6.42105 5:-5.85657 6:-5.55556 7:-7.4 8:-6.74074 9:10 10:10 11:10 12:10 13:10 14:10 15:-7.27273 16:-6.60377 17:-3.0101 18:-2.30769 19:-2.87619 20:-8.61635 21:-8.20304 22:-8.51701 23:-9.48457 24:-9.08772 25:-2.70115 26:-1.71542 27:10 28:10 29:10 30:-10 
-128 1:-9.53488 2:-9.18367 3:-9.71963 4:-9.36842 5:-9.28287 6:-9 7:-9.4 8:-9.11111 9:3.33333 10:0.666667 11:-1.42857 12:3.33333 13:0.666667 14:-1.42857 15:-8.18182 16:-7.73585 17:10 18:10 19:10 20:-4.09524 21:-4.11966 22:-4.16766 23:-5.07009 24:-5.15789 25:10 26:10 27:3.33333 28:0.666667 29:-1.42857 30:-8.46154 
-128 1:-8.37209 2:-6.73469 3:-8.03738 4:-6.84211 5:-7.52988 6:-7 7:-8.1 8:-7.03704 9:10 10:10 11:10 12:10 13:10 14:10 15:-8.18182 16:-8.49057 17:-2.77778 18:-3.67521 19:-3.45882 20:-8.2483 21:-8.00977 22:-8.21557 23:-9.18012 24:-8.94737 25:-5.12931 26:-5.79221 27:10 28:10 29:10 30:-10 
-128 1:-9.53488 2:-9.18367 3:-9.43925 4:-9.57895 5:-9.44223 6:-9.66667 7:-9.7 8:-9.25926 9:-3.33333 10:-6 11:-7.14286 12:3.33333 13:0.666667 14:-1.42857 15:-10 16:-9.62264 17:-3.62963 18:-3.67521 19:-3.86667 20:-7.61905 21:-5.12821 22:-6.86627 23:-7.22296 24:-3.47368 25:-0.0862069 26:-3.81818 27:3.33333 28:0.666667 29:-1.42857 30:-10 
-92.26721821835807 1:-9.76744 2:-9.18367 3:-9.34579 4:-8.94737 5:-9.44223 6:-8.88889 7:-9.7 8:-8.96296 9:-3.33333 10:-6 11:-7.14286 12:10 13:10 14:10 15:-10 16:-9.62264 17:-0.222222 18:-3.67521 19:-2.48 20:-7.61905 21:-8.33722 22:-8.10905 23:-7.58178 24:-6.84211 25:-0.0862069 26:-5.54545 27:10 28:10 29:10 30:-10 
-128 1:-6.97674 2:-10 3:-8.97196 4:-10 5:-8.7251 6:-10 7:-6.1 8:-9.85185 9:10 10:10 11:10 12:-3.33333 13:-6 14:-7.14286 15:-10 16:-9.62264 17:-8.98413 18:10 19:-8.02667 20:-8.95158 21:10 22:-7.99069 23:-8.419 24:10 25:-9.16379 26:10 27:-3.33333 28:-6 29:-7.14286 30:-10 
-128 1:-9.76744 2:-7.14286 3:-9.25234 4:-6.21053 5:-9.04382 6:-6.55556 7:-9.8 8:-7.48148 9:-3.33333 10:-6 11:-7.14286 12:10 13:10 14:10 15:-9.09091 16:-9.24528 17:10 18:-5.38462 19:-2.48 20:-7.0382 21:-8.91026 22:-8.44045 23:-7.86085 24:-9.14681 25:10 26:-7.27273 27:10 28:10 29:10 30:-10 
-128 1:-7.90698 2:-7.55102 3:-7.85047 4:-6.84211 5:-5.61753 6:-6.11111 7:-7.6 8:-8.07407 9:10 10:10 11:10 12:10 13:10 14:10 15:-7.27273 16:-8.11321 17:-2.26667 18:1.20879 19:-1.01176 20:-8.69776 21:-7.92972 22:-8.47956 23:-9.25623 24:-8.94737 25:-5.33103 26:-1.84416 27:10 28:10 29:10 30:-6.92308 
-128 1:-7.2093 2:-4.28571 3:-8.59813 4:-3.47368 5:-8.08765 6:-5.44444 7:-6.8 8:-4.81481 9:10 10:10 11:10 12:10 13:10 14:10 15:-8.18182 16:-6.60377 17:-5.7265 18:-6.41026 19:-6.34286 20:-7.71973 21:-8.73016 22:-8.42703 23:-8.83762 24:-9.57895 25:-4.05956 26:-4.9697 27:10 28:10 29:10 30:-8.46154 
-128 1:-3.25581 2:-10 3:-5.14019 4:-9.15789 5:-2.66932 6:-9.55556 7:-3.6 8:-9.85185 9:10 10:10 11:10 12:-3.33333 13:-6 14:-7.14286 15:-10 16:-9.62264 17:-9.76296 18:10 19:-9.45806 20:-9.91954 21:-6.13675 22:-9.82647 23:-9.71434 24:-6.16842 25:-9.55172 26:10 27:-3.33333 28:-6 29:-7.14286 30:-10 
-128 1:-5.34884 2:-7.14286 3:-8.2243 4:-8.73684 5:-5.61753 6:-7.88889 7:-5.6 8:-7.03704 9:10 10:10 11:10 12:10 13:10 14:10 15:-6.36364 16:-6.22642 17:-5.57672 18:2.30769 19:-3.62759 20:-8.33819 21:-5.12821 22:-7.57643 23:-9.08879 24:-7.32331 25:-5.24138 26:0.12987 27:10 28:10 29:10 30:-3.84615 
-128 1:-7.90698 2:-6.73469 3:-8.69159 4:-8.10526 5:-7.84861 6:-7.44444 7:-7.1 8:-6.74074 9:10 10:10 11:10 12:10 13:10 14:10 15:-5.45455 16:-5.09434 17:1.82222 18:3.16239 19:2.33684 20:-5.82119 21:-5.12821 22:-5.56886 23:-8.75389 24:-8.18947 25:-0.758621 26:1.88933 27:10 28:10 29:10 30:-8.46154 
-128 1:-4.65116 2:-8.77551 3:-7.19626 4:-8.31579 5:-3.46614 6:-8.55556 7:-4.6 8:-8.96296 9:10 10:10 11:10 12:-3.33333 13:-6 14:-7.14286 15:-9.09091 16:-8.86792 17:-8.74074 18:-0.25641 19:-7.82857 20:-9.65085 21:-7.28938 22:-9.4049 23:-9.44528 24:-7.96491 25:-8.70533 26:-0.363636 27:-3.33333 28:-6 29:-7.14286 30:-10 
-128 1:-10 2:-9.59184 3:-9.90654 4:-9.15789 5:-9.92032 6:-9.44444 7:-9.9 8:-9.25926 9:-3.33333 10:-6 11:-7.14286 12:10 13:10 14:10 15:-10 16:-9.62264 17:10 18:-0.25641 19:3.06667 20:-0.0680272 21:-6.80912 22:-5.17964 23:-0.046729 24:-6.16842 25:10 26:-3.81818 27:10 28:10 29:10 30:-10 
-128 1:-6.74419 2:-7.95918 3:-7.38318 4:-6.84211 5:-6.65339 6:-7.88889 7:-7 8:-8.37037 9:10 10:10 11:10 12:10 13:10 14:10 15:-9.09091 16:-9.24528 17:-7.71852 18:-3.67521 19:-6.8381 20:-9.19949 21:-8.15385 22:-8.95447 23:-9.40058 24:-8.94737 25:-8.22024 26:-5.54545 27:10 28:10 29:10 30:-10 
-128 1:-7.90698 2:-2.2449 3:-8.8785 4:-2.42105 5:-8.7251 6:-5.11111 7:-7.7 8:-2.14815 9:10 10:10 11:10 12:10 13:10 14:10 15:-9.09091 16:-8.11321 17:-6.35556 18:-8.46154 19:-8.02667 20:-7.76711 21:-9.27445 22:-8.93375 23:-8.54781 24:-9.6643 25:-5.12931 26:-8.42424 27:10 28:10 29:10 30:-10 
-128 1:-0.930233 2:-8.36735 3:-4.20561 4:-8.52632 5:1.87251 6:-8.33333 7:0.2 8:-7.77778 9:10 10:10 11:10 12:10 13:10 14:10 15:-8.18182 16:-6.60377 17:-8.91111 18:1.79487 19:-8.02667 20:-9.73333 21:-6.38889 22:-9.50797 23:-9.77451 24:-7.68421 25:-8.21393 26:2.22727 27:10 28:10 29:10 30:-10 
-128 1:-6.04651 2:-8.77551 3:-7.57009 4:-9.57895 5:-5.05976 6:-9.11111 7:-5.4 8:-8.22222 9:10 10:10 11:10 12:10 13:10 14:10 15:-7.27273 16:-5.4717 17:-5.90123 18:10 19:-3.23636 20:-8.85757 21:-1.20608 22:-7.99069 23:-9.34926 24:-3.47368 25:-4.59281 26:10 27:10 28:10 29:10 30:-8.46154 
-105.5458331106777 1:-7.90698 2:-10 3:-7.28972 4:-10 5:-7.52988 6:-10 7:-7.8 8:-9.85185 9:10 10:10 11:10 12:-3.33333 13:-6 14:-7.14286 15:-10 16:-9.62264 17:-8.4 18:10 19:-7.01818 20:-9.5068 21:10 22:-9.01288 23:-9.42368 24:10 25:-8.41829 26:10 27:-3.33333 28:-6 29:-7.14286 30:-10 
-128 1:-6.97674 2:-8.36735 3:-7.66355 4:-7.68421 5:-6.57371 6:-8 7:-6.4 8:-8.66667 9:10 10:10 11:10 12:10 13:10 14:10 15:-6.36364 16:-6.60377 17:-3.14286 18:10 19:0.147368 20:-7.84787 21:-4.8628 22:-7.0269 23:-9.32063 24:-8.52632 25:-4.72041 26:10 27:10 28:10 29:10 30:-5.38462 
-128 1:-8.13953 2:-9.18367 3:-8.78505 4:-9.36842 5:-7.76892 6:-9.33333 7:-8.1 8:-9.25926 9:10 10:10 11:10 12:-3.33333 13:-6 14:-7.14286 15:-8.18182 16:-8.11321 17:-3.62963 18:10 19:-0.4 20:-8.05301 21:-1.52625 22:-6.86627 23:-8.65821 24:-5.15789 25:-4.12069 26:10 27:-3.33333 28:-6 29:-7.14286 30:-10 
-128 1:-6.04651 2:-9.18367 3:-5.70093 4:-8.10526 5:-3.70518 6:-9 7:-5.1 8:-8.81481 9:10 10:10 11:10 12:10 13:10 14:10 15:-10 16:-9.62264 17:-9.30864 18:-3.67521 19:-8.81905 20:-9.88435 21:-8.15385 22:-9.78975 23:-9.66594 24:-8.18947 25:-9.36552 26:-6.12121 27:10 28:10 29:10 30:-10 
-128 1:-6.51163 2:-7.14286 3:-9.34579 4:-7.68421 5:-4.9004 6:-6.22222 7:-5.1 8:-7.03704 9:10 10:10 11:10 12:10 13:10 14:10 15:-5.45455 16:-3.96226 17:-2.77778 18:4.87179 19:-0.4 20:-8.27734 21:-6.71306 22:-7.81078 23:-7.58178 24:-8.52632 25:-3.31379 26:6.05195 27:10 28:10 29:10 30:-8.46154 
-128 1:-5.5814 2:-8.36735 3:-5.79439 4:-6.42105 5:-3.6255 6:-6.77778 7:-5.1 8:-7.62963 9:10 10:10 11:10 12:10 13:10 14:10 15:-10 16:-9.62264 17:-9.42222 18:-6.41026 19:-9.136 20:-9.88746 21:-9.49858 22:-9.87484 23:-9.65664 24:-9.08772 25:-9.36552 26:-8.28877 27:10 28:10 29:10 30:-10 
-128 1:-6.04651 2:-10 3:-7.57009 4:-9.57895 5:-7.29084 6:-9.77778 7:-5.7 8:-9.85185 9:10 10:10 11:10 12:-3.33333 13:-6 14:-7.14286 15:-10 16:-9.62264 17:-9.30864 18:10 19:-8.61053 20:-9.56074 21:-3.44729 22:-9.17428 23:-9.34926 24:-3.47368 25:-9.25549 26:10 27:-3.33333 28:-6 29:-7.14286 30:-10 
-128 1:-7.44186 2:-7.55102 3:-8.03738 4:-6 5:-7.21116 6:-7.11111 7:-7.2 8:-7.77778 9:10 10:10 11:10 12:10 13:10 14:10 15:-9.09091 16:-8.86792 17:-7.03704 18:-4.65201 19:-6.42105 20:-9.01738 21:-8.6768 22:-8.95447 23:-9.18012 24:-9.2 25:-7.39001 26:-5.54545 27:10 28:10 29:10 30:-10 
-128 1:-5.81395 2:-9.59184 3:-8.41121 4:-9.78947 5:-5.93625 6:-9.66667 7:-6.4 8:-9.7037 9:10 10:10 11:10 12:-3.33333 13:-6 14:-7.14286 15:-9.09091 16:-9.24528 17:-8.2924 18:10 19:-6.8381 20:-9.36159 21:-0.0854701 22:-8.79384 23:-8.97715 24:-0.105263 25:-8.53681 26:10 27:-3.33333 28:-6 29:-7.14286 30:-10 
-128 1:-1.16279 2:-7.95918 3:-3.08411 4:-7.68421 5:-0.278884 6:-8.33333 7:1.1 8:-7.33333 9:10 10:10 11:10 12:10 13:10 14:10 15:-10 16:-9.62264 17:-9.92023 18:-7.09402 19:-9.87556 20:-9.97235 21:-8.91026 22:-9.9483 23:-9.82555 24:-8.52632 25:-9.81219 26:-8.54545 27:10 28:10 29:10 30:-10 
-128 1:-5.34884 2:-7.55102 3:-8.31776 4:-9.15789 5:-6.65339 6:-8.44444 7:-5.1 8:-7.33333 9:10 10:10 11:10 12:10 13:10 14:10 15:-4.54545 16:-3.20755 17:-3.62963 18:10 19:-0.4 20:-6.85809 21:-0.757835 22:-5.35412 23:-9.03591 24:-6.16842 25:-2.5069 26:10 27:10 28:10 29:10 30:-8.46154 
-128 1:-5.5814 2:-10 3:-5.98131 4:-9.78947 5:-6.01594 6:-9.88889 7:-5.8 8:-9.7037 9:10 10:10 11:10 12:3.33333 13:0.666667 14:-1.42857 15:-10 16:-9.24528 17:-9.42222 18:10 19:-8.81905 20:-9.74123 21:-0.0854701 22:-9.47577 23:-9.63679 24:-0.105263 25:-8.76504 26:10 27:3.33333 28:0.666667 29:-1.42857 30:-10 
-128 1:-5.81395 2:-8.36735 3:-8.59813 4:-8.10526 5:-0.836653 6:-6.33333 7:-4.8 8:-7.62963 9:10 10:10 11:10 12:10 13:10 14:10 15:-7.27273 16:-5.4717 17:-6.14035 18:5.89744 19:-3.86667 20:-9.44171 21:-7.79789 22:-9.16008 23:-8.83762 24:-8.18947 25:-5.22446 26:5.12299 27:10 28:10 29:10 30:-5.38462 
-128 1:-9.30233 2:-9.18367 3:-9.34579 4:-8.73684 5:-9.12351 6:-8.88889 7:-9 8:-8.81481 9:3.33333 10:0.666667 11:-1.42857 12:3.33333 13:0.666667 14:-1.42857 15:-8.18182 16:-6.98113 17:4.88889 18:10 19:7.02857 20:-5.10204 21:-4.66977 22:-4.95965 23:-7.58178 24:-7.32331 25:6.33229 26:10 27:3.33333 28:0.666667 29:-1.42857 30:-6.92308 
-128 1:-9.30233 2:-7.95918 3:-9.43925 4:-7.47368 5:-9.20319 6:-8.11111 7:-9.2 8:-7.48148 9:3.33333 10:0.666667 11:-1.42857 12:10 13:10 14:10 15:-9.09091 16:-8.11321 17:-0.222222 18:-3.67521 19:-2.48 20:-6.47495 21:-7.92972 22:-7.44786 23:-7.22296 24:-8.65587 25:3.27586 26:-3.81818 27:10 28:10 29:10 30:-10 
-85.27349002794723 1:-10 2:-10 3:-9.90654 4:-9.78947 5:-9.92032 6:-9.88889 7:-9.8 8:-9.7037 9:3.33333 10:0.666667 11:-1.42857 12:3.33333 13:0.666667 14:-1.42857 15:-10 16:-9.24528 17:10 18:10 19:10 20:-0.0680272 21:-0.0854701 22:-0.11976 23:-0.046729 24:-0.105263 25:10 26:10 27:3.33333 28:0.666667 29:-1.42857 30:-10 
-128 1:-8.83721 2:-9.18367 3:-8.41121 4:-7.26316 5:-7.76892 6:-8.22222 7:-9.1 8:-8.96296 9:3.33333 10:0.666667 11:-1.42857 12:10 13:10 14:10 15:-9.09091 16:-8.86792 17:-3.62963 18:3.16239 19:-1.55556 20:-8.74736 21:-7.79789 22:-8.47956 23:-8.97715 24:-8.76692 25:-2.10345 26:-0.363636 27:10 28:10 29:10 30:-10 
-128 1:-9.30233 2:-8.36735 3:-9.43925 4:-8.31579 5:-8.48606 6:-7.66667 7:-9.3 8:-8.66667 9:3.33333 10:0.666667 11:-1.42857 12:3.33333 13:0.666667 14:-1.42857 15:-7.27273 16:-7.35849 17:10 18:5.89744 19:7.68889 20:-6.10884 21:-6.5035 22:-6.38437 23:-7.22296 24:-7.96491 25:10 26:5.85455 27:3.33333 28:0.666667 29:-1.42857 30:-6.92308 
-128 1:-10 2:-9.59184 3:-9.81308 4:-9.15789 5:-9.84064 6:-9.55556 7:-9.8 8:-9.11111 9:3.33333 10:0.666667 11:-1.42857 12:10 13:10 14:10 15:-10 16:-9.24528 17:10 18:-0.25641 19:3.06667 20:-3.42404 21:-6.13675 22:-5.17964 23:-3.39564 24:-6.16842 25:10 26:-1.84416 27:10 28:10 29:10 30:-10 
-128 1:-9.06977 2:-10 3:-9.53271 4:-9.57895 5:-8.96414 6:-9.77778 7:-9 8:-9.7037 9:3.33333 10:0.666667 11:-1.42857 12:3.33333 13:0.666667 14:-1.42857 15:-10 16:-9.24528 17:-6.35556 18:10 19:-3.86667 20:-8.69776 21:-3.44729 22:-7.8584 23:-6.74455 24:-3.47368 25:-4.67085 26:10 27:3.33333 28:0.666667 29:-1.42857 30:-10 
-26.12067494421168 1:-9.76744 2:-10 3:-9.53271 4:-9.15789 5:-9.52191 6:-9.55556 7:-9.4 8:-9.7037 9:10 10:10 11:10 12:3.33333 13:0.666667 14:-1.42857 15:-10 16:-9.24528 17:-0.222222 18:10 19:3.06667 20:-7.25948 21:-6.13675 22:-6.86627 23:-6.74455 24:-6.16842 25:-1.52709 26:10 27:3.33333 28:0.666667 29:-1.42857 30:-10 
-128 1:-9.53488 2:-9.59184 3:-9.34579 4:-9.36842 5:-9.12351 6:-9.22222 7:-9.4 8:-9.25926 9:3.33333 10:0.666667 11:-1.42857 12:3.33333 13:0.666667 14:-1.42857 15:-9.09091 16:-8.11321 17:3.18519 18:10 19:5.84 20:-6.78005 21:-5.12821 22:-6.19162 23:-7.58178 24:-5.15789 25:7.11823 26:10 27:3.33333 28:0.666667 29:-1.42857 30:-10 
-128 1:-9.53488 2:-8.77551 3:-8.97196 4:-7.26316 5:-8.64542 6:-7.88889 7:-9.2 8:-7.92593 9:10 10:10 11:10 12:10 13:10 14:10 15:-9.09091 16:-7.73585 17:3.18519 18:-0.25641 19:1.08571 20:-7.89872 21:-8.15385 22:-8.10905 23:-8.419 24:-8.76692 25:5.51724 26:-1.05455 27:10 28:10 29:10 30:-8.46154 
-128 1:-9.06977 2:-10 3:-9.34579 4:-9.57895 5:-9.20319 6:-9.77778 7:-9 8:-9.7037 9:3.33333 10:0.666667 11:-1.42857 12:3.33333 13:0.666667 14:-1.42857 15:-10 16:-9.24528 17:-6.35556 18:10 19:-3.86667 20:-8.3055 21:-3.44729 22:-7.34816 23:-7.58178 24:-3.47368 25:-4.67085 26:10 27:3.33333 28:0.666667 29:-1.42857 30:-10 
-128 1:-9.30233 2:-9.18367 3:-9.15888 4:-8.52632 5:-9.12351 6:-9.11111 7:-9.4 8:-9.25926 9:3.33333 10:0.666667 11:-1.42857 12:3.33333 13:0.666667 14:-1.42857 15:-9.09091 16:-8.86792 17:-0.222222 18:3.16239 19:1.08571 20:-6.78005 21:-5.68851 22:-6.38437 23:-8.08411 24:-7.68421 25:1.35468 26:3.09091 27:3.33333 28:0.666667 29:-1.42857 30:-10 
-128 1:-8.13953 2:-10 3:-8.8785 4:-9.57895 5:-8.40637 6:-9.77778 7:-8 8:-9.7037 9:10 10:10 11:10 12:3.33333 13:0.666667 14:-1.42857 15:-10 16:-9.24528 17:-8.17284 18:10 19:-6.64 20:-9.17719 21:-3.44729 22:-8.55289 23:-8.54781 24:-3.47368 25:-7.29064 26:10 27:3.33333 28:0.666667 29:-1.42857 30:-10 
-128 1:-9.53488 2:-9.18367 3:-9.43925 4:-8.73684 5:-9.04382 6:-8.66667 7:-9.6 8:-9.40741 9:3.33333 10:0.666667 11:-1.42857 12:3.33333 13:0.666667 14:-1.42857 15:-8.18182 16:-8.49057 17:10 18:10 19:10 20:-5.48927 21:-5.51611 22:-5.56886 23:-7.22296 24:-7.32331 25:10 26:10 27:3.33333 28:0.666667 29:-1.42857 30:-10 
-128 1:-9.30233 2:-9.59184 3:-9.15888 4:-9.15789 5:-8.80478 6:-9.33333 7:-9 8:-9.25926 9:10 10:10 11:10 12:3.33333 13:0.666667 14:-1.42857 15:-10 16:-9.24528 17:-5.33333 18:-0.25641 19:-3.86667 20:-8.87755 21:-7.28938 22:-8.47956 23:-8.08411 24:-6.16842 25:-4.67085 26:-0.363636 27:3.33333 28:0.666667 29:-1.42857 30:-10 
-128 1:-9.30233 2:-9.18367 3:-9.62617 4:-9.57895 5:-9.68127 6:-9.77778 7:-8.9 8:-8.51852 9:10 10:10 11:10 12:10 13:10 14:10 15:-10 16:-9.24528 17:-5.33333 18:-3.67521 19:-4.85714 20:-6.10884 21:-3.44729 22:-5.17964 23:-6.07477 24:-3.47368 25:-5.12931 26:-5.07438 27:10 28:10 29:10 30:-10 
-128 1:-7.67442 2:-9.59184 3:-8.2243 4:-9.15789 5:-7.52988 6:-9 7:-7.4 8:-9.55556 9:10 10:10 11:10 12:3.33333 13:0.666667 14:-1.42857 15:-9.09091 16:-8.86792 17:-6.72727 18:10 19:-4.4 20:-8.87755 21:-6.13675 22:-8.31195 23:-9.08879 24:-6.16842 25:-7.18391 26:10 27:3.33333 28:0.666667 29:-1.42857 30:-10 
-128 1:-9.76744 2:-9.18367 3:-9.81308 4:-8.73684 5:-9.60159 6:-9 7:-9.5 8:-8.66667 9:3.33333 10:0.666667 11:-1.42857 12:10 13:10 14:10 15:-9.09091 16:-8.11321 17:10 18:3.16239 19:5.84 20:-3.42404 21:-6.13675 22:-5.17964 23:-3.39564 24:-7.32331 25:10 26:1.70909 27:10 28:10 29:10 30:-8.46154 
-128 1:-6.51163 2:-7.14286 3:-5.88785 4:-3.47368 5:-3.94422 6:-5.88889 7:-5.1 8:-7.18519 9:10 10:10 11:10 12:10 13:10 14:10 15:-10 16:-9.24528 17:-9.16667 18:-7.94872 19:-9.06667 20:-9.87455 21:-9.64013 22:-9.88753 23:-9.64694 24:-9.57895 25:-8.96207 26:-7.61818 27:10 28:10 29:10 30:-10 
-128 1:-7.44186 2:-10 3:-6.91589 4:-9.78947 5:-6.57371 6:-9.88889 7:-6.8 8:-9.7037 9:10 10:10 11:10 12:3.33333 13:0.666667 14:-1.42857 15:-10 16:-9.24528 17:-8.74074 18:10 19:-7.6 20:-9.67842 21:-0.0854701 22:-9.35954 23:-9.50247 24:-0.105263 25:-8.33856 26:10 27:3.33333 28:0.666667 29:-1.42857 30:-10 
-128 1:-10 2:-9.59184 3:-9.43925 4:-8.52632 5:-9.52191 6:-9.22222 7:-9.8 8:-9.25926 9:3.33333 10:0.666667 11:-1.42857 12:3.33333 13:0.666667 14:-1.42857 15:-10 16:-9.24528 17:10 18:-0.25641 19:3.06667 20:-7.25948 21:-7.64957 22:-7.54092 23:-7.22296 24:-7.68421 25:10 26:-0.363636 27:3.33333 28:0.666667 29:-1.42857 30:-10 
-128 1:-4.65116 2:-10 3:-7.1028 4:-9.36842 5:-5.93625 6:-9.66667 7:-4.3 8:-9.7037 9:10 10:10 11:10 12:3.33333 13:0.666667 14:-1.42857 15:-10 16:-9.24528 17:-9.59259 18:10 19:-9.136 20:-9.74882 21:-5.12821 22:-9.51668 23:-9.46554 24:-5.15789 25:-9.12901 26:10 27:3.33333 28:0.666667 29:-1.42857 30:-10 
-7.723267287880367 1:-10 2:-10 3:-9.81308 4:-9.57895 5:-9.84064 6:-9.77778 7:-9.8 8:-9.7037 9:3.33333 10:0.666667 11:-1.42857 12:3.33333 13:0.666667 14:-1.42857 15:-10 16:-9.24528 17:10 18:10 19:10 20:-3.42404 21:-3.44729 22:-3.49301 23:-3.39564 24:-3.47368 25:10 26:10 27:3.33333 28:0.666667 29:-1.42857 30:-10 
-128 1:-8.60465 2:-10 3:-9.15888 4:-9.57895 5:-9.12351 6:-9.77778 7:-8.4 8:-9.7037 9:3.33333 10:0.666667 11:-1.42857 12:3.33333 13:0.666667 14:-1.42857 15:-10 16:-9.24528 17:-7.52381 18:10 19:-5.6 20:-8.45805 21:-3.44729 22:-7.54092 23:-8.08411 24:-3.47368 25:-6.61258 26:10 27:3.33333 28:0.666667 29:-1.42857 30:-10 
-128 1:-9.30233 2:-10 3:-9.62617 4:-9.78947 5:-9.52191 6:-9.88889 7:-8.8 8:-9.7037 9:10 10:10 11:10 12:3.33333 13:0.666667 14:-1.42857 15:-10 16:-9.24528 17:-5.33333 18:10 19:-2.48 20:-7.25948 21:-0.0854701 22:-5.74185 23:-6.07477 24:-0.105263 25:-5.51724 26:10 27:3.33333 28:0.666667 29:-1.42857 30:-10 
-24.3126618940033 1:-10 2:-10 3:-9.81308 4:-9.57895 5:-9.84064 6:-9.77778 7:-9.8 8:-9.7037 9:3.33333 10:0.666667 11:-1.42857 12:3.33333 13:0.666667 14:-1.42857 15:-10 16:-9.24528 17:10 18:10 19:10 20:-3.42404 21:-3.44729 22:-3.49301 23:-3.39564 24:-3.47368 25:10 26:10 27:3.33333 28:0.666667 29:-1.42857 30:-10 
-128 1:-9.53488 2:-9.59184 3:-9.71963 4:-9.57895 5:-9.68127 6:-9.66667 7:-9.2 8:-9.40741 9:10 10:10 11:10 12:3.33333 13:0.666667 14:-1.42857 15:-9.09091 16:-8.49057 17:3.18519 18:10 19:5.84 20:-2.08163 21:-0.0854701 22:-1.24418 23:-5.07009 24:-3.47368 25:1.03448 26:10 27:3.33333 28:0.666667 29:-1.42857 30:-10 
-54.36980984781489 1:-9.30233 2:-10 3:-9.25234 4:-9.57895 5:-9.04382 6:-9.77778 7:-9.1 8:-9.7037 9:3.33333 10:0.666667 11:-1.42857 12:3.33333 13:0.666667 14:-1.42857 15:-10 16:-9.24528 17:-5.33333 18:10 19:-2.48 20:-8.58713 21:-3.44729 22:-7.70958 23:-7.86085 24:-3.47368 25:-4.12069 26:10 27:3.33333 28:0.666667 29:-1.42857 30:-10 
-128 1:-9.53488 2:-10 3:-9.25234 4:-9.36842 5:-9.04382 6:-9.66667 7:-9.2 8:-9.7037 9:10 10:10 11:10 12:3.33333 13:0.666667 14:-1.42857 15:-10 16:-9.24528 17:-3.62963 18:10 19:-0.4 20:-8.58713 21:-5.12821 22:-7.8584 23:-7.86085 24:-5.15789 25:-3.44828 26:10 27:3.33333 28:0.666667 29:-1.42857 30:-10 
-128 1:-8.13953 2:-5.10204 3:-7.38318 4:-4.10526 5:-5.53785 6:-3.55556 7:-7.8 8:-5.55556 9:10 10:10 11:10 12:10 13:10 14:10 15:-8.18182 16:-8.11321 17:-3.62963 18:-5.77909 19:-5.12727 20:-9.07626 21:-9.1453 22:-9.19265 23:-9.40058 24:-9.51361 25:-4.91004 26:-6.71554 27:10 28:10 29:10 30:-10 
-128 1:-8.83721 2:-10 3:-8.8785 4:-9.36842 5:-9.04382 6:-9.66667 7:-8.2 8:-9.7037 9:10 10:10 11:10 12:3.33333 13:0.666667 14:-1.42857 15:-10 16:-9.24528 17:-7.03704 18:10 19:-4.85714 20:-8.58713 21:-5.12821 22:-7.8584 23:-8.54781 24:-5.15789 25:-6.9873 26:10 27:3.33333 28:0.666667 29:-1.42857 30:-10 
-128 1:-6.27907 2:-7.55102 3:-7.94393 4:-7.47368 5:-6.33466 6:-8.22222 7:-5.9 8:-7.18519 9:10 10:10 11:10 12:10 13:10 14:10 15:-8.18182 16:-6.98113 17:-6.8366 18:-1.72161 19:-5.6 20:-8.85077 21:-6.61136 22:-8.34207 23:-9.21983 24:-8.65587 25:-5.84975 26:-1.4 27:10 28:10 29:10 30:-10 
-128 1:-7.44186 2:-8.36735 3:-8.8785 4:-9.15789 5:-7.60956 6:-8.77778 7:-6.4 8:-7.77778 9:10 10:10 11:10 12:10 13:10 14:10 15:-7.27273 16:-5.84906 17:-3.62963 18:5.89744 19:-1.01176 20:-7.53785 21:-3.44729 22:-6.47403 23:-8.54781 24:-6.16842 25:-3.63001 26:4.81818 27:10 28:10 29:10 30:-10 
-128 1:-9.30233 2:-6.73469 3:-8.8785 4:-6.21053 5:-8.80478 6:-6.88889 7:-9 8:-6.14815 9:10 10:10 11:10 12:10 13:10 14:10 15:-10 16:-9.24528 17:-5.33333 18:-8.23362 19:-7.6 20:-8.87755 21:-9.47539 22:-9.33999 23:-8.54781 24:-9.14681 25:-4.67085 26:-8.42424 27:10 28:10 29:10 30:-10 
-128 1:-9.76744 2:-9.59184 3:-9.62617 4:-9.15789 5:-9.68127 6:-9.33333 7:-9.6 8:-9.11111 9:10 10:10 11:10 12:10 13:10 14:10 15:-10 16:-8.86792 17:-0.222222 18:-0.25641 19:-0.4 20:-6.10884 21:-7.28938 22:-6.86627 23:-6.07477 24:-6.16842 25:5.96552 26:1.11688 27:10 28:10 29:10 30:-10 
-128 1:-9.06977 2:-9.59184 3:-9.34579 4:-9.36842 5:-8.48606 6:-9.22222 7:-8.8 8:-8.96296 9:10 10:10 11:10 12:10 13:10 14:10 15:-9.09091 16:-7.35849 17:-2.26667 18:10 19:1.08571 20:-8.12245 21:-5.12821 22:-7.34816 23:-7.58178 24:-5.15789 25:2.24138 26:10 27:10 28:10 29:10 30:-10 
-128 1:-6.97674 2:-10 3:-6.82243 4:-9.57895 5:-6.97211 6:-9.77778 7:-6.4 8:-9.55556 9:10 10:10 11:10 12:10 13:10 14:10 15:-10 16:-8.86792 17:-8.98413 18:10 19:-8.02667 20:-9.61975 21:-3.44729 22:-9.27573 23:-9.51936 24:-3.47368 25:-7.99161 26:10 27:10 28:10 29:10 30:-10 
-108.2869180090159 1:-7.44186 2:5.91837 3:-7.38318 4:10 5:-7.29084 6:3 7:-6.6 8:6.74074 9:10 10:10 11:10 12:10 13:10 14:10 15:-10 16:-8.86792 17:-8.74074 18:-10 19:-10 20:-9.56074 21:-10 22:-9.97495 23:-9.40058 24:-10 25:-7.867 26:-10 27:10 28:10 29:10 30:-10 
-128 1:-7.44186 2:-7.14286 3:-5.04673 4:-5.15789 5:-4.18327 6:-5.55556 7:-7.7 8:-7.92593 9:10 10:10 11:10 12:10 13:10 14:10 15:-6.36364 16:-6.98113 17:-1.92593 18:2.30769 19:-0.4 20:-8.77551 21:-7.71107 22:-8.47956 23:-9.72136 24:-9.36842 25:-2.60776 26:1.70909 27:10 28:10 29:10 30:-10 
-23.76929150565506 1:-10 2:-10 3:-8.78505 4:-7.26316 5:-8.96414 6:-8.55556 7:-9.7 8:-9.55556 9:10 10:10 11:10 12:10 13:10 14:10 15:-10 16:-8.86792 17:10 18:10 19:10 20:-8.69776 21:-8.73016 22:-8.79384 23:-8.65821 24:-8.76692 25:10 26:10 27:10 28:10 29:10 30:-10 
-128 1:-10 2:-10 3:-9.71963 4:-9.36842 5:-9.76096 6:-9.66667 7:-9.7 8:-9.55556 9:10 10:10 11:10 12:10 13:10 14:10 15:-10 16:-8.86792 17:10 18:10 19:10 20:-5.10204 21:-5.12821 22:-5.17964 23:-5.07009 24:-5.15789 25:10 26:10 27:10 28:10 29:10 30:-10 
-128 1:-10 2:-10 3:-9.25234 4:-8.31579 5:-9.36255 6:-9.11111 7:-9.7 8:-9.55556 9:10 10:10 11:10 12:10 13:10 14:10 15:-10 16:-8.86792 17:10 18:10 19:10 20:-7.89872 21:-7.92972 22:-7.99069 23:-7.86085 24:-7.96491 25:10 26:10 27:10 28:10 29:10 30:-10 
-128 1:-5.5814 2:-9.18367 3:-7.00935 4:-7.68421 5:-4.66135 6:-8.55556 7:-5.3 8:-8.96296 9:10 10:10 11:10 12:10 13:10 14:10 15:-8.18182 16:-7.35849 17:-7.37778 18:10 19:-5.37391 20:-9.2477 21:-5.8486 22:-8.75858 23:-9.48457 24:-8.52632 25:-6.81034 26:10 27:10 28:10 29:10 30:-10 
-128 1:-9.30233 2:-10 3:-9.15888 4:-9.57895 5:-8.80478 6:-9.77778 7:-8.9 8:-9.55556 9:10 10:10 11:10 12:10 13:10 14:10 15:-10 16:-8.86792 17:-5.33333 18:10 19:-2.48 20:-8.87755 21:-3.44729 22:-8.10905 23:-8.08411 24:-3.47368 25:-3.44828 26:10 27:10 28:10 29:10 30:-10 
-128 1:-9.76744 2:-10 3:-9.62617 4:-9.57895 5:-9.68127 6:-9.77778 7:-9.3 8:-9.55556 9:10 10:10 11:10 12:10 13:10 14:10 15:-10 16:-8.86792 17:-0.222222 18:10 19:3.06667 20:-6.10884 21:-3.44729 22:-5.17964 23:-6.07477 24:-3.47368 25:-0.0862069 26:10 27:10 28:10 29:10 30:-10 
-128 1:-10 2:-10 3:-9.90654 4:-9.78947 5:-9.92032 6:-9.88889 7:-9.7 8:-9.55556 9:10 10:10 11:10 12:10 13:10 14:10 15:-10 16:-8.86792 17:10 18:10 19:10 20:-0.0680272 21:-0.0854701 22:-0.11976 23:-0.046729 24:-0.105263 25:10 26:10 27:10 28:10 29:10 30:-10 
-128 1:-8.60465 2:-1.83673 3:-8.50467 4:-0.947368 5:-8.24701 6:-4.11111 7:-8.9 8:-2.2963 9:10 10:10 11:10 12:10 13:10 14:10 15:-10 16:-8.86792 17:-7.52381 18:-9.53602 19:-9.31429 20:-9.26057 21:-9.7974 22:-9.71382 23:-8.91149 24:-9.7512 25:-3.44828 26:-9.16295 27:10 28:10 29:10 30:-10 
-128 1:-8.37209 2:-9.18367 3:-8.13084 4:-8.10526 5:-8.00797 6:-8.55556 7:-7.8 8:-8.96296 9:10 10:10 11:10 12:10 13:10 14:10 15:-9.09091 16:-7.73585 17:-5.33333 18:3.16239 19:-3.23636 20:-8.58713 21:-7.28938 22:-8.21557 23:-9.13663 24:-8.18947 25:-4.03298 26:7.40909 27:10 28:10 29:10 30:-10 
-128 1:-9.53488 2:-5.91837 3:-9.71963 4:-7.26316 5:-9.60159 6:-7.22222 7:-9.4 8:-5.11111 9:10 10:10 11:10 12:10 13:10 14:10 15:-10 16:-8.86792 17:-3.62963 18:-8.64802 19:-7.82857 20:-6.78005 21:-9.39513 22:-8.97455 23:-5.07009 24:-8.76692 25:1.35468 26:-8.28877 27:10 28:10 29:10 30:-10 
-128 1:-9.76744 2:-8.36735 3:-7.38318 4:-3.05263 5:-7.76892 6:-6.22222 7:-9.6 8:-8.07407 9:10 10:10 11:10 12:10 13:10 14:10 15:-10 16:-8.86792 17:-0.222222 18:-6.41026 19:-4.85714 20:-9.44171 21:-9.59463 22:-9.60704 23:-9.40058 24:-9.6161 25:5.96552 26:-4.80519 27:10 28:10 29:10 30:-10 
-128 1:-6.51163 2:-6.32653 3:-7.94393 4:-6.84211 5:-7.60956 6:-7.22222 7:-6.4 8:-6.44444 9:10 10:10 11:10 12:10 13:10 14:10 15:-9.09091 16:-7.35849 17:-7.88889 18:-6.41026 19:-7.6 20:-8.83695 21:-8.61933 22:-8.8192 23:-9.21983 24:-8.94737 25:-5.81081 26:-4.09455 27:10 28:10 29:10 30:-10 
-128 1:-7.2093 2:-7.14286 3:-8.50467 4:-7.47368 5:-7.68924 6:-7.66667 7:-7 8:-6.88889 9:10 10:10 11:10 12:10 13:10 14:10 15:-5.45455 16:-3.58491 17:-1.00855 18:4.87179 19:1.08571 20:-6.10884 21:-4.66977 22:-5.56886 23:-8.91149 24:-8.65587 25:1.5406 26:6.2314 27:10 28:10 29:10 30:-10 
-128 1:-9.76744 2:-10 3:-9.43925 4:-9.78947 5:-9.52191 6:-9.88889 7:-9.4 8:-9.55556 9:10 10:10 11:10 12:10 13:10 14:10 15:-10 16:-8.86792 17:-0.222222 18:10 19:3.06667 20:-7.25948 21:-0.0854701 22:-5.74185 23:-7.22296 24:-0.105263 25:1.35468 26:10 27:10 28:10 29:10 30:-10 
-128 1:-4.18605 2:-9.18367 3:-6.07477 4:-8.10526 5:-2.98805 6:-7.55556 7:-3.5 8:-8.37037 9:10 10:10 11:10 12:10 13:10 14:10 15:-8.18182 16:-5.84906 17:-8.08547 18:10 19:-6.49655 20:-9.45731 21:-7.53995 22:-9.15526 23:-9.62617 24:-8.18947 25:-6.5047 26:10 27:10 28:10 29:10 30:-10 
-128 1:-9.53488 2:-10 3:-9.15888 4:-9.57895 5:-9.04382 6:-9.77778 7:-8.9 8:-9.55556 9:10 10:10 11:10 12:10 13:10 14:10 15:-10 16:-8.86792 17:-3.62963 18:10 19:-0.4 20:-8.58713 21:-3.44729 22:-7.70958 23:-8.08411 24:-3.47368 25:-3.44828 26:10 27:10 28:10 29:10 30:-10 
-128 1:-8.37209 2:-9.18367 3:-9.53271 4:-9.78947 5:-9.20319 6:-9.66667 7:-7.6 8:-8.51852 9:10 10:10 11:10 12:10 13:10 14:10 15:-8.18182 16:-6.22642 17:-2.77778 18:10 19:0.545455 20:-4.6444 21:4.95726 22:-2.14371 23:-6.74455 24:-0.105263 25:-1.29655 26:10 27:10 28:10 29:10 30:-8.46154 
-128 1:-7.90698 2:-3.87755 3:-7.85047 4:-4.52632 5:-7.13147 6:-5.55556 7:-7.5 8:-4.51852 9:10 10:10 11:10 12:10 13:10 14:10 15:-10 16:-8.86792 17:-8.4 18:-9.23077 19:-9.2 20:-9.59184 21:-9.67897 22:-9.72056 23:-9.25623 24:-9.46199 25:-7.06897 26:-8.54545 27:10 28:10 29:10 30:-10 
-128 1:-9.06977 2:-9.59184 3:-8.8785 4:-8.94737 5:-8.56574 6:-9.22222 7:-8.1 8:-8.96296 9:10 10:10 11:10 12:10 13:10 14:10 15:-9.09091 16:-7.35849 17:-2.26667 18:10 19:1.08571 20:-8.01647 21:-5.12821 22:-7.24107 23:-8.54781 24:-6.84211 25:-2.10345 26:10 27:10 28:10 29:10 30:-8.46154 
-128 1:-9.53488 2:-9.59184 3:-9.34579 4:-9.15789 5:-9.44223 6:-9.55556 7:-8.9 8:-8.96296 9:10 10:10 11:10 12:10 13:10 14:10 15:-10 16:-8.86792 17:-3.62963 18:-0.25641 19:-2.48 20:-7.61905 21:-6.13675 22:-7.12575 23:-7.58178 24:-6.16842 25:-3.44828 26:-0.363636 27:10 28:10 29:10 30:-10 
-128 1:-9.76744 2:-10 3:-9.71963 4:-9.78947 5:-9.76096 6:-9.88889 7:-9.3 8:-9.55556 9:10 10:10 11:10 12:10 13:10 14:10 15:-10 16:-8.86792 17:-0.222222 18:10 19:3.06667 20:-5.10204 21:-0.0854701 22:-3.49301 23:-5.07009 24:-0.105263 25:-0.0862069 26:10 27:10 28:10 29:10 30:-10 
-128 1:-10 2:-10 3:-10 4:-10 5:-10 6:-10 7:-9.7 8:-9.55556 9:10 10:10 11:10 12:10 13:10 14:10 15:-10 16:-8.86792 17:10 18:10 19:10 20:10 21:10 22:10 23:10 24:10 25:10 26:10 27:10 28:10 29:10 30:-10 
-128 1:-9.53488 2:-10 3:-9.53271 4:-9.78947 5:-9.52191 6:-9.88889 7:-9.4 8:-9.55556 9:10 10:10 11:10 12:10 13:10 14:10 15:-10 16:-8.86792 17:-3.62963 18:10 19:-0.4 20:-7.25948 21:-0.0854701 22:-5.74185 23:-6.74455 24:-0.105263 25:1.35468 26:10 27:10 28:10 29:10 30:-10 
-128 1:-10 2:-10 3:-10 4:-10 5:-10 6:-10 7:-9.7 8:-9.55556 9:10 10:10 11:10 12:10 13:10 14:10 15:-10 16:-8.86792 17:10 18:10 19:10 20:10 21:10 22:10 23:10 24:10 25:10 26:10 27:10 28:10 29:10 30:-10 
-43.00106582704488 1:-9.76744 2:-10 3:-8.78505 4:-7.89474 5:-8.96414 6:-8.88889 7:-9.5 8:-9.55556 9:10 10:10 11:10 12:10 13:10 14:10 15:-10 16:-8.86792 17:-0.222222 18:10 19:3.06667 20:-8.69776 21:-8.33722 22:-8.62036 23:-8.65821 24:-8.37321 25:3.27586 26:10 27:10 28:10 29:10 30:-10 
-128 1:-1.16279 2:-10 3:-6.54206 4:-9.15789 5:-0.756972 6:-9.55556 7:0.4 8:-9.55556 9:10 10:10 11:10 12:10 13:10 14:10 15:-10 16:-8.86792 17:-9.92023 18:10 19:-9.76 20:-9.96395 21:-6.13675 22:-9.90773 23:-9.56468 24:-6.16842 25:-9.40394 26:10 27:10 28:10 29:10 30:-10 
-128 1:-7.2093 2:-10 3:-7.57009 4:-9.15789 5:-6.1753 6:-9.55556 7:-6.9 8:-9.55556 9:10 10:10 11:10 12:10 13:10 14:10 15:-10 16:-8.86792 17:-8.87179 18:10 19:-7.82857 20:-9.72511 21:-6.13675 22:-9.48991 23:-9.34926 24:-6.16842 25:-7.65086 26:10 27:10 28:10 29:10 30:-10 
-128 1:-9.06977 2:-10 3:-8.78505 4:-9.36842 5:-8.64542 6:-9.66667 7:-8.4 8:-9.55556 9:10 10:10 11:10 12:10 13:10 14:10 15:-10 16:-8.86792 17:-6.35556 18:10 19:-3.86667 20:-9.01738 21:-5.12821 22:-8.39956 23:-8.65821 24:-5.15789 25:-5.42596 26:10 27:10 28:10 29:10 30:-10 
-128 1:-10 2:-10 3:-10 4:-10 5:-10 6:-10 7:-9.7 8:-9.55556 9:10 10:10 11:10 12:10 13:10 14:10 15:-10 16:-8.86792 17:10 18:10 19:10 20:10 21:10 22:10 23:10 24:10 25:10 26:10 27:10 28:10 29:10 30:-10 
-128 1:-9.76744 2:-10 3:-9.43925 4:-9.15789 5:-9.52191 6:-9.55556 7:-9.4 8:-9.55556 9:10 10:10 11:10 12:10 13:10 14:10 15:-10 16:-8.86792 17:-0.222222 18:10 19:3.06667 20:-7.25948 21:-6.13675 22:-6.86627 23:-7.22296 24:-6.16842 25:1.35468 26:10 27:10 28:10 29:10 30:-10 
-128 1:-9.06977 2:-10 3:-9.62617 4:-9.78947 5:-9.60159 6:-9.88889 7:-8.7 8:-9.55556 9:10 10:10 11:10 12:10 13:10 14:10 15:-10 16:-8.86792 17:-6.35556 18:10 19:-3.86667 20:-6.78005 21:-0.0854701 22:-5.17964 23:-6.07477 24:-0.105263 25:-4.40887 26:10 27:10 28:10 29:10 30:-10 
-128 1:-8.13953 2:-7.95918 3:-8.31776 4:-6.42105 5:-7.60956 6:-7.55556 7:-7.7 8:-7.33333 9:10 10:10 11:10 12:10 13:10 14:10 15:-10 16:-8.86792 17:-8.17284 18:-7.09402 19:-8.02667 20:-9.4865 21:-9.29394 22:-9.48991 23:-9.03591 24:-9.08772 25:-6.81034 26:-6.36364 27:10 28:10 29:10 30:-10 
-128 1:-9.76744 2:-9.18367 3:-9.15888 4:-8.73684 5:-9.28287 6:-8.33333 7:-9.4 8:-8.66667 9:10 10:10 11:10 12:10 13:10 14:10 15:-10 16:-8.86792 17:-0.222222 18:-3.67521 19:-2.48 20:-8.12245 21:-8.91026 22:-8.68263 23:-8.08411 24:-7.32331 25:1.35468 26:-2.43636 27:10 28:10 29:10 30:-10 
-128 1:-8.13953 2:-10 3:-8.31776 4:-8.52632 5:-8.24701 6:-9.22222 7:-7.4 8:-9.55556 9:10 10:10 11:10 12:10 13:10 14:10 15:-10 16:-8.86792 17:-8.17284 18:10 19:-6.64 20:-9.26057 21:-7.64957 22:-8.93375 23:-9.03591 24:-7.68421 25:-7.18391 26:10 27:10 28:10 29:10 30:-10 
-128 1:-5.34884 2:-9.59184 3:-5.14019 4:-8.73684 5:-0.836653 6:-9.33333 7:-4.8 8:-9.11111 9:10 10:10 11:10 12:10 13:10 14:10 15:-10 16:-8.86792 17:-9.4709 18:-0.25641 19:-8.9913 20:-9.96247 21:-7.28938 22:-9.91042 23:-9.71434 24:-7.32331 25:-8.64997 26:1.11688 27:10 28:10 29:10 30:-10 
-128 1:-7.44186 2:-9.59184 3:-7.75701 4:-8.73684 5:-7.13147 6:-9.11111 7:-6.8 8:-8.96296 9:10 10:10 11:10 12:10 13:10 14:10 15:-10 16:-8.86792 17:-8.74074 18:-0.25641 19:-7.82857 20:-9.59184 21:-7.92972 22:-9.35954 23:-9.28972 24:-7.32331 25:-7.72727 26:-0.363636 27:10 28:10 29:10 30:-10 
-128 1:-9.76744 2:-10 3:-9.71963 4:-9.57895 5:-9.68127 6:-9.77778 7:-9.5 8:-9.55556 9:10 10:10 11:10 12:10 13:10 14:10 15:-10 16:-8.86792 17:-0.222222 18:10 19:3.06667 20:-6.10884 21:-3.44729 22:-5.17964 23:-5.07009 24:-3.47368 25:3.27586 26:10 27:10 28:10 29:10 30:-10 
-128 1:-5.34884 2:-8.36735 3:-7.75701 4:-8.73684 5:-6.81275 6:-8.33333 7:-4 8:-8.07407 9:10 10:10 11:10 12:10 13:10 14:10 15:-9.09091 16:-7.35849 17:-8.49735 18:-2.30769 19:-7.6 20:-9.15381 21:-7.64957 22:-8.8192 23:-9.28972 24:-7.32331 25:-7.52685 26:1.11688 27:10 28:10 29:10 30:-8.46154 
-128 1:-10 2:-10 3:-9.53271 4:-8.94737 5:-9.60159 6:-9.44444 7:-9.7 8:-9.55556 9:10 10:10 11:10 12:10 13:10 14:10 15:-10 16:-8.86792 17:10 18:10 19:10 20:-6.78005 21:-6.80912 22:-6.86627 23:-6.74455 24:-6.84211 25:10 26:10 27:10 28:10 29:10 30:-10 
-128 1:-9.53488 2:-9.59184 3:-9.62617 4:-9.15789 5:-9.36255 6:-9.33333 7:-9.1 8:-8.96296 9:10 10:10 11:10 12:10 13:10 14:10 15:-9.09091 16:-7.35849 17:3.18519 18:10 19:5.84 20:-5.66138 21:-4.40781 22:-5.17964 23:-6.07477 24:-6.16842 25:5.96552 26:10 27:10 28:10 29:10 30:-8.46154 
