svm_type c_svc
kernel_type rbf
gamma 3.05176e-05
nr_class 2
total_sv 481
rho 16.6663
label 1 -1
nr_sv 237 244
SV
128 1:-7.2043 2:-5.76923 3:-7.94393 4:-6.77419 5:-7.60563 6:-7.14286 7:-6.98745 8:-7.46479 9:10 10:10 11:10 12:10 13:10 14:10 15:-8.62069 16:-9.47368 17:-5.94883 18:-5.55556 19:-5.82418 20:-8.37279 21:-8.33992 22:-8.38002 23:-9.21983 24:-9.20123 25:-8.52541 26:-7.30994 27:10 28:10 29:10 30:-10 
128 1:-9.78495 2:-9.23077 3:-9.90654 4:-9.35484 5:-9.85915 6:-9.55357 7:-9.74895 8:-9.29577 9:3.33333 10:0.666667 11:-1.42857 12:3.33333 13:0.666667 14:-1.42857 15:-9.31034 16:-9.21053 17:10 18:3.08642 19:5.88571 20:3.30159 21:-3.44928 22:-1.19929 23:-0.046729 24:-6.12903 25:10 26:3.14815 27:3.33333 28:0.666667 29:-1.42857 30:-10 
128 1:-3.11828 2:-10 3:-5.42056 4:-9.03226 5:-3.80282 6:-9.46429 7:-3.80753 8:-10 9:10 10:10 11:10 12:-10 13:-10 14:-10 15:-10 16:-10 17:-9.6834 18:10 19:-9.36134 20:-9.86945 21:-7.29193 22:-9.73876 23:-9.69159 24:-7.28111 25:-9.8912 26:10 27:-10 28:-10 29:-10 30:-10 
128 1:-5.91398 2:-9.23077 3:-7.75701 4:-9.19355 5:-5.14085 6:-9.10714 7:-6.06695 8:-9.29577 9:10 10:10 11:10 12:10 13:10 14:10 15:-8.62069 16:-8.68421 17:-7.25373 18:10 19:-5.20497 20:-9.23401 21:-4.67194 22:-8.66549 23:-9.28972 24:-6.80108 25:-7.64 26:10 27:10 28:10 29:10 30:-10 
128 1:-7.84946 2:-6.53846 3:-8.59813 4:-6.6129 5:-6.83099 6:-6.96429 7:-7.6569 8:-7.46479 9:10 10:10 11:10 12:10 13:10 14:10 15:-8.62069 16:-8.15789 17:-4.76255 18:-4.51852 19:-4.69388 20:-8.78468 21:-8.44472 22:-8.66549 23:-8.83762 24:-9.24487 25:-4.59862 26:-1.90058 27:10 28:10 29:10 30:-7.14286 
128 1:-9.35484 2:-4.23077 3:-8.59813 4:-2.09677 5:-7.95775 6:-2.67857 7:-9.24686 8:-4.92958 9:10 10:10 11:10 12:10 13:10 14:10 15:-7.93103 16:-7.63158 17:10 18:-5.55556 19:-2.34286 20:-7.41587 21:-9.20168 22:-8.73156 23:-8.83762 24:-9.75806 25:10 26:-5 27:10 28:10 29:10 30:-10 
128 1:-2.25806 2:-5.76923 3:-2.61682 4:-7.09677 5:-0.140845 6:-7.41071 7:-1.79916 8:-5.35211 9:10 10:10 11:10 12:10 13:10 14:10 15:-7.93103 16:-8.15789 17:-8.10407 18:-3.82716 19:-7.21283 20:-9.52516 21:-7.48406 22:-9.21563 23:-9.84229 24:-9.10017 25:-8.53091 26:-5.71895 27:10 28:10 29:10 30:-7.14286 
128 1:-8.70968 2:-8.84615 3:-9.06542 4:-9.03226 5:-9.01408 6:-9.10714 7:-8.99582 8:-9.43662 9:3.33333 10:0.666667 11:-1.42857 12:-3.33333 13:-6 14:-7.14286 15:-8.62069 16:-9.21053 17:-1.59915 18:4.81481 19:0.649351 20:-6.07619 21:-4.67194 22:-5.50672 23:-8.26678 24:-7.28111 25:-3.95692 26:5.88889 27:-3.33333 28:-6 29:-7.14286 30:-7.14286 
128 1:-9.78495 2:-8.84615 3:-9.62617 4:-7.58065 5:-9.64789 6:-8.30357 7:-9.66527 8:-8.59155 9:10 10:10 11:10 12:10 13:10 14:10 15:-9.31034 16:-8.94737 17:10 18:-0.37037 19:3.14286 20:-3.39683 21:-8.15652 22:-7.05739 23:-6.07477 24:-8.90121 25:10 26:-1.21212 27:10 28:10 29:10 30:-10 
128 1:-6.12903 2:-6.15385 3:-7.38318 4:-8.22581 5:-6.61972 6:-7.85714 7:-7.23849 8:-6.76056 9:10 10:10 11:10 12:10 13:10 14:10 15:-8.62069 16:-8.68421 17:-7.09348 18:-5.08418 19:-6.45714 20:-8.86492 21:-7.75304 22:-8.52424 23:-9.40058 24:-8.48118 25:-6.60235 26:-5.41667 27:10 28:10 29:10 30:-10 
128 1:-8.92473 2:-8.84615 3:-9.06542 4:-8.3871 5:-8.52113 6:-8.57143 7:-8.99582 8:-9.01408 9:10 10:10 11:10 12:10 13:10 14:10 15:-9.31034 16:-8.94737 17:-3.53234 18:-0.37037 19:-2.34286 20:-8.2684 21:-7.80051 22:-8.09117 23:-8.26678 24:-8.32845 25:-2.40615 26:2.29167 27:10 28:10 29:10 30:-7.14286 
128 1:-6.98925 2:-8.07692 3:-8.2243 4:-8.54839 5:-7.8169 6:-8.83929 7:-6.7364 8:-7.46479 9:10 10:10 11:10 12:10 13:10 14:10 15:-9.31034 16:-8.94737 17:-7.59204 18:-3.82716 19:-6.65306 20:-8.83929 21:-7.29193 22:-8.4058 23:-9.08879 24:-8.14516 25:-7.64 26:-5.1462 27:10 28:10 29:10 30:-10 
128 1:-9.35484 2:-10 3:-9.53271 4:-9.83871 5:-9.57746 6:-9.91071 7:-9.16318 8:-10 9:10 10:10 11:10 12:-10 13:-10 14:-10 15:-10 16:-10 17:-5.22388 18:10 19:-2.34286 20:-7.22449 21:-0.0869565 22:-5.67901 23:-6.74455 24:-0.0806452 25:-8.32727 26:10 27:-10 28:-10 29:-10 30:-10 
128 1:-5.91398 2:-8.07692 3:-6.26168 4:-8.3871 5:-5.21127 6:-8.48214 7:-6.56904 8:-9.15493 9:10 10:10 11:10 12:-3.33333 13:-6 14:-7.14286 15:-7.93103 16:-9.21053 17:-6.23881 18:3.08642 19:-4.24176 20:-8.9303 21:-5.69082 22:-8.30505 23:-9.60337 24:-8.32845 25:-8.24 26:1.19048 27:-3.33333 28:-6 29:-7.14286 30:-7.14286 
128 1:-9.78495 2:-9.61538 3:-10 4:-10 5:-9.92958 6:-9.91071 7:-9.74895 8:-9.57746 9:3.33333 10:0.666667 11:-1.42857 12:3.33333 13:0.666667 14:-1.42857 15:-9.31034 16:-9.21053 17:10 18:10 19:10 20:10 21:10 22:10 23:10 24:10 25:10 26:10 27:3.33333 28:0.666667 29:-1.42857 30:-10 
128 1:-8.70968 2:-8.07692 3:-9.15888 4:-8.3871 5:-9.01408 6:-8.75 7:-8.99582 8:-8.73239 9:3.33333 10:0.666667 11:-1.42857 12:3.33333 13:0.666667 14:-1.42857 15:-9.31034 16:-9.73684 17:-4.49893 18:-3.82716 19:-4.24176 20:-7.41587 21:-7.48406 22:-7.4709 23:-8.08411 24:-8.32845 25:-7.05846 26:-6.44444 27:3.33333 28:0.666667 29:-1.42857 30:-10 
128 1:-6.34409 2:-10 3:-8.2243 4:-9.83871 5:-6.76056 6:-9.91071 7:-6.65272 8:-10 9:10 10:10 11:10 12:-10 13:-10 14:-10 15:-10 16:-10 17:-9.17081 18:10 19:-8.40602 20:-9.66768 21:-0.0869565 22:-9.33592 23:-9.08879 24:-0.0806452 25:-9.66829 26:10 27:-10 28:-10 29:-10 30:-10 
128 1:-9.56989 2:-7.30769 3:-9.71963 4:-8.22581 5:-9.50704 6:-8.39286 7:-9.74895 8:-8.02817 9:-3.33333 10:-6 11:-7.14286 12:10 13:10 14:10 15:-8.62069 16:-9.21053 17:10 18:-2.96296 19:0.649351 20:-2.55952 21:-6.98856 22:-5.67901 23:-5.07009 24:-8.48118 25:10 26:-5.07407 27:10 28:10 29:10 30:-10 
128 1:-9.35484 2:-8.84615 3:-9.25234 4:-8.70968 5:-8.4507 6:-8.03571 7:-9.33054 8:-8.73239 9:10 10:10 11:10 12:10 13:10 14:10 15:-8.62069 16:-8.42105 17:4.92537 18:4.81481 19:4.85714 20:-7.47412 21:-7.54253 22:-7.52933 23:-7.86085 24:-7.92115 25:5.52 26:3.83333 27:10 28:10 29:10 30:-7.14286 
128 1:-9.35484 2:-10 3:-9.43925 4:-9.83871 5:-9.50704 6:-9.91071 7:-9.58159 8:-10 9:3.33333 10:0.666667 11:-1.42857 12:-10 13:-10 14:-10 15:-10 16:-10 17:-5.22388 18:10 19:-2.34286 20:-7.58333 21:-0.0869565 22:-6.12698 23:-7.22296 24:-0.0806452 25:-6.8 26:10 27:-10 28:-10 29:-10 30:-10 
128 1:-0.322581 2:-9.23077 3:-5.23364 4:-9.19355 5:-0.985915 6:-9.375 7:-0.292887 8:-9.01408 9:10 10:10 11:10 12:10 13:10 14:10 15:-10 16:-10 17:-9.85724 18:-3.82716 19:-9.73178 20:-9.93946 21:-7.65217 22:-9.86444 23:-9.70705 24:-6.80108 25:-9.98769 26:-7.98611 27:10 28:10 29:10 30:-10 
128 1:-9.78495 2:-8.84615 3:-9.81308 4:-8.22581 5:-9.85915 6:-8.83929 7:-9.91632 8:-8.87324 9:-10 10:-10 11:-10 12:10 13:10 14:10 15:-10 16:-10 17:-0.149254 18:-5.55556 19:-3.71429 20:-3.39683 21:-8.73292 22:-7.78711 23:-3.39564 24:-8.48118 25:-0.08 26:-8.2716 27:10 28:10 29:10 30:-10 
128 1:-4.83871 2:-6.15385 3:-7.75701 4:-8.70968 5:-6.97183 6:-8.48214 7:-5.06276 8:-5.49296 9:10 10:10 11:10 12:10 13:10 14:10 15:-8.62069 16:-8.94737 17:-7.86269 18:-5.08418 19:-7.14286 20:-8.72511 21:-6.81159 22:-8.20789 23:-9.28972 24:-7.92115 25:-8.48 26:-7.44108 27:10 28:10 29:10 30:-10 
128 1:-9.35484 2:-9.23077 3:-9.43925 4:-9.03226 5:-9.22535 6:-9.10714 7:-9.16318 8:-9.01408 9:10 10:10 11:10 12:10 13:10 14:10 15:-8.62069 16:-8.15789 17:4.92537 18:10 19:7.06122 20:-5.07143 21:-4.67194 22:-4.89993 23:-7.22296 24:-7.28111 25:4.50182 26:10 27:10 28:10 29:10 30:-7.14286 
128 1:-9.56989 2:-3.84615 3:-9.71963 4:-5.32258 5:-9.71831 6:-5.71429 7:-9.58159 8:-3.94366 9:3.33333 10:0.666667 11:-1.42857 12:10 13:10 14:10 15:-9.31034 16:-9.47368 17:3.23383 18:-8.30065 19:-6.45714 20:-2.05714 21:-9.35049 22:-8.66549 23:-5.07009 24:-9.48925 25:-0.08 26:-9.15404 27:10 28:10 29:10 30:-10 
128 1:-8.70968 2:-9.23077 3:-9.25234 4:-9.35484 5:-9.15493 6:-9.46429 7:-8.57741 8:-9.29577 9:10 10:10 11:10 12:3.33333 13:0.666667 14:-1.42857 15:-9.31034 16:-9.47368 17:-4.49893 18:3.08642 19:-2.34286 20:-7.00366 21:-4.40994 22:-6.12698 23:-7.86085 24:-6.12903 25:-6.8 26:-0.277778 27:3.33333 28:0.666667 29:-1.42857 30:-10 
128 1:-9.13978 2:-6.92308 3:-9.15888 4:-7.41935 5:-8.80282 6:-7.67857 7:-9.49791 8:-7.46479 9:-3.33333 10:-6 11:-7.14286 12:10 13:10 14:10 15:-7.93103 16:-8.68421 17:5.9403 18:-1.52263 19:1.18367 20:-5.62963 21:-7.18519 22:-6.57496 23:-8.08411 24:-8.97533 25:7.12 26:-4.06433 27:10 28:10 29:10 30:-10 
128 1:-9.13978 2:-8.46154 3:-9.25234 4:-8.70968 5:-8.38028 6:-7.94643 7:-9.16318 8:-8.59155 9:10 10:10 11:10 12:10 13:10 14:10 15:-7.24138 16:-7.36842 17:10 18:10 19:10 20:-5.90873 21:-5.97101 22:-5.95899 23:-7.86085 24:-7.92115 25:10 26:10 27:10 28:10 29:10 30:-7.14286 
128 1:-8.92473 2:-9.23077 3:-9.15888 4:-8.3871 5:-9.01408 6:-9.10714 7:-8.82845 8:-9.01408 9:10 10:10 11:10 12:10 13:10 14:10 15:-10 16:-10 17:-6.91542 18:-3.82716 19:-6 20:-8.75556 21:-8.33992 22:-8.60806 23:-8.08411 24:-8.32845 25:-8.816 26:-7.98611 27:10 28:10 29:10 30:-10 
128 1:-8.49462 2:-8.84615 3:-9.15888 4:-9.67742 5:-8.87324 6:-9.28571 7:-8.41004 8:-8.87324 9:10 10:10 11:10 12:10 13:10 14:10 15:-7.93103 16:-7.89474 17:-0.149254 18:10 19:3.14286 20:-5.36695 21:-1.20773 22:-3.95604 23:-8.08411 24:-3.44086 25:-1.088 26:10 27:10 28:10 29:10 30:-7.14286 
128 1:-9.13978 2:-9.23077 3:-8.8785 4:-8.54839 5:-8.4507 6:-8.57143 7:-9.24686 8:-9.57746 9:3.33333 10:0.666667 11:-1.42857 12:-3.33333 13:-6 14:-7.14286 15:-8.62069 16:-9.21053 17:1.8806 18:10 19:4.85714 20:-7.47412 21:-6.61381 22:-7.13492 23:-8.54781 24:-8.14516 25:-2.096 26:10 27:-3.33333 28:-6 29:-7.14286 30:-4.28571 
128 1:-7.63441 2:-9.61538 3:-8.31776 4:-9.35484 5:-7.53521 6:-9.375 7:-7.48954 8:-9.43662 9:10 10:10 11:10 12:3.33333 13:0.666667 14:-1.42857 15:-9.31034 16:-8.94737 17:-6.91542 18:10 19:-4.69388 20:-8.97884 21:-5.13043 22:-8.32612 23:-9.03591 24:-6.12903 25:-6.90839 26:10 27:3.33333 28:0.666667 29:-1.42857 30:-10 
128 1:-9.35484 2:-5 3:-9.34579 4:-6.6129 5:-9.01408 6:-5.71429 7:-9.41423 8:-5.49296 9:3.33333 10:0.666667 11:-1.42857 12:10 13:10 14:10 15:-7.93103 16:-8.15789 17:10 18:-4.81481 19:-1.42857 20:-4.73651 21:-8.52706 22:-7.63889 23:-7.58178 24:-9.24487 25:10 26:-5.57239 27:10 28:10 29:10 30:-10 
128 1:-8.92473 2:-5.76923 3:-8.97196 4:-5.64516 5:-8.94366 6:-6.51786 7:-8.99582 8:-7.32394 9:10 10:10 11:10 12:10 13:10 14:10 15:-9.31034 16:-8.94737 17:-3.53234 18:-7.28395 19:-6 20:-7.58333 21:-9.16522 22:-8.71882 23:-8.419 24:-9.44124 25:-2.40615 26:-5.41667 27:10 28:10 29:10 30:-10 
128 1:-9.78495 2:-9.61538 3:-8.41121 4:-7.25806 5:-8.66197 6:-8.30357 7:-9.58159 8:-9.29577 9:10 10:10 11:10 12:10 13:10 14:10 15:-9.31034 16:-8.68421 17:10 18:10 19:10 20:-8.08571 21:-8.15652 22:-8.14286 23:-8.97715 24:-9.04122 25:10 26:10 27:10 28:10 29:10 30:-10 
128 1:-9.13978 2:-7.69231 3:-9.06542 4:-6.93548 5:-9.29577 6:-8.21429 7:-8.91213 8:-7.46479 9:10 10:10 11:10 12:10 13:10 14:10 15:-10 16:-9.73684 17:-6.23881 18:-7.77778 19:-7.14286 20:-8.2684 21:-9.21325 22:-8.89881 23:-8.26678 24:-9.15323 25:-7.28 26:-8.39181 27:10 28:10 29:10 30:-10 
128 1:-9.13978 2:-8.46154 3:-9.25234 4:-8.54839 5:-9.3662 6:-9.01786 7:-9.41423 8:-8.30986 9:3.33333 10:0.666667 11:-1.42857 12:10 13:10 14:10 15:-9.31034 16:-9.47368 17:-2.1791 18:-2.44444 19:-2.34286 20:-6.07619 21:-6.81159 22:-6.49351 23:-7.86085 24:-8.14516 25:-2.6 26:-5.81197 27:10 28:10 29:10 30:-10 
128 1:-6.12903 2:-9.23077 3:-6.4486 4:-9.19355 5:-3.94366 6:-9.375 7:-6.65272 8:-9.01408 9:10 10:10 11:10 12:3.33333 13:0.666667 14:-1.42857 15:-9.31034 16:-8.94737 17:-8.16182 18:3.08642 19:-6.83117 20:-9.63328 21:-5.13043 22:-9.30994 23:-9.57824 24:-6.80108 25:-7.70146 26:2.29167 27:3.33333 28:0.666667 29:-1.42857 30:-10 
128 1:-9.56989 2:-6.53846 3:-9.90654 4:-8.3871 5:-9.85915 6:-8.83929 7:-9.49791 8:-6.33803 9:3.33333 10:0.666667 11:-1.42857 12:10 13:10 14:10 15:-9.31034 16:-9.21053 17:3.23383 18:-6.59259 19:-4.24176 20:3.30159 21:-7.29193 22:-5.4155 23:-0.046729 24:-8.32845 25:1.36 26:-7.51029 27:10 28:10 29:10 30:-10 
128 1:-8.70968 2:-8.46154 3:-7.47664 4:-8.54839 5:-7.25352 6:-9.10714 7:-8.66109 8:-8.02817 9:10 10:10 11:10 12:10 13:10 14:10 15:-10 16:-9.73684 17:-7.39872 18:-6.59259 19:-7.14286 20:-9.59286 21:-8.33992 22:-9.36819 23:-9.37583 24:-8.14516 25:-7.78824 26:-7.81481 27:10 28:10 29:10 30:-10 
128 1:-5.05376 2:0.384615 3:-7.38318 4:0.645161 5:-5.84507 7:-6.15063 8:0.56338 9:10 10:10 11:10 12:10 13:10 14:10 15:-8.62069 16:-8.94737 17:-7.76119 18:-8.51852 19:-8.1978 20:-9.09048 21:-9.63832 22:-9.45958 23:-9.40058 24:-9.86038 25:-8.01532 26:-9.20322 27:10 28:10 29:10 30:-7.14286 
36.95095693053992 1:-0.107527 2:-6.53846 3:-3.36449 4:-7.41935 5:-2.53521 6:-8.125 7:0.292887 8:-5.77465 9:10 10:10 11:10 12:10 13:10 14:10 15:-9.31034 16:-8.68421 17:-9.43474 18:-6.59259 19:-9.12782 20:-9.71963 21:-8.33992 22:-9.53365 23:-9.81438 24:-8.97533 25:-9.18452 26:-6.57706 27:10 28:10 29:10 30:-10 
128 1:-1.39785 2:-9.23077 3:-5.23364 4:-9.51613 5:-1.33803 6:-9.375 7:-1.29707 8:-9.29577 9:10 10:10 11:10 12:-3.33333 13:-6 14:-7.14286 15:-8.62069 16:-8.68421 17:-8.81325 18:10 19:-7.76623 20:-9.60906 21:-2.6087 22:-9.24242 23:-9.70705 24:-5.12097 25:-9.008 26:10 27:-3.33333 28:-6 29:-7.14286 30:-10 
128 1:-7.2043 2:-7.30769 3:-7.75701 4:-7.58065 5:-6.5493 6:-7.94643 7:-7.15481 8:-7.46479 9:10 10:10 11:10 12:10 13:10 14:10 15:-8.62069 16:-7.63158 17:-5.94883 18:-2.96296 19:-4.96104 20:-8.88952 21:-7.65217 22:-8.52424 23:-9.28972 24:-8.90121 25:-4.4 26:0.263158 27:10 28:10 29:10 30:-10 
128 1:-10 2:-9.23077 3:-9.62617 4:-8.22581 5:-9.71831 6:-8.92857 7:-9.91632 8:-8.73239 9:-3.33333 10:-6 11:-7.14286 12:10 13:10 14:10 15:-10 16:-9.73684 17:10 18:-3.82716 19:-0.285714 20:-6.07619 21:-8.62207 22:-7.91887 23:-6.07477 24:-8.48118 25:10 26:-6.44444 27:10 28:10 29:10 30:-10 
128 1:-9.78495 2:-9.61538 3:-9.81308 4:-9.67742 5:-9.71831 6:-9.64286 7:-9.74895 8:-9.57746 9:-3.33333 10:-6 11:-7.14286 12:-3.33333 13:-6 14:-7.14286 15:-9.31034 16:-9.21053 17:10 18:10 19:10 20:-2.05714 21:-2.10435 22:-2.09524 23:-3.39564 24:-3.44086 25:10 26:10 27:-3.33333 28:-6 29:-7.14286 30:-10 
128 1:-8.06452 2:-8.84615 3:-9.06542 4:-8.87097 5:-8.02817 6:-8.92857 7:-7.90795 8:-8.30986 9:10 10:10 11:10 12:10 13:10 14:10 15:-8.62069 16:-7.63158 17:-4.20896 18:4.81481 19:-1.7551 20:-8.01642 21:-5.51839 22:-7.27891 23:-8.26678 24:-7.64113 25:-2.40615 26:5.25641 27:10 28:10 29:10 30:-10 
128 1:-7.63441 2:-9.61538 3:-8.13084 4:-9.83871 5:-7.67606 6:-9.73214 7:-7.07113 8:-9.57746 9:10 10:10 11:10 12:-3.33333 13:-6 14:-7.14286 15:-9.31034 16:-9.21053 17:-6.91542 18:10 19:-4.69388 20:-8.91317 21:-0.0869565 22:-8.03676 23:-9.13663 24:-0.0806452 25:-7.92 26:10 27:-3.33333 28:-6 29:-7.14286 30:-10 
128 1:-10 2:-10 3:-9.53271 4:-9.19355 5:-9.64789 6:-9.55357 7:-9.91632 8:-9.85915 9:-3.33333 10:-6 11:-7.14286 12:-3.33333 13:-6 14:-7.14286 15:-10 16:-9.73684 17:10 18:10 19:10 20:-6.74603 21:-6.81159 22:-6.79894 23:-6.74455 24:-6.80108 25:10 26:10 27:-3.33333 28:-6 29:-7.14286 30:-10 
128 1:-10 2:-10 3:-9.15888 4:-8.54839 5:-9.3662 6:-9.19643 7:-9.91632 8:-9.85915 9:-3.33333 10:-6 11:-7.14286 12:-3.33333 13:-6 14:-7.14286 15:-10 16:-9.73684 17:10 18:10 19:10 20:-8.08571 21:-8.15652 22:-8.14286 23:-8.08411 24:-8.14516 25:10 26:10 27:-3.33333 28:-6 29:-7.14286 30:-10 
128 1:-7.63441 2:-7.69231 3:-7.57009 4:-8.54839 5:-7.39437 6:-8.48214 7:-8.07531 8:-7.88732 9:10 10:10 11:10 12:3.33333 13:0.666667 14:-1.42857 15:-7.24138 16:-7.63158 17:-1.8408 18:4.07407 19:0.255639 20:-7.45113 21:-4.57005 22:-6.55896 23:-9.34926 24:-8.14516 25:-1.76 26:2.29167 27:3.33333 28:0.666667 29:-1.42857 30:-7.14286 
128 1:-6.98925 2:-9.61538 3:-7.85047 4:-9.51613 5:-6.69014 6:-9.375 7:-6.65272 8:-9.57746 9:10 10:10 11:10 12:-3.33333 13:-6 14:-7.14286 15:-9.31034 16:-9.21053 17:-7.59204 18:10 19:-5.73109 20:-9.25794 21:-5.13043 22:-8.71882 23:-9.25623 24:-5.12097 25:-8.19317 26:10 27:-3.33333 28:-6 29:-7.14286 30:-10 
128 1:-9.35484 2:-7.69231 3:-9.25234 4:-7.90323 5:-9.15493 6:-8.39286 7:-9.24686 8:-7.74648 9:10 10:10 11:10 12:10 13:10 14:10 15:-7.93103 16:-7.63158 17:10 18:1.11111 19:4.38961 20:-3.91209 21:-5.92677 22:-5.11905 23:-7.86085 24:-8.7212 25:10 26:1.53595 27:10 28:10 29:10 30:-10 
128 1:-7.84946 2:-9.61538 3:-8.8785 4:-9.51613 5:-8.30986 6:-9.64286 7:-8.24268 8:-9.43662 9:3.33333 10:0.666667 11:-1.42857 12:3.33333 13:0.666667 14:-1.42857 15:-9.31034 16:-8.94737 17:-6.60787 18:10 19:-4.24176 20:-8.48762 21:-2.10435 22:-7.4709 23:-8.54781 24:-5.12097 25:-5.57818 26:10 27:3.33333 28:0.666667 29:-1.42857 30:-10 
128 1:-9.35484 2:-9.23077 3:-9.81308 4:-9.67742 5:-9.43662 6:-9.55357 7:-9.33054 8:-9.01408 9:10 10:10 11:10 12:10 13:10 14:10 15:-9.31034 16:-8.68421 17:-0.149254 18:3.08642 19:1.18367 20:-5.62963 21:-3.44928 22:-4.78307 23:-3.39564 24:-3.44086 25:3.28 26:4.86111 27:10 28:10 29:10 30:-7.14286 
128 1:-5.26882 2:-6.15385 3:-5.14019 4:-7.09677 5:-5.56338 6:-6.69643 7:-4.97908 8:-6.47887 9:10 10:10 11:10 12:10 13:10 14:10 15:-8.62069 16:-8.42105 17:-7.65088 18:-5.08418 19:-6.94118 20:-9.15327 21:-8.58124 22:-8.97292 23:-9.71434 24:-9.10017 25:-7.84656 26:-5.02137 27:10 28:10 29:10 30:-10 
128 1:-9.78495 2:-4.61538 3:-9.81308 4:-5.16129 5:-9.78873 6:-3.83929 7:-9.83264 8:-3.66197 9:-3.33333 10:-6 11:-7.14286 12:10 13:10 14:10 15:-10 16:-9.73684 17:-0.149254 18:-9.35802 19:-8.15126 20:-5.07143 21:-9.88571 22:-9.6139 23:-3.39564 24:-9.51093 25:3.28 26:-9.66184 27:10 28:10 29:10 30:-10 
128 1:-9.78495 2:-9.61538 3:-9.43925 4:-9.19355 5:-9.50704 6:-9.55357 7:-9.74895 8:-9.29577 9:-3.33333 10:-6 11:-7.14286 12:10 13:10 14:10 15:-10 16:-9.73684 17:-0.149254 18:-0.37037 19:-0.285714 20:-7.58333 21:-6.81159 22:-7.27891 23:-7.22296 24:-6.80108 25:-0.08 26:-3.7037 27:10 28:10 29:10 30:-10 
128 1:-9.35484 2:-7.30769 3:-9.15888 4:-8.22581 5:-9.22535 6:-8.125 7:-9.33054 8:-7.1831 9:3.33333 10:0.666667 11:-1.42857 12:10 13:10 14:10 15:-9.31034 16:-8.94737 17:-0.149254 18:-5.55556 19:-3.71429 20:-6.74603 21:-8.33992 22:-7.78711 23:-8.08411 24:-8.48118 25:1.04 26:-5.66138 27:10 28:10 29:10 30:-10 
128 1:-9.13978 2:-8.84615 3:-9.25234 4:-9.35484 5:-8.87324 6:-9.10714 7:-9.16318 8:-8.59155 9:10 10:10 11:10 12:10 13:10 14:10 15:-9.31034 16:-9.21053 17:-2.1791 18:-0.37037 19:-1.42857 20:-7.73109 21:-6.50593 22:-7.27891 23:-7.86085 24:-6.12903 25:-2.82909 26:-3.08081 27:10 28:10 29:10 30:-10 
128 1:-8.27957 2:-8.46154 3:-8.59813 4:-8.54839 5:-8.4507 6:-8.75 7:-7.90795 8:-8.59155 9:10 10:10 11:10 12:10 13:10 14:10 15:-10 16:-9.73684 17:-8.04312 18:-6.59259 19:-7.63265 20:-9.22153 21:-8.82899 22:-9.09774 23:-8.83762 24:-8.14516 25:-8.60923 26:-6.81818 27:10 28:10 29:10 30:-10 
128 1:-7.84946 2:-10 3:-9.06542 4:-9.51613 5:-8.73239 6:-9.73214 7:-7.82427 8:-9.85915 9:10 10:10 11:10 12:-3.33333 13:-6 14:-7.14286 15:-10 16:-9.73684 17:-8.45319 18:10 19:-7.14286 20:-9.03759 21:-5.13043 22:-8.4058 23:-8.26678 24:-5.12097 25:-8.66667 26:10 27:-3.33333 28:-6 29:-7.14286 30:-10 
41.17069293393637 1:-8.70968 2:-8.84615 3:-9.53271 4:-9.51613 5:-9.29577 6:-9.46429 7:-8.82845 8:-9.01408 9:3.33333 10:0.666667 11:-1.42857 12:3.33333 13:0.666667 14:-1.42857 15:-7.93103 16:-8.15789 17:1.30064 18:10 19:4.38961 20:-2.78788 21:1.35404 22:-1.19929 23:-6.74455 24:-5.12097 25:0.592 26:10 27:3.33333 28:0.666667 29:-1.42857 30:-7.14286 
128 1:-9.35484 2:-7.30769 3:-9.71963 4:-9.03226 5:-9.57746 6:-9.01786 7:-9.33054 8:-6.61972 9:10 10:10 11:10 12:10 13:10 14:10 15:-8.62069 16:-8.42105 17:4.92537 18:-2.96296 19:-0.285714 20:-1.48299 21:-5.13043 22:-3.79282 23:-5.07009 24:-7.28111 25:5.52 26:-4.8 27:10 28:10 29:10 30:-7.14286 
128 1:-8.70968 2:-10 3:-8.69159 4:-9.67742 5:-8.38028 6:-9.82143 7:-8.49372 8:-9.85915 9:10 10:10 11:10 12:-3.33333 13:-6 14:-7.14286 15:-10 16:-9.73684 17:-7.39872 18:10 19:-5.42857 20:-9.25794 21:-3.44928 22:-8.66549 23:-8.75389 24:-3.44086 25:-8.03789 26:10 27:-3.33333 28:-6 29:-7.14286 30:-10 
128 1:-9.35484 2:-8.46154 3:-9.62617 4:-9.35484 5:-9.64789 6:-9.46429 7:-9.49791 8:-8.73239 9:3.33333 10:0.666667 11:-1.42857 12:3.33333 13:0.666667 14:-1.42857 15:-9.31034 16:-8.94737 17:-0.149254 18:-2.44444 19:-1.42857 20:-3.39683 21:-4.40994 22:-3.95604 23:-6.07477 24:-6.12903 25:4.24 26:-0.277778 27:3.33333 28:0.666667 29:-1.42857 30:-10 
128 1:-8.70968 2:-8.84615 3:-8.97196 4:-9.19355 5:-8.4507 6:-9.10714 7:-8.57741 8:-8.59155 9:10 10:10 11:10 12:10 13:10 14:10 15:-8.62069 16:-8.15789 17:-1.59915 18:4.81481 19:0.649351 20:-7.47412 21:-4.67194 22:-6.60131 23:-8.419 24:-6.80108 25:-1.2 26:4.39394 27:10 28:10 29:10 30:-10 
128 1:-9.35484 2:-8.46154 3:-9.53271 4:-8.22581 5:-9.29577 6:-8.92857 7:-9.0795 8:-7.88732 9:10 10:10 11:10 12:10 13:10 14:10 15:-10 16:-9.73684 17:-5.22388 18:-6.59259 19:-6 20:-8.2684 21:-8.62207 22:-8.47884 23:-6.74455 24:-8.48118 25:-6.8 26:-7.98611 27:10 28:10 29:10 30:-10 
128 1:-8.70968 2:-10 3:-9.06542 4:-9.83871 5:-8.73239 6:-9.91071 7:-8.57741 8:-9.85915 9:10 10:10 11:10 12:-3.33333 13:-6 14:-7.14286 15:-10 16:-9.73684 17:-7.39872 18:10 19:-5.42857 20:-9.03759 21:-0.0869565 22:-8.23885 23:-8.26678 24:-0.0806452 25:-7.92 26:10 27:-3.33333 28:-6 29:-7.14286 30:-10 
128 1:-7.2043 2:-9.61538 3:-8.31776 4:-9.51613 5:-7.39437 6:-9.55357 7:-7.07113 8:-9.29577 9:10 10:10 11:10 12:10 13:10 14:10 15:-9.31034 16:-8.68421 17:-7.39872 18:10 19:-5.42857 20:-9.03759 21:-3.44928 22:-8.32612 23:-9.03591 24:-5.12097 25:-6.8 26:10 27:10 28:10 29:10 30:-10 
128 1:-7.63441 2:-9.23077 3:-7.38318 4:-8.87097 5:-7.1831 6:-9.28571 7:-8.32636 8:-8.87324 9:3.33333 10:0.666667 11:-1.42857 12:10 13:10 14:10 15:-9.31034 16:-8.94737 17:-6.91542 18:3.08642 19:-5.08571 20:-9.11498 21:-5.69082 22:-8.54603 23:-9.40058 24:-7.64113 25:-5.36 26:0.864198 27:10 28:10 29:10 30:-10 
128 1:-8.27957 2:-8.07692 3:-8.31776 4:-8.87097 5:-7.53521 6:-8.21429 7:-8.07531 8:-8.30986 9:10 10:10 11:10 12:3.33333 13:0.666667 14:-1.42857 15:-7.24138 16:-7.36842 17:0.978441 18:6.54321 19:3.14286 20:-7.30423 21:-5.3706 22:-6.62211 23:-9.03591 24:-7.64113 25:-0.92 26:6.83761 27:3.33333 28:0.666667 29:-1.42857 30:-7.14286 
128 1:-7.84946 2:-3.46154 3:-8.2243 4:-4.35484 5:-7.1831 6:-3.30357 7:-7.74059 8:-2.67606 9:10 10:10 11:10 12:10 13:10 14:10 15:-9.31034 16:-8.94737 17:-6.60787 18:-8.43621 19:-7.73399 20:-9.11498 21:-9.64302 22:-9.46954 23:-9.08879 24:-9.60125 25:-6.56 26:-8.61635 27:10 28:10 29:10 30:-10 
128 1:-10 2:-9.23077 3:-9.62617 4:-9.19355 5:-9.71831 6:-9.46429 7:-9.83264 8:-8.59155 9:3.33333 10:0.666667 11:-1.42857 12:10 13:10 14:10 15:-10 16:-9.47368 17:10 18:-3.82716 19:-0.285714 20:-6.07619 21:-7.29193 22:-6.79894 23:-6.07477 24:-6.80108 25:10 26:-4.94949 27:10 28:10 29:10 30:-10 
128 1:-8.49462 2:-8.07692 3:-8.2243 4:-6.77419 5:-6.69014 6:-6.42857 7:-8.82845 8:-8.30986 9:10 10:10 11:10 12:10 13:10 14:10 15:-7.24138 16:-7.36842 17:2.38806 18:6.54321 19:4.12245 20:-8.00198 21:-7.71368 22:-7.8937 23:-9.08879 24:-9.20123 25:4.624 26:6.83761 27:10 28:10 29:10 30:-4.28571 
128 1:-8.06452 2:-10 3:-8.2243 4:-9.67742 5:-8.4507 6:-9.82143 7:-7.82427 8:-9.71831 9:10 10:10 11:10 12:3.33333 13:0.666667 14:-1.42857 15:-10 16:-9.47368 17:-8.26866 18:10 19:-6.83117 20:-9.22153 21:-3.44928 22:-8.60806 23:-9.08879 24:-3.44086 25:-7.92 26:10 27:3.33333 28:0.666667 29:-1.42857 30:-10 
128 1:-2.68817 2:-7.69231 3:-6.4486 4:-7.74194 5:-2.88732 6:-7.41071 7:-2.80335 8:-7.60563 9:10 10:10 11:10 12:3.33333 13:0.666667 14:-1.42857 15:-7.93103 16:-7.36842 17:-7.97868 18:1.11111 19:-6.65306 20:-9.30719 21:-7.48406 22:-8.93699 23:-9.57824 24:-8.8172 25:-7.61103 26:2.00617 27:3.33333 28:0.666667 29:-1.42857 30:-7.14286 
128 1:-8.49462 2:-8.84615 3:-9.25234 4:-9.83871 5:-8.66197 6:-9.375 7:-8.24268 8:-8.4507 9:10 10:10 11:10 12:10 13:10 14:10 15:-7.93103 16:-7.10526 17:-0.149254 18:10 19:3.14286 20:-6.07619 21:-0.0869565 22:-4.39909 23:-7.86085 24:-0.0806452 25:0.836364 26:10 27:10 28:10 29:10 30:-7.14286 
128 1:-9.35484 2:-9.23077 3:-9.15888 4:-9.19355 5:-9.3662 6:-9.55357 7:-9.0795 8:-8.87324 9:10 10:10 11:10 12:10 13:10 14:10 15:-10 16:-9.47368 17:-5.22388 18:-3.82716 19:-4.69388 20:-8.08571 21:-6.81159 22:-7.63889 23:-8.08411 24:-6.80108 25:-5.12 26:-3.7037 27:10 28:10 29:10 30:-10 
128 1:-9.13978 2:-9.61538 3:-8.97196 4:-9.35484 5:-9.08451 6:-9.55357 7:-8.91213 8:-9.29577 9:10 10:10 11:10 12:3.33333 13:0.666667 14:-1.42857 15:-9.31034 16:-8.68421 17:-2.1791 18:10 19:1.18367 20:-7.22449 21:-3.44928 22:-6.12698 23:-8.419 24:-6.12903 25:-1.52 26:10 27:3.33333 28:0.666667 29:-1.42857 30:-10 
128 1:-7.84946 2:-9.61538 3:-6.82243 4:-7.09677 5:-6.40845 6:-8.21429 7:-7.90795 8:-9.29577 9:3.33333 10:0.666667 11:-1.42857 12:3.33333 13:0.666667 14:-1.42857 15:-9.31034 16:-8.68421 17:-6.60787 18:10 19:-4.24176 20:-9.32234 21:-8.25259 22:-9.05414 23:-9.51936 24:-9.10017 25:-5.50769 26:10 27:3.33333 28:0.666667 29:-1.42857 30:-10 
128 1:-9.78495 2:-9.23077 3:-9.71963 4:-8.70968 5:-9.71831 6:-9.19643 7:-9.49791 8:-8.59155 9:10 10:10 11:10 12:10 13:10 14:10 15:-9.31034 16:-8.42105 17:10 18:3.08642 19:5.88571 20:-2.05714 21:-6.13913 22:-4.78307 23:-5.07009 24:-7.92115 25:10 26:2.52525 27:10 28:10 29:10 30:-10 
128 1:-7.63441 2:-5 3:-7.47664 4:-6.93548 5:-7.1831 6:-7.41071 7:-7.48954 8:-5.49296 9:10 10:10 11:10 12:10 13:10 14:10 15:-7.93103 16:-7.89474 17:-3.53234 18:-4.81481 19:-4.24176 20:-8.13473 21:-7.48406 22:-7.88732 23:-9.37583 24:-9.15323 25:-4.3071 26:-4.94949 27:10 28:10 29:10 30:-10 
128 1:-3.54839 2:-9.61538 3:-5.60748 4:-9.67742 5:-4.85915 6:-9.64286 7:-4.56067 8:-9.43662 9:10 10:10 11:10 12:3.33333 13:0.666667 14:-1.42857 15:-9.31034 16:-8.94737 17:-8.98893 18:10 19:-8.07792 20:-9.55212 21:-2.10435 22:-9.13803 23:-9.67484 24:-3.44086 25:-8.63273 26:10 27:3.33333 28:0.666667 29:-1.42857 30:-10 
128 1:-7.2043 2:-9.61538 3:-7.94393 4:-9.83871 5:-6.5493 6:-9.73214 7:-6.90377 8:-9.29577 9:10 10:10 11:10 12:3.33333 13:0.666667 14:-1.42857 15:-9.31034 16:-8.68421 17:-7.39872 18:10 19:-5.42857 20:-9.29143 21:-0.0869565 22:-8.66549 23:-9.21983 24:-0.0806452 25:-6.97684 26:10 27:3.33333 28:0.666667 29:-1.42857 30:-10 
128 1:-8.70968 2:-9.61538 3:-9.25234 4:-9.67742 5:-9.29577 6:-9.73214 7:-8.41004 8:-9.29577 9:10 10:10 11:10 12:3.33333 13:0.666667 14:-1.42857 15:-9.31034 16:-8.68421 17:-4.49893 18:10 19:-1.42857 20:-6.44156 21:-0.0869565 22:-4.78307 23:-7.86085 24:-3.44086 25:-4.112 26:10 27:3.33333 28:0.666667 29:-1.42857 30:-7.14286 
128 1:-7.84946 2:-8.46154 3:-7.66355 4:-8.70968 5:-7.74648 6:-8.83929 7:-7.40586 8:-8.02817 9:10 10:10 11:10 12:10 13:10 14:10 15:-8.62069 16:-7.89474 17:-4.76255 18:1.7037 19:-2.85714 20:-8.2684 21:-5.85093 22:-7.58528 23:-9.32063 24:-7.92115 25:-4.49 26:1.77778 27:10 28:10 29:10 30:-4.28571 
128 1:-9.78495 2:-8.46154 3:-9.71963 4:-9.35484 5:-9.78873 6:-9.10714 7:-9.74895 8:-8.02817 9:3.33333 10:0.666667 11:-1.42857 12:10 13:10 14:10 15:-10 16:-9.47368 17:-0.149254 18:-6.59259 19:-4.69388 20:-5.07143 21:-8.33992 22:-7.4709 23:-5.07009 24:-6.12903 25:4.96 26:-6.44444 27:10 28:10 29:10 30:-10 
128 1:-9.78495 2:-9.61538 3:-9.90654 4:-9.83871 5:-9.78873 6:-9.73214 7:-9.49791 8:-9.15493 9:10 10:10 11:10 12:10 13:10 14:10 15:-9.31034 16:-8.42105 17:10 18:10 19:10 20:-0.047619 21:-0.0869565 22:-0.0793651 23:-0.046729 24:-0.0806452 25:10 26:10 27:10 28:10 29:10 30:-10 
128 1:-8.92473 2:-7.30769 3:-8.59813 4:-6.93548 5:-8.59155 6:-7.67857 7:-8.74477 8:-6.76056 9:10 10:10 11:10 12:10 13:10 14:10 15:-8.62069 16:-8.15789 17:-0.149254 18:-2.96296 19:-1.7551 20:-7.22449 21:-7.93237 22:-7.63889 23:-8.83762 24:-9.15323 25:-0.08 26:-3.7037 27:10 28:10 29:10 30:-7.14286 
128 1:-9.56989 2:-10 3:-9.71963 4:-10 5:-9.78873 6:-10 7:-9.41423 8:-9.71831 9:3.33333 10:0.666667 11:-1.42857 12:3.33333 13:0.666667 14:-1.42857 15:-10 16:-9.47368 17:-3.53234 18:10 19:-0.285714 20:-5.07143 21:10 22:-2.09524 23:-5.07009 24:10 25:-2.6 26:10 27:3.33333 28:0.666667 29:-1.42857 30:-10 
128 1:-8.70968 2:-6.92308 3:-7.57009 4:-7.09677 5:-6.76056 6:-5.35714 7:-8.49372 8:-6.19718 9:10 10:10 11:10 12:10 13:10 14:10 15:-7.93103 16:-7.36842 17:1.30064 18:-1.52263 19:-0.285714 20:-8.38501 21:-8.65135 22:-8.54603 23:-9.34926 24:-9.10017 25:1.51158 26:-2.48016 27:10 28:10 29:10 30:-10 
128 1:-7.84946 2:-9.23077 3:-9.43925 4:-9.19355 5:-8.02817 6:-9.01786 7:-8.41004 8:-8.87324 9:3.33333 10:0.666667 11:-1.42857 12:3.33333 13:0.666667 14:-1.42857 15:-8.62069 16:-7.89474 17:-4.76255 18:10 19:-1.7551 20:-8.01642 21:-5.13043 22:-7.20867 23:-7.22296 24:-6.80108 25:-1.088 26:10 27:3.33333 28:0.666667 29:-1.42857 30:-7.14286 
128 1:-9.78495 2:-9.61538 3:-9.90654 4:-9.83871 5:-9.78873 6:-9.73214 7:-9.49791 8:-9.15493 9:10 10:10 11:10 12:10 13:10 14:10 15:-9.31034 16:-8.42105 17:10 18:10 19:10 20:-0.047619 21:-0.0869565 22:-0.0793651 23:-0.046729 24:-0.0806452 25:10 26:10 27:10 28:10 29:10 30:-10 
128 1:-5.26882 2:-7.69231 3:-5.51402 4:-8.3871 5:-5.42254 6:-8.75 7:-5.39749 8:-7.74648 9:10 10:10 11:10 12:10 13:10 14:10 15:-10 16:-9.47368 17:-9.41596 18:-7.77778 19:-9.2 20:-9.79076 21:-8.82899 22:-9.66098 23:-9.68339 24:-8.32845 25:-9.08 26:-6.9281 27:10 28:10 29:10 30:-10 
128 1:-10 2:-10 3:-9.90654 4:-9.83871 5:-9.92958 6:-9.91071 7:-9.83264 8:-9.71831 9:3.33333 10:0.666667 11:-1.42857 12:3.33333 13:0.666667 14:-1.42857 15:-10 16:-9.47368 17:10 18:10 19:10 20:-0.047619 21:-0.0869565 22:-0.0793651 23:-0.046729 24:-0.0806452 25:10 26:10 27:3.33333 28:0.666667 29:-1.42857 30:-10 
128 1:-9.56989 2:-10 3:-9.62617 4:-9.67742 5:-9.57746 6:-9.82143 7:-9.24686 8:-9.71831 9:10 10:10 11:10 12:3.33333 13:0.666667 14:-1.42857 15:-10 16:-9.47368 17:-3.53234 18:10 19:-0.285714 20:-7.22449 21:-3.44928 22:-6.12698 23:-6.07477 24:-3.44086 25:-4.112 26:10 27:3.33333 28:0.666667 29:-1.42857 30:-10 
128 1:-8.49462 2:-5.76923 3:-8.2243 4:-7.25806 5:-8.02817 6:-7.76786 7:-8.41004 8:-5.6338 9:10 10:10 11:10 12:10 13:10 14:10 15:-10 16:-9.47368 17:-7.76119 18:-9.01235 19:-8.51429 20:-9.4023 21:-9.39799 22:-9.42569 23:-9.08879 24:-9.04122 25:-7.136 26:-8.62847 27:10 28:10 29:10 30:-10 
128 1:-3.97849 2:-7.69231 3:-1.68224 4:0.16129 6:-2.41071 7:-3.4728 8:-7.46479 9:10 10:10 11:10 12:10 13:10 14:10 15:-6.55172 16:-6.05263 17:-6.09882 18:7.03704 19:-3.71429 20:-9.25208 21:-8.76643 22:-9.10238 23:-9.8702 24:-9.84627 25:-6.07696 26:6.75439 27:10 28:10 29:10 30:-7.14286 
128 1:-7.63441 2:-9.23077 3:-8.50467 4:-9.19355 5:-7.95775 6:-9.28571 7:-7.15481 8:-8.73239 9:10 10:10 11:10 12:10 13:10 14:10 15:-9.31034 16:-8.68421 17:-6.91542 18:3.08642 19:-5.08571 20:-8.75556 21:-5.69082 22:-8.09117 23:-8.91149 24:-6.80108 25:-6.704 26:1.77778 27:10 28:10 29:10 30:-10 
128 1:-6.12903 2:-3.46154 3:-7.75701 4:-4.67742 5:-7.25352 6:-4.91071 7:-5.64854 8:-1.83099 9:10 10:10 11:10 12:10 13:10 14:10 15:-9.31034 16:-8.42105 17:-8.16182 18:-8.43621 19:-8.34749 20:-9.09048 21:-9.47826 22:-9.33592 23:-9.28972 24:-9.56831 25:-7.49736 26:-8.11676 27:10 28:10 29:10 30:-10 
128 1:-8.70968 2:-8.84615 3:-8.31776 4:-8.54839 5:-8.16901 6:-8.57143 7:-8.57741 8:-8.87324 9:10 10:10 11:10 12:3.33333 13:0.666667 14:-1.42857 15:-7.93103 16:-7.89474 17:1.30064 18:10 19:4.38961 20:-7.11817 21:-5.42711 22:-6.49351 23:-9.03591 24:-8.14516 25:-0.08 26:10 27:3.33333 28:0.666667 29:-1.42857 30:-10 
128 1:-8.06452 2:-10 3:-7.85047 4:-9.67742 5:-7.67606 6:-9.82143 7:-8.159 8:-9.71831 9:10 10:10 11:10 12:3.33333 13:0.666667 14:-1.42857 15:-10 16:-9.47368 17:-8.26866 18:10 19:-6.83117 20:-9.5042 21:-3.44928 22:-9.06907 23:-9.25623 24:-3.44086 25:-7.53043 26:10 27:3.33333 28:0.666667 29:-1.42857 30:-10 
128 1:-10 2:-10 3:-10 4:-10 5:-10 6:-10 7:-9.83264 8:-9.71831 9:3.33333 10:0.666667 11:-1.42857 12:3.33333 13:0.666667 14:-1.42857 15:-10 16:-9.47368 17:10 18:10 19:10 20:10 21:10 22:10 23:10 24:10 25:10 26:10 27:3.33333 28:0.666667 29:-1.42857 30:-10 
128 1:-9.56989 2:-9.23077 3:-9.25234 4:-8.54839 5:-9.01408 6:-8.75 7:-9.49791 8:-8.73239 9:3.33333 10:0.666667 11:-1.42857 12:10 13:10 14:10 15:-9.31034 16:-8.68421 17:3.23383 18:3.08642 19:3.14286 20:-7.41587 21:-7.48406 22:-7.4709 23:-7.86085 24:-8.14516 25:7.12 26:1.77778 27:10 28:10 29:10 30:-10 
128 1:0.537634 2:-9.23077 3:-3.17757 4:-9.67742 5:0.211268 6:-9.375 7:0.292887 8:-9.01408 9:10 10:10 11:10 12:3.33333 13:0.666667 14:-1.42857 15:-8.62069 16:-8.15789 17:-9.0806 18:10 19:-8.24259 20:-9.68232 21:-2.6087 22:-9.37333 23:-9.82192 24:-3.44086 25:-8.85935 26:10 27:3.33333 28:0.666667 29:-1.42857 30:-10 
128 1:-5.91398 2:-8.84615 3:-5.88785 4:-8.87097 5:-6.12676 6:-9.01786 7:-5.39749 8:-8.59155 9:10 10:10 11:10 12:10 13:10 14:10 15:-9.31034 16:-8.68421 17:-8.26866 18:-0.37037 19:-7.14286 20:-9.37755 21:-6.81159 22:-8.97292 23:-9.64694 24:-7.64113 25:-8 26:0.656566 27:10 28:10 29:10 30:-10 
128 1:-10 2:-10 3:-9.71963 4:-9.51613 5:-9.78873 6:-9.73214 7:-9.83264 8:-9.71831 9:3.33333 10:0.666667 11:-1.42857 12:3.33333 13:0.666667 14:-1.42857 15:-10 16:-9.47368 17:10 18:10 19:10 20:-5.07143 21:-5.13043 22:-5.11905 23:-5.07009 24:-5.12097 25:10 26:10 27:3.33333 28:0.666667 29:-1.42857 30:-10 
128 1:-9.35484 2:-8.46154 3:-9.62617 4:-9.19355 5:-9.3662 6:-9.01786 7:-9.33054 8:-8.73239 9:3.33333 10:0.666667 11:-1.42857 12:3.33333 13:0.666667 14:-1.42857 15:-8.62069 16:-8.15789 17:4.92537 18:1.7037 19:3.14286 20:-4.06667 21:-5.13043 22:-4.66089 23:-6.07477 24:-6.80108 25:7.76 26:5.88889 27:3.33333 28:0.666667 29:-1.42857 30:-10 
128 1:-8.06452 2:-9.61538 3:-7.75701 4:-9.35484 5:-7.53521 6:-9.46429 7:-7.90795 8:-9.43662 9:10 10:10 11:10 12:3.33333 13:0.666667 14:-1.42857 15:-9.31034 16:-8.94737 17:-6.23881 18:10 19:-3.71429 20:-8.97884 21:-4.40994 22:-8.2835 23:-9.28972 24:-6.12903 25:-6.28308 26:10 27:3.33333 28:0.666667 29:-1.42857 30:-10 
128 1:-10 2:-10 3:-9.81308 4:-9.67742 5:-9.85915 6:-9.82143 7:-9.83264 8:-9.71831 9:3.33333 10:0.666667 11:-1.42857 12:3.33333 13:0.666667 14:-1.42857 15:-10 16:-9.47368 17:10 18:10 19:10 20:-3.39683 21:-3.44928 22:-3.43915 23:-3.39564 24:-3.44086 25:10 26:10 27:3.33333 28:0.666667 29:-1.42857 30:-10 
128 1:-9.56989 2:-9.61538 3:-8.50467 4:-5.16129 5:-8.80282 6:-7.23214 7:-9.58159 8:-9.57746 9:3.33333 10:0.666667 11:-1.42857 12:3.33333 13:0.666667 14:-1.42857 15:-10 16:-9.47368 17:-3.53234 18:-0.37037 19:-2.34286 20:-8.97884 21:-9.54348 22:-9.35238 23:-8.91149 24:-9.51093 25:-0.08 26:4.86111 27:3.33333 28:0.666667 29:-1.42857 30:-10 
128 1:-5.69892 2:-10 3:-7.28972 4:-9.83871 5:-6.83099 6:-9.91071 7:-6.06695 8:-9.71831 9:10 10:10 11:10 12:3.33333 13:0.666667 14:-1.42857 15:-10 16:-9.47368 17:-9.33191 18:10 19:-8.7013 20:-9.65839 21:-0.0869565 22:-9.31878 23:-9.42368 24:-0.0806452 25:-8.9 26:10 27:3.33333 28:0.666667 29:-1.42857 30:-10 
128 1:-7.41935 2:-10 3:-7.85047 4:-9.83871 5:-7.8169 6:-9.91071 7:-7.6569 8:-9.71831 9:10 10:10 11:10 12:3.33333 13:0.666667 14:-1.42857 15:-10 16:-9.47368 17:-8.73708 18:10 19:-7.63265 20:-9.46726 21:-0.0869565 22:-8.97292 23:-9.25623 24:-0.0806452 25:-8.07448 26:10 27:3.33333 28:0.666667 29:-1.42857 30:-10 
128 1:-9.35484 2:-8.84615 3:-9.25234 4:-8.70968 5:-8.94366 6:-8.48214 7:-9.24686 8:-8.59155 9:3.33333 10:0.666667 11:-1.42857 12:3.33333 13:0.666667 14:-1.42857 15:-8.62069 16:-8.15789 17:4.92537 18:4.81481 19:4.85714 20:-6.32738 21:-6.81159 22:-6.60131 23:-7.86085 24:-7.92115 25:5.968 26:4.39394 27:3.33333 28:0.666667 29:-1.42857 30:-10 
128 1:-9.56989 2:-10 3:-9.71963 4:-10 5:-9.78873 6:-10 7:-9.58159 8:-9.71831 9:3.33333 10:0.666667 11:-1.42857 12:3.33333 13:0.666667 14:-1.42857 15:-10 16:-9.47368 17:-3.53234 18:10 19:-0.285714 20:-5.07143 21:10 22:-2.09524 23:-5.07009 24:10 25:-0.08 26:10 27:3.33333 28:0.666667 29:-1.42857 30:-10 
128 1:-8.49462 2:-9.23077 3:-8.78505 4:-9.67742 5:-8.59155 6:-9.55357 7:-8.41004 8:-8.59155 9:10 10:10 11:10 12:10 13:10 14:10 15:-9.31034 16:-8.42105 17:-5.22388 18:3.08642 19:-3.09091 20:-8.18141 21:-3.44928 22:-7.17225 23:-8.65821 24:-3.44086 25:-3.104 26:2.52525 27:10 28:10 29:10 30:-10 
128 1:-7.63441 2:-6.92308 3:-8.97196 4:-7.90323 5:-8.02817 6:-7.5 7:-7.90795 8:-6.47887 9:10 10:10 11:10 12:10 13:10 14:10 15:-8.62069 16:-8.42105 17:-5.22388 18:-3.82716 19:-4.69388 20:-8.01642 21:-8.08696 22:-8.07334 23:-8.419 24:-8.7212 25:-4.73231 26:-5.02137 27:10 28:10 29:10 30:-10 
128 1:-8.49462 2:-9.23077 3:-7.75701 4:-9.67742 5:-7.74648 6:-9.55357 7:-8.74477 8:-9.01408 9:10 10:10 11:10 12:10 13:10 14:10 15:-8.62069 16:-8.15789 17:-2.68657 18:10 19:0.649351 20:-8.2684 21:-0.0869565 22:-7.05739 23:-9.28972 24:-3.44086 25:-0.08 26:10 27:10 28:10 29:10 30:-10 
128 1:-7.63441 2:-10 3:-8.8785 4:-9.67742 5:-8.73239 6:-9.82143 7:-7.74059 8:-9.71831 9:10 10:10 11:10 12:3.33333 13:0.666667 14:-1.42857 15:-10 16:-9.47368 17:-8.60697 18:10 19:-7.40659 20:-9.03759 21:-3.44928 22:-8.32612 23:-8.54781 24:-3.44086 25:-8 26:10 27:3.33333 28:0.666667 29:-1.42857 30:-10 
128 1:-7.2043 2:-9.23077 3:-8.59813 4:-9.51613 5:-7.39437 6:-9.46429 7:-6.65272 8:-9.01408 9:10 10:10 11:10 12:3.33333 13:0.666667 14:-1.42857 15:-9.31034 16:-8.94737 17:-7.39872 18:3.08642 19:-5.73109 20:-9.03759 21:-4.40994 22:-8.36684 23:-8.83762 24:-5.12097 25:-7.70146 26:2.29167 27:3.33333 28:0.666667 29:-1.42857 30:-10 
128 1:-8.92473 2:-8.07692 3:-9.34579 4:-9.03226 5:-9.22535 6:-9.19643 7:-9.24686 8:-8.30986 9:3.33333 10:0.666667 11:-1.42857 12:3.33333 13:0.666667 14:-1.42857 15:-9.31034 16:-9.21053 17:-3.53234 18:-3.82716 19:-3.71429 20:-6.74603 21:-6.13913 22:-6.49351 23:-7.58178 24:-7.28111 25:-2.096 26:-4.23077 27:3.33333 28:0.666667 29:-1.42857 30:-7.14286 
128 1:-8.92473 2:-9.61538 3:-8.8785 4:-9.35484 5:-8.73239 6:-9.46429 7:-8.74477 8:-9.29577 9:10 10:10 11:10 12:3.33333 13:0.666667 14:-1.42857 15:-9.31034 16:-8.68421 17:-3.53234 18:10 19:-0.285714 20:-7.97995 21:-4.40994 22:-7.05739 23:-8.54781 24:-6.12903 25:-2.6 26:10 27:3.33333 28:0.666667 29:-1.42857 30:-10 
128 1:-8.27957 2:-5 3:-8.59813 4:-7.09677 5:-8.16901 6:-6.51786 7:-8.07531 8:-4.50704 9:10 10:10 11:10 12:10 13:10 14:10 15:-7.93103 16:-7.10526 17:-1.27695 18:-4.81481 19:-3.41615 20:-7.11817 21:-8.15652 22:-7.75172 23:-8.83762 24:-9.10017 25:-0.08 26:-4.38889 27:10 28:10 29:10 30:-7.14286 
128 1:-7.63441 2:-9.61538 3:-8.78505 4:-9.03226 5:-7.67606 6:-9.28571 7:-7.82427 8:-9.29577 9:3.33333 10:0.666667 11:-1.42857 12:3.33333 13:0.666667 14:-1.42857 15:-10 16:-9.47368 17:-8.60697 18:-0.37037 19:-7.63265 20:-9.5042 21:-7.93237 22:-9.22111 23:-8.65821 24:-7.28111 25:-7.92 26:-0.277778 27:3.33333 28:0.666667 29:-1.42857 30:-10 
128 1:-9.35484 2:-10 3:-9.34579 4:-9.83871 5:-9.43662 6:-9.91071 7:-8.99582 8:-9.71831 9:10 10:10 11:10 12:3.33333 13:0.666667 14:-1.42857 15:-10 16:-9.47368 17:-5.22388 18:10 19:-2.34286 20:-7.86243 21:-0.0869565 22:-6.49351 23:-7.58178 24:-0.0806452 25:-5.50769 26:10 27:3.33333 28:0.666667 29:-1.42857 30:-10 
128 1:-8.27957 2:-10 3:-9.06542 4:-9.83871 5:-8.73239 6:-9.91071 7:-8.32636 8:-9.71831 9:3.33333 10:0.666667 11:-1.42857 12:3.33333 13:0.666667 14:-1.42857 15:-10 16:-9.47368 17:-8.04312 18:10 19:-6.45714 20:-9.03759 21:-0.0869565 22:-8.23885 23:-8.26678 24:-0.0806452 25:-7.28 26:10 27:3.33333 28:0.666667 29:-1.42857 30:-10 
128 1:-7.2043 2:-10 3:-7.85047 4:-9.35484 5:-7.8169 6:-9.64286 7:-7.40586 8:-9.71831 9:10 10:10 11:10 12:3.33333 13:0.666667 14:-1.42857 15:-10 16:-9.47368 17:-8.84861 18:10 19:-7.82857 20:-9.46726 21:-6.13913 22:-9.06907 23:-9.25623 24:-6.12903 25:-8.27 26:10 27:3.33333 28:0.666667 29:-1.42857 30:-10 
128 1:-7.63441 2:-4.61538 3:-7.94393 4:-5.48387 5:-6.69014 6:-4.01786 7:-8.159 8:-5.77465 9:3.33333 10:0.666667 11:-1.42857 12:3.33333 13:0.666667 14:-1.42857 15:-7.24138 16:-6.57895 17:-1.8408 18:-3.82716 19:-2.95238 20:-8.00198 21:-8.69054 22:-8.42091 23:-9.21983 24:-9.46607 25:2.1113 26:-1.2724 27:3.33333 28:0.666667 29:-1.42857 30:-4.28571 
128 1:-3.97849 2:-1.53846 3:-4.57944 4:-3.87097 5:-2.95775 6:-3.21429 7:-2.63598 8:-1.5493 9:10 10:10 11:10 12:10 13:10 14:10 15:-9.31034 16:-8.42105 17:-8.89861 18:-8.9372 19:-8.98901 20:-9.69731 21:-9.64992 22:-9.70572 23:-9.75289 24:-9.64433 25:-8.57438 26:-8.19672 27:10 28:10 29:10 30:-10 
128 1:-9.35484 2:-9.23077 3:-9.25234 4:-9.51613 5:-9.22535 6:-9.55357 7:-9.16318 8:-8.87324 9:10 10:10 11:10 12:3.33333 13:0.666667 14:-1.42857 15:-10 16:-9.47368 17:-5.22388 18:-3.82716 19:-4.69388 20:-8.42063 21:-6.81159 22:-7.91887 23:-7.86085 24:-5.12097 25:-4.66182 26:-3.7037 27:3.33333 28:0.666667 29:-1.42857 30:-10 
128 1:-10 2:-9.61538 3:-9.90654 4:-9.51613 5:-9.92958 6:-9.73214 7:-9.83264 8:-9.15493 9:3.33333 10:0.666667 11:-1.42857 12:10 13:10 14:10 15:-10 16:-9.47368 17:10 18:-0.37037 19:3.14286 20:-0.047619 21:-5.13043 22:-3.43915 23:-0.046729 24:-5.12097 25:10 26:-1.74603 27:10 28:10 29:10 30:-10 
128 1:-9.13978 2:-8.46154 3:-9.43925 4:-9.19355 5:-9.29577 6:-9.10714 7:-9.0795 8:-8.4507 9:3.33333 10:0.666667 11:-1.42857 12:3.33333 13:0.666667 14:-1.42857 15:-8.62069 16:-7.89474 17:1.8806 18:1.7037 19:1.77143 20:-4.61472 21:-4.67194 22:-4.66089 23:-7.22296 24:-6.80108 25:4.96 26:4.86111 27:3.33333 28:0.666667 29:-1.42857 30:-10 
128 1:-7.63441 2:-8.84615 3:-7.47664 4:-8.3871 5:-6.69014 6:-8.66071 7:-7.74059 8:-8.4507 9:10 10:10 11:10 12:10 13:10 14:10 15:-9.31034 16:-8.68421 17:-6.91542 18:-0.37037 19:-5.42857 20:-9.25794 21:-7.65217 22:-8.89881 23:-9.37583 24:-8.32845 25:-5.84 26:-0.277778 27:10 28:10 29:10 30:-10 
128 1:-10 2:-10 3:-9.90654 4:-9.83871 5:-9.92958 6:-9.91071 7:-9.83264 8:-9.71831 9:3.33333 10:0.666667 11:-1.42857 12:3.33333 13:0.666667 14:-1.42857 15:-10 16:-9.47368 17:10 18:10 19:10 20:-0.047619 21:-0.0869565 22:-0.0793651 23:-0.046729 24:-0.0806452 25:10 26:10 27:3.33333 28:0.666667 29:-1.42857 30:-10 
128 1:0.537634 2:-8.84615 3:-6.35514 4:-8.70968 5:0.492958 6:-8.83929 7:-0.460251 8:-8.87324 9:10 10:10 11:10 12:3.33333 13:0.666667 14:-1.42857 15:-9.31034 16:-8.68421 17:-9.48657 18:-0.37037 19:-9.04762 20:-9.8273 21:-7.29193 22:-9.66705 23:-9.59112 24:-7.92115 25:-9.10817 26:3.14815 27:3.33333 28:0.666667 29:-1.42857 30:-10 
128 1:-6.55914 2:-8.07692 3:-5.98131 4:-9.03226 5:-6.33803 6:-8.92857 7:-6.40167 8:-7.32394 9:10 10:10 11:10 12:10 13:10 14:10 15:-8.62069 16:-7.63158 17:-6.71642 18:-0.37037 19:-5.20497 20:-8.95777 21:-5.51839 22:-8.32612 23:-9.63679 24:-7.28111 25:-5.57818 26:-0.277778 27:10 28:10 29:10 30:-10 
128 1:-8.92473 2:-9.23077 3:-8.31776 4:-8.06452 5:-8.4507 6:-8.66071 7:-8.82845 8:-9.01408 9:10 10:10 11:10 12:3.33333 13:0.666667 14:-1.42857 15:-8.62069 16:-8.15789 17:-0.149254 18:10 19:3.14286 20:-7.47412 21:-6.3913 22:-7.05739 23:-9.03591 24:-8.61042 25:0.592 26:10 27:3.33333 28:0.666667 29:-1.42857 30:-10 
128 1:-9.56989 2:-8.46154 3:-9.71963 4:-6.29032 5:-9.71831 6:-7.32143 7:-9.49791 8:-7.60563 9:3.33333 10:0.666667 11:-1.42857 12:10 13:10 14:10 15:-10 16:-9.47368 17:-3.53234 18:-6.59259 19:-5.42857 20:-6.07619 21:-9.52314 22:-9.0388 23:-5.07009 24:-9.32124 25:-1.52 26:-7.12963 27:10 28:10 29:10 30:-10 
128 1:-4.19355 2:-7.69231 3:-3.83178 4:-8.22581 5:-2.11268 6:-8.39286 7:-3.72385 8:-7.1831 9:10 10:10 11:10 12:10 13:10 14:10 15:-8.62069 16:-7.36842 17:-8.12367 18:-1.85185 19:-7.0449 20:-9.56174 21:-6.98856 22:-9.24242 23:-9.79356 24:-8.48118 25:-7.24211 26:0.21164 27:10 28:10 29:10 30:-10 
128 1:-9.56989 2:-10 3:-9.06542 4:-9.51613 5:-9.15493 6:-9.73214 7:-9.66527 8:-9.71831 9:3.33333 10:0.666667 11:-1.42857 12:3.33333 13:0.666667 14:-1.42857 15:-10 16:-9.47368 17:-3.53234 18:10 19:-0.285714 20:-8.54945 21:-5.13043 22:-7.78711 23:-8.26678 24:-5.12097 25:1.936 26:10 27:3.33333 28:0.666667 29:-1.42857 30:-10 
128 1:-5.05376 2:-8.84615 3:-5.3271 4:-8.22581 5:-4.71831 6:-8.48214 7:-4.14226 8:-8.59155 9:10 10:10 11:10 12:3.33333 13:0.666667 14:-1.42857 15:-8.62069 16:-7.89474 17:-7.76119 18:4.81481 19:-6.16327 20:-9.30201 21:-6.81159 22:-8.872 23:-9.69947 24:-8.48118 25:-7.60451 26:6.26263 27:3.33333 28:0.666667 29:-1.42857 30:-10 
128 1:-9.35484 2:-9.23077 3:-9.53271 4:-9.35484 5:-9.29577 6:-9.28571 7:-9.16318 8:-8.87324 9:10 10:10 11:10 12:10 13:10 14:10 15:-8.62069 16:-7.89474 17:4.92537 18:10 19:7.06122 20:-4.61472 21:-3.44928 22:-4.11111 23:-6.74455 24:-6.12903 25:6.33455 26:10 27:10 28:10 29:10 30:-7.14286 
128 1:-8.27957 2:-8.84615 3:-9.43925 4:-9.03226 5:-8.73239 6:-9.46429 7:-7.99163 8:-8.73239 9:10 10:10 11:10 12:10 13:10 14:10 15:-10 16:-9.47368 17:-8.04312 18:-5.55556 19:-7.40659 20:-9.03759 21:-7.29193 22:-8.60806 23:-7.22296 24:-7.28111 25:-7.7408 26:-4.38889 27:10 28:10 29:10 30:-10 
128 1:-8.70968 2:-9.23077 3:-9.15888 4:-8.87097 5:-8.94366 6:-9.375 7:-8.57741 8:-9.01408 9:10 10:10 11:10 12:3.33333 13:0.666667 14:-1.42857 15:-10 16:-9.47368 17:-7.39872 18:-3.82716 19:-6.45714 20:-8.83929 21:-7.65217 22:-8.47884 23:-8.08411 24:-7.64113 25:-6.8 26:-2.84722 27:3.33333 28:0.666667 29:-1.42857 30:-10 
128 1:-8.70968 2:-8.07692 3:-7.85047 4:-8.06452 5:-8.02817 6:-8.57143 7:-8.82845 8:-8.30986 9:10 10:10 11:10 12:3.33333 13:0.666667 14:-1.42857 15:-8.62069 16:-8.68421 17:-1.59915 18:-0.37037 19:-1.07692 20:-8.01642 21:-6.61381 22:-7.52933 23:-9.25623 24:-8.61042 25:-2.096 26:-1.06838 27:3.33333 28:0.666667 29:-1.42857 30:-10 
128 1:-8.92473 2:-10 3:-9.43925 4:-9.83871 5:-9.22535 6:-9.91071 7:-8.41004 8:-9.71831 9:10 10:10 11:10 12:3.33333 13:0.666667 14:-1.42857 15:-10 16:-9.47368 17:-6.91542 18:10 19:-4.69388 20:-8.42063 21:-0.0869565 22:-7.27891 23:-7.22296 24:-0.0806452 25:-7.136 26:10 27:3.33333 28:0.666667 29:-1.42857 30:-10 
128 1:-8.27957 2:-8.07692 3:-7.66355 4:-8.22581 5:-7.32394 6:-8.21429 7:-8.32636 8:-8.02817 9:10 10:10 11:10 12:10 13:10 14:10 15:-7.93103 16:-7.63158 17:-1.27695 18:3.08642 19:0.4 20:-8.03419 21:-6.33126 22:-7.4709 23:-9.32063 24:-8.48118 25:-0.56 26:3.14815 27:10 28:10 29:10 30:-7.14286 
128 1:-8.49462 2:-9.61538 3:-8.97196 4:-9.83871 5:-9.01408 6:-9.73214 7:-8.32636 8:-9.43662 9:10 10:10 11:10 12:3.33333 13:0.666667 14:-1.42857 15:-9.31034 16:-8.94737 17:-5.22388 18:10 19:-2.34286 20:-7.41587 21:-0.0869565 22:-5.91479 23:-8.419 24:-0.0806452 25:-5.36 26:10 27:3.33333 28:0.666667 29:-1.42857 30:-7.14286 
128 1:-9.13978 2:-9.23077 3:-8.41121 4:-7.41935 5:-7.60563 6:-7.76786 7:-9.16318 8:-9.15493 9:3.33333 10:0.666667 11:-1.42857 12:3.33333 13:0.666667 14:-1.42857 15:-9.31034 16:-8.94737 17:-2.1791 18:3.08642 19:-0.285714 20:-8.94694 21:-8.62207 22:-8.83685 23:-8.97715 24:-8.97533 25:-0.996364 26:4.12698 27:3.33333 28:0.666667 29:-1.42857 30:-7.14286 
128 1:-9.56989 2:-10 3:-9.34579 4:-9.03226 5:-9.22535 6:-9.46429 7:-9.24686 8:-9.71831 9:10 10:10 11:10 12:3.33333 13:0.666667 14:-1.42857 15:-10 16:-9.47368 17:-3.53234 18:10 19:-0.285714 20:-8.42063 21:-7.29193 22:-8.03676 23:-7.58178 24:-7.28111 25:-4.112 26:10 27:3.33333 28:0.666667 29:-1.42857 30:-10 
128 1:-6.55914 2:-10 3:-7.47664 4:-9.35484 5:-7.1831 6:-9.64286 7:-6.15063 8:-9.71831 9:10 10:10 11:10 12:3.33333 13:0.666667 14:-1.42857 15:-10 16:-9.47368 17:-9.10448 18:10 19:-8.28571 20:-9.60511 21:-6.13913 22:-9.28226 23:-9.37583 24:-6.12903 25:-8.87319 26:10 27:3.33333 28:0.666667 29:-1.42857 30:-10 
128 1:-5.91398 2:-9.61538 3:-5.70093 4:-7.90323 5:-4.50704 6:-8.75 7:-5.56485 8:-9.01408 9:10 10:10 11:10 12:10 13:10 14:10 15:-9.31034 16:-8.15789 17:-8.26866 18:10 19:-6.83117 20:-9.5865 21:-7.48406 22:-9.30091 23:-9.66594 24:-8.7212 25:-7.17333 26:10 27:10 28:10 29:10 30:-10 
128 1:-4.4086 2:-7.30769 3:-5.70093 4:-7.41935 5:-4.43662 6:-8.125 7:-4.64435 8:-7.32394 9:10 10:10 11:10 12:10 13:10 14:10 15:-10 16:-9.21053 17:-9.54671 18:-8.14815 19:-9.39592 20:-9.84405 21:-9.25692 22:-9.76346 23:-9.66594 24:-8.97533 25:-8.91938 26:-6.44444 27:10 28:10 29:10 30:-10 
52.04592155011042 1:-5.48387 2:-9.23077 3:-6.54206 4:-7.74194 5:-4.64789 6:-8.125 7:-5.39749 8:-8.87324 9:10 10:10 11:10 12:10 13:10 14:10 15:-8.62069 16:-7.89474 17:-7.53053 18:10 19:-5.63429 20:-9.31231 21:-7.42292 22:-8.93699 23:-9.56468 24:-8.8172 25:-6.92 26:10 27:10 28:10 29:10 30:-7.14286 
128 1:-9.56989 2:-9.23077 3:-9.81308 4:-9.67742 5:-9.71831 6:-9.64286 7:-9.58159 8:-9.29577 9:10 10:10 11:10 12:10 13:10 14:10 15:-9.31034 16:-8.94737 17:3.23383 18:3.08642 19:3.14286 20:-2.05714 21:-2.10435 22:-2.09524 23:-3.39564 24:-3.44086 25:6.64 26:6.57407 27:10 28:10 29:10 30:-10 
128 1:-7.41935 2:-10 3:-7.38318 4:-9.67742 5:-7.8169 6:-9.82143 7:-6.7364 8:-9.57746 9:10 10:10 11:10 12:10 13:10 14:10 15:-10 16:-9.21053 17:-8.73708 18:10 19:-7.63265 20:-9.46726 21:-3.44928 22:-9.0068 23:-9.40058 24:-3.44086 25:-8.144 26:10 27:10 28:10 29:10 30:-10 
128 1:-7.84946 2:-9.61538 3:-8.69159 4:-9.83871 5:-8.23944 6:-9.73214 7:-7.74059 8:-9.29577 9:10 10:10 11:10 12:10 13:10 14:10 15:-9.31034 16:-8.68421 17:-6.60787 18:10 19:-4.24176 20:-8.54945 21:-0.0869565 22:-7.4709 23:-8.75389 24:-0.0806452 25:-5.84 26:10 27:10 28:10 29:10 30:-7.14286 
128 1:-6.34409 2:-10 3:-8.50467 4:-9.67742 5:-7.8169 6:-9.82143 7:-6.15063 8:-9.57746 9:10 10:10 11:10 12:10 13:10 14:10 15:-10 16:-9.21053 17:-9.17081 18:10 19:-8.40602 20:-9.46726 21:-3.44928 22:-9.0068 23:-8.91149 24:-3.44086 25:-8.44426 26:10 27:10 28:10 29:10 30:-10 
128 1:-6.12903 2:-8.84615 3:-6.4486 4:-8.87097 5:-4.85915 6:-8.75 7:-6.23431 8:-8.59155 9:10 10:10 11:10 12:10 13:10 14:10 15:-7.93103 16:-7.36842 17:-6.02514 18:10 19:-3.41615 20:-9.00901 21:-4.7942 22:-8.34671 23:-9.57824 24:-7.64113 25:-5.33913 26:10 27:10 28:10 29:10 30:-10 
128 1:-9.56989 2:-10 3:-8.97196 4:-9.67742 5:-8.87324 6:-9.82143 7:-9.16318 8:-9.57746 9:10 10:10 11:10 12:10 13:10 14:10 15:-10 16:-9.21053 17:-3.53234 18:10 19:-0.285714 20:-8.91317 21:-3.44928 22:-8.14286 23:-8.419 24:-3.44086 25:-2.82909 26:10 27:10 28:10 29:10 30:-10 
128 1:-7.41935 2:-10 3:-6.72897 4:-9.03226 5:-6.97183 6:-9.46429 7:-7.74059 8:-9.57746 9:10 10:10 11:10 12:10 13:10 14:10 15:-10 16:-9.21053 17:-8.73708 18:10 19:-7.63265 20:-9.63853 21:-7.29193 22:-9.36819 23:-9.53531 24:-7.28111 25:-7.28 26:10 27:10 28:10 29:10 30:-10 
128 1:-8.27957 2:-9.23077 3:-5.70093 4:-7.74194 5:-4.64789 6:-8.75 7:-7.82427 8:-8.59155 9:10 10:10 11:10 12:10 13:10 14:10 15:-10 16:-9.21053 17:-8.04312 18:-3.82716 19:-7.14286 20:-9.83426 21:-8.82899 22:-9.7205 23:-9.66594 24:-8.8172 25:-7.17333 26:-3.08081 27:10 28:10 29:10 30:-10 
128 1:-9.35484 2:-9.61538 3:-8.59813 4:-9.67742 5:-8.73239 6:-9.55357 7:-8.99582 8:-9.01408 9:10 10:10 11:10 12:10 13:10 14:10 15:-9.31034 16:-8.15789 17:-0.149254 18:10 19:3.14286 20:-7.97995 21:-3.44928 22:-6.93333 23:-8.83762 24:-3.44086 25:2.24615 26:10 27:10 28:10 29:10 30:-10 
128 1:-9.78495 2:-9.61538 3:-9.90654 4:-9.83871 5:-9.78873 6:-9.73214 7:-9.41423 8:-9.01408 9:10 10:10 11:10 12:10 13:10 14:10 15:-9.31034 16:-8.15789 17:10 18:10 19:10 20:-0.047619 21:-0.0869565 22:-0.0793651 23:-0.046729 24:-0.0806452 25:10 26:10 27:10 28:10 29:10 30:-7.14286 
128 1:-8.70968 2:-9.61538 3:-8.8785 4:-9.35484 5:-8.59155 6:-9.19643 7:-8.57741 8:-9.01408 9:10 10:10 11:10 12:10 13:10 14:10 15:-9.31034 16:-8.15789 17:-4.49893 18:10 19:-1.42857 20:-8.18141 21:-6.13913 22:-7.5576 23:-8.54781 24:-6.12903 25:-1.2 26:10 27:10 28:10 29:10 30:-10 
128 1:-8.92473 2:-7.69231 3:-8.78505 4:-7.25806 5:-8.73239 6:-7.94643 7:-8.74477 8:-7.04225 9:10 10:10 11:10 12:10 13:10 14:10 15:-8.62069 16:-7.36842 17:-0.149254 18:-1.85185 19:-1.07692 20:-6.92231 21:-7.65217 22:-7.34588 23:-8.65821 24:-9.04122 25:3.7 26:-0.277778 27:10 28:10 29:10 30:-10 
128 1:-3.54839 2:-6.53846 3:-5.23364 4:-5.48387 5:-5.14085 6:-6.96429 7:-3.72385 8:-6.33803 9:10 10:10 11:10 12:10 13:10 14:10 15:-9.31034 16:-8.15789 17:-8.98893 18:-6.59259 19:-8.56446 20:-9.52109 21:-9.02112 22:-9.39078 23:-9.70705 24:-9.46607 25:-8.03789 26:-4.46502 27:10 28:10 29:10 30:-7.14286 
128 1:-8.70968 2:-9.23077 3:-9.34579 4:-9.51613 5:-9.01408 6:-9.64286 7:-8.32636 8:-9.01408 9:10 10:10 11:10 12:10 13:10 14:10 15:-10 16:-9.21053 17:-7.39872 18:-3.82716 19:-6.45714 20:-8.75556 21:-6.13913 22:-8.14286 23:-7.58178 24:-5.12097 25:-6.32 26:-0.277778 27:10 28:10 29:10 30:-10 
128 1:-6.77419 2:-3.84615 3:-7.47664 4:-6.6129 5:-5.49296 6:-7.23214 7:-6.15063 8:-2.25352 9:10 10:10 11:10 12:10 13:10 14:10 15:-9.31034 16:-8.15789 17:-7.76119 18:-8.30065 19:-8.07792 20:-9.47692 21:-8.91304 22:-9.32744 23:-9.37583 24:-9.24487 25:-6.72851 26:-7.61905 27:10 28:10 29:10 30:-7.14286 
128 1:-8.27957 2:-10 3:-8.97196 4:-10 5:-8.80282 6:-10 7:-7.90795 8:-9.57746 9:10 10:10 11:10 12:10 13:10 14:10 15:-10 16:-9.21053 17:-8.04312 18:10 19:-6.45714 20:-8.97884 21:10 22:-8.03676 23:-8.419 24:10 25:-7.05846 26:10 27:10 28:10 29:10 30:-10 
128 1:-8.70968 2:-7.30769 3:-8.78505 4:-7.41935 5:-7.53521 6:-6.42857 7:-8.49372 8:-7.1831 9:10 10:10 11:10 12:10 13:10 14:10 15:-6.55172 16:-6.05263 17:7.10021 18:4.81481 19:5.88571 20:-6.74603 21:-7.22163 22:-7.01711 23:-8.65821 24:-8.97533 25:6.81684 26:5.10582 27:10 28:10 29:10 30:-7.14286 
128 1:-10 2:-10 3:-9.71963 4:-9.51613 5:-9.78873 6:-9.73214 7:-9.74895 8:-9.57746 9:10 10:10 11:10 12:10 13:10 14:10 15:-10 16:-9.21053 17:10 18:10 19:10 20:-5.07143 21:-5.13043 22:-5.11905 23:-5.07009 24:-5.12097 25:10 26:10 27:10 28:10 29:10 30:-10 
40.70605806179202 1:-4.19355 2:-5.38462 3:-5.98131 4:-6.45161 5:-4.15493 6:-4.19643 7:-2.5523 8:-4.64789 9:10 10:10 11:10 12:10 13:10 14:10 15:-8.62069 16:-7.10526 17:-8.12367 18:-5.95442 19:-7.56098 20:-9.37755 21:-9.25692 22:-9.35238 23:-9.63679 24:-9.28471 25:-7.472 26:-4.23077 27:10 28:10 29:10 30:-7.14286 
128 1:-5.69892 2:-6.53846 3:-6.63551 4:-6.29032 5:-6.47887 6:-7.32143 7:-5.14644 8:-6.33803 9:10 10:10 11:10 12:10 13:10 14:10 15:-10 16:-9.21053 17:-9.33191 18:-8.66667 19:-9.24424 20:-9.70121 21:-9.52314 22:-9.66705 23:-9.55039 24:-9.32124 25:-8.79322 26:-7.51029 27:10 28:10 29:10 30:-10 
128 1:-9.35484 2:-10 3:-9.25234 4:-9.51613 5:-9.29577 6:-9.73214 7:-8.74477 8:-9.57746 9:10 10:10 11:10 12:10 13:10 14:10 15:-10 16:-9.21053 17:-5.22388 18:10 19:-2.34286 20:-8.2684 21:-5.13043 22:-7.4709 23:-7.86085 24:-5.12097 25:-5.12 26:10 27:10 28:10 29:10 30:-10 
128 1:-9.78495 2:-10 3:-9.53271 4:-9.35484 5:-9.57746 6:-9.64286 7:-9.41423 8:-9.57746 9:10 10:10 11:10 12:10 13:10 14:10 15:-10 16:-9.21053 17:-0.149254 18:10 19:3.14286 20:-7.22449 21:-6.13913 22:-6.79894 23:-6.74455 24:-6.12903 25:-0.08 26:10 27:10 28:10 29:10 30:-10 
128 1:-9.56989 2:-10 3:-8.59813 4:-7.90323 5:-8.80282 6:-8.83929 7:-9.0795 8:-9.57746 9:10 10:10 11:10 12:10 13:10 14:10 15:-10 16:-9.21053 17:-3.53234 18:10 19:-0.285714 20:-8.97884 21:-8.73292 22:-8.89881 23:-8.83762 24:-8.7212 25:-3.44 26:10 27:10 28:10 29:10 30:-10 
128 1:-10 2:-10 3:-9.90654 4:-9.83871 5:-9.92958 6:-9.91071 7:-9.74895 8:-9.57746 9:10 10:10 11:10 12:10 13:10 14:10 15:-10 16:-9.21053 17:10 18:10 19:10 20:-0.047619 21:-0.0869565 22:-0.0793651 23:-0.046729 24:-0.0806452 25:10 26:10 27:10 28:10 29:10 30:-10 
128 1:-8.49462 2:-8.07692 3:-8.2243 4:-7.09677 5:-7.60563 6:-7.41071 7:-8.41004 8:-7.88732 9:10 10:10 11:10 12:10 13:10 14:10 15:-8.62069 16:-7.89474 17:-2.68657 18:-0.37037 19:-1.7551 20:-8.37279 21:-8.15652 22:-8.29792 23:-9.08879 24:-9.10017 25:-1.088 26:1.00694 27:10 28:10 29:10 30:-7.14286 
128 1:-9.78495 2:-10 3:-9.53271 4:-9.35484 5:-9.43662 6:-9.64286 7:-9.49791 8:-9.57746 9:10 10:10 11:10 12:10 13:10 14:10 15:-10 16:-9.21053 17:-0.149254 18:10 19:3.14286 20:-7.86243 21:-6.13913 22:-7.27891 23:-6.74455 24:-6.12903 25:1.36 26:10 27:10 28:10 29:10 30:-10 
128 1:-8.92473 2:-7.69231 3:-8.97196 4:-8.06452 5:-8.66197 6:-7.85714 7:-9.0795 8:-7.46479 9:10 10:10 11:10 12:10 13:10 14:10 15:-7.24138 16:-7.36842 17:6.61692 18:4.07407 19:5.25275 20:-5.07143 21:-6.13913 22:-5.67901 23:-8.419 24:-8.61042 25:8.32 26:1.34503 27:10 28:10 29:10 30:-1.42857 
128 1:-7.84946 2:-9.61538 3:-9.34579 4:-10 5:-9.01408 6:-9.91071 7:-7.07113 8:-9.01408 9:10 10:10 11:10 12:10 13:10 14:10 15:-9.31034 16:-8.15789 17:-6.60787 18:10 19:-4.24176 20:-7.41587 21:10 22:-5.4155 23:-7.58178 24:10 25:-5.68 26:10 27:10 28:10 29:10 30:-10 
128 1:-9.13978 2:-9.61538 3:-9.71963 4:-10 5:-9.57746 6:-9.91071 7:-8.82845 8:-9.01408 9:10 10:10 11:10 12:10 13:10 14:10 15:-9.31034 16:-8.15789 17:-2.1791 18:10 19:1.18367 20:-4.35374 21:10 22:-1.19929 23:-5.07009 24:10 25:0.592 26:10 27:10 28:10 29:10 30:-10 
128 1:-8.70968 2:-9.61538 3:-8.97196 4:-9.83871 5:-8.94366 6:-9.82143 7:-8.41004 8:-9.01408 9:10 10:10 11:10 12:10 13:10 14:10 15:-9.31034 16:-8.15789 17:-4.49893 18:10 19:-1.42857 20:-7.58333 21:3.27536 22:-5.91479 23:-8.419 24:-0.0806452 25:-2.096 26:10 27:10 28:10 29:10 30:-10 
128 1:-8.92473 2:-9.61538 3:-9.34579 4:-9.83871 5:-9.15493 6:-9.73214 7:-8.57741 8:-9.01408 9:10 10:10 11:10 12:10 13:10 14:10 15:-9.31034 16:-8.15789 17:-3.53234 18:10 19:-0.285714 20:-7.00366 21:-0.0869565 22:-5.4155 23:-7.58178 24:-0.0806452 25:-1.2 26:10 27:10 28:10 29:10 30:-7.14286 
128 1:-9.56989 2:-10 3:-9.53271 4:-9.83871 5:-9.50704 6:-9.91071 7:-9.41423 8:-9.57746 9:10 10:10 11:10 12:10 13:10 14:10 15:-10 16:-9.21053 17:-3.53234 18:10 19:-0.285714 20:-7.58333 21:-0.0869565 22:-6.12698 23:-6.74455 24:-0.0806452 25:-0.08 26:10 27:10 28:10 29:10 30:-10 
128 1:-7.63441 2:-9.61538 3:-8.50467 4:-9.19355 5:-7.39437 6:-9.19643 7:-7.40586 8:-9.01408 9:10 10:10 11:10 12:10 13:10 14:10 15:-9.31034 16:-8.15789 17:-6.91542 18:10 19:-4.69388 20:-9.03759 21:-6.13913 22:-8.47884 23:-8.91149 24:-6.80108 25:-5.12 26:10 27:10 28:10 29:10 30:-10 
128 1:-4.4086 2:-10 3:-6.91589 4:-9.67742 5:-6.33803 6:-9.82143 7:-4.56067 8:-9.57746 9:10 10:10 11:10 12:10 13:10 14:10 15:-10 16:-9.21053 17:-9.54671 18:10 19:-9.10204 20:-9.71608 21:-3.44928 22:-9.43878 23:-9.50247 24:-3.44086 25:-8.93818 26:10 27:10 28:10 29:10 30:-10 
128 1:-10 2:-10 3:-10 4:-10 5:-10 6:-10 7:-9.74895 8:-9.57746 9:10 10:10 11:10 12:10 13:10 14:10 15:-10 16:-9.21053 17:10 18:10 19:10 20:10 21:10 22:10 23:10 24:10 25:10 26:10 27:10 28:10 29:10 30:-10 
128 1:-4.19355 2:-7.30769 3:-3.5514 4:-5.32258 5:-2.74648 6:-6.875 7:-3.38912 8:-7.04225 9:10 10:10 11:10 12:10 13:10 14:10 15:-10 16:-9.21053 17:-9.57356 18:-8.14815 19:-9.42857 20:-9.90201 21:-9.61353 22:-9.87075 23:-9.80641 24:-9.48925 25:-9.152 26:-6.81818 27:10 28:10 29:10 30:-10 
128 1:-7.63441 2:-9.61538 3:-7.1028 4:-9.51613 5:-7.11268 6:-9.73214 7:-7.6569 8:-9.43662 9:10 10:10 11:10 12:10 13:10 14:10 15:-10 16:-9.21053 17:-8.60697 18:-0.37037 19:-7.63265 20:-9.61678 21:-5.13043 22:-9.28226 23:-9.46554 24:-5.12097 25:-7.37931 26:5.88889 27:10 28:10 29:10 30:-10 
128 1:-10 2:-10 3:-9.71963 4:-9.51613 5:-9.78873 6:-9.73214 7:-9.74895 8:-9.57746 9:10 10:10 11:10 12:10 13:10 14:10 15:-10 16:-9.21053 17:10 18:10 19:10 20:-5.07143 21:-5.13043 22:-5.11905 23:-5.07009 24:-5.12097 25:10 26:10 27:10 28:10 29:10 30:-10 
128 1:-1.6129 2:-7.69231 3:-1.1215 4:-8.3871 5:-1.76056 6:-8.57143 7:-0.543933 8:-6.90141 9:10 10:10 11:10 12:10 13:10 14:10 15:-10 16:-9.21053 17:-9.79104 18:-7.77778 19:-9.69605 20:-9.92494 21:-8.98721 22:-9.86008 23:-9.88415 24:-8.32845 25:-9.45263 26:-6.98068 27:10 28:10 29:10 30:-10 
128 1:-8.06452 2:-1.15385 3:-8.8785 4:-4.67742 5:-8.59155 6:-3.57143 7:-7.6569 8:-2.39437 9:10 10:10 11:10 12:10 13:10 14:10 15:-10 16:-9.21053 17:-8.26866 18:-9.87654 19:-9.36134 20:-9.13832 21:-9.89756 22:-9.72982 23:-8.54781 24:-9.56831 25:-7.37931 26:-9.06061 27:10 28:10 29:10 30:-10 
128 1:-4.62366 2:-7.30769 3:-6.4486 4:-4.19355 5:-4.22535 6:-5.35714 7:-4.72803 8:-6.76056 9:10 10:10 11:10 12:10 13:10 14:10 15:-9.31034 16:-8.42105 17:-8.73708 18:-5.55556 19:-8.15126 20:-9.61102 21:-9.41263 22:-9.56583 23:-9.57824 24:-9.61639 25:-7.955 26:-4.56019 27:10 28:10 29:10 30:-10 
128 1:-7.2043 2:-9.23077 3:-8.50467 4:-9.51613 5:-7.25352 6:-9.28571 7:-6.90377 8:-8.4507 9:10 10:10 11:10 12:10 13:10 14:10 15:-8.62069 16:-7.10526 17:-5.94883 18:10 19:-3.31092 20:-8.5881 21:-3.44928 22:-7.69031 23:-8.91149 24:-5.12097 25:-3.79368 26:10 27:10 28:10 29:10 30:-10 
128 1:-7.84946 2:-8.07692 3:-8.41121 4:-8.54839 5:-8.23944 6:-8.30357 7:-7.82427 8:-7.74648 9:10 10:10 11:10 12:10 13:10 14:10 15:-10 16:-9.21053 17:-8.45319 18:-7.28395 19:-8.15126 20:-9.32234 21:-9.16522 22:-9.28226 23:-8.97715 24:-8.14516 25:-7.17333 26:-5.71895 27:10 28:10 29:10 30:-10 
128 1:-9.13978 2:-10 3:-9.43925 4:-9.83871 5:-9.22535 6:-9.91071 7:-8.49372 8:-9.57746 9:10 10:10 11:10 12:10 13:10 14:10 15:-10 16:-9.21053 17:-6.23881 18:10 19:-3.71429 20:-8.42063 21:-0.0869565 22:-7.27891 23:-7.22296 24:-0.0806452 25:-5.91579 26:10 27:10 28:10 29:10 30:-10 
128 1:-6.77419 2:-8.84615 3:-7.57009 4:-7.74194 5:-5.84507 6:-7.76786 7:-6.31799 8:-9.15493 9:10 10:10 11:10 12:10 13:10 14:10 15:-8.62069 16:-8.68421 17:-6.49254 18:4.81481 19:-4.4 20:-9.09048 21:-7.84615 22:-8.75231 23:-9.34926 24:-8.8172 25:-7.472 26:7.06349 27:10 28:10 29:10 30:-10 
128 1:-9.35484 2:-6.15385 3:-9.06542 4:-5.96774 5:-9.22535 6:-7.05357 7:-9.16318 8:-5.91549 9:10 10:10 11:10 12:10 13:10 14:10 15:-10 16:-9.21053 17:-5.22388 18:-8.85522 19:-7.82857 20:-8.42063 21:-9.58056 22:-9.28226 23:-8.26678 24:-9.38586 25:-2.82909 26:-7.81481 27:10 28:10 29:10 30:-10 
128 1:-6.98925 2:-9.23077 3:-5.70093 4:-8.06452 5:-5.35211 6:-8.66071 7:-6.31799 8:-8.87324 9:10 10:10 11:10 12:10 13:10 14:10 15:-10 16:-9.21053 17:-8.94527 18:-3.82716 19:-8.28571 20:-9.79531 21:-8.91304 22:-9.67298 23:-9.66594 24:-8.61042 25:-8.368 26:-1.41975 27:10 28:10 29:10 30:-10 
128 1:-9.13978 2:-8.07692 3:-8.13084 4:-7.58065 5:-7.39437 6:-7.32143 7:-8.99582 8:-6.90141 9:10 10:10 11:10 12:10 13:10 14:10 15:-9.31034 16:-8.15789 17:-2.1791 18:-3.82716 19:-3.09091 20:-9.03759 21:-8.87237 22:-8.99011 23:-9.13663 24:-8.90121 25:2.24615 26:-3.4058 27:10 28:10 29:10 30:-10 
128 1:-7.84946 2:-9.23077 3:-8.41121 4:-9.19355 5:-8.16901 6:-9.19643 7:-7.99163 8:-8.87324 9:10 10:10 11:10 12:10 13:10 14:10 15:-8.62069 16:-7.89474 17:-4.76255 18:10 19:-1.7551 20:-7.86243 21:-4.12174 22:-6.88975 23:-8.97715 24:-6.80108 25:-2.9024 26:10 27:10 28:10 29:10 30:-10 
128 1:-9.35484 2:-8.07692 3:-9.62617 4:-8.06452 5:-9.50704 6:-8.03571 7:-9.0795 8:-7.32394 9:10 10:10 11:10 12:10 13:10 14:10 15:-8.62069 16:-7.36842 17:4.92537 18:-0.37037 19:1.77143 20:-2.55952 21:-7.54253 22:-6.25704 23:-6.07477 24:-8.61042 25:8.32 26:0.75 27:10 28:10 29:10 30:-7.14286 
128 1:-6.12903 2:-9.61538 3:-6.4486 4:-9.51613 5:-4.92958 6:-9.375 7:-6.15063 8:-9.01408 9:10 10:10 11:10 12:10 13:10 14:10 15:-9.31034 16:-8.15789 17:-8.16182 18:10 19:-6.65306 20:-9.54468 21:-5.13043 22:-9.16324 23:-9.57824 24:-5.12097 25:-6.72851 26:10 27:10 28:10 29:10 30:-7.14286 
128 1:-6.34409 2:-5.38462 3:-5.88785 4:-5.32258 5:-5.35211 6:-6.16071 7:-6.7364 8:-5.49296 9:10 10:10 11:10 12:10 13:10 14:10 15:-8.62069 16:-7.36842 17:-6.91542 18:-5.95442 19:-6.58986 20:-9.19545 21:-8.79842 22:-9.06907 23:-9.64694 24:-9.48925 25:-4.616 26:-3.7037 27:10 28:10 29:10 30:-4.28571 
128 1:-8.27957 2:-8.07692 3:-8.97196 4:-8.54839 5:-8.02817 6:-8.03571 7:-8.49372 8:-7.74648 9:10 10:10 11:10 12:10 13:10 14:10 15:-7.93103 16:-7.63158 17:-1.27695 18:3.08642 19:0.4 20:-7.32348 21:-6.66541 22:-7.05739 23:-8.419 24:-8.14516 25:0.450526 26:1.53595 27:10 28:10 29:10 30:-10 
128 1:-8.70968 2:-8.46154 3:-9.71963 4:-9.83871 5:-9.15493 6:-9.19643 7:-8.74477 8:-8.4507 9:10 10:10 11:10 12:10 13:10 14:10 15:-7.24138 16:-7.10526 17:4.20043 18:10 19:6.57143 20:-2.3663 21:-0.0869565 22:-1.39406 23:-5.07009 24:-0.0806452 25:4.96 26:10 27:10 28:10 29:10 30:-4.28571 
128 1:-5.91398 2:-6.53846 3:-8.13084 4:-8.70968 5:-6.90141 6:-8.57143 7:-6.40167 8:-5.6338 9:10 10:10 11:10 12:10 13:10 14:10 15:-10 16:-9.21053 17:-9.28358 18:-8.66667 19:-9.2 20:-9.64868 21:-8.98721 22:-9.50845 23:-9.13663 24:-7.92115 25:-8.32727 26:-7.98611 27:10 28:10 29:10 30:-10 
128 1:-9.56989 2:-9.61538 3:-9.53271 4:-9.35484 5:-9.3662 6:-9.375 7:-9.58159 8:-9.43662 9:10 10:10 11:10 12:10 13:10 14:10 15:-9.31034 16:-8.94737 17:3.23383 18:10 19:5.88571 20:-6.07619 21:-5.13043 22:-5.67901 23:-6.74455 24:-6.12903 25:6.64 26:10 27:10 28:10 29:10 30:-10 
128 1:-8.92473 2:-5.38462 3:-9.34579 4:-6.45161 5:-9.01408 6:-6.33929 7:-8.74477 8:-4.92958 9:10 10:10 11:10 12:10 13:10 14:10 15:-8.62069 16:-7.10526 17:-0.149254 18:-5.95442 19:-4.07519 20:-6.07619 21:-8.73292 22:-8.03676 23:-7.58178 24:-9.28471 25:4.96 26:-3.88889 27:10 28:10 29:10 30:-10 
128 1:-7.63441 2:-10 3:-8.50467 4:-9.83871 5:-7.67606 6:-9.91071 7:-7.23849 8:-9.57746 9:10 10:10 11:10 12:10 13:10 14:10 15:-10 16:-9.21053 17:-8.60697 18:10 19:-7.40659 20:-9.5042 21:-0.0869565 22:-9.0388 23:-8.91149 24:-0.0806452 25:-7.78824 26:10 27:10 28:10 29:10 30:-10 
128 1:-9.78495 2:-9.23077 3:-9.43925 4:-8.06452 5:-9.3662 6:-8.66071 7:-9.49791 8:-8.59155 9:10 10:10 11:10 12:10 13:10 14:10 15:-9.31034 16:-8.42105 17:10 18:3.08642 19:5.88571 20:-6.07619 21:-7.65217 22:-7.05739 23:-7.22296 24:-8.61042 25:10 26:2.52525 27:10 28:10 29:10 30:-10 
128 1:-8.27957 2:-8.46154 3:-9.34579 4:-8.54839 5:-8.02817 6:-7.85714 7:-7.6569 8:-7.60563 9:10 10:10 11:10 12:10 13:10 14:10 15:-8.62069 16:-7.10526 17:-3.53234 18:1.7037 19:-1.7551 20:-8.01642 21:-7.75304 22:-7.91887 23:-7.58178 24:-8.14516 25:-1.81793 26:3.14815 27:10 28:10 29:10 30:-10 
128 1:-10 2:-10 3:-9.71963 4:-9.51613 5:-9.78873 6:-9.73214 7:-9.74895 8:-9.57746 9:10 10:10 11:10 12:10 13:10 14:10 15:-10 16:-9.21053 17:10 18:10 19:10 20:-5.07143 21:-5.13043 22:-5.11905 23:-5.07009 24:-5.12097 25:10 26:10 27:10 28:10 29:10 30:-10 
128 1:-8.92473 2:-9.61538 3:-8.78505 4:-9.03226 5:-7.8169 6:-9.46429 7:-8.57741 8:-9.15493 9:10 10:10 11:10 12:10 13:10 14:10 15:-10 16:-9.21053 17:-6.91542 18:-0.37037 19:-5.42857 20:-9.46726 21:-7.29193 22:-9.12495 23:-8.65821 24:-7.28111 25:-5.68 26:1.19048 27:10 28:10 29:10 30:-10 
128 1:-9.13978 2:-9.23077 3:-7.38318 4:-7.58065 5:-7.11268 6:-8.125 7:-8.57741 8:-8.4507 9:10 10:10 11:10 12:10 13:10 14:10 15:-8.62069 16:-7.10526 17:1.8806 18:10 19:4.85714 20:-8.65986 21:-7.42292 22:-8.26885 23:-9.40058 24:-8.90121 25:3.28 26:10 27:10 28:10 29:10 30:-7.14286 
128 1:-9.78495 2:-5.38462 3:-9.81308 4:-7.74194 5:-9.78873 6:-7.94643 7:-9.66527 8:-6.05634 9:10 10:10 11:10 12:10 13:10 14:10 15:-10 16:-9.21053 17:-0.149254 18:-9.1453 19:-7.82857 20:-5.07143 21:-9.33333 22:-8.71882 23:-3.39564 24:-8.8172 25:5.968 26:-7.72031 27:10 28:10 29:10 30:-10 
128 1:-8.49462 2:-10 3:-8.31776 4:-9.19355 5:-8.16901 6:-9.55357 7:-7.82427 8:-9.57746 9:10 10:10 11:10 12:10 13:10 14:10 15:-10 16:-9.21053 17:-7.76119 18:10 19:-6 20:-9.35097 21:-6.81159 22:-8.93699 23:-9.03591 24:-6.80108 25:-7.17333 26:10 27:10 28:10 29:10 30:-10 
128 1:8.49462 2:-6.15385 3:10 4:-6.45161 5:7.67606 6:-6.78571 7:6.7364 8:-6.33803 9:10 10:10 11:10 12:10 13:10 14:10 15:-9.31034 16:-8.15789 17:-9.83188 18:-6.9697 19:-9.73178 20:-9.93575 21:-9.08343 22:-9.87972 23:-10 24:-9.28471 25:-9.35761 26:-4.46502 27:10 28:10 29:10 30:-10 
128 1:-8.27957 2:-10 3:-8.69159 4:-9.67742 5:-7.88732 6:-9.82143 7:-7.90795 8:-9.57746 9:10 10:10 11:10 12:10 13:10 14:10 15:-10 16:-9.21053 17:-8.04312 18:10 19:-6.45714 20:-9.447 21:-3.44928 22:-8.97292 23:-8.75389 24:-3.44086 25:-7.05846 26:10 27:10 28:10 29:10 30:-10 
128 1:-8.70968 2:-8.46154 3:-8.50467 4:-8.22581 5:-8.02817 6:-8.03571 7:-8.41004 8:-7.60563 9:10 10:10 11:10 12:10 13:10 14:10 15:-7.24138 16:-5.52632 17:4.20043 18:10 19:6.57143 20:-6.63054 21:-5.78828 22:-6.28205 23:-8.91149 24:-8.48118 25:7.984 26:10 27:10 28:10 29:10 30:-7.14286 
128 1:-9.35484 2:-9.61538 3:-9.34579 4:-9.67742 5:-8.94366 6:-9.73214 7:-9.33054 8:-9.15493 9:10 10:10 11:10 12:10 13:10 14:10 15:-10 16:-9.21053 17:-5.22388 18:-0.37037 19:-3.71429 20:-8.83929 21:-5.13043 22:-8.14286 23:-7.58178 24:-3.44086 25:-1.2 26:1.19048 27:10 28:10 29:10 30:-10 
128 1:-9.13978 2:-9.61538 3:-9.71963 4:-9.51613 5:-9.57746 6:-9.73214 7:-9.33054 8:-9.29577 9:10 10:10 11:10 12:10 13:10 14:10 15:-10 16:-9.21053 17:-6.23881 18:-0.37037 19:-4.69388 20:-7.22449 21:-5.13043 22:-6.49351 23:-5.07009 24:-5.12097 25:-1.2 26:3.14815 27:10 28:10 29:10 30:-10 
128 1:-8.49462 2:-10 3:-8.8785 4:-9.67742 5:-7.53521 6:-9.82143 7:-8.24268 8:-9.57746 9:10 10:10 11:10 12:10 13:10 14:10 15:-10 16:-9.21053 17:-7.76119 18:10 19:-6 20:-9.53704 21:-3.44928 22:-9.12495 23:-8.54781 24:-3.44086 25:-6.49455 26:10 27:10 28:10 29:10 30:-10 
128 1:-10 2:-10 3:-9.71963 4:-9.51613 5:-9.78873 6:-9.73214 7:-9.74895 8:-9.57746 9:10 10:10 11:10 12:10 13:10 14:10 15:-10 16:-9.21053 17:10 18:10 19:10 20:-5.07143 21:-5.13043 22:-5.11905 23:-5.07009 24:-5.12097 25:10 26:10 27:10 28:10 29:10 30:-10 
128 1:-10 2:-10 3:-9.62617 4:-9.35484 5:-9.71831 6:-9.64286 7:-9.74895 8:-9.57746 9:10 10:10 11:10 12:10 13:10 14:10 15:-10 16:-9.21053 17:10 18:10 19:10 20:-6.07619 21:-6.13913 22:-6.12698 23:-6.07477 24:-6.12903 25:10 26:10 27:10 28:10 29:10 30:-10 
128 1:-9.13978 2:-9.23077 3:-9.25234 4:-9.19355 5:-9.15493 6:-9.28571 7:-8.49372 8:-8.59155 9:10 10:10 11:10 12:10 13:10 14:10 15:-8.62069 16:-7.36842 17:1.8806 18:10 19:4.85714 20:-5.45788 21:-3.44928 22:-4.66089 23:-7.86085 24:-6.80108 25:1.51158 26:10 27:10 28:10 29:10 30:-7.14286 
128 1:-9.35484 2:-10 3:-9.06542 4:-9.51613 5:-9.15493 6:-9.73214 7:-8.99582 8:-9.57746 9:10 10:10 11:10 12:10 13:10 14:10 15:-10 16:-9.21053 17:-5.22388 18:10 19:-2.34286 20:-8.54945 21:-5.13043 22:-7.78711 23:-8.26678 24:-5.12097 25:-3.95692 26:10 27:10 28:10 29:10 30:-10 
128 1:-6.77419 2:-2.69231 3:-6.72897 4:-6.29032 5:-7.11268 6:-6.69643 7:-6.48536 8:-2.95775 9:10 10:10 11:10 12:10 13:10 14:10 15:-9.31034 16:-8.15789 17:-7.76119 18:-8.66667 19:-8.28571 20:-9.13832 21:-9.11213 22:-9.15079 23:-9.53531 24:-9.32124 25:-6.4093 26:-7.33115 27:10 28:10 29:10 30:-7.14286 
128 1:-10 2:-10 3:-9.90654 4:-9.83871 5:-9.92958 6:-9.91071 7:-9.74895 8:-9.57746 9:10 10:10 11:10 12:10 13:10 14:10 15:-10 16:-9.21053 17:10 18:10 19:10 20:-0.047619 21:-0.0869565 22:-0.0793651 23:-0.046729 24:-0.0806452 25:10 26:10 27:10 28:10 29:10 30:-10 
128 1:-10 2:-10 3:-9.90654 4:-9.83871 5:-9.92958 6:-9.91071 7:-9.74895 8:-9.57746 9:10 10:10 11:10 12:10 13:10 14:10 15:-10 16:-9.21053 17:10 18:10 19:10 20:-0.047619 21:-0.0869565 22:-0.0793651 23:-0.046729 24:-0.0806452 25:10 26:10 27:10 28:10 29:10 30:-10 
128 1:-8.49462 2:-8.84615 3:-9.06542 4:-8.3871 5:-8.16901 6:-8.66071 7:-8.159 8:-8.16901 9:10 10:10 11:10 12:10 13:10 14:10 15:-9.31034 16:-8.42105 17:-5.22388 18:-0.37037 19:-3.71429 20:-8.6067 21:-7.65217 22:-8.2835 23:-8.26678 24:-8.32845 25:-4.02435 26:-0.277778 27:10 28:10 29:10 30:-7.14286 
128 1:-7.84946 2:-9.61538 3:-7.47664 4:-9.35484 5:-6.26761 6:-9.28571 7:-7.48954 8:-9.15493 9:10 10:10 11:10 12:10 13:10 14:10 15:-9.31034 16:-8.42105 17:-6.60787 18:10 19:-4.24176 20:-9.35097 21:-5.69082 22:-8.87881 23:-9.37583 24:-6.12903 25:-5.60774 26:10 27:10 28:10 29:10 30:-10 
39.07981676336816 1:-9.35484 2:-8.84615 3:-9.90654 4:-9.83871 5:-9.64789 6:-9.55357 7:-8.91213 8:-8.16901 9:10 10:10 11:10 12:10 13:10 14:10 15:-7.93103 16:-6.57895 17:10 18:10 19:10 20:3.30159 21:3.27536 22:3.28042 23:-0.046729 24:-0.0806452 25:10 26:10 27:10 28:10 29:10 30:-1.42857 
128 1:-4.19355 2:1.15385 3:-6.91589 4:0.645161 5:-4.92958 6:-1.42857 7:-4.97908 8:0.28169 9:10 10:10 11:10 12:10 13:10 14:10 15:-9.31034 16:-8.15789 17:-8.84861 18:-9.35802 19:-9.15271 20:-9.54468 21:-9.75796 22:-9.68441 23:-9.50247 24:-9.86038 25:-7.51607 26:-8.33333 27:10 28:10 29:10 30:-10 
-128 1:-6.12903 2:-8.46154 3:-7.28972 4:-7.74194 5:-6.90141 6:-8.48214 7:-6.31799 8:-7.74648 9:10 10:10 11:10 12:10 13:10 14:10 15:-10 16:-10 17:-9.23016 18:-6.59259 19:-8.85714 20:-9.64868 21:-9.05314 22:-9.51877 23:-9.42368 24:-8.8172 25:-9.712 26:-9.34641 27:10 28:10 29:10 30:-10 
-128 1:-8.70968 2:-2.69231 3:-9.81308 4:-8.3871 5:-9.22535 6:-6.69643 7:-8.41004 8:-2.39437 9:10 10:10 11:10 12:10 13:10 14:10 15:-5.86207 16:-5 17:10 18:-3.48148 19:0.0952381 20:1.62698 21:-6.45767 22:-4.51429 23:-3.39564 24:-8.32845 25:10 26:-3.08081 27:10 28:10 29:10 30:-7.14286 
-128 1:-3.54839 2:10 3:-3.27103 4:10 5:1.5493 6:10 7:-4.39331 8:10 9:10 10:10 11:10 12:10 13:10 14:10 15:-2.41379 16:-1.57895 17:-2.44102 18:-6.04472 19:-4.69388 20:-8.63377 21:-9.09797 22:-8.91819 23:-9.81821 24:-10 25:-0.376471 26:-5.81197 27:10 28:10 29:10 30:-1.42857 
-128 1:-9.13978 2:-8.07692 3:-8.78505 4:-7.41935 5:-8.94366 6:-7.94643 7:-9.33054 8:-8.30986 9:10 10:10 11:10 12:10 13:10 14:10 15:-8.62069 16:-9.21053 17:1.8806 18:-0.37037 19:0.649351 20:-6.32738 21:-7.65217 22:-7.13492 23:-8.65821 24:-8.97533 25:-1.2 26:-4.23077 27:10 28:10 29:10 30:-10 
-128 1:-8.92473 2:-4.23077 3:-8.41121 4:-4.67742 5:-7.46479 6:-3.48214 7:-9.0795 8:-5.49296 9:10 10:10 11:10 12:10 13:10 14:10 15:-7.93103 16:-8.94737 17:3.23383 18:-5.55556 19:-3.09091 20:-7.92278 21:-9.08343 22:-8.70585 23:-8.97715 24:-9.56831 25:-1.76 26:-7.44108 27:10 28:10 29:10 30:-7.14286 
-128 1:-9.35484 2:-9.23077 3:-9.15888 4:-8.87097 5:-8.52113 6:-8.57143 7:-9.49791 8:-9.57746 9:3.33333 10:0.666667 11:-1.42857 12:-3.33333 13:-6 14:-7.14286 15:-8.62069 16:-9.21053 17:4.92537 18:10 19:7.06122 20:-7.35498 21:-6.61381 22:-7.05739 23:-8.08411 24:-7.64113 25:1.36 26:10 27:-3.33333 28:-6 29:-7.14286 30:-7.14286 
-128 1:-8.92473 2:-7.30769 3:-9.34579 4:-8.70968 5:-9.22535 6:-9.01786 7:-9.33054 8:-7.1831 9:3.33333 10:0.666667 11:-1.42857 12:10 13:10 14:10 15:-8.62069 16:-9.47368 17:-0.149254 18:-2.96296 19:-1.7551 20:-5.07143 21:-5.13043 22:-5.11905 23:-7.58178 24:-7.92115 25:-3.44 26:-7.61905 27:10 28:10 29:10 30:-4.28571 
-79.20097235447592 1:-9.78495 2:-9.61538 3:-9.90654 4:-9.51613 5:-9.92958 6:-9.73214 7:-9.74895 8:-9.85915 9:3.33333 10:0.666667 11:-1.42857 12:-10 13:-10 14:-10 15:-10 16:-10 17:-0.149254 18:-0.37037 19:-0.285714 20:-0.047619 21:-5.13043 22:-3.43915 23:-0.046729 24:-5.12097 25:-5.12 26:-0.277778 27:-10 28:-10 29:-10 30:-10 
-128 1:-9.35484 2:-8.46154 3:-9.62617 4:-9.19355 5:-9.08451 6:-8.83929 7:-9.49791 8:-8.30986 9:3.33333 10:0.666667 11:-1.42857 12:10 13:10 14:10 15:-8.62069 16:-8.94737 17:4.92537 18:1.7037 19:3.14286 20:-5.78912 21:-5.85093 22:-5.839 23:-6.07477 24:-6.80108 25:4.24 26:-2.64957 27:10 28:10 29:10 30:-10 
-128 1:-3.54839 2:-8.46154 3:-6.4486 4:-9.03226 5:-3.52113 6:-8.92857 7:-2.97071 8:-8.59155 9:10 10:10 11:10 12:10 13:10 14:10 15:-10 16:-10 17:-9.64372 18:-6.59259 19:-9.42857 20:-9.87916 21:-8.62207 22:-9.77838 23:-9.57824 24:-7.28111 25:-9.92282 26:-8.68687 27:10 28:10 29:10 30:-10 
-128 1:-8.70968 2:-5 3:-9.15888 4:-7.25806 5:-8.02817 6:-5.80357 7:-8.91213 8:-5.07042 9:10 10:10 11:10 12:10 13:10 14:10 15:-6.55172 16:-7.36842 17:7.10021 18:-1.85185 19:1.18367 20:-5.9376 21:-7.65217 22:-7.01711 23:-8.08411 24:-9.04122 25:5.68 26:-4.27469 27:10 28:10 29:10 30:-7.14286 
-128 1:-9.78495 2:-7.30769 3:-9.06542 4:-6.93548 5:-8.87324 6:-6.78571 7:-9.83264 8:-7.60563 9:-3.33333 10:-6 11:-7.14286 12:10 13:10 14:10 15:-9.31034 16:-9.47368 17:10 18:-5.55556 19:-2.34286 20:-7.73109 21:-9.08343 22:-8.66549 23:-8.26678 24:-9.15323 25:10 26:-7.12963 27:10 28:10 29:10 30:-7.14286 
-128 1:-9.56989 2:-8.07692 3:-9.81308 4:-9.03226 5:-9.64789 6:-8.83929 7:-9.49791 8:-8.4507 9:3.33333 10:0.666667 11:-1.42857 12:3.33333 13:0.666667 14:-1.42857 15:-8.62069 16:-8.42105 17:10 18:-0.37037 19:3.14286 20:-0.047619 21:-5.85093 22:-4.11111 23:-3.39564 24:-7.28111 25:10 26:1.43519 27:3.33333 28:0.666667 29:-1.42857 30:-10 
-35.22528207548295 1:-7.63441 2:-7.30769 3:-7.28972 4:-6.77419 5:-6.90141 6:-7.67857 7:-7.99163 8:-6.33803 9:10 10:10 11:10 12:10 13:10 14:10 15:-10 16:-10 17:-8.60697 18:-8.14815 19:-8.51429 20:-9.64868 21:-9.42673 22:-9.59877 23:-9.42368 24:-9.20123 25:-9.3536 26:-9.79424 27:10 28:10 29:10 30:-10 
-128 1:-8.27957 2:-8.84615 3:-8.59813 4:-8.22581 5:-8.23944 6:-8.66071 7:-8.49372 8:-9.43662 9:3.33333 10:0.666667 11:-1.42857 12:-3.33333 13:-6 14:-7.14286 15:-7.93103 16:-8.94737 17:-1.27695 18:10 19:2.08791 20:-7.00366 21:-5.13043 22:-6.31897 23:-8.83762 24:-8.48118 25:-4.85474 26:10 27:-3.33333 28:-6 29:-7.14286 30:-10 
-128 1:-6.98925 2:-8.46154 3:-8.59813 4:-9.83871 5:-8.4507 6:-9.55357 7:-6.82008 8:-8.59155 9:10 10:10 11:10 12:10 13:10 14:10 15:-7.24138 16:-7.36842 17:-3.53234 18:10 19:-0.285714 20:-5.72671 21:6.63768 22:-3.20744 23:-8.83762 24:-0.0806452 25:-4.47385 26:10 27:10 28:10 29:10 30:-7.14286 
-128 1:-8.27957 2:-6.92308 3:-9.06542 4:-8.3871 5:-7.67606 6:-7.05357 7:-8.66109 8:-7.74648 9:10 10:10 11:10 12:10 13:10 14:10 15:-4.48276 16:-5.78947 17:10 18:10 19:10 20:-4.77591 21:-4.83376 22:-4.8226 23:-8.26678 24:-8.32845 25:10 26:10 27:10 28:10 29:10 30:-4.28571 
-113.9929816843262 1:-9.78495 2:-8.84615 3:-9.90654 4:-9.51613 5:-9.78873 6:-9.46429 7:-9.91632 8:-8.87324 9:-10 10:-10 11:-10 12:10 13:10 14:10 15:-9.31034 16:-9.73684 17:10 18:-0.37037 19:3.14286 20:-0.047619 21:-4.40994 22:-2.82828 23:-0.046729 24:-5.12097 25:10 26:-5.98765 27:10 28:10 29:10 30:-7.14286 
-128 1:-7.84946 2:-9.23077 3:-7.85047 4:-9.19355 5:-7.67606 6:-9.28571 7:-7.82427 8:-9.43662 9:10 10:10 11:10 12:3.33333 13:0.666667 14:-1.42857 15:-9.31034 16:-9.73684 17:-6.60787 18:3.08642 19:-4.69388 20:-8.91317 21:-5.69082 22:-8.2835 23:-9.25623 24:-6.80108 25:-8.66667 26:-2.33333 27:3.33333 28:0.666667 29:-1.42857 30:-10 
-128 1:-8.49462 2:-8.46154 3:-8.78505 4:-9.03226 5:-8.87324 6:-9.10714 7:-8.24268 8:-8.02817 9:10 10:10 11:10 12:10 13:10 14:10 15:-9.31034 16:-8.94737 17:-5.22388 18:-2.44444 19:-4.24176 20:-7.73109 21:-6.50593 22:-7.27891 23:-8.65821 24:-7.28111 25:-5.57818 26:-3.7037 27:10 28:10 29:10 30:-10 
-128 1:-6.34409 2:-7.69231 3:-8.2243 4:-9.35484 5:-7.1831 6:-8.66071 7:-7.6569 8:-8.02817 9:3.33333 10:0.666667 11:-1.42857 12:3.33333 13:0.666667 14:-1.42857 15:-5.86207 16:-6.31579 17:-2.40464 18:10 19:0.948571 20:-6.66434 21:-1.34783 22:-5.20746 23:-9.08879 24:-6.12903 25:0.267586 26:10 27:3.33333 28:0.666667 29:-1.42857 30:-1.42857 
-128 1:-8.06452 2:-9.23077 3:-7.66355 4:-8.06452 5:-6.90141 6:-8.21429 7:-8.66109 8:-9.43662 9:10 10:10 11:10 12:3.33333 13:0.666667 14:-1.42857 15:-8.62069 16:-8.94737 17:-4.20896 18:10 19:-1.07692 20:-8.75556 21:-7.29193 22:-8.32612 23:-9.32063 24:-8.61042 25:-4.23059 26:10 27:3.33333 28:0.666667 29:-1.42857 30:-10 
-128 1:-8.06452 2:-8.84615 3:-8.78505 4:-9.35484 5:-8.73239 6:-9.375 7:-8.57741 8:-9.15493 9:10 10:10 11:10 12:10 13:10 14:10 15:-7.93103 16:-8.42105 17:-2.1791 18:10 19:1.18367 20:-5.86466 21:-0.0869565 22:-4.18577 23:-8.65821 24:-6.12903 25:-2.32 26:10 27:10 28:10 29:10 30:-10 
-128 1:-8.92473 2:-9.61538 3:-8.13084 4:-9.19355 5:-8.4507 6:-9.46429 7:-9.24686 8:-9.43662 9:10 10:10 11:10 12:10 13:10 14:10 15:-9.31034 16:-8.94737 17:-3.53234 18:10 19:-0.285714 20:-8.34783 21:-4.40994 22:-7.4709 23:-9.13663 24:-6.80108 25:-0.08 26:10 27:10 28:10 29:10 30:-10 
-9.730381697653145 1:-7.84946 2:-8.84615 3:-8.2243 4:-8.87097 5:-8.30986 6:-8.92857 7:-8.159 8:-8.59155 9:10 10:10 11:10 12:10 13:10 14:10 15:-10 16:-10 17:-8.45319 18:-5.55556 19:-7.82857 20:-9.29143 21:-8.62207 22:-9.09774 23:-9.08879 24:-7.64113 25:-9.28348 26:-8.68687 27:10 28:10 29:10 30:-10 
-128 1:0.537634 2:-10 3:-1.68224 4:-9.83871 5:2.60563 6:-9.91071 7:0.460251 8:-10 9:10 10:10 11:10 12:-10 13:-10 14:-10 15:-10 16:-10 17:-9.89254 18:10 19:-9.76471 20:-9.9836 21:-0.0869565 22:-9.93721 23:-9.8702 24:-0.0806452 25:-10 26:10 27:-10 28:-10 29:-10 30:-10 
-128 1:-6.34409 2:-5.38462 3:-8.50467 4:-7.41935 5:-8.16901 6:-8.03571 7:-6.23431 8:-5.6338 9:10 10:10 11:10 12:10 13:10 14:10 15:-10 16:-10 17:-9.17081 18:-9.1453 19:-9.24424 20:-9.35097 21:-9.29679 22:-9.35238 23:-8.91149 24:-8.97533 25:-9.72174 26:-9.91319 27:10 28:10 29:10 30:-10 
-36.74370716949719 1:-9.78495 2:-5.76923 3:-9.43925 4:-5.48387 5:-9.3662 6:-6.42857 7:-9.91632 8:-7.1831 9:-10 10:-10 11:-10 12:3.33333 13:0.666667 14:-1.42857 15:-9.31034 16:-9.73684 17:10 18:-7.28395 19:-4.69388 20:-6.07619 21:-9.18982 22:-8.57765 23:-7.22296 24:-9.46607 25:10 26:-8.59788 27:3.33333 28:0.666667 29:-1.42857 30:-7.14286 
-128 1:-10 2:-7.69231 3:-9.90654 4:-7.90323 5:-9.92958 6:-8.48214 7:-10 8:-7.88732 9:-10 10:-10 11:-10 12:10 13:10 14:10 15:-10 16:-10 17:10 18:-7.77778 19:-5.42857 20:-0.047619 21:-9.05314 22:-8.14286 23:-0.046729 24:-8.7212 25:10 26:-9.27083 27:10 28:10 29:10 30:-10 
-128 1:-3.11828 2:-8.46154 3:-6.07477 4:-8.54839 5:-3.09859 6:-8.30357 7:-3.72385 8:-8.87324 9:10 10:10 11:10 12:3.33333 13:0.666667 14:-1.42857 15:-7.93103 16:-8.68421 17:-7.83808 18:5.85185 19:-6.2406 20:-9.28331 21:-6.13913 22:-8.80352 23:-9.62617 24:-8.14516 25:-8.56842 26:3.14815 27:3.33333 28:0.666667 29:-1.42857 30:-7.14286 
-128 1:-8.06452 2:-4.61538 3:-9.06542 4:-7.58065 5:-8.80282 6:-6.96429 7:-8.159 8:-4.92958 9:10 10:10 11:10 12:10 13:10 14:10 15:-10 16:-10 17:-8.26866 18:-9.35802 19:-8.92571 20:-8.97884 21:-9.59752 22:-9.39802 23:-8.26678 24:-8.90121 25:-9.28348 26:-10 27:10 28:10 29:10 30:-10 
-128 1:-4.4086 2:-10 3:-6.4486 4:-9.51613 5:-5.21127 6:-9.73214 7:-4.47699 8:-10 9:10 10:10 11:10 12:-10 13:-10 14:-10 15:-10 16:-10 17:-9.54671 18:10 19:-9.10204 20:-9.804 21:-5.13043 22:-9.60644 23:-9.57824 24:-5.12097 25:-9.8591 26:10 27:-10 28:-10 29:-10 30:-10 
-128 1:2.04301 2:-5.76923 3:2.99065 4:-5.80645 5:4.78873 6:-6.25 7:-0.125523 8:-6.33803 9:10 10:10 11:10 12:10 13:10 14:10 15:-10 16:-10 17:-9.94239 18:-9.01235 19:-9.97516 20:-10 21:-9.70475 22:-10 23:-9.94993 24:-9.41458 25:-9.99059 26:-9.79424 27:10 28:10 29:10 30:-10 
-56.52826243540655 1:-3.76344 2:-9.61538 3:-3.73832 4:-9.35484 5:-3.16901 6:-9.375 7:-4.14226 8:-9.85915 9:10 10:10 11:10 12:-10 13:-10 14:-10 15:-9.31034 16:-9.73684 17:-8.94527 18:10 19:-8 20:-9.68513 21:-5.13043 22:-9.39802 23:-9.79797 24:-6.12903 25:-9.59211 26:10 27:-10 28:-10 29:-10 30:-10 
-128 1:-6.77419 2:-9.61538 3:-7.00935 4:-9.51613 5:-6.69014 6:-9.46429 7:-6.7364 8:-9.43662 9:10 10:10 11:10 12:3.33333 13:0.666667 14:-1.42857 15:-9.31034 16:-8.94737 17:-7.76119 18:10 19:-6 20:-9.25794 21:-4.40994 22:-8.69264 23:-9.48457 24:-5.12097 25:-7.64 26:10 27:3.33333 28:0.666667 29:-1.42857 30:-10 
-128 1:-9.56989 2:-3.07692 3:-9.25234 4:-3.06452 5:-9.22535 6:-4.64286 7:-9.58159 8:-3.09859 9:3.33333 10:0.666667 11:-1.42857 12:10 13:10 14:10 15:-10 16:-9.73684 17:-3.53234 18:-9.64912 19:-8.7013 20:-8.42063 21:-9.84319 22:-9.60644 23:-7.86085 24:-9.70308 25:-3.44 26:-9.73333 27:10 28:10 29:10 30:-10 
-128 1:-4.4086 2:-10 3:-4.39252 4:-9.83871 5:-5.35211 6:-9.91071 7:-3.72385 8:-9.85915 9:10 10:10 11:10 12:-3.33333 13:-6 14:-7.14286 15:-10 16:-9.73684 17:-9.54671 18:10 19:-9.10204 20:-9.79531 21:-0.0869565 22:-9.57442 23:-9.76406 24:-0.0806452 25:-9.62947 26:10 27:-3.33333 28:-6 29:-7.14286 30:-10 
-128 1:-7.41935 2:-10 3:-8.50467 4:-9.35484 5:-7.8169 6:-9.64286 7:-7.48954 8:-9.85915 9:10 10:10 11:10 12:-3.33333 13:-6 14:-7.14286 15:-10 16:-9.73684 17:-8.73708 18:10 19:-7.63265 20:-9.46726 21:-6.13913 22:-9.06907 23:-8.91149 24:-6.12903 25:-8.85935 26:10 27:-3.33333 28:-6 29:-7.14286 30:-10 
-128 1:-7.84946 2:-8.46154 3:-8.31776 4:-8.54839 5:-7.53521 6:-8.48214 7:-7.48954 8:-8.4507 9:10 10:10 11:10 12:3.33333 13:0.666667 14:-1.42857 15:-9.31034 16:-8.94737 17:-6.60787 18:-2.44444 19:-5.42857 20:-8.97884 21:-7.93237 22:-8.66549 23:-9.03591 24:-8.14516 25:-6.90839 26:-1.99074 27:3.33333 28:0.666667 29:-1.42857 30:-10 
-80.47798752945292 1:-9.56989 2:-10 3:-9.71963 4:-10 5:-9.78873 6:-10 7:-9.49791 8:-9.85915 9:10 10:10 11:10 12:-3.33333 13:-6 14:-7.14286 15:-10 16:-9.73684 17:-3.53234 18:10 19:-0.285714 20:-5.07143 21:10 22:-2.09524 23:-5.07009 24:10 25:-4.4 26:10 27:-3.33333 28:-6 29:-7.14286 30:-10 
-128 1:-6.77419 2:-7.69231 3:-6.63551 4:-7.58065 5:-6.90141 6:-8.39286 7:-6.31799 8:-6.90141 9:10 10:10 11:10 12:10 13:10 14:10 15:-10 16:-9.73684 17:-9.02985 18:-7.77778 19:-8.78261 20:-9.64868 21:-9.11213 22:-9.52877 23:-9.55039 24:-8.90121 25:-9.264 26:-8.76812 27:10 28:10 29:10 30:-10 
-128 1:-9.78495 2:-8.46154 3:-9.71963 4:-8.54839 5:-9.64789 6:-8.57143 7:-9.66527 8:-8.30986 9:3.33333 10:0.666667 11:-1.42857 12:3.33333 13:0.666667 14:-1.42857 15:-9.31034 16:-8.94737 17:10 18:-2.44444 19:1.18367 20:-3.39683 21:-7.80051 22:-6.65286 23:-5.07009 24:-8.14516 25:10 26:-2.64957 27:3.33333 28:0.666667 29:-1.42857 30:-10 
-128 1:-9.13978 2:-8.84615 3:-8.97196 4:-8.22581 5:-8.80282 6:-8.83929 7:-8.82845 8:-8.73239 9:10 10:10 11:10 12:3.33333 13:0.666667 14:-1.42857 15:-9.31034 16:-9.21053 17:-2.1791 18:-0.37037 19:-1.42857 20:-7.86243 21:-7.29193 22:-7.63889 23:-8.419 24:-8.48118 25:-4.784 26:-2.33333 27:3.33333 28:0.666667 29:-1.42857 30:-10 
-128 1:-8.49462 2:-6.92308 3:-8.03738 4:-7.58065 5:-7.8169 6:-7.58929 7:-8.41004 8:-7.1831 9:10 10:10 11:10 12:10 13:10 14:10 15:-8.62069 16:-8.94737 17:-2.68657 18:-3.82716 19:-3.31092 20:-8.21131 21:-8.01242 22:-8.14286 23:-9.18012 24:-8.90121 25:-5.12 26:-5.66138 27:10 28:10 29:10 30:-10 
-128 1:-8.49462 2:-8.07692 3:-8.78505 4:-9.19355 5:-8.73239 6:-9.19643 7:-8.82845 8:-7.74648 9:10 10:10 11:10 12:10 13:10 14:10 15:-10 16:-9.73684 17:-7.76119 18:-7.28395 19:-7.63265 20:-9.03759 21:-8.15652 22:-8.76847 23:-8.65821 24:-6.80108 25:-7.472 26:-8.13725 27:10 28:10 29:10 30:-10 
-107.6073294463051 1:-7.63441 2:-10 3:-7.28972 4:-9.67742 5:-7.60563 6:-9.82143 7:-7.90795 8:-9.85915 9:10 10:10 11:10 12:-3.33333 13:-6 14:-7.14286 15:-10 16:-9.73684 17:-8.60697 18:10 19:-7.40659 20:-9.52109 21:-3.44928 22:-9.09774 23:-9.42368 24:-3.44086 25:-8.60923 26:10 27:-3.33333 28:-6 29:-7.14286 30:-10 
-128 1:-8.27957 2:-8.07692 3:-8.78505 4:-9.67742 5:-8.80282 6:-9.46429 7:-8.07531 8:-7.60563 9:10 10:10 11:10 12:10 13:10 14:10 15:-7.24138 16:-6.57895 17:0.978441 18:6.54321 19:3.14286 20:-4.51323 21:4.23602 22:-2.09524 23:-8.65821 24:-3.44086 25:1.6 26:5.4321 27:10 28:10 29:10 30:-10 
-17.72741883901655 1:-10 2:-8.84615 3:-9.81308 4:-9.35484 5:-9.85915 6:-9.46429 7:-9.91632 8:-8.4507 9:-3.33333 10:-6 11:-7.14286 12:10 13:10 14:10 15:-10 16:-9.73684 17:10 18:-5.55556 19:-2.34286 20:-3.39683 21:-7.29193 22:-6.12698 23:-3.39564 24:-6.12903 25:10 26:-7.12963 27:10 28:10 29:10 30:-10 
-128 1:-8.27957 2:-7.69231 3:-8.59813 4:-8.54839 5:-7.53521 6:-7.58929 7:-8.41004 8:-7.88732 9:10 10:10 11:10 12:10 13:10 14:10 15:-6.55172 16:-6.84211 17:3.23383 18:7.03704 19:4.85714 20:-6.74603 21:-5.85093 22:-6.37897 23:-8.83762 24:-8.14516 25:2.944 26:6.14583 27:10 28:10 29:10 30:-7.14286 
-128 1:-9.35484 2:-9.23077 3:-9.15888 4:-8.3871 5:-8.80282 6:-8.83929 7:-9.24686 8:-9.01408 9:3.33333 10:0.666667 11:-1.42857 12:3.33333 13:0.666667 14:-1.42857 15:-9.31034 16:-8.94737 17:-0.149254 18:3.08642 19:1.18367 20:-7.86243 21:-7.29193 22:-7.63889 23:-8.08411 24:-8.32845 25:-0.08 26:2.29167 27:3.33333 28:0.666667 29:-1.42857 30:-7.14286 
-128 1:-1.6129 2:-9.61538 3:-4.48598 4:-9.51613 5:-0.56338 6:-9.55357 7:-0.878661 8:-9.71831 9:10 10:10 11:10 12:-3.33333 13:-6 14:-7.14286 15:-10 16:-9.73684 17:-9.79104 18:-0.37037 19:-9.59184 20:-9.94638 21:-6.81159 22:-9.87279 23:-9.75857 24:-5.12097 25:-9.79345 26:3.14815 27:-3.33333 28:-6 29:-7.14286 30:-10 
-128 1:-2.90323 2:-9.61538 3:-1.96262 4:-8.06452 5:-2.25352 6:-8.92857 7:-1.54812 8:-9.71831 9:10 10:10 11:10 12:-3.33333 13:-6 14:-7.14286 15:-10 16:-9.73684 17:-9.70149 18:-0.37037 19:-9.42857 20:-9.9142 21:-8.62207 22:-9.83359 23:-9.8625 24:-8.61042 25:-9.76471 26:3.14815 27:-3.33333 28:-6 29:-7.14286 30:-10 
-128 1:-9.35484 2:-9.23077 3:-9.81308 4:-9.35484 5:-9.57746 6:-9.46429 7:-9.24686 8:-8.87324 9:10 10:10 11:10 12:10 13:10 14:10 15:-9.31034 16:-8.68421 17:-0.149254 18:3.08642 19:1.18367 20:-4.35374 21:-4.40994 22:-4.39909 23:-3.39564 24:-6.12903 25:1.936 26:3.14815 27:10 28:10 29:10 30:-10 
-128 1:-8.70968 2:-7.69231 3:-8.2243 4:-6.45161 5:-5.49296 6:-2.85714 7:-8.66109 8:-7.88732 9:10 10:10 11:10 12:3.33333 13:0.666667 14:-1.42857 15:-7.93103 16:-7.89474 17:1.30064 18:1.11111 19:1.18367 20:-8.85861 21:-9.17767 22:-9.05414 23:-9.08879 24:-9.28471 25:0.512941 26:1.00694 27:3.33333 28:0.666667 29:-1.42857 30:-7.14286 
-128 1:-9.35484 2:-9.23077 3:-9.53271 4:-9.67742 5:-9.3662 6:-9.46429 7:-9.33054 8:-9.15493 9:3.33333 10:0.666667 11:-1.42857 12:3.33333 13:0.666667 14:-1.42857 15:-8.62069 16:-8.42105 17:4.92537 18:10 19:7.06122 20:-4.06667 21:-1.52795 22:-3.04388 23:-6.74455 24:-3.44086 25:5.52 26:10 27:3.33333 28:0.666667 29:-1.42857 30:-7.14286 
-128 1:-9.35484 2:-9.61538 3:-9.34579 4:-9.83871 5:-9.29577 6:-9.73214 7:-9.41423 8:-9.43662 9:3.33333 10:0.666667 11:-1.42857 12:3.33333 13:0.666667 14:-1.42857 15:-9.31034 16:-8.94737 17:-0.149254 18:10 19:3.14286 20:-6.44156 21:-0.0869565 22:-4.78307 23:-7.58178 24:-0.0806452 25:2.44 26:10 27:3.33333 28:0.666667 29:-1.42857 30:-10 
-128 1:-9.13978 2:-9.61538 3:-9.15888 4:-9.67742 5:-9.15493 6:-9.55357 7:-9.16318 8:-9.57746 9:3.33333 10:0.666667 11:-1.42857 12:-3.33333 13:-6 14:-7.14286 15:-9.31034 16:-9.21053 17:-2.1791 18:10 19:1.18367 20:-7.00366 21:-3.44928 22:-5.91479 23:-8.08411 24:-3.44086 25:-2.82909 26:10 27:-3.33333 28:-6 29:-7.14286 30:-7.14286 
-128 1:-8.70968 2:-8.84615 3:-9.43925 4:-9.35484 5:-9.29577 6:-9.55357 7:-8.49372 8:-9.01408 9:10 10:10 11:10 12:10 13:10 14:10 15:-9.31034 16:-8.68421 17:-4.49893 18:-0.37037 19:-3.09091 20:-6.44156 21:-3.44928 22:-5.4155 23:-7.22296 24:-6.12903 25:-3.79368 26:4.86111 27:10 28:10 29:10 30:-7.14286 
-128 1:-9.13978 2:-7.30769 3:-9.43925 4:-9.19355 5:-9.22535 6:-8.21429 7:-9.41423 8:-7.1831 9:-3.33333 10:-6 11:-7.14286 12:10 13:10 14:10 15:-7.93103 16:-8.42105 17:5.9403 18:-0.37037 19:2.08791 20:-3.39683 21:-6.33126 22:-5.27177 23:-7.22296 24:-6.80108 25:7.48 26:-3.7037 27:10 28:10 29:10 30:-7.14286 
-128 1:-10 2:-9.61538 3:-9.90654 4:-9.35484 5:-9.92958 6:-9.55357 7:-9.91632 8:-9.29577 9:-3.33333 10:-6 11:-7.14286 12:10 13:10 14:10 15:-10 16:-9.73684 17:10 18:-0.37037 19:3.14286 20:-0.047619 21:-6.81159 22:-5.11905 23:-0.046729 24:-6.12903 25:10 26:-3.7037 27:10 28:10 29:10 30:-10 
-128 1:-6.98925 2:-10 3:-8.2243 4:-9.83871 5:-8.16901 6:-9.91071 7:-6.48536 8:-9.85915 9:10 10:10 11:10 12:-3.33333 13:-6 14:-7.14286 15:-10 16:-9.73684 17:-8.94527 18:10 19:-8 20:-9.35097 21:-0.0869565 22:-8.76847 23:-9.08879 24:-0.0806452 25:-9.22233 26:10 27:-3.33333 28:-6 29:-7.14286 30:-10 
-128 1:-8.27957 2:-6.15385 3:-8.50467 4:-7.74194 5:-8.52113 6:-7.58929 7:-8.32636 8:-5.6338 9:10 10:10 11:10 12:10 13:10 14:10 15:-10 16:-9.73684 17:-8.04312 18:-8.85522 19:-8.51429 20:-9.18182 21:-9.45342 22:-9.35238 23:-8.91149 24:-8.8172 25:-8.24 26:-9.27083 27:10 28:10 29:10 30:-10 
-9.841515299203218 1:4.4086 2:-8.84615 3:3.5514 4:-8.3871 5:3.59155 6:-9.01786 7:3.9749 8:-9.29577 9:10 10:10 11:10 12:-3.33333 13:-6 14:-7.14286 15:-10 16:-9.73684 17:-10 18:-5.55556 19:-10 20:-9.99165 21:-8.49275 22:-9.96301 23:-9.95583 24:-8.32845 25:-9.92 26:-3.7037 27:-3.33333 28:-6 29:-7.14286 30:-10 
-38.02518762862736 1:-9.56989 2:-10 3:-9.71963 4:-10 5:-9.78873 6:-10 7:-9.58159 8:-9.85915 9:3.33333 10:0.666667 11:-1.42857 12:-3.33333 13:-6 14:-7.14286 15:-10 16:-9.73684 17:-3.53234 18:10 19:-0.285714 20:-5.07143 21:10 22:-2.09524 23:-5.07009 24:10 25:-3.44 26:10 27:-3.33333 28:-6 29:-7.14286 30:-10 
-128 1:-8.27957 2:-9.23077 3:-8.78505 4:-9.51613 5:-8.02817 6:-9.46429 7:-8.41004 8:-9.29577 9:10 10:10 11:10 12:-3.33333 13:-6 14:-7.14286 15:-8.62069 16:-8.68421 17:-3.53234 18:10 19:-0.285714 20:-8.01642 21:-1.52795 22:-6.79894 23:-8.65821 24:-5.12097 25:-4.112 26:10 27:-3.33333 28:-6 29:-7.14286 30:-10 
-128 1:-7.41935 2:-8.84615 3:-7.66355 4:-9.03226 5:-7.74648 6:-9.19643 7:-7.90795 8:-8.16901 9:10 10:10 11:10 12:10 13:10 14:10 15:-10 16:-9.73684 17:-8.73708 18:-5.55556 19:-8.15126 20:-9.48629 21:-8.15652 22:-9.22111 23:-9.32063 24:-7.28111 25:-8.60923 26:-7.61905 27:10 28:10 29:10 30:-10 
-42.41444177742921 1:-3.76344 2:-8.84615 3:-4.57944 4:-9.51613 5:-3.02817 6:-9.19643 7:-3.64017 8:-9.29577 9:10 10:10 11:10 12:-3.33333 13:-6 14:-7.14286 15:-9.31034 16:-9.47368 17:-8.94527 18:-0.37037 19:-8.15126 20:-9.69333 21:-6.13913 22:-9.42569 23:-9.75289 24:-5.12097 25:-9.37455 26:-0.277778 27:-3.33333 28:-6 29:-7.14286 30:-10 
-128 1:-9.13978 2:-10 3:-9.43925 4:-9.83871 5:-9.3662 6:-9.91071 7:-9.16318 8:-9.85915 9:10 10:10 11:10 12:-3.33333 13:-6 14:-7.14286 15:-10 16:-9.73684 17:-6.23881 18:10 19:-3.71429 20:-8.08571 21:-0.0869565 22:-6.79894 23:-7.22296 24:-0.0806452 25:-6.49455 26:10 27:-3.33333 28:-6 29:-7.14286 30:-10 
-128 1:-8.27957 2:-9.61538 3:-9.15888 4:-9.67742 5:-9.01408 6:-9.64286 7:-8.41004 8:-9.71831 9:10 10:10 11:10 12:-3.33333 13:-6 14:-7.14286 15:-9.31034 16:-9.47368 17:-5.78773 18:10 19:-3.09091 20:-7.41587 21:-2.10435 22:-6.12698 23:-8.08411 24:-3.44086 25:-7.136 26:10 27:-3.33333 28:-6 29:-7.14286 30:-10 
-128 1:-9.13978 2:-9.23077 3:-9.25234 4:-9.19355 5:-8.94366 6:-9.10714 7:-8.82845 8:-8.87324 9:10 10:10 11:10 12:10 13:10 14:10 15:-8.62069 16:-7.89474 17:1.8806 18:10 19:4.85714 20:-6.32738 21:-4.67194 22:-5.67901 23:-7.86085 24:-6.80108 25:1.936 26:10 27:10 28:10 29:10 30:-7.14286 
-128 1:-5.26882 2:-9.61538 3:-4.95327 4:-9.83871 5:-5.28169 6:-9.82143 7:-4.47699 8:-9.29577 9:10 10:10 11:10 12:10 13:10 14:10 15:-9.31034 16:-8.68421 17:-8.53342 18:10 19:-7.28 20:-9.5042 21:3.27536 22:-9.02303 23:-9.72812 24:-0.0806452 25:-8.35463 26:10 27:10 28:10 29:10 30:-10 
-128 1:-8.27957 2:-9.61538 3:-7.66355 4:-9.19355 5:-7.74648 6:-9.46429 7:-8.24268 8:-9.29577 9:10 10:10 11:10 12:10 13:10 14:10 15:-9.31034 16:-8.68421 17:-5.78773 18:10 19:-3.09091 20:-8.87734 21:-4.40994 22:-8.14286 23:-9.32063 24:-6.80108 25:-4.66182 26:10 27:10 28:10 29:10 30:-10 
-128 1:-6.12903 2:-9.23077 3:-6.26168 4:-8.70968 5:-6.19718 6:-8.92857 7:-5.56485 8:-9.15493 9:10 10:10 11:10 12:10 13:10 14:10 15:-10 16:-9.73684 17:-9.23016 18:-3.82716 19:-8.7013 20:-9.72987 21:-8.62207 22:-9.56583 23:-9.60337 24:-7.92115 25:-9.41333 26:-4.68254 27:10 28:10 29:10 30:-10 
-128 1:-9.13978 2:-8.46154 3:-9.62617 4:-9.19355 5:-9.57746 6:-9.28571 7:-9.33054 8:-8.59155 9:-3.33333 10:-6 11:-7.14286 12:3.33333 13:0.666667 14:-1.42857 15:-9.31034 16:-9.21053 17:-2.1791 18:-2.44444 19:-2.34286 20:-4.35374 21:-5.69082 22:-5.11905 23:-6.07477 24:-6.80108 25:-1.2 26:-3.08081 27:3.33333 28:0.666667 29:-1.42857 30:-10 
-128 1:-10 2:-9.61538 3:-9.90654 4:-9.51613 5:-9.92958 6:-9.64286 7:-9.91632 8:-9.43662 9:-3.33333 10:-6 11:-7.14286 12:3.33333 13:0.666667 14:-1.42857 15:-10 16:-9.73684 17:10 18:-0.37037 19:3.14286 20:-0.047619 21:-6.13913 22:-4.39909 23:-0.046729 24:-5.12097 25:10 26:-2.33333 27:3.33333 28:0.666667 29:-1.42857 30:-10 
-128 1:-9.78495 2:-9.61538 3:-9.71963 4:-9.51613 5:-9.57746 6:-9.46429 7:-9.66527 8:-9.43662 9:3.33333 10:0.666667 11:-1.42857 12:3.33333 13:0.666667 14:-1.42857 15:-9.31034 16:-8.94737 17:10 18:10 19:10 20:-4.35374 21:-4.40994 22:-4.39909 23:-5.07009 24:-5.12097 25:10 26:10 27:3.33333 28:0.666667 29:-1.42857 30:-10 
-128 1:-8.92473 2:-7.30769 3:-8.41121 4:-6.93548 5:-7.32394 6:-5.80357 7:-9.16318 8:-7.74648 9:10 10:10 11:10 12:10 13:10 14:10 15:-6.55172 16:-7.36842 17:10 18:4.81481 19:7.06122 20:-7.00366 21:-7.65217 22:-7.37822 23:-8.97715 24:-9.15323 25:10 26:2.7451 27:10 28:10 29:10 30:-1.42857 
-128 1:1.1828 2:-4.61538 3:-2.80374 4:-5.80645 5:0.985915 6:-6.51786 7:0.209205 8:-4.64789 9:10 10:10 11:10 12:10 13:10 14:10 15:-9.31034 16:-8.68421 17:-9.53253 18:-7.97531 19:-9.36134 20:-9.83925 21:-9.16522 22:-9.74942 23:-9.83585 24:-9.41458 25:-9.17659 26:-7.39316 27:10 28:10 29:10 30:-10 
-53.61704722792391 1:-10 2:-10 3:-9.81308 4:-9.67742 5:-9.85915 6:-9.82143 7:-9.83264 8:-9.71831 9:3.33333 10:0.666667 11:-1.42857 12:3.33333 13:0.666667 14:-1.42857 15:-10 16:-9.47368 17:10 18:10 19:10 20:-3.39683 21:-3.44928 22:-3.43915 23:-3.39564 24:-3.44086 25:10 26:10 27:3.33333 28:0.666667 29:-1.42857 30:-10 
-128 1:-8.92473 2:-9.23077 3:-8.8785 4:-8.3871 5:-8.66197 6:-8.75 7:-8.82845 8:-8.87324 9:10 10:10 11:10 12:10 13:10 14:10 15:-9.31034 16:-8.94737 17:-3.53234 18:3.08642 19:-1.42857 20:-8.08571 21:-7.48406 22:-7.85488 23:-8.54781 24:-8.32845 25:-3.44 26:0.864198 27:10 28:10 29:10 30:-10 
-128 1:-7.84946 2:-9.61538 3:-8.69159 4:-9.35484 5:-8.23944 6:-9.55357 7:-7.40586 8:-9.15493 9:10 10:10 11:10 12:10 13:10 14:10 15:-10 16:-9.47368 17:-8.45319 18:-0.37037 19:-7.40659 20:-9.32234 21:-6.81159 22:-8.89881 23:-8.75389 24:-6.12903 25:-8.27 26:-1.74603 27:10 28:10 29:10 30:-10 
-128 1:-6.12903 2:-8.46154 3:-8.59813 4:-8.54839 5:-1.90141 6:-7.05357 7:-5.64854 8:-7.74648 9:10 10:10 11:10 12:10 13:10 14:10 15:-7.93103 16:-6.84211 17:-6.02514 18:5.85185 19:-3.71429 20:-9.4023 21:-7.80051 22:-9.0836 23:-8.83762 24:-8.14516 25:-5.21509 26:5.1634 27:10 28:10 29:10 30:-1.42857 
-128 1:-9.13978 2:-10 3:-9.15888 4:-9.67742 5:-9.29577 6:-9.82143 7:-9.41423 8:-9.71831 9:3.33333 10:0.666667 11:-1.42857 12:3.33333 13:0.666667 14:-1.42857 15:-10 16:-9.47368 17:-6.23881 18:10 19:-3.71429 20:-8.2684 21:-3.44928 22:-7.27891 23:-8.08411 24:-3.44086 25:-2.6 26:10 27:3.33333 28:0.666667 29:-1.42857 30:-10 
-53.00772495400617 1:-7.84946 2:-8.84615 3:-7.94393 4:-8.54839 5:-7.74648 6:-8.75 7:-7.40586 8:-8.87324 9:10 10:10 11:10 12:3.33333 13:0.666667 14:-1.42857 15:-10 16:-9.47368 17:-8.45319 18:-5.55556 19:-7.82857 20:-9.48629 21:-8.82899 22:-9.31878 23:-9.21983 24:-8.14516 25:-8.27 26:-3.7037 27:3.33333 28:0.666667 29:-1.42857 30:-10 
-128 1:-9.35484 2:-9.23077 3:-9.25234 4:-7.90323 5:-9.08451 6:-8.57143 7:-9.16318 8:-9.01408 9:10 10:10 11:10 12:3.33333 13:0.666667 14:-1.42857 15:-9.31034 16:-8.68421 17:-0.149254 18:3.08642 19:1.18367 20:-7.22449 21:-7.80051 22:-7.5576 23:-7.86085 24:-8.7212 25:0.836364 26:4.86111 27:3.33333 28:0.666667 29:-1.42857 30:-10 
-128 1:-10 2:-10 3:-9.90654 4:-9.83871 5:-9.92958 6:-9.91071 7:-9.83264 8:-9.71831 9:3.33333 10:0.666667 11:-1.42857 12:3.33333 13:0.666667 14:-1.42857 15:-10 16:-9.47368 17:10 18:10 19:10 20:-0.047619 21:-0.0869565 22:-0.0793651 23:-0.046729 24:-0.0806452 25:10 26:10 27:3.33333 28:0.666667 29:-1.42857 30:-10 
-128 1:-9.35484 2:-6.92308 3:-8.8785 4:-6.93548 5:-8.94366 6:-7.5 7:-9.33054 8:-6.05634 9:3.33333 10:0.666667 11:-1.42857 12:10 13:10 14:10 15:-10 16:-9.47368 17:-5.22388 18:-8.43621 19:-7.40659 20:-8.83929 21:-9.47826 22:-9.26279 23:-8.54781 24:-9.15323 25:-3.44 26:-8.42912 27:10 28:10 29:10 30:-10 
-128 1:-5.48387 2:-5.38462 3:-7.1028 4:-4.35484 5:-6.47887 6:-6.16071 7:-5.31381 8:-6.19718 9:10 10:10 11:10 12:10 13:10 14:10 15:-10 16:-9.47368 17:-9.37585 18:-9.1453 19:-9.39592 20:-9.70121 21:-9.71542 22:-9.73434 23:-9.46554 24:-9.60125 25:-9.09895 26:-8.35317 27:10 28:10 29:10 30:-10 
-128 1:-6.98925 2:-10 3:-6.35514 4:-7.09677 5:-7.1831 6:-8.39286 7:-7.90795 8:-9.71831 9:10 10:10 11:10 12:3.33333 13:0.666667 14:-1.42857 15:-10 16:-9.47368 17:-8.94527 18:10 19:-8 20:-9.60511 21:-9.11213 22:-9.48677 23:-9.59112 24:-9.10017 25:-7.83385 26:10 27:3.33333 28:0.666667 29:-1.42857 30:-10 
-128 1:-9.56989 2:-10 3:-9.53271 4:-9.83871 5:-9.64789 6:-9.91071 7:-9.33054 8:-9.71831 9:10 10:10 11:10 12:3.33333 13:0.666667 14:-1.42857 15:-10 16:-9.47368 17:-3.53234 18:10 19:-0.285714 20:-6.74603 21:-0.0869565 22:-5.11905 23:-6.74455 24:-0.0806452 25:-3.44 26:10 27:3.33333 28:0.666667 29:-1.42857 30:-10 
-128 1:-8.27957 2:-5 3:-6.35514 4:-3.06452 5:-6.05634 6:-5 7:-8.49372 8:-5.6338 9:10 10:10 11:10 12:10 13:10 14:10 15:-10 16:-9.47368 17:-8.04312 18:-9.25926 19:-8.78261 20:-9.74269 21:-9.81998 22:-9.80507 23:-9.59112 24:-9.70308 25:-6.97684 26:-8.62847 27:10 28:10 29:10 30:-10 
-128 1:-10 2:-6.92308 3:-9.71963 4:-7.74194 5:-9.78873 6:-8.48214 7:-9.83264 8:-5.91549 9:3.33333 10:0.666667 11:-1.42857 12:10 13:10 14:10 15:-10 16:-9.47368 17:10 18:-8.43621 19:-6.45714 20:-5.07143 21:-9.05314 22:-8.32612 23:-5.07009 24:-8.8172 25:10 26:-8.5 27:10 28:10 29:10 30:-10 
-128 1:-6.12903 2:-8.46154 3:-7.57009 4:-9.83871 5:-6.26761 6:-9.46429 7:-5.39749 8:-8.4507 9:10 10:10 11:10 12:10 13:10 14:10 15:-7.24138 16:-7.10526 17:-4.95679 18:10 19:-2 20:-8.23457 21:4.23602 22:-6.85402 23:-9.34926 24:-0.0806452 25:-5.84 26:10 27:10 28:10 29:10 30:-10 
-128 1:-7.63441 2:-5.76923 3:-7.94393 4:-6.77419 5:-6.05634 6:-5.08929 7:-6.48536 8:-3.94366 9:10 10:10 11:10 12:10 13:10 14:10 15:-3.10345 16:0.263158 17:8.30846 18:8.2716 19:8.28571 20:-6.21721 21:-6.21118 22:-6.23402 23:-9.21983 24:-9.20123 25:8.59349 26:8.13131 27:10 28:10 29:10 30:-7.14286 
-128 1:-9.78495 2:-9.23077 3:-9.34579 4:-8.06452 5:-9.50704 6:-8.92857 7:-9.74895 8:-9.01408 9:3.33333 10:0.666667 11:-1.42857 12:10 13:10 14:10 15:-10 16:-9.47368 17:-0.149254 18:-3.82716 19:-2.34286 20:-7.58333 21:-8.62207 22:-8.23885 23:-7.58178 24:-8.61042 25:4.96 26:-2.84722 27:10 28:10 29:10 30:-10 
-128 1:-9.35484 2:-9.23077 3:-8.8785 4:-7.58065 5:-8.87324 6:-8.21429 7:-8.82845 8:-8.59155 9:10 10:10 11:10 12:10 13:10 14:10 15:-10 16:-9.47368 17:-5.22388 18:-3.82716 19:-4.69388 20:-8.91317 21:-9.21325 22:-9.09774 23:-8.54781 24:-8.90121 25:-6.128 26:-4.94949 27:10 28:10 29:10 30:-10 
-128 1:-5.91398 2:-9.61538 3:-8.2243 4:-8.3871 5:-2.95775 6:-8.125 7:-6.48536 8:-9.29577 9:10 10:10 11:10 12:3.33333 13:0.666667 14:-1.42857 15:-9.31034 16:-8.68421 17:-8.26866 18:10 19:-6.83117 20:-9.69731 21:-8.33992 22:-9.50316 23:-9.08879 24:-8.32845 25:-7.34698 26:10 27:3.33333 28:0.666667 29:-1.42857 30:-10 
-128 1:-5.91398 2:-9.23077 3:-5.70093 4:-7.58065 5:-3.80282 6:-8.21429 7:-5.73222 8:-8.59155 9:10 10:10 11:10 12:10 13:10 14:10 15:-9.31034 16:-8.42105 17:-8.26866 18:3.08642 19:-6.99379 20:-9.64366 21:-8.25259 22:-9.42569 23:-9.66594 24:-8.90121 25:-7.44615 26:2.52525 27:10 28:10 29:10 30:-10 
